[{"whoControl":"AI","name":"Black Samurai","hitPoints":100,"weapon":{"name":"SWORD","length":2,"options":[{"type":"OVERHEAD","damageType":"SLASH","unavailableOn":["TURNED","CROUCHED","KNOCKED","WEAPON_LOW","WEAPON_SIDE","WEAPON_EXTENDED","STAGGERED"],"positionDuringMove":["STANDARD"],"weaponMovement":["STANDARD","HIGH"],"removedStates":["WEAPON_HIGH","ABOVE"],"addedStates":["WEAPON_LOW"]},{"type":"SLASH","damageType":"SLASH","unavailableOn":["TURNED","KNOCKED","WEAPON_LOW","WEAPON_HIGH","ABOVE","STAGGERED"],"positionDuringMove":["STANDARD"],"weaponMovement":["STANDARD","SIDE"],"removedStates":[],"addedStates":["WEAPON_SIDE"]},{"type":"KICK","damageType":"BLUNT","unavailableOn":["KNOCKED","WEAPON_LOW","WEAPON_EXTENDED","STAGGERED"],"positionDuringMove":["STANDARD"],"weaponMovement":["STANDARD"],"removedStates":["ABOVE","TURNED"],"addedStates":["WEAPON_EXTENDED"]},{"type":"THRUST","damageType":"PIERCE","unavailableOn":["KNOCKED","TURNED","WEAPON_EXTENDED","STAGGERED"],"positionDuringMove":["STANDARD"],"weaponMovement":["STANDARD","BACK"],"removedStates":[],"addedStates":["WEAPON_EXTENDED"]},{"type":"UNDERSTRIKE","damageType":"SLASH","unavailableOn":["KNOCKED","ABOVE","TURNED","WEAPON_EXTENDED","WEAPON_HIGH","WEAPON_SIDE","STAGGERED"],"positionDuringMove":["STANDARD"],"weaponMovement":["STANDARD","LOW"],"removedStates":["WEAPON_LOW","CROUCHED"],"addedStates":["WEAPON_HIGH"]},{"type":"JUMP","damageType":"NONE","unavailableOn":["KNOCKED","ABOVE"],"positionDuringMove":["HIGH"],"weaponMovement":[],"removedStates":["TURNED","CROUCHED","WEAPON_HIGH","WEAPON_LOW","WEAPON_SIDE","WEAPON_EXTENDED","STAGGERED"],"addedStates":["ABOVE"]},{"type":"DODGE","damageType":"NONE","unavailableOn":["ABOVE"],"positionDuringMove":["SIDE"],"weaponMovement":[],"removedStates":["TURNED","WEAPON_HIGH","WEAPON_LOW","WEAPON_SIDE","WEAPON_EXTENDED","STAGGERED"],"addedStates":[]},{"type":"DUCK","damageType":"NONE","unavailableOn":["KNOCKED","ABOVE","CROUCHED"],"positionDuringMove":["LOW"],"weaponMovement":[],"removedStates":["TURNED","WEAPON_HIGH","WEAPON_LOW","WEAPON_SIDE","WEAPON_EXTENDED","STAGGERED"],"addedStates":["CROUCHED"]},{"type":"CLOSE_IN","damageType":"NONE","unavailableOn":["KNOCKED","ABOVE"],"positionDuringMove":["STANDARD"],"weaponMovement":["LOW","HIGH","SIDE","BACK"],"removedStates":["TURNED","WEAPON_HIGH","WEAPON_LOW","WEAPON_SIDE","WEAPON_EXTENDED","STAGGERED"],"addedStates":[]},{"type":"BACK_AWAY","damageType":"NONE","unavailableOn":["KNOCKED","ABOVE"],"positionDuringMove":["BACK"],"weaponMovement":[],"removedStates":["TURNED","WEAPON_HIGH","WEAPON_LOW","WEAPON_SIDE","WEAPON_EXTENDED","STAGGERED"],"addedStates":[]},{"type":"GET_UP","damageType":"NONE","unavailableOn":["ABOVE"],"positionDuringMove":["STANDARD"],"weaponMovement":[],"removedStates":["TURNED","KNOCKED","WEAPON_HIGH","WEAPON_LOW","WEAPON_SIDE","WEAPON_EXTENDED","STAGGERED"],"addedStates":[]},{"type":"WAIT","damageType":"NONE","unavailableOn":["STAGGERED"],"positionDuringMove":["STANDARD"],"weaponMovement":[],"removedStates":["ABOVE","TURNED","CROUCHED","KNOCKED","WEAPON_SIDE","WEAPON_EXTENDED","WEAPON_HIGH","WEAPON_LOW","STAGGERED","STAGGERED"],"addedStates":[]}],"efficiencies":{"BLUNT":0.5,"SLASH":0.5,"PIERCE":0.5}},"statesList":[],"move":{"type":"THRUST","damageType":"PIERCE","unavailableOn":["KNOCKED","TURNED","WEAPON_EXTENDED","STAGGERED"],"positionDuringMove":["STANDARD"],"weaponMovement":["STANDARD","BACK"],"removedStates":[],"addedStates":["WEAPON_EXTENDED"]},"victoriesCount":0,"lossesCount":0,"maxHP":100,"availableMoves":["DODGE","GET_UP","OVERHEAD","CLOSE_IN","DUCK","THRUST","BACK_AWAY","SLASH","JUMP","WAIT","KICK","UNDERSTRIKE"],"combatantMind":{"brain":{"lastNodeId":72,"nodes":[{"ID":0,"value":0.0,"layer":0,"target":0.0,"learningRate":0.3,"weights":{},"weightChange":{},"personalWeight":0.848312408250473,"id":0},{"ID":1,"value":0.0,"layer":0,"target":0.0,"learningRate":0.3,"weights":{},"weightChange":{},"personalWeight":0.45636081355493174,"id":1},{"ID":2,"value":0.0,"layer":0,"target":0.0,"learningRate":0.3,"weights":{},"weightChange":{},"personalWeight":0.20042989267794864,"id":2},{"ID":3,"value":0.0,"layer":0,"target":0.0,"learningRate":0.3,"weights":{},"weightChange":{},"personalWeight":0.2239136616752413,"id":3},{"ID":4,"value":0.0,"layer":0,"target":0.0,"learningRate":0.3,"weights":{},"weightChange":{},"personalWeight":0.9983395426762682,"id":4},{"ID":5,"value":0.0,"layer":0,"target":0.0,"learningRate":0.3,"weights":{},"weightChange":{},"personalWeight":0.9140583601725731,"id":5},{"ID":6,"value":0.0,"layer":0,"target":0.0,"learningRate":0.3,"weights":{},"weightChange":{},"personalWeight":0.6998638625581305,"id":6},{"ID":7,"value":0.0,"layer":0,"target":0.0,"learningRate":0.3,"weights":{},"weightChange":{},"personalWeight":0.609644944726336,"id":7},{"ID":8,"value":0.0,"layer":0,"target":0.0,"learningRate":0.3,"weights":{},"weightChange":{},"personalWeight":0.6753223106835556,"id":8},{"ID":9,"value":0.0,"layer":0,"target":0.0,"learningRate":0.3,"weights":{},"weightChange":{},"personalWeight":0.6044999712937041,"id":9},{"ID":10,"value":0.0,"layer":0,"target":0.0,"learningRate":0.3,"weights":{},"weightChange":{},"personalWeight":0.27132194627407813,"id":10},{"ID":11,"value":0.0,"layer":0,"target":0.0,"learningRate":0.3,"weights":{},"weightChange":{},"personalWeight":0.8984424765308463,"id":11},{"ID":12,"value":0.0,"layer":0,"target":0.0,"learningRate":0.3,"weights":{},"weightChange":{},"personalWeight":0.4108953215944485,"id":12},{"ID":13,"value":0.0,"layer":0,"target":0.0,"learningRate":0.3,"weights":{},"weightChange":{},"personalWeight":0.5287112329511033,"id":13},{"ID":14,"value":0.0,"layer":0,"target":0.0,"learningRate":0.3,"weights":{},"weightChange":{},"personalWeight":0.6897332548415248,"id":14},{"ID":15,"value":0.0,"layer":0,"target":0.0,"learningRate":0.3,"weights":{},"weightChange":{},"personalWeight":0.10819553261781545,"id":15},{"ID":16,"value":0.0,"layer":0,"target":0.0,"learningRate":0.3,"weights":{},"weightChange":{},"personalWeight":0.19486101936602973,"id":16},{"ID":17,"value":0.0,"layer":0,"target":0.0,"learningRate":0.3,"weights":{},"weightChange":{},"personalWeight":0.2230875843282285,"id":17},{"ID":18,"value":1.0,"layer":0,"target":0.0,"learningRate":0.3,"weights":{},"weightChange":{},"personalWeight":-1182769.5424150827,"id":18},{"ID":19,"value":1.0,"layer":0,"target":0.0,"learningRate":0.3,"weights":{},"weightChange":{},"personalWeight":-1182769.95632215,"id":19},{"ID":20,"value":1.0,"layer":0,"target":0.0,"learningRate":0.3,"weights":{},"weightChange":{},"personalWeight":-1182769.6817464717,"id":20},{"ID":21,"value":1.0,"layer":0,"target":0.0,"learningRate":0.3,"weights":{},"weightChange":{},"personalWeight":-1182770.1166426265,"id":21},{"ID":22,"value":1.0,"layer":0,"target":0.0,"learningRate":0.3,"weights":{},"weightChange":{},"personalWeight":-1182770.019118804,"id":22},{"ID":23,"value":1.0,"layer":0,"target":0.0,"learningRate":0.3,"weights":{},"weightChange":{},"personalWeight":-1182769.5429809461,"id":23},{"ID":24,"value":1.0,"layer":0,"target":0.0,"learningRate":0.3,"weights":{},"weightChange":{},"personalWeight":-1305336.7195032004,"id":24},{"ID":25,"value":1.0,"layer":0,"target":0.0,"learningRate":0.3,"weights":{},"weightChange":{},"personalWeight":-1349766.770693252,"id":25},{"ID":26,"value":1.0,"layer":0,"target":0.0,"learningRate":0.3,"weights":{},"weightChange":{},"personalWeight":3.784865177311856E7,"id":26},{"ID":27,"value":1.0,"layer":0,"target":0.0,"learningRate":0.3,"weights":{},"weightChange":{},"personalWeight":3.784865231529356E7,"id":27},{"ID":28,"value":1.0,"layer":0,"target":0.0,"learningRate":0.3,"weights":{},"weightChange":{},"personalWeight":3.735582387644645E7,"id":28},{"ID":29,"value":0.0,"layer":1,"target":3.624793674338197E-6,"learningRate":0.3,"weights":{"0":0.16771287562315979,"1":0.9126122792244546,"2":0.05522606441992211,"3":0.033267505946456666,"4":-0.059435582187872676,"5":0.7429463930375046,"6":0.17669976058722733,"7":0.06355206712465254,"8":-0.08376508735849797,"9":0.05818274107946953,"10":0.08314023980813481,"11":0.23454207518941006,"12":0.2066583777027513,"13":0.4427906756065267,"14":0.7003767936562635,"15":0.30783907266092864,"16":0.6999941963897289,"17":0.36031146664659397,"18":0.08838382835543991,"19":-0.44735524746381433,"20":-0.02669160176488557,"21":-0.15158454538663413,"22":0.049900270934898655,"23":-0.3316119245788377,"24":-0.2703111564907961,"25":-0.35973194633413214,"26":-2.5087065209720887,"27":-2.237337651793345,"28":-1.68879831647754},"weightChange":{"0":-0.0,"1":-0.0,"2":-0.0,"3":-0.0,"4":-0.0,"5":-0.0,"6":-0.0,"7":-0.0,"8":-0.0,"9":-0.0,"10":-0.0,"11":-0.0,"12":-0.0,"13":-0.0,"14":-0.0,"15":-0.0,"16":-0.0,"17":-0.0,"18":-5.046544324424668E-13,"19":-5.046544324424668E-13,"20":-5.046544324424668E-13,"21":-5.046544324424668E-13,"22":-5.046544324424668E-13,"23":-5.046544324424668E-13,"24":-5.650408157366168E-13,"25":-5.949573249509552E-13,"26":-2.018617729769867E-12,"27":-2.018617729769867E-12,"28":-2.018617729769867E-12},"personalWeight":-1.3639251978784326,"id":29},{"ID":30,"value":0.0,"layer":1,"target":8.381945490821794E-5,"learningRate":0.3,"weights":{"0":6.898189486161228,"1":-8.15109070909265,"2":-6.106988161102974,"3":-0.2939009867420742,"4":-20.235586757581242,"5":-2.028689885780546,"6":-19.029109682232914,"7":-1.7696158354165217,"8":-33.60817148293514,"9":-11.24565377474678,"10":-26.527944850099082,"11":-6.984415199955716,"12":-30.868113230365836,"13":-3.981280253187759,"14":-25.20934992672698,"15":-4.786568752473185,"16":-2.6667769108166897,"17":-3.2766033908945955,"18":-0.211768587179296,"19":-0.20045659521702805,"20":-0.8844881044350625,"21":-0.8689782066705758,"22":-0.14249908922732427,"23":-0.19591711683761567,"24":-0.16236519493673532,"25":-0.9645176864712217,"26":-2.6310395117308216,"27":-2.8858257541424943,"28":-19.28196664204531},"weightChange":{"0":-0.0,"1":-0.0,"2":-0.0,"3":-0.0,"4":-0.0,"5":-0.0,"6":-0.0,"7":-0.0,"8":-0.0,"9":-0.0,"10":-0.0,"11":-0.0,"12":-0.0,"13":-0.0,"14":-0.0,"15":-0.0,"16":-0.0,"17":-0.0,"18":-3.7991289055610035E-28,"19":-3.7991289055610035E-28,"20":-3.7991289055610035E-28,"21":-3.7991289055610035E-28,"22":-3.7991289055610035E-28,"23":-3.7991289055610035E-28,"24":-4.253728408759157E-28,"25":-4.4789452454757E-28,"26":-1.5196515622244014E-27,"27":-1.5196515622244014E-27,"28":-1.5196515622244014E-27},"personalWeight":-1.5484494501977046,"id":30},{"ID":31,"value":0.0,"layer":1,"target":4.360340816940871E-6,"learningRate":0.3,"weights":{"0":0.8249459230453806,"1":0.4619389481083448,"2":0.07533337088919759,"3":0.7674371768329779,"4":0.38509128751759825,"5":-0.101727279141406,"6":0.32133408414785825,"7":0.4891170204806759,"8":0.31812964019193934,"9":-0.21648491708263268,"10":-0.17390800191840844,"11":-0.09291558624925103,"12":0.3760416844409946,"13":-0.27644648186827264,"14":0.26226186065211915,"15":0.22720820528224056,"16":0.006606045637128158,"17":-0.05271997175975597,"18":-0.04309816298068981,"19":0.16136392009846873,"20":0.29039469679498936,"21":0.30664530321327205,"22":-0.6015260398425321,"23":-0.22081562009413602,"24":-0.22408824776202463,"25":0.1128295494848134,"26":-2.270877339431775,"27":-2.6007714852725585,"28":-2.0036987828129322},"weightChange":{"0":-0.0,"1":-0.0,"2":-0.0,"3":-0.0,"4":-0.0,"5":-0.0,"6":-0.0,"7":-0.0,"8":-0.0,"9":-0.0,"10":-0.0,"11":-0.0,"12":-0.0,"13":-0.0,"14":-0.0,"15":-0.0,"16":-0.0,"17":-0.0,"18":-1.0249817913114622E-12,"19":-1.0249817913114622E-12,"20":-1.0249817913114622E-12,"21":-1.0249817913114622E-12,"22":-1.0249817913114622E-12,"23":-1.0249817913114622E-12,"24":-1.1476299626949858E-12,"25":-1.2083920906641961E-12,"26":-4.099927165245849E-12,"27":-4.099927165245849E-12,"28":-4.099927165245849E-12},"personalWeight":-0.5759094640762558,"id":31},{"ID":32,"value":0.0,"layer":1,"target":3.858054842042269E-6,"learningRate":0.3,"weights":{"0":0.7204117365334997,"1":0.31729490923143255,"2":-0.04478704964626824,"3":0.9782058431346532,"4":-0.03893343018525808,"5":-0.01256145966581152,"6":0.7609338025965272,"7":0.2800229291295678,"8":0.031823651860518554,"9":-0.12889594450717254,"10":0.2289144404289295,"11":0.22174817673301195,"12":0.45072675135419965,"13":-0.00863732551518949,"14":0.7155394070330945,"15":0.10666485539235385,"16":0.3219548331081956,"17":-0.11540968408377991,"18":-0.5341357153231785,"19":0.19780482385823941,"20":0.027565740194790137,"21":-0.089136981354726,"22":0.09632745621679159,"23":-0.2522324647015177,"24":0.09804400360262155,"25":-0.33808266524024166,"26":-2.725867093194494,"27":-2.0146515053318454,"28":-2.0287139323835213},"weightChange":{"0":-0.0,"1":-0.0,"2":-0.0,"3":-0.0,"4":-0.0,"5":-0.0,"6":-0.0,"7":-0.0,"8":-0.0,"9":-0.0,"10":-0.0,"11":-0.0,"12":-0.0,"13":-0.0,"14":-0.0,"15":-0.0,"16":-0.0,"17":-0.0,"18":-8.029779201839389E-13,"19":-8.029779201839389E-13,"20":-8.029779201839389E-13,"21":-8.029779201839389E-13,"22":-8.029779201839389E-13,"23":-8.029779201839389E-13,"24":-8.990613573793404E-13,"25":-9.466628343580087E-13,"26":-3.2119116807357555E-12,"27":-3.2119116807357555E-12,"28":-3.2119116807357555E-12},"personalWeight":-0.6009003440318929,"id":32},{"ID":33,"value":0.0,"layer":1,"target":1.8833173557922695E-6,"learningRate":0.3,"weights":{"0":0.3212002134098135,"1":-0.031848719025600214,"2":0.5690173938807264,"3":0.6458841000399297,"4":0.5689422044819945,"5":0.19118707843498645,"6":0.4073369630015652,"7":0.3425356218363793,"8":0.07751787610445231,"9":-0.31307075541264245,"10":-0.02264358541908405,"11":0.3009224168233736,"12":-7.200649272449115E-4,"13":0.3464891846534623,"14":0.04980980947234101,"15":0.42590123130523555,"16":0.2506894216653451,"17":-0.06823087739574976,"18":-0.3275772158388192,"19":0.05569425062619547,"20":-0.3519320651703043,"21":0.23940655549248968,"22":-0.3939425544669421,"23":-0.20275251926877022,"24":-0.23992168082823165,"25":-0.6158453981480104,"26":-2.667814823080434,"27":-2.5766823063816418,"28":-1.22469086635773},"weightChange":{"0":-0.0,"1":-0.0,"2":-0.0,"3":-0.0,"4":-0.0,"5":-0.0,"6":-0.0,"7":-0.0,"8":-0.0,"9":-0.0,"10":-0.0,"11":-0.0,"12":-0.0,"13":-0.0,"14":-0.0,"15":-0.0,"16":-0.0,"17":-0.0,"18":-3.7284339255274567E-13,"19":-3.7284339255274567E-13,"20":-3.7284339255274567E-13,"21":-3.7284339255274567E-13,"22":-3.7284339255274567E-13,"23":-3.7284339255274567E-13,"24":-4.1745741467163026E-13,"25":-4.395600101741101E-13,"26":-1.4913735702109827E-12,"27":-1.4913735702109827E-12,"28":-1.4913735702109827E-12},"personalWeight":-0.4582045347378101,"id":33},{"ID":34,"value":0.0,"layer":1,"target":6.467321340359102E-5,"learningRate":0.3,"weights":{"0":-19.871347849911096,"1":-10.83752091955068,"2":-18.063000438171976,"3":-3.0481970013673987,"4":0.3662175257922931,"5":-2.263644573949465,"6":-16.00938638373714,"7":-1.7597056517455927,"8":-36.397653972123486,"9":-2.497874932681837,"10":-1.2527806653928824,"11":-1.3088156505644448,"12":-15.346226344709965,"13":1.4308456498452116,"14":-6.332609987719811,"15":-6.599978190069744,"16":-6.859659283632701,"17":-9.074002671928826,"18":0.2235763657247813,"19":-0.05792795642892049,"20":0.4510328530982945,"21":0.32128676911047876,"22":0.13073500020574663,"23":-0.06588955904546141,"24":0.42140511882404547,"25":0.3022453216014632,"26":-0.028146342314006815,"27":0.11464465470199878,"28":-25.435352278935003},"weightChange":{"0":-0.0,"1":-0.0,"2":-0.0,"3":-0.0,"4":-0.0,"5":-0.0,"6":-0.0,"7":-0.0,"8":-0.0,"9":-0.0,"10":-0.0,"11":-0.0,"12":-0.0,"13":-0.0,"14":-0.0,"15":-0.0,"16":-0.0,"17":-0.0,"18":-9.578535206233217E-27,"19":-9.578535206233217E-27,"20":-9.578535206233217E-27,"21":-9.578535206233217E-27,"22":-9.578535206233217E-27,"23":-9.578535206233217E-27,"24":-1.0724691984368822E-26,"25":-1.1292518834457588E-26,"26":-3.831414082493287E-26,"27":-3.831414082493287E-26,"28":-3.831414082493287E-26},"personalWeight":0.21125945050300407,"id":34},{"ID":35,"value":0.0,"layer":1,"target":3.6566318028911365E-6,"learningRate":0.3,"weights":{"0":0.3092355191139631,"1":0.158515041491112,"2":0.8229745334718751,"3":-0.0017027131265475543,"4":0.3669277678856846,"5":0.03564489268841855,"6":0.8950323340150683,"7":0.5812275291959289,"8":-0.23588788514575754,"9":0.1449020392395786,"10":0.4356423814009878,"11":-0.22535047364130553,"12":0.15529317593909198,"13":-0.2652192534147847,"14":-0.03019015528592468,"15":0.5294832536173276,"16":0.5799882540643232,"17":0.0640858318572467,"18":-0.032247606727988036,"19":-0.007999994259802492,"20":-0.33479451596067866,"21":-0.16846981779022155,"22":-0.2960336753265669,"23":-0.2937844535607653,"24":-0.5261750492599567,"25":-0.5333398088844519,"26":-2.238048272842361,"27":-1.8795288385332336,"28":-1.4309124455308813},"weightChange":{"0":-0.0,"1":-0.0,"2":-0.0,"3":-0.0,"4":-0.0,"5":-0.0,"6":-0.0,"7":-0.0,"8":-0.0,"9":-0.0,"10":-0.0,"11":-0.0,"12":-0.0,"13":-0.0,"14":-0.0,"15":-0.0,"16":-0.0,"17":-0.0,"18":-4.1513114612644307E-13,"19":-4.1513114612644307E-13,"20":-4.1513114612644307E-13,"21":-4.1513114612644307E-13,"22":-4.1513114612644307E-13,"23":-4.1513114612644307E-13,"24":-4.648052734020202E-13,"25":-4.894147367493304E-13,"26":-1.6605245845057723E-12,"27":-1.6605245845057723E-12,"28":-1.6605245845057723E-12},"personalWeight":-0.31519965689490176,"id":35},{"ID":36,"value":0.0,"layer":1,"target":5.8920817762483765E-5,"learningRate":0.3,"weights":{"0":-16.40292156049418,"1":-3.81565770941432,"2":-12.72796245397208,"3":-4.584522155941859,"4":0.827573763445044,"5":-0.6878990194232951,"6":-11.569680106910518,"7":0.45661275186381267,"8":-32.40940027750878,"9":-2.967858128171095,"10":-2.442268699033927,"11":0.6100812389429137,"12":-12.133620870818973,"13":-1.3484792248758795,"14":-5.133424490743558,"15":-8.684222635821465,"16":-5.363371638733221,"17":-6.460964503608538,"18":0.4542105459135625,"19":0.2580351304607629,"20":0.4213168673179592,"21":0.25424833859260537,"22":0.046661062259686935,"23":0.132520442811685,"24":0.7326303063189098,"25":0.553725873298333,"26":-0.24092592376627578,"27":-0.07036272372835775,"28":-22.334307442076977},"weightChange":{"0":-0.0,"1":-0.0,"2":-0.0,"3":-0.0,"4":-0.0,"5":-0.0,"6":-0.0,"7":-0.0,"8":-0.0,"9":-0.0,"10":-0.0,"11":-0.0,"12":-0.0,"13":-0.0,"14":-0.0,"15":-0.0,"16":-0.0,"17":-0.0,"18":-2.86650493859504E-24,"19":-2.86650493859504E-24,"20":-2.86650493859504E-24,"21":-2.86650493859504E-24,"22":-2.86650493859504E-24,"23":-2.86650493859504E-24,"24":-3.2095077040692307E-24,"25":-3.3794374934369315E-24,"26":-1.146601975438016E-23,"27":-1.146601975438016E-23,"28":-1.146601975438016E-23},"personalWeight":-0.005342301907049042,"id":36},{"ID":37,"value":0.0,"layer":1,"target":4.465288176867785E-6,"learningRate":0.3,"weights":{"0":0.18543708080260476,"1":0.754382482897198,"2":0.2156706274543409,"3":0.7208357677624085,"4":0.6945736687146296,"5":0.42881101870376515,"6":0.3188556272133854,"7":0.5209794464362185,"8":0.08973687093778128,"9":0.24626163245405072,"10":-0.04536137583952833,"11":0.4311270762172311,"12":0.2744504096896797,"13":-0.016904700974437574,"14":0.0823454678239406,"15":0.43746628700624374,"16":0.29485882041546707,"17":0.5427850681215627,"18":-0.6162999930955515,"19":-0.6466970792732646,"20":-0.40399988705040263,"21":-0.4544135188020496,"22":-0.6587568871123614,"23":0.10317003187053153,"24":-0.14219061261318186,"25":-0.4518063288482191,"26":-2.3791104433983605,"27":-2.6079976630331667,"28":-1.7132375269687328},"weightChange":{"0":-0.0,"1":-0.0,"2":-0.0,"3":-0.0,"4":-0.0,"5":-0.0,"6":-0.0,"7":-0.0,"8":-0.0,"9":-0.0,"10":-0.0,"11":-0.0,"12":-0.0,"13":-0.0,"14":-0.0,"15":-0.0,"16":-0.0,"17":-0.0,"18":-3.4892567692366323E-13,"19":-3.4892567692366323E-13,"20":-3.4892567692366323E-13,"21":-3.4892567692366323E-13,"22":-3.4892567692366323E-13,"23":-3.4892567692366323E-13,"24":-3.9067773201987055E-13,"25":-4.11362457165916E-13,"26":-1.395702707694653E-12,"27":-1.395702707694653E-12,"28":-1.395702707694653E-12},"personalWeight":-0.549479765980591,"id":37},{"ID":38,"value":1.0,"layer":1,"target":0.9999713194993487,"learningRate":0.3,"weights":{"0":-2.178192271489394,"1":1.771928837650311,"2":16.863096525854104,"3":1.2695628287268053,"4":12.275558950864212,"5":3.869857284286596,"6":30.94278399053888,"7":-0.6351737568299375,"8":49.66225277815887,"9":2.7566770109667886,"10":29.826769017257643,"11":1.428561321105892,"12":46.46722967716603,"13":1.0457986962915073,"14":44.59356507402424,"15":2.3891915104353445,"16":1.8124957135701867,"17":1.9296331774551085,"18":0.9949006251006034,"19":0.6563524460000795,"20":0.37404563900369564,"21":1.2046258232691447,"22":1.0443737735231453,"23":1.1587243354298284,"24":0.6759034907889028,"25":0.6689521672687592,"26":1.1751859281738508,"27":1.5433986707133593,"28":21.23648471112836},"weightChange":{"0":0.0,"1":0.0,"2":0.0,"3":0.0,"4":0.0,"5":0.0,"6":0.0,"7":0.0,"8":0.0,"9":0.0,"10":0.0,"11":0.0,"12":0.0,"13":0.0,"14":0.0,"15":0.0,"16":0.0,"17":0.0,"18":0.0,"19":0.0,"20":0.0,"21":0.0,"22":0.0,"23":0.0,"24":0.0,"25":0.0,"26":0.0,"27":0.0,"28":0.0},"personalWeight":1.430826795695649,"id":38},{"ID":39,"value":0.0,"layer":1,"target":8.561307942876098E-5,"learningRate":0.3,"weights":{"0":2.19302337749366,"1":-4.460321242039465,"2":-10.394466198758188,"3":1.7795002146247088,"4":7.026795435553658,"5":-7.045692360931382,"6":12.650430829186188,"7":-0.4695611729347772,"8":-13.820193699142724,"9":-13.702382317083712,"10":6.751598385991169,"11":-2.3872253392074074,"12":-28.07122507800411,"13":-2.5986229221337305,"14":4.968600772886557,"15":-3.2408311564587504,"16":0.9463887271065795,"17":-1.6188250515148233,"18":-0.18761879524214822,"19":-0.49103123869528076,"20":-0.38189782336613565,"21":-0.36482000391679414,"22":-0.1541764564207234,"23":-0.5223622819289309,"24":-0.32084450857476454,"25":-0.8598050253564022,"26":-3.5215482240996896,"27":-4.0237636452295575,"28":-39.32596206061358},"weightChange":{"0":-0.0,"1":-0.0,"2":-0.0,"3":-0.0,"4":-0.0,"5":-0.0,"6":-0.0,"7":-0.0,"8":-0.0,"9":-0.0,"10":-0.0,"11":-0.0,"12":-0.0,"13":-0.0,"14":-0.0,"15":-0.0,"16":-0.0,"17":-0.0,"18":-3.5325090188622956E-47,"19":-3.5325090188622956E-47,"20":-3.5325090188622956E-47,"21":-3.5325090188622956E-47,"22":-3.5325090188622956E-47,"23":-3.5325090188622956E-47,"24":-3.955205085496724E-47,"25":-4.164616381264101E-47,"26":-1.4130036075449182E-46,"27":-1.4130036075449182E-46,"28":-1.4130036075449182E-46},"personalWeight":-1.4207226586367632,"id":39},{"ID":40,"value":0.0,"layer":1,"target":3.192199812940947E-6,"learningRate":0.3,"weights":{"0":0.3149188793516886,"1":0.8704203536693486,"2":0.04786774884884515,"3":0.530217046543563,"4":0.7406522148591019,"5":-0.04415978580268429,"6":0.5874256621583989,"7":0.40673308249281553,"8":-0.031800504010365445,"9":-0.34373052737128545,"10":-0.0811312668843361,"11":0.10293182909863079,"12":-0.2399611244185293,"13":-0.2948924058888729,"14":0.5980144194891255,"15":0.4406971085901273,"16":0.501633025330373,"17":0.6401073273535798,"18":-0.10690396513750812,"19":-0.03727124455472711,"20":-0.4820025391232013,"21":-0.40060568365599086,"22":0.058417379117804584,"23":-0.08407392888315078,"24":-0.22237591760731862,"25":-0.22125695533783246,"26":-2.4354096643468046,"27":-2.154217461001354,"28":-1.6312525161160196},"weightChange":{"0":-0.0,"1":-0.0,"2":-0.0,"3":-0.0,"4":-0.0,"5":-0.0,"6":-0.0,"7":-0.0,"8":-0.0,"9":-0.0,"10":-0.0,"11":-0.0,"12":-0.0,"13":-0.0,"14":-0.0,"15":-0.0,"16":-0.0,"17":-0.0,"18":-7.971058710876318E-13,"19":-7.971058710876318E-13,"20":-7.971058710876318E-13,"21":-7.971058710876318E-13,"22":-7.971058710876318E-13,"23":-7.971058710876318E-13,"24":-8.924866654750914E-13,"25":-9.397400404663335E-13,"26":-3.188423484350527E-12,"27":-3.188423484350527E-12,"28":-3.188423484350527E-12},"personalWeight":-1.0711049362061114,"id":40},{"ID":41,"value":0.0,"layer":1,"target":9.082720008035603E-6,"learningRate":0.3,"weights":{"0":1.0409460456671853,"1":0.11539475666692398,"2":-0.5809293656204061,"3":2.633406717644218,"4":6.122882244211474,"5":-0.3608514677499424,"6":1.2737887730475406,"7":0.15436688753120248,"8":-12.789099754236144,"9":-2.0337080297334706,"10":-12.738411967513589,"11":-3.4793709848024914,"12":7.3882598513345945,"13":-1.9446228818078393,"14":16.385885199506156,"15":1.1523559662127532,"16":-2.8962653004968475,"17":-1.9154627077259911,"18":-0.7989174689821272,"19":-0.9794814909420444,"20":-1.2584385491901984,"21":-1.4620497152511458,"22":-1.1000830597081452,"23":-0.6809556218832284,"24":-1.3705182359662025,"25":-1.7795942063453765,"26":-5.16279078585568,"27":-5.0891626091835045,"28":-16.247480086798173},"weightChange":{"0":-0.0,"1":-0.0,"2":-0.0,"3":-0.0,"4":-0.0,"5":-0.0,"6":-0.0,"7":-0.0,"8":-0.0,"9":-0.0,"10":-0.0,"11":-0.0,"12":-0.0,"13":-0.0,"14":-0.0,"15":-0.0,"16":-0.0,"17":-0.0,"18":-3.92364270362416E-32,"19":-3.92364270362416E-32,"20":-3.92364270362416E-32,"21":-3.92364270362416E-32,"22":-3.92364270362416E-32,"23":-3.92364270362416E-32,"24":-4.393141388226233E-32,"25":-4.625739549563349E-32,"26":-1.569457081449664E-31,"27":-1.569457081449664E-31,"28":-1.569457081449664E-31},"personalWeight":-2.0583146431190142,"id":41},{"ID":42,"value":0.0,"layer":1,"target":2.717807289830257E-6,"learningRate":0.3,"weights":{"0":0.2945074491818079,"1":0.7337542134571149,"2":0.4725566629668348,"3":0.07950111322287241,"4":0.688408379529329,"5":-0.0458046958431465,"6":0.7515804840065832,"7":0.38285603286542536,"8":-0.23033484775484483,"9":0.08634639831167618,"10":-0.2147190289939526,"11":0.4300868165673911,"12":0.5136734513474172,"13":0.5502550131976699,"14":0.07701270520903271,"15":0.3032388058905507,"16":0.40907842215357404,"17":0.5934202092344643,"18":0.22993170845298322,"19":0.09231167413942087,"20":-0.5140384449054956,"21":0.24059670094521074,"22":-0.18440160084546042,"23":-0.26535565706254405,"24":-0.4432153900678002,"25":0.0055721483833912015,"26":-2.509844977018021,"27":-2.8896095151625687,"28":-1.798484186938847},"weightChange":{"0":-0.0,"1":-0.0,"2":-0.0,"3":-0.0,"4":-0.0,"5":-0.0,"6":-0.0,"7":-0.0,"8":-0.0,"9":-0.0,"10":-0.0,"11":-0.0,"12":-0.0,"13":-0.0,"14":-0.0,"15":-0.0,"16":-0.0,"17":-0.0,"18":-2.5542357078656004E-13,"19":-2.5542357078656004E-13,"20":-2.5542357078656004E-13,"21":-2.5542357078656004E-13,"22":-2.5542357078656004E-13,"23":-2.5542357078656004E-13,"24":-2.859872687476121E-13,"25":-3.011290789007736E-13,"26":-1.0216942831462402E-12,"27":-1.0216942831462402E-12,"28":-1.0216942831462402E-12},"personalWeight":-0.5681368983055586,"id":42},{"ID":43,"value":1.0,"layer":1,"target":0.9978728545566451,"learningRate":0.3,"weights":{"0":-17.282226703901856,"1":-9.38661122552445,"2":-15.078598118458853,"3":-0.7729385596168762,"4":21.37077993274851,"5":-2.301013915544601,"6":-27.7482444985074,"7":3.4139423140737852,"8":-39.41710960529563,"9":-6.451993991198898,"10":-26.094684007093598,"11":-4.638052352540995,"12":-39.41989556495496,"13":-1.1591591746397303,"14":19.31133514258501,"15":8.510924288948853,"16":-20.724690969446506,"17":-4.162214354238954,"18":2.1397914097931254,"19":1.8203445838272774,"20":2.264518778227343,"21":1.8610535506979418,"22":1.4314802768649406,"23":2.118907165108095,"24":1.9715321155993355,"25":2.477174228778095,"26":5.520165982447971,"27":5.9388859330686055,"28":-14.325412511562439},"weightChange":{"0":-0.0,"1":-0.0,"2":-0.0,"3":-0.0,"4":-0.0,"5":-0.0,"6":-0.0,"7":-0.0,"8":-0.0,"9":-0.0,"10":-0.0,"11":-0.0,"12":-0.0,"13":-0.0,"14":-0.0,"15":-0.0,"16":-0.0,"17":-0.0,"18":-7.622225407157237E-8,"19":-7.622225407157237E-8,"20":-7.622225407157237E-8,"21":-7.622225407157237E-8,"22":-7.622225407157237E-8,"23":-7.622225407157237E-8,"24":-8.534292349209668E-8,"25":-8.986146849968422E-8,"26":-3.0488901628628946E-7,"27":-3.0488901628628946E-7,"28":-3.0488901628628946E-7},"personalWeight":3.469334339545561,"id":43},{"ID":44,"value":0.0,"layer":1,"target":3.865488358309699E-6,"learningRate":0.3,"weights":{"0":0.8498768753411612,"1":0.7301764732411102,"2":-0.008313082772612257,"3":0.5510155630925292,"4":0.010335663989057635,"5":0.25260634245131236,"6":0.8382516678908212,"7":0.6544984521065865,"8":-0.4375157399940369,"9":0.0810535890125103,"10":0.14581878384694782,"11":-0.0275643137388594,"12":0.1077595846529635,"13":0.18753106196923514,"14":0.2900454293392907,"15":0.6272890930947806,"16":0.11620232966996344,"17":0.45649713753196847,"18":0.0057696474601350795,"19":-0.10913423067017768,"20":0.07707117776252555,"21":-0.5979344553714526,"22":-0.23136763901355703,"23":-0.2738639480606943,"24":-0.5490510799357047,"25":-0.19290181139982251,"26":-2.1017498054844306,"27":-2.2080347889179732,"28":-1.3571075629392884},"weightChange":{"0":-0.0,"1":-0.0,"2":-0.0,"3":-0.0,"4":-0.0,"5":-0.0,"6":-0.0,"7":-0.0,"8":-0.0,"9":-0.0,"10":-0.0,"11":-0.0,"12":-0.0,"13":-0.0,"14":-0.0,"15":-0.0,"16":-0.0,"17":-0.0,"18":-1.865193169755218E-12,"19":-1.865193169755218E-12,"20":-1.865193169755218E-12,"21":-1.865193169755218E-12,"22":-1.865193169755218E-12,"23":-1.865193169755218E-12,"24":-2.0883800921831906E-12,"25":-2.198950940395971E-12,"26":-7.460772679020872E-12,"27":-7.460772679020872E-12,"28":-7.460772679020872E-12},"personalWeight":-0.8746441261970314,"id":44},{"ID":45,"value":0.0,"layer":1,"target":2.6968864560118237E-6,"learningRate":0.3,"weights":{"0":0.4696641874581571,"1":0.6128632623608994,"2":0.45525553359911286,"3":0.801982058838161,"4":0.72559956536696,"5":0.15630127160896243,"6":0.6957914950282741,"7":0.24415529378307393,"8":0.17755668506136021,"9":0.3332307844103436,"10":0.30568751652773096,"11":0.08480017629043049,"12":-0.18944117877315886,"13":0.5011046681416962,"14":0.11103709510449775,"15":0.08413350240240887,"16":0.5509652872026288,"17":0.5188643455793328,"18":-0.3854885110388165,"19":0.25240663696349286,"20":0.1986630494451559,"21":-0.6643776748760859,"22":0.12694520243340762,"23":0.05642946532559309,"24":-0.7680759132822096,"25":-0.14429470594510904,"26":-1.822521561565893,"27":-2.7302842959840836,"28":-2.0727411820078485},"weightChange":{"0":-0.0,"1":-0.0,"2":-0.0,"3":-0.0,"4":-0.0,"5":-0.0,"6":-0.0,"7":-0.0,"8":-0.0,"9":-0.0,"10":-0.0,"11":-0.0,"12":-0.0,"13":-0.0,"14":-0.0,"15":-0.0,"16":-0.0,"17":-0.0,"18":-3.619163075696143E-13,"19":-3.619163075696143E-13,"20":-3.619163075696143E-13,"21":-3.619163075696143E-13,"22":-3.619163075696143E-13,"23":-3.619163075696143E-13,"24":-4.0522280695678415E-13,"25":-4.2667763198987257E-13,"26":-1.4476652302784573E-12,"27":-1.4476652302784573E-12,"28":-1.4476652302784573E-12},"personalWeight":-1.0380718100552229,"id":45},{"ID":46,"value":0.0,"layer":1,"target":5.697606071195889E-5,"learningRate":0.3,"weights":{"0":-11.341030442260411,"1":-1.746556457133108,"2":-10.525102627159882,"3":-2.563977524772605,"4":-0.18989680965427458,"5":-1.5533588870384982,"6":-12.654453739856875,"7":0.19315705940619832,"8":-24.41639227406217,"9":-1.654743560674656,"10":-0.9117273278364952,"11":0.14584586669313984,"12":-9.892260356370532,"13":-0.10497750373908299,"14":-1.3922107356244287,"15":-7.214417127784401,"16":-3.3435860382312272,"17":-6.3046304492333665,"18":0.34697964351611127,"19":0.21503578290836847,"20":0.05884033795547028,"21":0.6733770930000936,"22":0.7898154320804208,"23":0.7396785889017577,"24":0.12186208704693635,"25":0.6446855981826636,"26":-0.40423614954290304,"27":-0.48345777724902,"28":-17.550589286546636},"weightChange":{"0":-0.0,"1":-0.0,"2":-0.0,"3":-0.0,"4":-0.0,"5":-0.0,"6":-0.0,"7":-0.0,"8":-0.0,"9":-0.0,"10":-0.0,"11":-0.0,"12":-0.0,"13":-0.0,"14":-0.0,"15":-0.0,"16":-0.0,"17":-0.0,"18":-2.391949999851472E-20,"19":-2.391949999851472E-20,"20":-2.391949999851472E-20,"21":-2.391949999851472E-20,"22":-2.391949999851472E-20,"23":-2.391949999851472E-20,"24":-2.6781680536836657E-20,"25":-2.8199656672792843E-20,"26":-9.567799999405888E-20,"27":-9.567799999405888E-20,"28":-9.567799999405888E-20},"personalWeight":0.3028917853236282,"id":46},{"ID":47,"value":0.0,"layer":1,"target":7.575947819987896E-5,"learningRate":0.3,"weights":{"0":-6.5849712699045995,"1":-9.302504204500249,"2":-19.215946668340518,"3":-0.7753167151851841,"4":3.5564946394927306,"5":-0.6766586693480666,"6":-16.629063201660998,"7":-1.0018636220604296,"8":-33.97166751936734,"9":-6.236622591224838,"10":-0.06046115661335883,"11":-4.3148179216733284,"12":-31.371311020800007,"13":-1.5494877287678792,"14":-2.3283869597061204,"15":-3.4753173043341175,"16":-7.728553461995065,"17":-2.7639968128291295,"18":-0.13439554524426114,"19":-0.12181098349746555,"20":-0.26364932357731435,"21":0.17198525665500378,"22":0.08853819358074365,"23":-0.10587516469303837,"24":0.10584011439320438,"25":-0.5387391309378858,"26":-1.1140933483848632,"27":-1.5806448935876216,"28":-20.58673242127351},"weightChange":{"0":-0.0,"1":-0.0,"2":-0.0,"3":-0.0,"4":-0.0,"5":-0.0,"6":-0.0,"7":-0.0,"8":-0.0,"9":-0.0,"10":-0.0,"11":-0.0,"12":-0.0,"13":-0.0,"14":-0.0,"15":-0.0,"16":-0.0,"17":-0.0,"18":-1.3215361111281825E-25,"19":-1.3215361111281825E-25,"20":-1.3215361111281825E-25,"21":-1.3215361111281825E-25,"22":-1.3215361111281825E-25,"23":-1.3215361111281825E-25,"24":-1.4796696397636312E-25,"25":-1.5580118571385956E-25,"26":-5.28614444451273E-25,"27":-5.28614444451273E-25,"28":-5.28614444451273E-25},"personalWeight":-0.10087509843021432,"id":47},{"ID":48,"value":0.0,"layer":1,"target":1.0314720595826613E-4,"learningRate":0.3,"weights":{"0":-32.79804546307012,"1":-24.758823621154672,"2":-16.36765576397486,"3":1.2003664664983187,"4":-20.054588596282887,"5":-13.292901316457984,"6":-27.101094492041288,"7":-1.9966330142402242,"8":-48.159869177844364,"9":-18.212367458088607,"10":-31.43576297526549,"11":-16.028310340071545,"12":-45.57016196907975,"13":0.18581300175133456,"14":-35.42575995677994,"15":-10.526605124499385,"16":-42.15951019708738,"17":-3.647323586353607,"18":0.5122464088971332,"19":0.865307234018667,"20":0.27208034250734114,"21":0.5931995752545204,"22":0.9657328727970079,"23":0.6975893173555988,"24":0.6699750629792706,"25":0.7823643640214686,"26":0.6671635328143842,"27":0.4724495199308413,"28":-22.46214807753197},"weightChange":{"0":-0.0,"1":-0.0,"2":-0.0,"3":-0.0,"4":-0.0,"5":-0.0,"6":-0.0,"7":-0.0,"8":-0.0,"9":-0.0,"10":-0.0,"11":-0.0,"12":-0.0,"13":-0.0,"14":-0.0,"15":-0.0,"16":-0.0,"17":-0.0,"18":-5.039611362919686E-22,"19":-5.039611362919686E-22,"20":-5.039611362919686E-22,"21":-5.039611362919686E-22,"22":-5.039611362919686E-22,"23":-5.039611362919686E-22,"24":-5.642645605464492E-22,"25":-5.941399703483158E-22,"26":-2.0158445451678744E-21,"27":-2.0158445451678744E-21,"28":-2.0158445451678744E-21},"personalWeight":0.6886975760262453,"id":48},{"ID":49,"value":0.0,"layer":1,"target":3.485370295667103E-5,"learningRate":0.3,"weights":{"0":-30.07305931841181,"1":-14.157880362436325,"2":-33.7314117906267,"3":-9.366577522629573,"4":8.321254939064824,"5":-7.029014464855461,"6":-32.357484279477916,"7":-2.4419116896138897,"8":-57.8980248203273,"9":-16.72520638374517,"10":-11.97079963036822,"11":-6.15764402169788,"12":-17.836925249869246,"13":-5.148266760646374,"14":-47.618534399286794,"15":-11.631096518533393,"16":-44.45251877762833,"17":-10.826950003130017,"18":1.014707919307576,"19":0.22546738505908523,"20":0.7416901931540706,"21":0.46804392088100205,"22":0.09294861343968139,"23":0.15303897248078044,"24":0.8620649093742484,"25":0.2457150814734138,"26":0.5629604026581737,"27":0.9293999988305032,"28":-30.99706682420655},"weightChange":{"0":-0.0,"1":-0.0,"2":-0.0,"3":-0.0,"4":-0.0,"5":-0.0,"6":-0.0,"7":-0.0,"8":-0.0,"9":-0.0,"10":-0.0,"11":-0.0,"12":-0.0,"13":-0.0,"14":-0.0,"15":-0.0,"16":-0.0,"17":-0.0,"18":-4.145393345088236E-30,"19":-4.145393345088236E-30,"20":-4.145393345088236E-30,"21":-4.145393345088236E-30,"22":-4.145393345088236E-30,"23":-4.145393345088236E-30,"24":-4.641426462700961E-30,"25":-4.887170263275877E-30,"26":-1.6581573380352945E-29,"27":-1.6581573380352945E-29,"28":-1.6581573380352945E-29},"personalWeight":0.3359565959553457,"id":49},{"ID":50,"value":1.0,"layer":1,"target":1.0000234632045446,"learningRate":0.3,"weights":{"0":24.40147541363565,"1":1.8822565760873389,"2":29.09845071268669,"3":0.27370902072921066,"4":0.5875577791549118,"5":1.7382442447950874,"6":25.520417653734352,"7":-1.6428784379092254,"8":32.13134582477606,"9":1.9217691906067742,"10":3.0291979901170416,"11":-1.2771241821564332,"12":11.134522018685317,"13":2.0531490746728327,"14":31.798579686624173,"15":2.5129955526382686,"16":26.49752972967193,"17":3.444473658196489,"18":2.1405432604965315,"19":2.27422872305155,"20":1.9723486516707218,"21":1.8548762655768385,"22":1.3614673215149582,"23":1.361174331664566,"24":2.215921380760521,"25":2.4612303746770676,"26":5.972845999196275,"27":5.508289143542087,"28":-2.703925074584499},"weightChange":{"0":-0.0,"1":-0.0,"2":-0.0,"3":-0.0,"4":-0.0,"5":-0.0,"6":-0.0,"7":-0.0,"8":-0.0,"9":-0.0,"10":-0.0,"11":-0.0,"12":-0.0,"13":-0.0,"14":-0.0,"15":-0.0,"16":-0.0,"17":-0.0,"18":-2.524185906097607E-18,"19":-2.524185906097607E-18,"20":-2.524185906097607E-18,"21":-2.524185906097607E-18,"22":-2.524185906097607E-18,"23":-2.524185906097607E-18,"24":-2.8262271601366845E-18,"25":-2.975863874022242E-18,"26":-1.0096743624390428E-17,"27":-1.0096743624390428E-17,"28":-1.0096743624390428E-17},"personalWeight":3.439689072767345,"id":50},{"ID":51,"value":0.0,"layer":1,"target":1.4482702382245548E-6,"learningRate":0.3,"weights":{"0":-0.03273532049736429,"1":0.579250168444587,"2":0.44817118404853906,"3":0.47561166647483183,"4":0.35770817424677465,"5":0.5606843203501235,"6":0.91690949670428,"7":0.24713114449353654,"8":0.24236427620253992,"9":0.1441325493102684,"10":0.10218627026923388,"11":0.44436884512544905,"12":-0.09252355579472729,"13":-0.16914898116820182,"14":0.27070170526175585,"15":0.30723410132838874,"16":0.38389414754881623,"17":0.3733524431109493,"18":-0.08801004187396068,"19":-0.3974662767340023,"20":-0.6928392845164217,"21":-0.36444566483528884,"22":-0.3152865317102786,"23":-0.3229115865333618,"24":-0.5820636091651624,"25":0.026381386744623755,"26":-1.9621525013046395,"27":-2.590679026905902,"28":-1.5449257605477853},"weightChange":{"0":-0.0,"1":-0.0,"2":-0.0,"3":-0.0,"4":-0.0,"5":-0.0,"6":-0.0,"7":-0.0,"8":-0.0,"9":-0.0,"10":-0.0,"11":-0.0,"12":-0.0,"13":-0.0,"14":-0.0,"15":-0.0,"16":-0.0,"17":-0.0,"18":-2.5551997311823645E-13,"19":-2.5551997311823645E-13,"20":-2.5551997311823645E-13,"21":-2.5551997311823645E-13,"22":-2.5551997311823645E-13,"23":-2.5551997311823645E-13,"24":-2.8609520647415834E-13,"25":-3.0124273147109905E-13,"26":-1.0220798924729458E-12,"27":-1.0220798924729458E-12,"28":-1.0220798924729458E-12},"personalWeight":-0.7156838502891981,"id":51},{"ID":52,"value":0.0,"layer":1,"target":4.345615538301756E-6,"learningRate":0.3,"weights":{"0":0.45167262227367017,"1":0.4831523758046471,"2":0.2586384841088757,"3":0.3128766615991462,"4":-0.18297195246360665,"5":-0.03885933528304812,"6":0.060813354814618734,"7":0.6150961493360678,"8":0.0010271539537242392,"9":0.012335326483860976,"10":0.05327295606956927,"11":0.44208353697129593,"12":0.05945879145396248,"13":-0.22261068743524787,"14":0.7290833173519913,"15":0.13937686915003855,"16":0.4486006321964646,"17":-0.14674571984893273,"18":-0.0597320884393331,"19":-0.11049040262214396,"20":-0.23791537912710203,"21":0.19081490065985063,"22":0.05114603333293853,"23":-0.11249985592211326,"24":-0.33558175754496894,"25":-0.45055288244734243,"26":-2.7599965562681654,"27":-2.002769210488576,"28":-1.444603093592498},"weightChange":{"0":-0.0,"1":-0.0,"2":-0.0,"3":-0.0,"4":-0.0,"5":-0.0,"6":-0.0,"7":-0.0,"8":-0.0,"9":-0.0,"10":-0.0,"11":-0.0,"12":-0.0,"13":-0.0,"14":-0.0,"15":-0.0,"16":-0.0,"17":-0.0,"18":-1.2945162519734791E-12,"19":-1.2945162519734791E-12,"20":-1.2945162519734791E-12,"21":-1.2945162519734791E-12,"22":-1.2945162519734791E-12,"23":-1.2945162519734791E-12,"24":-1.4494166145717784E-12,"25":-1.526157062867931E-12,"26":-5.1780650078939166E-12,"27":-5.1780650078939166E-12,"28":-5.1780650078939166E-12},"personalWeight":-1.146741923194561,"id":52},{"ID":53,"value":0.0,"layer":1,"target":1.8029800565007053E-6,"learningRate":0.3,"weights":{"0":-0.021581765875158712,"1":0.15380541657223107,"2":0.46286504379911336,"3":0.4316257184094686,"4":-0.019581990100685644,"5":0.505382465060905,"6":0.8200512965947575,"7":0.3672024584615709,"8":-0.10856050358076354,"9":0.15317877432941931,"10":0.5147409283285067,"11":0.3222396505650622,"12":0.31109785978891424,"13":0.16823450593834213,"14":0.579941074865649,"15":0.4434204850445097,"16":0.5587440929539146,"17":0.4916112886623602,"18":-0.1804984199907152,"19":-0.1825825268793082,"20":-0.4220206285239948,"21":-0.4202789105169543,"22":-0.1993602879402261,"23":0.1151940595592471,"24":-0.02094571478807255,"25":-0.09670358014769784,"26":-2.306442488866749,"27":-2.5647883100754867,"28":-1.5340618634905827},"weightChange":{"0":-0.0,"1":-0.0,"2":-0.0,"3":-0.0,"4":-0.0,"5":-0.0,"6":-0.0,"7":-0.0,"8":-0.0,"9":-0.0,"10":-0.0,"11":-0.0,"12":-0.0,"13":-0.0,"14":-0.0,"15":-0.0,"16":-0.0,"17":-0.0,"18":-3.1111179281153255E-13,"19":-3.1111179281153255E-13,"20":-3.1111179281153255E-13,"21":-3.1111179281153255E-13,"22":-3.1111179281153255E-13,"23":-3.1111179281153255E-13,"24":-3.483390809522925E-13,"25":-3.667821545051967E-13,"26":-1.2444471712461302E-12,"27":-1.2444471712461302E-12,"28":-1.2444471712461302E-12},"personalWeight":-1.056983830241473,"id":53},{"ID":54,"value":0.0,"layer":1,"target":6.231846436681652E-5,"learningRate":0.3,"weights":{"0":-14.936649970772796,"1":-5.290456421965253,"2":-14.747906401650974,"3":-5.259720144438748,"4":0.08998516777796267,"5":-1.6462567326745396,"6":-12.883989578189325,"7":-0.8185741344542107,"8":-30.732102649256316,"9":-1.5099583444769682,"10":-0.4696267096779829,"11":-0.31804912307147165,"12":-13.955465341675803,"13":-1.914573351594887,"14":-4.40509606655027,"15":-6.92786487365579,"16":-6.360447413780412,"17":-8.89175691701952,"18":0.8658431293171013,"19":0.4992597135119977,"20":-0.0703101509486184,"21":0.11217564918171247,"22":0.6181652318168162,"23":-0.07526410642571588,"24":-0.01037390083652802,"25":0.6375801429361406,"26":0.43052315067897795,"27":0.6083470018509644,"28":-19.582876446082086},"weightChange":{"0":-0.0,"1":-0.0,"2":-0.0,"3":-0.0,"4":-0.0,"5":-0.0,"6":-0.0,"7":-0.0,"8":-0.0,"9":-0.0,"10":-0.0,"11":-0.0,"12":-0.0,"13":-0.0,"14":-0.0,"15":-0.0,"16":-0.0,"17":-0.0,"18":-1.3837770232181E-20,"19":-1.3837770232181E-20,"20":-1.3837770232181E-20,"21":-1.3837770232181E-20,"22":-1.3837770232181E-20,"23":-1.3837770232181E-20,"24":-1.5493582295760024E-20,"25":-1.6313901615365195E-20,"26":-5.5351080928724E-20,"27":-5.5351080928724E-20,"28":-5.5351080928724E-20},"personalWeight":0.3925659365014839,"id":54},{"ID":55,"value":0.0,"layer":1,"target":6.952611556179934E-5,"learningRate":0.3,"weights":{"0":-22.31939086419369,"1":-8.048615815794012,"2":-17.418743272955158,"3":-3.983438121663065,"4":0.8140332277413861,"5":-3.6388529764223145,"6":-19.788821522057333,"7":-0.88267896915753,"8":-40.65502367950782,"9":-7.1061268501768735,"10":-6.649228428020757,"11":-5.264580639542834,"12":-19.84896184512246,"13":-1.8776479831021688,"14":-24.894561632361068,"15":-7.542997569576112,"16":-27.372183959738237,"17":-13.56504635426048,"18":-0.4332285390518347,"19":-0.22503210706210525,"20":0.1796674101584299,"21":0.25675950787880675,"22":0.28271332532669513,"23":-0.425842401287974,"24":-0.23285316125853317,"25":-0.2752631195356222,"26":-1.4540454681585726,"27":-2.040888712242579,"28":-17.86305936214243},"weightChange":{"0":-0.0,"1":-0.0,"2":-0.0,"3":-0.0,"4":-0.0,"5":-0.0,"6":-0.0,"7":-0.0,"8":-0.0,"9":-0.0,"10":-0.0,"11":-0.0,"12":-0.0,"13":-0.0,"14":-0.0,"15":-0.0,"16":-0.0,"17":-0.0,"18":-2.4739234365954725E-24,"19":-2.4739234365954725E-24,"20":-2.4739234365954725E-24,"21":-2.4739234365954725E-24,"22":-2.4739234365954725E-24,"23":-2.4739234365954725E-24,"24":-2.769950339915432E-24,"25":-2.916607435402082E-24,"26":-9.89569374638189E-24,"27":-9.89569374638189E-24,"28":-9.89569374638189E-24},"personalWeight":-0.8981957119406729,"id":55},{"ID":56,"value":0.0,"layer":1,"target":7.928213692850905E-6,"learningRate":0.3,"weights":{"0":0.6677323876364277,"1":0.6183653629128151,"2":0.17926137801109393,"3":0.9148412639690161,"4":0.6792173991270536,"5":-0.10750184572896972,"6":0.5462242070220044,"7":0.9142618844296228,"8":-0.7259126428693679,"9":0.22075473439489326,"10":0.21305051409047085,"11":0.15922674744547227,"12":-0.05352142785166181,"13":0.09698358585932675,"14":0.5687330438467193,"15":0.543539918532976,"16":0.7204909583716795,"17":-0.09999807473336597,"18":0.17037203661556793,"19":-0.6675141229569745,"20":-0.3128338832224851,"21":-0.1053223462801521,"22":-0.0996680098291128,"23":-0.49834158199412193,"24":-0.3597142439208772,"25":-0.35308739137045847,"26":-1.7692865800979953,"27":-2.179427531128913,"28":-1.4245019260876468},"weightChange":{"0":-0.0,"1":-0.0,"2":-0.0,"3":-0.0,"4":-0.0,"5":-0.0,"6":-0.0,"7":-0.0,"8":-0.0,"9":-0.0,"10":-0.0,"11":-0.0,"12":-0.0,"13":-0.0,"14":-0.0,"15":-0.0,"16":-0.0,"17":-0.0,"18":-7.57070101003839E-12,"19":-7.57070101003839E-12,"20":-7.57070101003839E-12,"21":-7.57070101003839E-12,"22":-7.57070101003839E-12,"23":-7.57070101003839E-12,"24":-8.476602600528644E-12,"25":-8.92540267433288E-12,"26":-3.028280404015356E-11,"27":-3.028280404015356E-11,"28":-3.028280404015356E-11},"personalWeight":-0.7374655988827757,"id":56},{"ID":57,"value":0.0,"layer":1,"target":4.183996094868266E-6,"learningRate":0.3,"weights":{"0":0.1954680900737285,"1":0.45919710844064393,"2":0.258330179622866,"3":0.31578303691503073,"4":0.319820522278451,"5":0.22212897767580778,"6":0.010664389708643515,"7":0.45579579734361964,"8":-0.23712607439118974,"9":0.303398232174028,"10":0.10902835392147144,"11":0.14060742946369054,"12":-0.29391083093105547,"13":-0.25442367913236846,"14":0.48330100207266974,"15":-0.13261443514460503,"16":0.44027690524311497,"17":-0.09875583800454947,"18":-0.1435393796866333,"19":0.17840387897774015,"20":-0.004370128264076953,"21":-0.2884829169828799,"22":0.19241341907351758,"23":0.2098336956593503,"24":0.2650906904942267,"25":-0.19239914362517185,"26":-1.9569802730435204,"27":-2.3372413341615625,"28":-1.8710818706924879},"weightChange":{"0":-0.0,"1":-0.0,"2":-0.0,"3":-0.0,"4":-0.0,"5":-0.0,"6":-0.0,"7":-0.0,"8":-0.0,"9":-0.0,"10":-0.0,"11":-0.0,"12":-0.0,"13":-0.0,"14":-0.0,"15":-0.0,"16":-0.0,"17":-0.0,"18":-2.1556697200007632E-12,"19":-2.1556697200007632E-12,"20":-2.1556697200007632E-12,"21":-2.1556697200007632E-12,"22":-2.1556697200007632E-12,"23":-2.1556697200007632E-12,"24":-2.4136147405914613E-12,"25":-2.5414053808704906E-12,"26":-8.622678880003053E-12,"27":-8.622678880003053E-12,"28":-8.622678880003053E-12},"personalWeight":-0.7388176245606096,"id":57},{"ID":58,"value":0.0,"layer":1,"target":5.773810747345362E-5,"learningRate":0.3,"weights":{"0":-21.94029386291133,"1":-9.682189588244643,"2":-17.37779703824789,"3":-1.8914423854216713,"4":1.044008823215074,"5":-3.1886160898080513,"6":-17.995833143331414,"7":-2.46580344995455,"8":-34.96332993707327,"9":-3.0072455138836145,"10":-3.3264520534874595,"11":-2.4008821593370917,"12":-17.646856081170462,"13":-2.143565840803034,"14":-11.425171601621024,"15":-6.2576652445271135,"16":-18.985406539093397,"17":-6.166305290671492,"18":0.40681701276781695,"19":0.4546765916920286,"20":0.0482711542637341,"21":0.5233755098978942,"22":0.1198284575785443,"23":-0.051326543267827866,"24":0.42557488032275487,"25":0.5854261288090784,"26":-0.35419950048445303,"27":-0.2093747322783994,"28":-26.687690316581623},"weightChange":{"0":-0.0,"1":-0.0,"2":-0.0,"3":-0.0,"4":-0.0,"5":-0.0,"6":-0.0,"7":-0.0,"8":-0.0,"9":-0.0,"10":-0.0,"11":-0.0,"12":-0.0,"13":-0.0,"14":-0.0,"15":-0.0,"16":-0.0,"17":-0.0,"18":-3.691768740274786E-28,"19":-3.691768740274786E-28,"20":-3.691768740274786E-28,"21":-3.691768740274786E-28,"22":-3.691768740274786E-28,"23":-3.691768740274786E-28,"24":-4.133521646525164E-28,"25":-4.352374046178323E-28,"26":-1.4767074961099144E-27,"27":-1.4767074961099144E-27,"28":-1.4767074961099144E-27},"personalWeight":0.45483091836953,"id":58},{"ID":59,"value":1.0,"layer":1,"target":0.9998927096925908,"learningRate":0.3,"weights":{"0":21.216537522349412,"1":19.244540003006207,"2":23.993862934877257,"3":-1.5393408136778115,"4":-2.0512402667643097,"5":1.4515083483024105,"6":25.704706110665235,"7":2.473743713202006,"8":53.220132995683976,"9":1.3645159542809184,"10":11.281602617682962,"11":0.5930862275753195,"12":48.97335463393679,"13":1.5723698652418738,"14":21.382799269429732,"15":10.629491908988266,"16":21.613091779671326,"17":5.515323707391999,"18":-1.5502541696945145,"19":-1.1609618603529424,"20":-1.3894354951196421,"21":-0.8185626834883802,"22":-1.6907096346121242,"23":-0.9867118662328237,"24":-1.3887547435143404,"25":-1.2205793426147153,"26":-6.19545909983533,"27":-6.403816800682281,"28":30.10751449120784},"weightChange":{"0":0.0,"1":0.0,"2":0.0,"3":0.0,"4":0.0,"5":0.0,"6":0.0,"7":0.0,"8":0.0,"9":0.0,"10":0.0,"11":0.0,"12":0.0,"13":0.0,"14":0.0,"15":0.0,"16":0.0,"17":0.0,"18":1.9018087010623593E-16,"19":1.9018087010623593E-16,"20":1.9018087010623593E-16,"21":1.9018087010623593E-16,"22":1.9018087010623593E-16,"23":1.9018087010623593E-16,"24":2.1293769968933764E-16,"25":2.242118456933415E-16,"26":7.607234804249437E-16,"27":7.607234804249437E-16,"28":7.607234804249437E-16},"personalWeight":-3.35578665368237,"id":59},{"ID":60,"value":1.0,"layer":2,"target":0.941085499172059,"learningRate":0.3,"weights":{"29":0.033359194356814226,"30":0.40216404659963956,"31":0.8876746810632352,"32":0.7349868290759641,"33":0.49576125038505936,"34":0.5688403073280311,"35":0.9164767461005163,"36":0.0815247404552556,"37":0.9345369761641878,"38":0.2511759026903503,"39":0.015288967774227169,"40":0.9582279667326842,"41":0.27600145905487816,"42":0.6987682970162646,"43":0.16036356781972216,"44":0.4421918010175736,"45":0.515277573969826,"46":0.1959433474873402,"47":0.40062669598481404,"48":0.04244103076098449,"49":0.10509775448329484,"50":0.9061667453765403,"51":0.401567326466005,"52":0.8511809870724046,"53":0.22686998509024991,"54":0.9503811693987283,"55":0.401434734437616,"56":0.4977149639194096,"57":0.16840369028933488,"58":0.7339483282311229,"59":0.6991599727909062},"weightChange":{"29":0.0,"30":0.0,"31":0.0,"32":0.0,"33":0.0,"34":0.0,"35":0.0,"36":0.0,"37":0.0,"38":0.0,"39":0.0,"40":0.0,"41":0.0,"42":0.0,"43":0.0,"44":0.0,"45":0.0,"46":0.0,"47":0.0,"48":0.0,"49":0.0,"50":0.0,"51":0.0,"52":0.0,"53":0.0,"54":0.0,"55":0.0,"56":0.0,"57":0.0,"58":0.0,"59":0.0},"personalWeight":0.7544237641575128,"id":60},{"ID":61,"value":0.0,"layer":2,"target":1.6318094825474718E-6,"learningRate":0.3,"weights":{"29":0.4722131497389923,"30":14.346333782514089,"31":0.8613180193359659,"32":0.09208277707157606,"33":0.5460009237434279,"34":0.6437118457808595,"35":0.9393384464404355,"36":0.5538860383811722,"37":0.771853413550056,"38":-8.911126890318268,"39":7.220920468497883,"40":0.6819457231522179,"41":2.987826043460531,"42":0.8985024356496392,"43":-3.552158002836262,"44":0.3369542960440202,"45":0.07725133878943824,"46":0.7793285821279575,"47":0.9539025082523885,"48":19.3424096237536,"49":6.1231893255236,"50":6.51223540025107,"51":0.5523070541194337,"52":0.3326910732697263,"53":0.7611841577561077,"54":-0.22903753095212648,"55":5.264175956204075,"56":0.5464618386412674,"57":0.8231791606376366,"58":0.08307515516402192,"59":-16.568342761855423},"weightChange":{"29":0.0,"30":0.0,"31":0.0,"32":0.0,"33":0.0,"34":0.0,"35":0.0,"36":0.0,"37":0.0,"38":0.0,"39":0.0,"40":0.0,"41":0.0,"42":0.0,"43":0.0,"44":0.0,"45":0.0,"46":0.0,"47":0.0,"48":0.0,"49":0.0,"50":0.0,"51":0.0,"52":0.0,"53":0.0,"54":0.0,"55":0.0,"56":0.0,"57":0.0,"58":0.0,"59":0.0},"personalWeight":9.185759673132393,"id":61},{"ID":62,"value":1.0,"layer":2,"target":0.9955544297448374,"learningRate":0.3,"weights":{"29":0.3160473986141491,"30":-1.551275043812787,"31":0.2346739022597204,"32":0.2797020497854744,"33":0.26960637786174535,"34":16.079718240868896,"35":0.3057984126615787,"36":14.379271750153158,"37":0.5996145805641441,"38":3.432748076595851,"39":7.294070503565859,"40":0.6931647245787615,"41":-3.730584732695901,"42":0.7039868415668386,"43":6.558413049687667,"44":0.1766025799346595,"45":0.09987229698237787,"46":13.390687782983568,"47":5.5680056593125915,"48":18.70760403925291,"49":21.628003173521183,"50":-9.58156028795927,"51":0.15506870946747311,"52":0.20525458592660575,"53":0.23830686449063768,"54":15.114924515712243,"55":17.98996284929647,"56":0.7238530364521827,"57":0.33541767347811297,"58":16.827190057214676,"59":-8.449325666092877},"weightChange":{"29":0.0,"30":0.0,"31":0.0,"32":0.0,"33":0.0,"34":0.0,"35":0.0,"36":0.0,"37":0.0,"38":0.0,"39":0.0,"40":0.0,"41":0.0,"42":0.0,"43":0.0,"44":0.0,"45":0.0,"46":0.0,"47":0.0,"48":0.0,"49":0.0,"50":0.0,"51":0.0,"52":0.0,"53":0.0,"54":0.0,"55":0.0,"56":0.0,"57":0.0,"58":0.0,"59":0.0},"personalWeight":13.465517269158743,"id":62},{"ID":63,"value":0.0,"layer":2,"target":1.874110545810869E-4,"learningRate":0.3,"weights":{"29":0.24007830358487564,"30":2.0397465030392667,"31":0.3637430723598615,"32":0.8916234858118159,"33":0.05061181681685141,"34":1.01186750298433,"35":0.9150688329322142,"36":0.3386904678039738,"37":0.3027350146643251,"38":-10.109676584497675,"39":10.416546229253079,"40":0.7924545821262896,"41":2.580732543592127,"42":0.4338109594440971,"43":-2.640030150738535,"44":0.8049139896547274,"45":0.23020498355279176,"46":0.5114558253194476,"47":1.2325685455120614,"48":1.8974280598134057,"49":6.614682374821915,"50":3.298171599386519,"51":0.5414849280466739,"52":0.26622694248675693,"53":0.6322878524637855,"54":0.41752131121563124,"55":1.3755305516301217,"56":0.4125398775299215,"57":0.9276698634856518,"58":0.2690727830746969,"59":0.1576165123435508},"weightChange":{"29":0.0,"30":0.0,"31":0.0,"32":0.0,"33":0.0,"34":0.0,"35":0.0,"36":0.0,"37":0.0,"38":0.0,"39":0.0,"40":0.0,"41":0.0,"42":0.0,"43":0.0,"44":0.0,"45":0.0,"46":0.0,"47":0.0,"48":0.0,"49":0.0,"50":0.0,"51":0.0,"52":0.0,"53":0.0,"54":0.0,"55":0.0,"56":0.0,"57":0.0,"58":0.0,"59":0.0},"personalWeight":0.7060901560045618,"id":63},{"ID":64,"value":1.0,"layer":2,"target":1.0,"learningRate":0.3,"weights":{"29":0.6654091689935859,"30":16.795097347148968,"31":0.7662847923944109,"32":0.6779390070322163,"33":0.2639310862000459,"34":12.958720813152848,"35":0.04873803501494859,"36":11.806100041787738,"37":0.8622249901349183,"38":-5.746778011501896,"39":17.154490025850343,"40":0.5154541661518577,"41":1.8199255397078413,"42":0.5038681429787282,"43":13.935889489477836,"44":0.40158735736321766,"45":0.4798136573799251,"46":11.416424589591289,"47":15.1801012393774,"48":20.667843367059316,"49":6.983716783971974,"50":4.701376410152795,"51":0.1682319575941725,"52":0.7279455772577895,"53":0.2680796518540087,"54":12.486894321898557,"55":13.93110800241034,"56":0.9459318708995534,"57":0.36805161188336466,"58":11.569117655544769,"59":-21.498005442458744},"weightChange":{"29":-7.569994747265307E-18,"30":-2.257832078890001E-34,"31":-1.3351077330985797E-17,"32":-1.1822336640352677E-17,"33":-1.4100232921176928E-17,"34":-7.377803795547045E-33,"35":-8.501761554182618E-17,"36":-2.4234628705211866E-30,"37":-4.039266699581451E-18,"38":-2.490705880627424E-11,"39":-2.055396452354211E-53,"40":-1.5435345602972197E-17,"41":-2.1519192371341613E-37,"42":-5.059810992560347E-18,"43":-2.4852345584220745E-11,"44":-4.6359071350593463E-17,"45":-7.528800914445493E-18,"46":-2.0912796906066756E-26,"47":-8.68949428285191E-32,"48":-2.433839974837654E-28,"49":-5.9247395290886025E-36,"50":-2.4907058806268878E-11,"51":-1.5160263643604112E-17,"52":-1.7750027894722984E-17,"53":-1.1583584195320639E-17,"54":-1.1061189020781583E-26,"55":-1.7725183125679822E-30,"56":-7.988546447501073E-17,"57":-5.846078621064918E-17,"58":-3.185109631640269E-34,"59":-2.490705880618594E-11},"personalWeight":20.84605055775255,"id":64},{"ID":65,"value":1.0,"layer":2,"target":0.9999557566944853,"learningRate":0.3,"weights":{"29":-0.014126548171560704,"30":12.618787493154654,"31":0.16871111545667658,"32":0.960336238606529,"33":0.9307368678698565,"34":0.7588057049564089,"35":0.18105772975098644,"36":0.6551863572887865,"37":0.03979448956828098,"38":-5.065126001311889,"39":5.979857692981028,"40":0.17601032827924057,"41":4.62291208109415,"42":0.6424348053977974,"43":19.766813562918955,"44":0.5084732966663429,"45":0.9563130070418479,"46":0.7357444009406928,"47":9.499149475190471,"48":13.394936562107333,"49":11.49581283161956,"50":-0.7971766280028544,"51":0.5257047412342982,"52":0.4692459366048356,"53":0.6111541779171354,"54":0.8835473542352548,"55":5.157471732604474,"56":0.9416700872817242,"57":0.19856143775468715,"58":3.5193536037427458,"59":-13.47125837721311},"weightChange":{"29":0.0,"30":0.0,"31":0.0,"32":0.0,"33":0.0,"34":0.0,"35":0.0,"36":0.0,"37":0.0,"38":0.0,"39":0.0,"40":0.0,"41":0.0,"42":0.0,"43":0.0,"44":0.0,"45":0.0,"46":0.0,"47":0.0,"48":0.0,"49":0.0,"50":0.0,"51":0.0,"52":0.0,"53":0.0,"54":0.0,"55":0.0,"56":0.0,"57":0.0,"58":0.0,"59":0.0},"personalWeight":9.635923760540482,"id":65},{"ID":66,"value":0.0,"layer":2,"target":6.384803647291406E-4,"learningRate":0.3,"weights":{"29":0.6794343933002248,"30":-2.322576905296262,"31":0.7476297493959896,"32":0.6350697393981676,"33":0.6971780050628366,"34":0.6633098389503223,"35":0.9217699366066059,"36":0.3040500114240204,"37":0.42239521544841135,"38":-1.3905483246949955,"39":-1.0671907383353527,"40":0.5641369785059673,"41":-1.3336065056216009,"42":0.05066442974605784,"43":-1.101324988964847,"44":0.7313535436432395,"45":0.5396392382565247,"46":0.0013627350554464067,"47":0.5499231621267964,"48":0.689005700542397,"49":0.31878496307991727,"50":-1.168352347378108,"51":0.19332411362499935,"52":0.8512170715669363,"53":0.45682445139920463,"54":0.28359822745103985,"55":0.7506067347741407,"56":0.8063923494431632,"57":0.37573122205025705,"58":0.9663085692048181,"59":0.25289543710175183},"weightChange":{"29":0.0,"30":0.0,"31":0.0,"32":0.0,"33":0.0,"34":0.0,"35":0.0,"36":0.0,"37":0.0,"38":0.0,"39":0.0,"40":0.0,"41":0.0,"42":0.0,"43":0.0,"44":0.0,"45":0.0,"46":0.0,"47":0.0,"48":0.0,"49":0.0,"50":0.0,"51":0.0,"52":0.0,"53":0.0,"54":0.0,"55":0.0,"56":0.0,"57":0.0,"58":0.0,"59":0.0},"personalWeight":-3.950880810038563,"id":66},{"ID":67,"value":0.0,"layer":2,"target":4.348269509428577E-4,"learningRate":0.3,"weights":{"29":0.8260578181644836,"30":-2.3677535668597804,"31":0.316855970062953,"32":0.26885360295169447,"33":0.6516328057656811,"34":0.6098965095748388,"35":0.12858546296253842,"36":0.10891017099019648,"37":0.46260129746444484,"38":-0.9866993730849953,"39":-1.4701396680806225,"40":0.8541432600389988,"41":-0.491297099731905,"42":0.5357758590081098,"43":-0.9745760053016638,"44":0.43205360186126907,"45":0.5168681215910192,"46":0.5901273484675519,"47":0.7352676675048473,"48":0.05161088623393662,"49":-0.1808732431567894,"50":-1.4593115498113145,"51":0.6344386599858899,"52":0.13182224996939937,"53":0.27150496767303056,"54":0.7617346950628177,"55":0.8048227438409585,"56":0.9772418099539533,"57":0.039757929160217725,"58":0.8880247572292387,"59":-0.4084562003132596},"weightChange":{"29":0.0,"30":0.0,"31":0.0,"32":0.0,"33":0.0,"34":0.0,"35":0.0,"36":0.0,"37":0.0,"38":0.0,"39":0.0,"40":0.0,"41":0.0,"42":0.0,"43":0.0,"44":0.0,"45":0.0,"46":0.0,"47":0.0,"48":0.0,"49":0.0,"50":0.0,"51":0.0,"52":0.0,"53":0.0,"54":0.0,"55":0.0,"56":0.0,"57":0.0,"58":0.0,"59":0.0},"personalWeight":-3.913232080554887,"id":67},{"ID":68,"value":0.0,"layer":2,"target":0.0017471891679349022,"learningRate":0.3,"weights":{"29":0.07868708205063356,"30":-2.0748629181125993,"31":0.26249526995670835,"32":0.40026487098625474,"33":0.785512850222417,"34":0.8357369083715699,"35":0.02246245847438132,"36":0.7613967193176396,"37":0.8731431909271837,"38":-1.0678157121405232,"39":-1.1270727723626104,"40":0.5297792125681338,"41":-1.1222595713183545,"42":0.7061865317946835,"43":-0.3575180144068522,"44":0.9192187415530365,"45":0.6255494566879102,"46":0.5527019546738273,"47":0.8786066232893383,"48":0.7602704092333544,"49":0.09855692955681637,"50":-1.36586846104451,"51":0.6454752691363865,"52":0.9636256645452038,"53":0.4168231355086,"54":0.16134598993518667,"55":0.8641953038940986,"56":0.2706148937989183,"57":0.32677756191358154,"58":0.17962482474228258,"59":0.49586496814817804},"weightChange":{"29":0.0,"30":0.0,"31":0.0,"32":0.0,"33":0.0,"34":0.0,"35":0.0,"36":0.0,"37":0.0,"38":0.0,"39":0.0,"40":0.0,"41":0.0,"42":0.0,"43":0.0,"44":0.0,"45":0.0,"46":0.0,"47":0.0,"48":0.0,"49":0.0,"50":0.0,"51":0.0,"52":0.0,"53":0.0,"54":0.0,"55":0.0,"56":0.0,"57":0.0,"58":0.0,"59":0.0},"personalWeight":-4.05345269134168,"id":68},{"ID":69,"value":0.0,"layer":2,"target":0.0065926728550711475,"learningRate":0.3,"weights":{"29":0.8245069672589586,"30":5.552682879255039,"31":0.05422054456368977,"32":0.5877768368220065,"33":0.9478971619667148,"34":0.4904580561904563,"35":0.2393449050933028,"36":0.85948124907377,"37":0.8261384743250828,"38":0.8758297600416872,"39":-14.189682182529522,"40":0.6407918503830972,"41":-4.671704306396141,"42":0.8937999287245686,"43":5.326828642706735,"44":0.9811837394563392,"45":0.9731325411799526,"46":0.21556688272855437,"47":0.271568060294601,"48":0.7358693177840337,"49":-1.0970277602828074,"50":-2.853107029529073,"51":0.20023550320217318,"52":0.15826717387063946,"53":0.6851704904302945,"54":0.7234730153447666,"55":0.3413059341477999,"56":0.47693798474198806,"57":0.35450559186288505,"58":0.5799534480972643,"59":0.20849386737378464},"weightChange":{"29":0.0,"30":0.0,"31":0.0,"32":0.0,"33":0.0,"34":0.0,"35":0.0,"36":0.0,"37":0.0,"38":0.0,"39":0.0,"40":0.0,"41":0.0,"42":0.0,"43":0.0,"44":0.0,"45":0.0,"46":0.0,"47":0.0,"48":0.0,"49":0.0,"50":0.0,"51":0.0,"52":0.0,"53":0.0,"54":0.0,"55":0.0,"56":0.0,"57":0.0,"58":0.0,"59":0.0},"personalWeight":-8.561533400538595,"id":69},{"ID":70,"value":0.0,"layer":2,"target":4.568858559626587E-4,"learningRate":0.3,"weights":{"29":0.3494045274195109,"30":-2.004190550814787,"31":0.44066108546204114,"32":0.356629946686101,"33":0.4659236498485336,"34":0.8297958931882765,"35":0.9560215420020995,"36":0.8237623444090936,"37":0.008277765608102722,"38":-1.2088990259337482,"39":-1.1583669204070208,"40":0.02577349028700584,"41":-1.0269578587579462,"42":0.07460125884477291,"43":-0.9557705723382737,"44":0.5299686584586031,"45":0.39440766098906993,"46":0.01154454499410067,"47":0.6931829351132746,"48":0.14023412027474053,"49":0.14116766527375593,"50":-1.328645204204796,"51":0.26834779530032654,"52":0.36879087768163266,"53":-0.01685933379111578,"54":-0.024614024471843236,"55":0.9577962016091585,"56":0.7476069967453665,"57":0.9607002542805491,"58":0.1676946996577542,"59":-0.29207917713192516},"weightChange":{"29":0.0,"30":0.0,"31":0.0,"32":0.0,"33":0.0,"34":0.0,"35":0.0,"36":0.0,"37":0.0,"38":0.0,"39":0.0,"40":0.0,"41":0.0,"42":0.0,"43":0.0,"44":0.0,"45":0.0,"46":0.0,"47":0.0,"48":0.0,"49":0.0,"50":0.0,"51":0.0,"52":0.0,"53":0.0,"54":0.0,"55":0.0,"56":0.0,"57":0.0,"58":0.0,"59":0.0},"personalWeight":-3.9073357812726535,"id":70},{"ID":71,"value":0.0,"layer":2,"target":5.933273531782406E-4,"learningRate":0.3,"weights":{"29":0.6016522218594647,"30":-2.1714343797655493,"31":0.901835822649254,"32":0.958170989116101,"33":0.2589979248662208,"34":0.07738012796636255,"35":0.1504632156505983,"36":0.8704606518714044,"37":0.7221948953068896,"38":-1.0750815385567842,"39":-1.6260431598398606,"40":0.9663252165389072,"41":-1.0414899740425294,"42":0.28449830405623816,"43":-1.016588007652132,"44":0.8492499246772498,"45":0.898757236745632,"46":0.45064631460858107,"47":0.5409615970849246,"48":0.09723314842013264,"49":-0.15180574128256794,"50":-1.0662251626214738,"51":0.6412321160983221,"52":0.9235921675649631,"53":0.7009528327205888,"54":0.8048827448337375,"55":0.3209810192801844,"56":0.7332347783875797,"57":0.8552807373885412,"58":0.9448844299475188,"59":-0.30821139809459436},"weightChange":{"29":0.0,"30":0.0,"31":0.0,"32":0.0,"33":0.0,"34":0.0,"35":0.0,"36":0.0,"37":0.0,"38":0.0,"39":0.0,"40":0.0,"41":0.0,"42":0.0,"43":0.0,"44":0.0,"45":0.0,"46":0.0,"47":0.0,"48":0.0,"49":0.0,"50":0.0,"51":0.0,"52":0.0,"53":0.0,"54":0.0,"55":0.0,"56":0.0,"57":0.0,"58":0.0,"59":0.0},"personalWeight":-3.9653079472979487,"id":71}],"amountOfLayers":3},"knowledge":{"ENEMY_WEAPON_LOW":15,"ENEMY_WEAPON_LENGTH":27,"ENEMY_CROUCHED":5,"ENEMY_TURNED":3,"ENEMY_SLASH":21,"MY_CROUCHED":4,"MY_PIERCE":18,"MY_WEAPON_EXTENDED":12,"MY_WEAPON_LOW":14,"ENEMY_WEAPON_SIDE":11,"MY_NONE":24,"MY_BLUNT":22,"ENEMY_WEAPON_HIGH":17,"MY_SLASH":20,"DISTANCE":28,"MY_WEAPON_HIGH":16,"ENEMY_STAGGERED":9,"ENEMY_BLUNT":23,"ENEMY_ABOVE":1,"ENEMY_PIERCE":19,"ENEMY_KNOCKED":7,"MY_STAGGERED":8,"MY_TURNED":2,"MY_KNOCKED":6,"ENEMY_WEAPON_EXTENDED":13,"MY_WEAPON_LENGTH":26,"ENEMY_NONE":25,"MY_ABOVE":0,"MY_WEAPON_SIDE":10},"decisions":{"BACK_AWAY":70,"DODGE":67,"KICK":63,"CLOSE_IN":69,"SLASH":62,"GET_UP":71,"DUCK":68,"OVERHEAD":61,"THRUST":64,"JUMP":66,"WAIT":72,"UNDERSTRIKE":65}},"wantedMove":{"type":"THRUST","damageType":"PIERCE","unavailableOn":["KNOCKED","TURNED","WEAPON_EXTENDED","STAGGERED"],"positionDuringMove":["STANDARD"],"weaponMovement":["STANDARD","BACK"],"removedStates":[],"addedStates":["WEAPON_EXTENDED"]}},{"whoControl":"AI","name":"Black Yang","hitPoints":100,"weapon":{"name":"SWORD","length":2,"options":[{"type":"OVERHEAD","damageType":"SLASH","unavailableOn":["TURNED","CROUCHED","KNOCKED","WEAPON_LOW","WEAPON_SIDE","WEAPON_EXTENDED","STAGGERED"],"positionDuringMove":["STANDARD"],"weaponMovement":["STANDARD","HIGH"],"removedStates":["WEAPON_HIGH","ABOVE"],"addedStates":["WEAPON_LOW"]},{"type":"SLASH","damageType":"SLASH","unavailableOn":["TURNED","KNOCKED","WEAPON_LOW","WEAPON_HIGH","ABOVE","STAGGERED"],"positionDuringMove":["STANDARD"],"weaponMovement":["STANDARD","SIDE"],"removedStates":[],"addedStates":["WEAPON_SIDE"]},{"type":"KICK","damageType":"BLUNT","unavailableOn":["KNOCKED","WEAPON_LOW","WEAPON_EXTENDED","STAGGERED"],"positionDuringMove":["STANDARD"],"weaponMovement":["STANDARD"],"removedStates":["ABOVE","TURNED"],"addedStates":["WEAPON_EXTENDED"]},{"type":"THRUST","damageType":"PIERCE","unavailableOn":["KNOCKED","TURNED","WEAPON_EXTENDED","STAGGERED"],"positionDuringMove":["STANDARD"],"weaponMovement":["STANDARD","BACK"],"removedStates":[],"addedStates":["WEAPON_EXTENDED"]},{"type":"UNDERSTRIKE","damageType":"SLASH","unavailableOn":["KNOCKED","ABOVE","TURNED","WEAPON_EXTENDED","WEAPON_HIGH","WEAPON_SIDE","STAGGERED"],"positionDuringMove":["STANDARD"],"weaponMovement":["STANDARD","LOW"],"removedStates":["WEAPON_LOW","CROUCHED"],"addedStates":["WEAPON_HIGH"]},{"type":"JUMP","damageType":"NONE","unavailableOn":["KNOCKED","ABOVE"],"positionDuringMove":["HIGH"],"weaponMovement":[],"removedStates":["TURNED","CROUCHED","WEAPON_HIGH","WEAPON_LOW","WEAPON_SIDE","WEAPON_EXTENDED","STAGGERED"],"addedStates":["ABOVE"]},{"type":"DODGE","damageType":"NONE","unavailableOn":["ABOVE"],"positionDuringMove":["SIDE"],"weaponMovement":[],"removedStates":["TURNED","WEAPON_HIGH","WEAPON_LOW","WEAPON_SIDE","WEAPON_EXTENDED","STAGGERED"],"addedStates":[]},{"type":"DUCK","damageType":"NONE","unavailableOn":["KNOCKED","ABOVE","CROUCHED"],"positionDuringMove":["LOW"],"weaponMovement":[],"removedStates":["TURNED","WEAPON_HIGH","WEAPON_LOW","WEAPON_SIDE","WEAPON_EXTENDED","STAGGERED"],"addedStates":["CROUCHED"]},{"type":"CLOSE_IN","damageType":"NONE","unavailableOn":["KNOCKED","ABOVE"],"positionDuringMove":["STANDARD"],"weaponMovement":["LOW","HIGH","SIDE","BACK"],"removedStates":["TURNED","WEAPON_HIGH","WEAPON_LOW","WEAPON_SIDE","WEAPON_EXTENDED","STAGGERED"],"addedStates":[]},{"type":"BACK_AWAY","damageType":"NONE","unavailableOn":["KNOCKED","ABOVE"],"positionDuringMove":["BACK"],"weaponMovement":[],"removedStates":["TURNED","WEAPON_HIGH","WEAPON_LOW","WEAPON_SIDE","WEAPON_EXTENDED","STAGGERED"],"addedStates":[]},{"type":"GET_UP","damageType":"NONE","unavailableOn":["ABOVE"],"positionDuringMove":["STANDARD"],"weaponMovement":[],"removedStates":["TURNED","KNOCKED","WEAPON_HIGH","WEAPON_LOW","WEAPON_SIDE","WEAPON_EXTENDED","STAGGERED"],"addedStates":[]},{"type":"WAIT","damageType":"NONE","unavailableOn":["STAGGERED"],"positionDuringMove":["STANDARD"],"weaponMovement":[],"removedStates":["ABOVE","TURNED","CROUCHED","KNOCKED","WEAPON_SIDE","WEAPON_EXTENDED","WEAPON_HIGH","WEAPON_LOW","STAGGERED","STAGGERED"],"addedStates":[]}],"efficiencies":{"BLUNT":0.5,"SLASH":0.5,"PIERCE":0.5}},"statesList":[],"move":{"type":"WAIT","damageType":"NONE","unavailableOn":["STAGGERED"],"positionDuringMove":["STANDARD"],"weaponMovement":[],"removedStates":["ABOVE","TURNED","CROUCHED","KNOCKED","WEAPON_SIDE","WEAPON_EXTENDED","WEAPON_HIGH","WEAPON_LOW","STAGGERED","STAGGERED"],"addedStates":[]},"victoriesCount":0,"lossesCount":0,"maxHP":100,"availableMoves":["DODGE","GET_UP","OVERHEAD","CLOSE_IN","DUCK","THRUST","BACK_AWAY","SLASH","JUMP","WAIT","KICK","UNDERSTRIKE"],"combatantMind":{"brain":{"lastNodeId":72,"nodes":[{"ID":0,"value":0.0,"layer":0,"target":0.0,"learningRate":0.3,"weights":{},"weightChange":{},"personalWeight":0.6759840837400724,"id":0},{"ID":1,"value":0.0,"layer":0,"target":0.0,"learningRate":0.3,"weights":{},"weightChange":{},"personalWeight":0.7604377278461089,"id":1},{"ID":2,"value":0.0,"layer":0,"target":0.0,"learningRate":0.3,"weights":{},"weightChange":{},"personalWeight":0.6511998058447017,"id":2},{"ID":3,"value":0.0,"layer":0,"target":0.0,"learningRate":0.3,"weights":{},"weightChange":{},"personalWeight":0.7673473672658505,"id":3},{"ID":4,"value":0.0,"layer":0,"target":0.0,"learningRate":0.3,"weights":{},"weightChange":{},"personalWeight":0.39741692623331215,"id":4},{"ID":5,"value":0.0,"layer":0,"target":0.0,"learningRate":0.3,"weights":{},"weightChange":{},"personalWeight":0.8488831054515954,"id":5},{"ID":6,"value":0.0,"layer":0,"target":0.0,"learningRate":0.3,"weights":{},"weightChange":{},"personalWeight":0.17522654592270115,"id":6},{"ID":7,"value":0.0,"layer":0,"target":0.0,"learningRate":0.3,"weights":{},"weightChange":{},"personalWeight":0.32733000912426036,"id":7},{"ID":8,"value":1.0,"layer":0,"target":0.0,"learningRate":0.3,"weights":{},"weightChange":{},"personalWeight":0.0050531961740543085,"id":8},{"ID":9,"value":1.0,"layer":0,"target":0.0,"learningRate":0.3,"weights":{},"weightChange":{},"personalWeight":0.7709429943191594,"id":9},{"ID":10,"value":0.0,"layer":0,"target":0.0,"learningRate":0.3,"weights":{},"weightChange":{},"personalWeight":0.9524255636162631,"id":10},{"ID":11,"value":0.0,"layer":0,"target":0.0,"learningRate":0.3,"weights":{},"weightChange":{},"personalWeight":0.21341431751067652,"id":11},{"ID":12,"value":0.0,"layer":0,"target":0.0,"learningRate":0.3,"weights":{},"weightChange":{},"personalWeight":0.2735920370983982,"id":12},{"ID":13,"value":0.0,"layer":0,"target":0.0,"learningRate":0.3,"weights":{},"weightChange":{},"personalWeight":0.3368508828979335,"id":13},{"ID":14,"value":0.0,"layer":0,"target":0.0,"learningRate":0.3,"weights":{},"weightChange":{},"personalWeight":0.24328908100722724,"id":14},{"ID":15,"value":1.0,"layer":0,"target":0.0,"learningRate":0.3,"weights":{},"weightChange":{},"personalWeight":0.9561821750947636,"id":15},{"ID":16,"value":1.0,"layer":0,"target":0.0,"learningRate":0.3,"weights":{},"weightChange":{},"personalWeight":0.6515093009599114,"id":16},{"ID":17,"value":0.0,"layer":0,"target":0.0,"learningRate":0.3,"weights":{},"weightChange":{},"personalWeight":0.6985840625004213,"id":17},{"ID":18,"value":1.0,"layer":0,"target":0.0,"learningRate":0.3,"weights":{},"weightChange":{},"personalWeight":-1181747.397466077,"id":18},{"ID":19,"value":1.0,"layer":0,"target":0.0,"learningRate":0.3,"weights":{},"weightChange":{},"personalWeight":-1181746.6914533358,"id":19},{"ID":20,"value":1.0,"layer":0,"target":0.0,"learningRate":0.3,"weights":{},"weightChange":{},"personalWeight":-1181746.6738681134,"id":20},{"ID":21,"value":1.0,"layer":0,"target":0.0,"learningRate":0.3,"weights":{},"weightChange":{},"personalWeight":-1181747.523523443,"id":21},{"ID":22,"value":1.0,"layer":0,"target":0.0,"learningRate":0.3,"weights":{},"weightChange":{},"personalWeight":-1181746.577677987,"id":22},{"ID":23,"value":1.0,"layer":0,"target":0.0,"learningRate":0.3,"weights":{},"weightChange":{},"personalWeight":-1181747.3091568183,"id":23},{"ID":24,"value":0.0,"layer":0,"target":0.0,"learningRate":0.3,"weights":{},"weightChange":{},"personalWeight":-1168689.6074738298,"id":24},{"ID":25,"value":0.0,"layer":0,"target":0.0,"learningRate":0.3,"weights":{},"weightChange":{},"personalWeight":-441729.00080026255,"id":25},{"ID":26,"value":1.0,"layer":0,"target":0.0,"learningRate":0.3,"weights":{},"weightChange":{},"personalWeight":3.7815922364278026E7,"id":26},{"ID":27,"value":1.0,"layer":0,"target":0.0,"learningRate":0.3,"weights":{},"weightChange":{},"personalWeight":3.781592200225703E7,"id":27},{"ID":28,"value":1.0,"layer":0,"target":0.0,"learningRate":0.3,"weights":{},"weightChange":{},"personalWeight":3.741250108054681E7,"id":28},{"ID":29,"value":0.0,"layer":1,"target":3.1733223294804203E-6,"learningRate":0.3,"weights":{"0":0.9307979142778745,"1":0.43294379240202263,"2":0.356851724247819,"3":0.6062510766990888,"4":0.5957987674407007,"5":0.2506175797198737,"6":0.12649667590332658,"7":0.09321323974109626,"8":-0.19535967248083802,"9":0.4286399021461167,"10":0.03471917170071268,"11":0.6021904626402225,"12":0.005071557398205119,"13":0.5322702162658032,"14":0.0973510458306093,"15":-0.03519643597266918,"16":0.005654482259548899,"17":0.5926955964598047,"18":-0.5412082408947939,"19":-0.18616759391624751,"20":-0.2754255800168387,"21":-0.39910166162828,"22":0.13017671417628734,"23":0.2546377133119424,"24":0.34435687115549607,"25":0.6100075815479711,"26":-2.086140357668696,"27":-2.3917953034174233,"28":-1.7217842226300082},"weightChange":{"0":0.0,"1":0.0,"2":0.0,"3":0.0,"4":0.0,"5":0.0,"6":0.0,"7":0.0,"8":0.0,"9":0.0,"10":0.0,"11":0.0,"12":0.0,"13":0.0,"14":0.0,"15":0.0,"16":0.0,"17":0.0,"18":0.0,"19":0.0,"20":0.0,"21":0.0,"22":0.0,"23":0.0,"24":0.0,"25":0.0,"26":0.0,"27":0.0,"28":0.0},"personalWeight":-0.27898604650040454,"id":29},{"ID":30,"value":0.0,"layer":1,"target":2.0514492159527366E-5,"learningRate":0.3,"weights":{"0":-0.02052549890725511,"1":0.1818603854648098,"2":0.3831465009764231,"3":0.640709637391975,"4":0.49801713509788226,"5":0.15214475151464038,"6":0.3039277215224697,"7":0.8663579088281644,"8":-0.12886564276526122,"9":0.2672320665152047,"10":0.1541687363377912,"11":0.5632762042213431,"12":0.2570623330091067,"13":-0.028040303910883576,"14":0.5217231592103546,"15":0.21762658552856148,"16":0.4154278766672673,"17":0.12511611126726127,"18":0.2944846264264696,"19":-0.40013161408360315,"20":-0.17696051620445422,"21":0.11584578852836236,"22":-0.4617565355879851,"23":0.12153503662466872,"24":-0.5415729031017843,"25":0.6137909144091551,"26":-2.48291285131232,"27":-1.9685978724331978,"28":-0.9448940943925402},"weightChange":{"0":0.0,"1":0.0,"2":0.0,"3":0.0,"4":0.0,"5":0.0,"6":0.0,"7":0.0,"8":0.0,"9":0.0,"10":0.0,"11":0.0,"12":0.0,"13":0.0,"14":0.0,"15":0.0,"16":0.0,"17":0.0,"18":0.0,"19":0.0,"20":0.0,"21":0.0,"22":0.0,"23":0.0,"24":0.0,"25":0.0,"26":0.0,"27":0.0,"28":0.0},"personalWeight":-0.40480305644629694,"id":30},{"ID":31,"value":0.0,"layer":1,"target":1.1901128053970817E-5,"learningRate":0.3,"weights":{"0":0.01156022147094362,"1":0.35827941828092896,"2":0.6816982194706914,"3":0.6739543109533602,"4":0.152225688494229,"5":0.2844152250695929,"6":0.6769562521039036,"7":0.04930186803521662,"8":-0.004809827545658614,"9":0.43825713708069836,"10":-0.07417653667750562,"11":-0.01328140575216834,"12":0.7609345868845999,"13":0.26354646519450886,"14":0.5503899242384358,"15":0.45728384929359006,"16":0.1275453234148559,"17":0.1906581817162254,"18":0.10545689422710428,"19":-0.00987520287826925,"20":-0.2849941074550196,"21":-0.5100137793275846,"22":-0.5743530080497572,"23":-0.13228106683645588,"24":0.27333179649385914,"25":-0.031185153402158116,"26":-2.320332988942973,"27":-2.1642982903747026,"28":-1.1739571153670123},"weightChange":{"0":0.0,"1":0.0,"2":0.0,"3":0.0,"4":0.0,"5":0.0,"6":0.0,"7":0.0,"8":0.0,"9":0.0,"10":0.0,"11":0.0,"12":0.0,"13":0.0,"14":0.0,"15":0.0,"16":0.0,"17":0.0,"18":0.0,"19":0.0,"20":0.0,"21":0.0,"22":0.0,"23":0.0,"24":0.0,"25":0.0,"26":0.0,"27":0.0,"28":0.0},"personalWeight":-0.46432573734814236,"id":31},{"ID":32,"value":0.0,"layer":1,"target":1.1490824380992676E-5,"learningRate":0.3,"weights":{"0":0.05906558412971739,"1":0.49561829641843935,"2":0.186131214725207,"3":-0.013307742062273286,"4":0.6027601750352647,"5":-0.06546122662475148,"6":0.8344870982927878,"7":0.21970366613418701,"8":-0.19199282367594608,"9":0.17604257641493795,"10":0.22062897653367372,"11":0.5106048983648888,"12":-0.3817456360497829,"13":-0.2496074131299518,"14":0.2473412330102234,"15":-0.05697135542864585,"16":0.13151806380653702,"17":0.16172391734127442,"18":-0.4034274011164549,"19":0.369444582731872,"20":-0.13026322082072456,"21":0.16987886660585874,"22":-0.15978391871426714,"23":-0.0200295115024552,"24":0.3684456457781732,"25":0.6326424024347654,"26":-1.9851875061317839,"27":-2.062156899892895,"28":-1.3715063798285707},"weightChange":{"0":0.0,"1":0.0,"2":0.0,"3":0.0,"4":0.0,"5":0.0,"6":0.0,"7":0.0,"8":0.0,"9":0.0,"10":0.0,"11":0.0,"12":0.0,"13":0.0,"14":0.0,"15":0.0,"16":0.0,"17":0.0,"18":0.0,"19":0.0,"20":0.0,"21":0.0,"22":0.0,"23":0.0,"24":0.0,"25":0.0,"26":0.0,"27":0.0,"28":0.0},"personalWeight":-0.8478188869251069,"id":32},{"ID":33,"value":0.0,"layer":1,"target":2.8992985917502603E-5,"learningRate":0.3,"weights":{"0":-0.0017882704579469063,"1":0.750937584717183,"2":0.4184498167491029,"3":0.355927242431048,"4":-0.12710893080668106,"5":0.16212867022862812,"6":0.711616391950992,"7":0.8585298793618674,"8":0.02344257849489671,"9":-0.0863553238238901,"10":0.12709205973435359,"11":0.1379734171505582,"12":0.19112343621808264,"13":0.19626155100344084,"14":0.6482634681022559,"15":0.6534251237213702,"16":0.3888978453387482,"17":0.0621289837907503,"18":0.024925593782706965,"19":-0.40252922115060147,"20":0.32114619652183646,"21":-0.0997404999555719,"22":0.34262928353428196,"23":-0.14206268776684378,"24":-0.31305174539486247,"25":0.30322921365468447,"26":-2.2346017029773475,"27":-2.295422087904004,"28":-0.8748512349838349},"weightChange":{"0":0.0,"1":0.0,"2":0.0,"3":0.0,"4":0.0,"5":0.0,"6":0.0,"7":0.0,"8":0.0,"9":0.0,"10":0.0,"11":0.0,"12":0.0,"13":0.0,"14":0.0,"15":0.0,"16":0.0,"17":0.0,"18":0.0,"19":0.0,"20":0.0,"21":0.0,"22":0.0,"23":0.0,"24":0.0,"25":0.0,"26":0.0,"27":0.0,"28":0.0},"personalWeight":-0.5611181774870219,"id":33},{"ID":34,"value":1.0,"layer":1,"target":0.9999999063135104,"learningRate":0.3,"weights":{"0":-20.659339795659264,"1":-3.8930659792662277,"2":-7.773965172443299,"3":-4.946037991451269,"4":7.877551804872273,"5":3.6814488678992623,"6":17.09004580989305,"7":-6.281301070131351,"8":22.7994198410815,"9":0.0655026679480687,"10":5.816756975640256,"11":2.7314455191632523,"12":9.169479681614042,"13":-0.3710715674354651,"14":8.352922813657264,"15":2.7487765592657882,"16":-22.82688593427352,"17":0.29864467354232843,"18":4.5722561377285516,"19":4.587543112956519,"20":4.685898599432738,"21":4.361041193305744,"22":5.286898663644642,"23":4.783900463224311,"24":4.387490406909851,"25":2.6192071110542012,"26":18.1401441071741,"27":18.19157969601884,"28":-42.78225565397592},"weightChange":{"0":0.0,"1":0.0,"2":0.0,"3":0.0,"4":0.0,"5":0.0,"6":0.0,"7":0.0,"8":0.0,"9":0.0,"10":0.0,"11":0.0,"12":0.0,"13":0.0,"14":0.0,"15":0.0,"16":0.0,"17":0.0,"18":0.0,"19":0.0,"20":0.0,"21":0.0,"22":0.0,"23":0.0,"24":0.0,"25":0.0,"26":0.0,"27":0.0,"28":0.0},"personalWeight":9.33549201658764,"id":34},{"ID":35,"value":0.0,"layer":1,"target":5.988630265312237E-6,"learningRate":0.3,"weights":{"0":0.5946830829633258,"1":0.2054894404489393,"2":0.4097661848539863,"3":0.5618021637536345,"4":0.5344660408270725,"5":0.38084481515589286,"6":0.847802812042614,"7":0.7121103150199936,"8":-0.30383779235411923,"9":0.4390997548264143,"10":-0.16524345866301265,"11":0.5491673672352752,"12":0.18783457646335028,"13":0.5276857623907973,"14":0.6085236914829946,"15":0.7824091844781267,"16":0.3522040903052536,"17":0.7908972302526244,"18":-0.2161164537029008,"19":-0.007510101840120206,"20":-0.5413868337596137,"21":-0.6579412609499062,"22":-0.2625558696161853,"23":0.045982402565402376,"24":0.023727203254516813,"25":0.30239617637844335,"26":-2.6118036399211757,"27":-1.8062961666922837,"28":-1.5469425776042358},"weightChange":{"0":0.0,"1":0.0,"2":0.0,"3":0.0,"4":0.0,"5":0.0,"6":0.0,"7":0.0,"8":0.0,"9":0.0,"10":0.0,"11":0.0,"12":0.0,"13":0.0,"14":0.0,"15":0.0,"16":0.0,"17":0.0,"18":0.0,"19":0.0,"20":0.0,"21":0.0,"22":0.0,"23":0.0,"24":0.0,"25":0.0,"26":0.0,"27":0.0,"28":0.0},"personalWeight":-0.6328551827403459,"id":35},{"ID":36,"value":0.0,"layer":1,"target":2.233870474513383E-5,"learningRate":0.3,"weights":{"0":-0.01717271317443276,"1":0.30944919486622796,"2":0.4766420577083082,"3":0.7062354854923474,"4":0.5495452532254229,"5":0.39535063326391506,"6":0.1805591707975114,"7":0.28726040180719625,"8":-0.32099724708056415,"9":-0.3412656432797494,"10":0.07154306032544286,"11":0.5976415420267336,"12":0.26780939531289505,"13":-0.12390911052566472,"14":-0.21130442930866028,"15":0.6403516928562856,"16":0.6409034159918472,"17":0.23647268067229713,"18":-0.059032129632992744,"19":0.12170356632548582,"20":-0.1987129651146862,"21":-0.306985185203175,"22":-0.3664451728070599,"23":0.17880109927443935,"24":-0.19210423903976045,"25":-0.14156192110327653,"26":-1.6756150898506785,"27":-1.642577943606193,"28":-1.745930710309836},"weightChange":{"0":0.0,"1":0.0,"2":0.0,"3":0.0,"4":0.0,"5":0.0,"6":0.0,"7":0.0,"8":0.0,"9":0.0,"10":0.0,"11":0.0,"12":0.0,"13":0.0,"14":0.0,"15":0.0,"16":0.0,"17":0.0,"18":0.0,"19":0.0,"20":0.0,"21":0.0,"22":0.0,"23":0.0,"24":0.0,"25":0.0,"26":0.0,"27":0.0,"28":0.0},"personalWeight":-0.7542524999832998,"id":36},{"ID":37,"value":0.0,"layer":1,"target":2.0440416633673915E-5,"learningRate":0.3,"weights":{"0":0.631247156730156,"1":0.12586262071247856,"2":0.6220941961631398,"3":0.3799216674178565,"4":0.6078555946707795,"5":0.24840281318005233,"6":0.016527527541488753,"7":0.31688028425792664,"8":-0.22371507450141184,"9":0.33329501083354635,"10":0.08092434373922085,"11":0.16109610757299403,"12":-0.3204232663032058,"13":0.0352327498715589,"14":-0.084588743223577,"15":0.048906087862204545,"16":0.6575411110623313,"17":0.6993051159595461,"18":0.11801770352168428,"19":-0.05707998324909077,"20":-0.4063099436173128,"21":-0.49707881113530034,"22":-0.14401402619516918,"23":0.34528894279613814,"24":-0.36867053055373566,"25":-0.03707984132771342,"26":-1.655130934380898,"27":-1.8380601726059187,"28":-1.7189789262875452},"weightChange":{"0":0.0,"1":0.0,"2":0.0,"3":0.0,"4":0.0,"5":0.0,"6":0.0,"7":0.0,"8":0.0,"9":0.0,"10":0.0,"11":0.0,"12":0.0,"13":0.0,"14":0.0,"15":0.0,"16":0.0,"17":0.0,"18":0.0,"19":0.0,"20":0.0,"21":0.0,"22":0.0,"23":0.0,"24":0.0,"25":0.0,"26":0.0,"27":0.0,"28":0.0},"personalWeight":-0.677502713916314,"id":37},{"ID":38,"value":0.0,"layer":1,"target":1.62307356792041E-5,"learningRate":0.3,"weights":{"0":0.6693587783933306,"1":0.449652662267597,"2":0.5407953601928203,"3":0.70294880389354,"4":0.2740119556454534,"5":0.4267954165816119,"6":0.8607376995332264,"7":0.23948111232358055,"8":-0.03404048837598121,"9":-0.11436484412458639,"10":-0.15492819438887034,"11":0.5048704611078502,"12":0.3808813154971245,"13":0.42763384553918715,"14":0.3271095626320378,"15":0.6431478218484802,"16":0.312813802447128,"17":0.3154024743974596,"18":-0.14214272731410144,"19":-0.28371633902349336,"20":0.4061725834702882,"21":0.012026944097071675,"22":0.08943605954354049,"23":0.015823832686290864,"24":-0.4827449459075993,"25":0.6378032103556444,"26":-2.0465421161588635,"27":-1.9125043662967052,"28":-1.4821515351270385},"weightChange":{"0":0.0,"1":0.0,"2":0.0,"3":0.0,"4":0.0,"5":0.0,"6":0.0,"7":0.0,"8":0.0,"9":0.0,"10":0.0,"11":0.0,"12":0.0,"13":0.0,"14":0.0,"15":0.0,"16":0.0,"17":0.0,"18":0.0,"19":0.0,"20":0.0,"21":0.0,"22":0.0,"23":0.0,"24":0.0,"25":0.0,"26":0.0,"27":0.0,"28":0.0},"personalWeight":-0.9229569115721847,"id":38},{"ID":39,"value":0.0,"layer":1,"target":1.5690620853010896E-5,"learningRate":0.3,"weights":{"0":0.7180152651048283,"1":0.20231987700775225,"2":0.4197277821269795,"3":0.9131453278891939,"4":0.5226476909940264,"5":0.4842881599380716,"6":0.805906270027556,"7":0.8829072303687963,"8":-0.2729892818228375,"9":-0.11973367588693169,"10":0.3257068118071454,"11":0.16394927201694967,"12":0.10322737997733009,"13":-0.17025930029073857,"14":0.37217063790439,"15":0.25694459864445335,"16":0.5486878967244936,"17":-0.08530676983400026,"18":-0.43593924514691007,"19":0.38025166306617086,"20":-0.4917166801381041,"21":0.11987050868113495,"22":0.1367717825425419,"23":-0.4470965237654455,"24":0.23892418570675927,"25":-0.2727446125032066,"26":-2.0596060222161716,"27":-1.5981486591270437,"28":-1.5103970080825746},"weightChange":{"0":0.0,"1":0.0,"2":0.0,"3":0.0,"4":0.0,"5":0.0,"6":0.0,"7":0.0,"8":0.0,"9":0.0,"10":0.0,"11":0.0,"12":0.0,"13":0.0,"14":0.0,"15":0.0,"16":0.0,"17":0.0,"18":0.0,"19":0.0,"20":0.0,"21":0.0,"22":0.0,"23":0.0,"24":0.0,"25":0.0,"26":0.0,"27":0.0,"28":0.0},"personalWeight":-0.8202104077228038,"id":39},{"ID":40,"value":0.0,"layer":1,"target":6.524509285940715E-6,"learningRate":0.3,"weights":{"0":0.6216395510440622,"1":0.8698652472662406,"2":0.2578340400119314,"3":0.6500443039261115,"4":0.6998280031882248,"5":0.3044201660036304,"6":0.46933328290580895,"7":0.5822328120478747,"8":0.23932572101146074,"9":-0.20003024583368442,"10":0.18018427202473644,"11":-0.02831741390717893,"12":0.5274263227658897,"13":-0.05024321513182433,"14":-0.03861255080299583,"15":0.6546054396496199,"16":0.6184163545338204,"17":0.6253110421341364,"18":-0.2986650657529352,"19":-0.27616754456364667,"20":-0.5970053925909894,"21":0.26465667334924514,"22":0.22084438197066777,"23":-0.24742187899398224,"24":-0.1166717714598318,"25":-0.14767385036881506,"26":-1.7212786176745327,"27":-2.1304819629469924,"28":-1.9670675024169613},"weightChange":{"0":0.0,"1":0.0,"2":0.0,"3":0.0,"4":0.0,"5":0.0,"6":0.0,"7":0.0,"8":0.0,"9":0.0,"10":0.0,"11":0.0,"12":0.0,"13":0.0,"14":0.0,"15":0.0,"16":0.0,"17":0.0,"18":0.0,"19":0.0,"20":0.0,"21":0.0,"22":0.0,"23":0.0,"24":0.0,"25":0.0,"26":0.0,"27":0.0,"28":0.0},"personalWeight":-1.0531746443842247,"id":40},{"ID":41,"value":0.0,"layer":1,"target":6.809109364731622E-6,"learningRate":0.3,"weights":{"0":0.2504233016160068,"1":0.13174403582928565,"2":0.6379832567772785,"3":0.47430019812748064,"4":0.37396730762174235,"5":0.5582523896174224,"6":0.9445417089608095,"7":0.4063669598310475,"8":0.2772898659204319,"9":-0.09240504549343481,"10":-0.064286360488793,"11":0.10824321658200022,"12":-0.09305432016970845,"13":-0.10201319702715407,"14":0.19089232027548425,"15":0.33110943574389057,"16":-0.05229144187253138,"17":0.01713802519808444,"18":-0.3977869215272832,"19":-0.29676391913828654,"20":0.28884258888101927,"21":-0.3930259968546819,"22":-0.5530366652067075,"23":-0.5892238009415575,"24":0.24411381156856324,"25":-0.17757315024206707,"26":-1.50217839487432,"27":-2.0774644052972273,"28":-1.8080915054604112},"weightChange":{"0":0.0,"1":0.0,"2":0.0,"3":0.0,"4":0.0,"5":0.0,"6":0.0,"7":0.0,"8":0.0,"9":0.0,"10":0.0,"11":0.0,"12":0.0,"13":0.0,"14":0.0,"15":0.0,"16":0.0,"17":0.0,"18":0.0,"19":0.0,"20":0.0,"21":0.0,"22":0.0,"23":0.0,"24":0.0,"25":0.0,"26":0.0,"27":0.0,"28":0.0},"personalWeight":-0.6913943823016883,"id":41},{"ID":42,"value":0.0,"layer":1,"target":2.596155029082458E-6,"learningRate":0.3,"weights":{"0":0.1611523996532101,"1":0.572465994705243,"2":0.7778724277340322,"3":0.24536904910756244,"4":0.4689783089708202,"5":0.5274539822710833,"6":0.3534814500982236,"7":0.07593327615409134,"8":-0.3965239531507794,"9":0.11168547970845742,"10":-0.07832467809382913,"11":0.16352904756355946,"12":0.5841367373052709,"13":0.6052780437639395,"14":0.0972567933294223,"15":0.19588798537533123,"16":0.12068126979958815,"17":0.647179559795357,"18":-0.07444877698711894,"19":-0.22059702197295875,"20":0.03340713609399251,"21":-0.45056581588893085,"22":-0.5466291107666994,"23":-0.45034995770336483,"24":-0.4058705311386673,"25":-0.13858948193182558,"26":-1.5950375913613177,"27":-2.507801406904636,"28":-1.626379878094539},"weightChange":{"0":0.0,"1":0.0,"2":0.0,"3":0.0,"4":0.0,"5":0.0,"6":0.0,"7":0.0,"8":0.0,"9":0.0,"10":0.0,"11":0.0,"12":0.0,"13":0.0,"14":0.0,"15":0.0,"16":0.0,"17":0.0,"18":0.0,"19":0.0,"20":0.0,"21":0.0,"22":0.0,"23":0.0,"24":0.0,"25":0.0,"26":0.0,"27":0.0,"28":0.0},"personalWeight":-0.34488037499606333,"id":42},{"ID":43,"value":0.0,"layer":1,"target":5.4119384983168697E-20,"learningRate":0.3,"weights":{"0":-2.2351407057699317,"1":-7.511313952710913,"2":-9.789593725348169,"3":2.4455576757941335,"4":0.9713648342225089,"5":-6.19221894998643,"6":-7.64368339590022,"7":-0.4444517955694214,"8":-17.208169994992165,"9":-1.5926655308255329,"10":2.3814449076280892,"11":-1.1928754061307174,"12":18.637995008932045,"13":1.7033477366996654,"14":-16.551397827010362,"15":-5.761208486833182,"16":-11.394653649304276,"17":-5.690250704869127,"18":-0.007549292847367215,"19":-0.45265089453498725,"20":-0.40335027785323835,"21":-0.20977350903870168,"22":-0.6464953498523608,"23":0.008192376169902826,"24":-0.33916713109134683,"25":0.12772958427218128,"26":-3.260946347591066,"27":-3.1312833691939077,"28":3.137845993333936},"weightChange":{"0":0.0,"1":0.0,"2":0.0,"3":0.0,"4":0.0,"5":0.0,"6":0.0,"7":0.0,"8":0.0,"9":0.0,"10":0.0,"11":0.0,"12":0.0,"13":0.0,"14":0.0,"15":0.0,"16":0.0,"17":0.0,"18":0.0,"19":0.0,"20":0.0,"21":0.0,"22":0.0,"23":0.0,"24":0.0,"25":0.0,"26":0.0,"27":0.0,"28":0.0},"personalWeight":-0.9059568708426929,"id":43},{"ID":44,"value":0.0,"layer":1,"target":2.8016766103558314E-36,"learningRate":0.3,"weights":{"0":4.7168765131064,"1":-11.422709044457624,"2":-1.0657236106307686,"3":1.738016135713876,"4":-30.884013089600092,"5":-8.95524551475935,"6":-39.69873274514464,"7":5.567202251127679,"8":-57.37093003071617,"9":-0.8220854041915294,"10":-42.25142266400472,"11":-1.678471365834603,"12":-49.976488864501874,"13":0.7965540542907799,"14":-41.42841517496733,"15":-3.331395041968712,"16":3.7689836487210524,"17":0.5158808666079231,"18":1.5285217300645773,"19":1.7130438964926458,"20":1.5425813654449483,"21":1.4975809224464278,"22":1.5243074556826564,"23":2.1185263550329894,"24":1.6028203872510038,"25":1.1045985838488466,"26":6.625088529840822,"27":6.589831218679444,"28":-29.968970308811276},"weightChange":{"0":0.0,"1":0.0,"2":0.0,"3":0.0,"4":0.0,"5":0.0,"6":0.0,"7":0.0,"8":0.0,"9":0.0,"10":0.0,"11":0.0,"12":0.0,"13":0.0,"14":0.0,"15":0.0,"16":0.0,"17":0.0,"18":0.0,"19":0.0,"20":0.0,"21":0.0,"22":0.0,"23":0.0,"24":0.0,"25":0.0,"26":0.0,"27":0.0,"28":0.0},"personalWeight":3.370135967210712,"id":44},{"ID":45,"value":0.0,"layer":1,"target":1.5463065641510423E-17,"learningRate":0.3,"weights":{"0":-0.21807947758160914,"1":-4.078560195205929,"2":-11.914990917541747,"3":0.7123887395922215,"4":3.430173878881985,"5":-1.7312129072302473,"6":-10.61489956252085,"7":0.3073664587621849,"8":-13.980114533126082,"9":-1.3549035579211248,"10":2.621850326560757,"11":1.2622577024491852,"12":-14.74252099623384,"13":-0.5809954027723305,"14":3.8427735275182306,"15":-1.4203303512339747,"16":-0.6329589801283632,"17":-1.5340615435918903,"18":-0.958591631875121,"19":-1.1639627362590201,"20":-1.0624541907638185,"21":-1.0554793864209862,"22":-0.9962365821712434,"23":-1.1886233770801373,"24":-1.4770446704104574,"25":0.02778434165886295,"26":-5.494096872384167,"27":-5.291971873600143,"28":3.3572572465902897},"weightChange":{"0":0.0,"1":0.0,"2":0.0,"3":0.0,"4":0.0,"5":0.0,"6":0.0,"7":0.0,"8":0.0,"9":0.0,"10":0.0,"11":0.0,"12":0.0,"13":0.0,"14":0.0,"15":0.0,"16":0.0,"17":0.0,"18":0.0,"19":0.0,"20":0.0,"21":0.0,"22":0.0,"23":0.0,"24":0.0,"25":0.0,"26":0.0,"27":0.0,"28":0.0},"personalWeight":-2.5259564401766275,"id":45},{"ID":46,"value":0.0,"layer":1,"target":8.056726670107497E-6,"learningRate":0.3,"weights":{"0":0.742706481863802,"1":0.18729522488492184,"2":0.5091865430838945,"3":0.17610236711527694,"4":0.5184732195095558,"5":0.5221759369196506,"6":0.8142341130795971,"7":0.4281656599702651,"8":-0.1214844275856238,"9":-0.04820654531975083,"10":-0.033246412623492996,"11":0.6854727056394782,"12":0.19000316222540595,"13":-0.09378796645278081,"14":0.31016682218745617,"15":0.22598188571551123,"16":0.7466794110175884,"17":0.3935777700541986,"18":-0.3928582157942288,"19":-0.05284501529084815,"20":-0.31929154285479183,"21":0.21779132806806603,"22":0.28188143917655933,"23":-0.22164526764620637,"24":0.3618183360771434,"25":-0.061304672852829,"26":-1.5167677161226971,"27":-2.422099565729413,"28":-2.029849231780587},"weightChange":{"0":0.0,"1":0.0,"2":0.0,"3":0.0,"4":0.0,"5":0.0,"6":0.0,"7":0.0,"8":0.0,"9":0.0,"10":0.0,"11":0.0,"12":0.0,"13":0.0,"14":0.0,"15":0.0,"16":0.0,"17":0.0,"18":0.0,"19":0.0,"20":0.0,"21":0.0,"22":0.0,"23":0.0,"24":0.0,"25":0.0,"26":0.0,"27":0.0,"28":0.0},"personalWeight":-0.5146838123247391,"id":46},{"ID":47,"value":0.0,"layer":1,"target":1.748504763224707E-11,"learningRate":0.3,"weights":{"0":25.256060200642686,"1":-2.56191682378691,"2":-12.42943821153579,"3":-1.4399126562103453,"4":0.6262056800858814,"5":-0.3345802428459385,"6":-21.186599982627758,"7":2.3993725072881893,"8":-38.08419015102694,"9":3.7859733361861614,"10":15.361439243675548,"11":8.404816241859837,"12":-31.82557879323752,"13":-3.573987387325416,"14":-4.392643931259269,"15":-2.766902967605424,"16":24.133761930728614,"17":7.101219993784321,"18":0.07732311352675404,"19":-0.08685061225415276,"20":0.640218918210695,"21":0.24420581573691083,"22":0.06985082818260181,"23":-0.0037471858399657307,"24":0.5238962172579089,"25":0.0936470195095165,"26":-0.9721276240939856,"27":-0.4607732062912793,"28":-4.660132843748424},"weightChange":{"0":0.0,"1":0.0,"2":0.0,"3":0.0,"4":0.0,"5":0.0,"6":0.0,"7":0.0,"8":0.0,"9":0.0,"10":0.0,"11":0.0,"12":0.0,"13":0.0,"14":0.0,"15":0.0,"16":0.0,"17":0.0,"18":0.0,"19":0.0,"20":0.0,"21":0.0,"22":0.0,"23":0.0,"24":0.0,"25":0.0,"26":0.0,"27":0.0,"28":0.0},"personalWeight":-0.40520142239064183,"id":47},{"ID":48,"value":0.0,"layer":1,"target":6.1729464516367094E-6,"learningRate":0.3,"weights":{"0":0.4455376886683637,"1":0.512866773555294,"2":0.0911128237567192,"3":0.7723524721899747,"4":0.3088984199029422,"5":0.08484964010051604,"6":0.30236653864113544,"7":0.42540693551659176,"8":0.09522764552210305,"9":0.07291344549639957,"10":0.20267274641236196,"11":0.523531316793168,"12":-0.10856739180203266,"13":0.24345739811439923,"14":0.007832648863534682,"15":0.0960276842273426,"16":0.22841550648774173,"17":0.0749352675506312,"18":-0.20450475298237358,"19":-0.6069110612956319,"20":-0.03381389632049001,"21":0.14853706050576837,"22":-0.1987050352988331,"23":0.3169094578903816,"24":0.2063448105471852,"25":0.5315911857882982,"26":-2.4016760261345587,"27":-1.715213255349307,"28":-1.5514753375692862},"weightChange":{"0":0.0,"1":0.0,"2":0.0,"3":0.0,"4":0.0,"5":0.0,"6":0.0,"7":0.0,"8":0.0,"9":0.0,"10":0.0,"11":0.0,"12":0.0,"13":0.0,"14":0.0,"15":0.0,"16":0.0,"17":0.0,"18":0.0,"19":0.0,"20":0.0,"21":0.0,"22":0.0,"23":0.0,"24":0.0,"25":0.0,"26":0.0,"27":0.0,"28":0.0},"personalWeight":-1.0966246944737965,"id":48},{"ID":49,"value":0.0,"layer":1,"target":9.444357158278409E-6,"learningRate":0.3,"weights":{"0":0.40728002838270794,"1":0.05955847499836778,"2":0.5902728454362525,"3":0.45375061846434467,"4":-0.2255998057439649,"5":0.33331220091219843,"6":0.6058330290160263,"7":0.45971771469888545,"8":-0.08116444203259042,"9":0.31467804226021684,"10":0.25731674394818665,"11":0.2457083730947545,"12":-0.24146903859931168,"13":-0.17045393103519405,"14":-0.06599823677405452,"15":0.05839017936230494,"16":0.7238677530961152,"17":0.7767098950867959,"18":0.03158423520179989,"19":0.1915733595864323,"20":-0.31811039892013127,"21":-0.560641966956046,"22":-0.12798387862116042,"23":-0.5746225031251407,"24":-0.34669162754387617,"25":-0.0394316185730143,"26":-2.4107594390437073,"27":-1.580442700543208,"28":-1.504155389129409},"weightChange":{"0":0.0,"1":0.0,"2":0.0,"3":0.0,"4":0.0,"5":0.0,"6":0.0,"7":0.0,"8":0.0,"9":0.0,"10":0.0,"11":0.0,"12":0.0,"13":0.0,"14":0.0,"15":0.0,"16":0.0,"17":0.0,"18":0.0,"19":0.0,"20":0.0,"21":0.0,"22":0.0,"23":0.0,"24":0.0,"25":0.0,"26":0.0,"27":0.0,"28":0.0},"personalWeight":-0.7347498227752951,"id":49},{"ID":50,"value":0.0,"layer":1,"target":5.37825205840534E-6,"learningRate":0.3,"weights":{"0":0.1308664415961931,"1":0.39259055137534593,"2":0.8437054884086873,"3":0.24005290831670617,"4":0.6163107388999077,"5":0.16943316798416128,"6":0.0741804093366091,"7":9.092640078644158E-4,"8":0.2775150945242628,"9":-0.011237222885604296,"10":0.2606584844756418,"11":0.6090020480570998,"12":-0.19192208839916583,"13":0.4141602274026741,"14":0.28547293502847526,"15":0.29644949926164726,"16":-0.09130971430977866,"17":0.05296960407248038,"18":0.003824870375764982,"19":0.2505634350152416,"20":0.32777324742830705,"21":-1.6534775216062086E-4,"22":-0.18902158884915143,"23":0.21172324089970135,"24":-0.5863423137985833,"25":0.19649911757888164,"26":-2.4930249089004,"27":-1.926194926862391,"28":-1.3486106551491555},"weightChange":{"0":0.0,"1":0.0,"2":0.0,"3":0.0,"4":0.0,"5":0.0,"6":0.0,"7":0.0,"8":0.0,"9":0.0,"10":0.0,"11":0.0,"12":0.0,"13":0.0,"14":0.0,"15":0.0,"16":0.0,"17":0.0,"18":0.0,"19":0.0,"20":0.0,"21":0.0,"22":0.0,"23":0.0,"24":0.0,"25":0.0,"26":0.0,"27":0.0,"28":0.0},"personalWeight":-1.13031087076489,"id":50},{"ID":51,"value":0.0,"layer":1,"target":8.832455698408276E-6,"learningRate":0.3,"weights":{"0":0.46409951386303333,"1":0.5505212766543145,"2":0.3264660920092124,"3":0.236329109607646,"4":-0.09921941663025442,"5":0.5841037698957174,"6":0.3878241220409426,"7":0.36432619381679887,"8":-0.22139786576765272,"9":0.4030968425733851,"10":0.4180966339247127,"11":0.5897904910066554,"12":-0.04262804803092734,"13":0.34353857037197644,"14":0.5980978996121833,"15":0.7152044375820571,"16":0.24197388449144208,"17":0.2554129621207126,"18":-0.166506033263354,"19":-0.500946536046488,"20":-0.2590314503295116,"21":-0.5966996628380248,"22":0.12715336811093486,"23":0.03973626821579355,"24":-0.521801856653875,"25":0.2449583458255588,"26":-2.291405393163604,"27":-1.9635551650241458,"28":-1.3859205713104734},"weightChange":{"0":0.0,"1":0.0,"2":0.0,"3":0.0,"4":0.0,"5":0.0,"6":0.0,"7":0.0,"8":0.0,"9":0.0,"10":0.0,"11":0.0,"12":0.0,"13":0.0,"14":0.0,"15":0.0,"16":0.0,"17":0.0,"18":0.0,"19":0.0,"20":0.0,"21":0.0,"22":0.0,"23":0.0,"24":0.0,"25":0.0,"26":0.0,"27":0.0,"28":0.0},"personalWeight":-0.6191090426023154,"id":51},{"ID":52,"value":0.0,"layer":1,"target":4.9895331189985E-6,"learningRate":0.3,"weights":{"0":0.6902331398398587,"1":0.2141005970855121,"2":0.12340584704959186,"3":0.7953151656422878,"4":0.7465349766362597,"5":0.7342000135364023,"6":0.931947861539753,"7":0.33235464814659105,"8":0.1959188580415706,"9":-0.27781014290651895,"10":0.252699011019802,"11":0.14288661256281793,"12":0.42370420034901235,"13":0.3931893028109871,"14":0.7017421830887683,"15":-0.08606306951862999,"16":0.6159021232225704,"17":-0.025523787114874068,"18":0.1249869460890129,"19":-0.25413227822091566,"20":-0.022623449656195598,"21":-0.5778580142477596,"22":-0.24006467197960663,"23":-0.04640035344168037,"24":0.12105789131320319,"25":-0.04948421204877404,"26":-2.1859673452156807,"27":-1.7498171568809466,"28":-1.758519118134157},"weightChange":{"0":0.0,"1":0.0,"2":0.0,"3":0.0,"4":0.0,"5":0.0,"6":0.0,"7":0.0,"8":0.0,"9":0.0,"10":0.0,"11":0.0,"12":0.0,"13":0.0,"14":0.0,"15":0.0,"16":0.0,"17":0.0,"18":0.0,"19":0.0,"20":0.0,"21":0.0,"22":0.0,"23":0.0,"24":0.0,"25":0.0,"26":0.0,"27":0.0,"28":0.0},"personalWeight":-0.8069779650611268,"id":52},{"ID":53,"value":1.0,"layer":1,"target":1.0,"learningRate":0.3,"weights":{"0":13.12343231231754,"1":5.691636723435409,"2":19.585454386590943,"3":4.142795747296333,"4":-19.07384504419655,"5":4.031966837658601,"6":25.630459840688843,"7":-2.2455000098415043,"8":37.68193759628634,"9":10.322036168380746,"10":-11.053452356040314,"11":-7.153268128650134,"12":41.144773251570655,"13":0.17121566952550457,"14":24.917380337352185,"15":-0.6532210255017339,"16":15.729975593691206,"17":0.9660839435822905,"18":2.2429506317632,"19":1.808070361846284,"20":1.846694662977069,"21":1.4533716431646915,"22":1.9728206452549841,"23":1.8112617972627922,"24":1.9944760047265468,"25":1.0707777765812216,"26":6.336267340952752,"27":5.601085297189895,"28":9.067974009830303},"weightChange":{"0":0.0,"1":0.0,