[
  {
    "outputStart": 87,
    "combatantMind": {
      "lastNodeId": 103,
      "nodes": [
        {
          "learningRate": 0.3,
          "ID": 0,
          "value": 0.0,
          "layer": 0,
          "target": 0.0,
          "weights": {},
          "weightChange": {},
          "personalWeight": 0.9569910059387889,
          "id": 0
        },
        {
          "learningRate": 0.3,
          "ID": 1,
          "value": 0.0,
          "layer": 0,
          "target": 0.0,
          "weights": {},
          "weightChange": {},
          "personalWeight": 0.8534497927853241,
          "id": 1
        },
        {
          "learningRate": 0.3,
          "ID": 2,
          "value": 0.0,
          "layer": 0,
          "target": 0.0,
          "weights": {},
          "weightChange": {},
          "personalWeight": 0.30732898047738755,
          "id": 2
        },
        {
          "learningRate": 0.3,
          "ID": 3,
          "value": 0.0,
          "layer": 0,
          "target": 0.0,
          "weights": {},
          "weightChange": {},
          "personalWeight": 0.2602802240800516,
          "id": 3
        },
        {
          "learningRate": 0.3,
          "ID": 4,
          "value": 0.0,
          "layer": 0,
          "target": 0.0,
          "weights": {},
          "weightChange": {},
          "personalWeight": 0.45976185374288814,
          "id": 4
        },
        {
          "learningRate": 0.3,
          "ID": 5,
          "value": 0.0,
          "layer": 0,
          "target": 0.0,
          "weights": {},
          "weightChange": {},
          "personalWeight": 0.49198058453772975,
          "id": 5
        },
        {
          "learningRate": 0.3,
          "ID": 6,
          "value": 0.0,
          "layer": 0,
          "target": 0.0,
          "weights": {},
          "weightChange": {},
          "personalWeight": 0.26234246710581055,
          "id": 6
        },
        {
          "learningRate": 0.3,
          "ID": 7,
          "value": 0.0,
          "layer": 0,
          "target": 0.0,
          "weights": {},
          "weightChange": {},
          "personalWeight": 0.23449392313957595,
          "id": 7
        },
        {
          "learningRate": 0.3,
          "ID": 8,
          "value": 0.0,
          "layer": 0,
          "target": 0.0,
          "weights": {},
          "weightChange": {},
          "personalWeight": 0.8979125736789464,
          "id": 8
        },
        {
          "learningRate": 0.3,
          "ID": 9,
          "value": 1.0,
          "layer": 0,
          "target": 0.0,
          "weights": {},
          "weightChange": {},
          "personalWeight": 9126116.956298545,
          "id": 9
        },
        {
          "learningRate": 0.3,
          "ID": 10,
          "value": 1.0,
          "layer": 0,
          "target": 0.0,
          "weights": {},
          "weightChange": {},
          "personalWeight": -285191.13580413465,
          "id": 10
        },
        {
          "learningRate": 0.3,
          "ID": 11,
          "value": 1.0,
          "layer": 0,
          "target": 0.0,
          "weights": {},
          "weightChange": {},
          "personalWeight": -285190.74704814964,
          "id": 11
        },
        {
          "learningRate": 0.3,
          "ID": 12,
          "value": 1.0,
          "layer": 0,
          "target": 0.0,
          "weights": {},
          "weightChange": {},
          "personalWeight": -285190.853714343,
          "id": 12
        },
        {
          "learningRate": 0.3,
          "ID": 13,
          "value": 0.0,
          "layer": 0,
          "target": 0.0,
          "weights": {},
          "weightChange": {},
          "personalWeight": 154864.24444356814,
          "id": 13
        },
        {
          "learningRate": 0.3,
          "ID": 14,
          "value": 0.0,
          "layer": 0,
          "target": 0.0,
          "weights": {},
          "weightChange": {},
          "personalWeight": 0.4275965511012174,
          "id": 14
        },
        {
          "learningRate": 0.3,
          "ID": 15,
          "value": 0.0,
          "layer": 0,
          "target": 0.0,
          "weights": {},
          "weightChange": {},
          "personalWeight": 0.33770365283954884,
          "id": 15
        },
        {
          "learningRate": 0.3,
          "ID": 16,
          "value": 0.0,
          "layer": 0,
          "target": 0.0,
          "weights": {},
          "weightChange": {},
          "personalWeight": 0.521103679573762,
          "id": 16
        },
        {
          "learningRate": 0.3,
          "ID": 17,
          "value": 0.0,
          "layer": 0,
          "target": 0.0,
          "weights": {},
          "weightChange": {},
          "personalWeight": 0.20067860352557254,
          "id": 17
        },
        {
          "learningRate": 0.3,
          "ID": 18,
          "value": 0.0,
          "layer": 0,
          "target": 0.0,
          "weights": {},
          "weightChange": {},
          "personalWeight": 0.044093928311354835,
          "id": 18
        },
        {
          "learningRate": 0.3,
          "ID": 19,
          "value": 0.0,
          "layer": 0,
          "target": 0.0,
          "weights": {},
          "weightChange": {},
          "personalWeight": 0.9247795624362664,
          "id": 19
        },
        {
          "learningRate": 0.3,
          "ID": 20,
          "value": 0.0,
          "layer": 0,
          "target": 0.0,
          "weights": {},
          "weightChange": {},
          "personalWeight": 0.48230247804522164,
          "id": 20
        },
        {
          "learningRate": 0.3,
          "ID": 21,
          "value": 0.0,
          "layer": 0,
          "target": 0.0,
          "weights": {},
          "weightChange": {},
          "personalWeight": 0.8297033570997409,
          "id": 21
        },
        {
          "learningRate": 0.3,
          "ID": 22,
          "value": 0.0,
          "layer": 0,
          "target": 0.0,
          "weights": {},
          "weightChange": {},
          "personalWeight": 0.9688135235022821,
          "id": 22
        },
        {
          "learningRate": 0.3,
          "ID": 23,
          "value": 1.0,
          "layer": 0,
          "target": 0.0,
          "weights": {},
          "weightChange": {},
          "personalWeight": 9126116.455722312,
          "id": 23
        },
        {
          "learningRate": 0.3,
          "ID": 24,
          "value": 1.0,
          "layer": 0,
          "target": 0.0,
          "weights": {},
          "weightChange": {},
          "personalWeight": -285190.17434729,
          "id": 24
        },
        {
          "learningRate": 0.3,
          "ID": 25,
          "value": 1.0,
          "layer": 0,
          "target": 0.0,
          "weights": {},
          "weightChange": {},
          "personalWeight": -285190.626112784,
          "id": 25
        },
        {
          "learningRate": 0.3,
          "ID": 26,
          "value": 1.0,
          "layer": 0,
          "target": 0.0,
          "weights": {},
          "weightChange": {},
          "personalWeight": -285190.26719720376,
          "id": 26
        },
        {
          "learningRate": 0.3,
          "ID": 27,
          "value": 0.0,
          "layer": 1,
          "target": 5.477142371260118,
          "weights": {
            "0": -1.195086675442734,
            "1": -0.09689855255211616,
            "2": 2.962019805906005,
            "3": -0.7367170698469226,
            "4": -11.381918178437001,
            "5": -43.121311763224526,
            "6": -31.721891849590627,
            "7": -20.291736940096396,
            "8": -37.3133235747449,
            "9": -5.811912995330676,
            "10": -1.586864769472601,
            "11": -1.2359836290588513,
            "12": -1.5628236625364376,
            "13": 5.642387779283204,
            "14": -0.7704726178472172,
            "15": 0.9529037475216069,
            "16": -0.07297080473685018,
            "17": -0.7249398874029076,
            "18": -0.8918749253349186,
            "19": -5.687830823996034,
            "20": -3.002575361194595,
            "21": -2.2547124023452225,
            "22": -10.111164488890395,
            "23": -6.237486709976897,
            "24": -1.5065152043798884,
            "25": -0.7197942982193227,
            "26": -1.4859817746995574
          },
          "weightChange": {
            "0": -0.0,
            "1": -0.0,
            "2": -0.0,
            "3": -0.0,
            "4": -0.0,
            "5": -0.0,
            "6": -0.0,
            "7": -0.0,
            "8": -0.0,
            "9": -5.262270321029273E-13,
            "10": -1.3155675802573182E-13,
            "11": -1.3155675802573182E-13,
            "12": -1.3155675802573182E-13,
            "13": -0.0,
            "14": -0.0,
            "15": -0.0,
            "16": -0.0,
            "17": -0.0,
            "18": -0.0,
            "19": -0.0,
            "20": -0.0,
            "21": -0.0,
            "22": -0.0,
            "23": -5.262270321029273E-13,
            "24": -1.3155675802573182E-13,
            "25": -1.3155675802573182E-13,
            "26": -1.3155675802573182E-13
          },
          "personalWeight": -2.5189932559382697,
          "id": 27
        },
        {
          "learningRate": 0.3,
          "ID": 28,
          "value": 0.0,
          "layer": 1,
          "target": 5.420052454514576,
          "weights": {
            "0": 0.10338099797325442,
            "1": 0.4006417742497265,
            "2": -0.12178585855127652,
            "3": -0.10834030563420492,
            "4": -7.710895163940106,
            "5": -12.84334642162518,
            "6": -12.401478538390165,
            "7": -4.352176163812734,
            "8": -12.150020210995889,
            "9": -4.3124422889599785,
            "10": -0.3775048447417,
            "11": -1.0907582447059183,
            "12": -0.12734853187259682,
            "13": -4.27533384974242,
            "14": 0.18580502009327388,
            "15": 0.5459581430177011,
            "16": 0.9546432888933415,
            "17": 0.021860826293469908,
            "18": -0.26073157509865313,
            "19": -2.5218927573564094,
            "20": -0.5744509471461507,
            "21": -0.6523641606407806,
            "22": -6.457030111010444,
            "23": -3.3775229987541797,
            "24": -1.0529666482760895,
            "25": -0.9622488244700006,
            "26": -0.4544726733182396
          },
          "weightChange": {
            "0": -0.0,
            "1": -0.0,
            "2": -0.0,
            "3": -0.0,
            "4": -0.0,
            "5": -0.0,
            "6": -0.0,
            "7": -0.0,
            "8": -0.0,
            "9": -3.8682916810781945E-8,
            "10": -9.670729202695486E-9,
            "11": -9.670729202695486E-9,
            "12": -9.670729202695486E-9,
            "13": -0.0,
            "14": -0.0,
            "15": -0.0,
            "16": -0.0,
            "17": -0.0,
            "18": -0.0,
            "19": -0.0,
            "20": -0.0,
            "21": -0.0,
            "22": -0.0,
            "23": -3.8682916810781945E-8,
            "24": -9.670729202695486E-9,
            "25": -9.670729202695486E-9,
            "26": -9.670729202695486E-9
          },
          "personalWeight": -2.0385399065236482,
          "id": 28
        },
        {
          "learningRate": 0.3,
          "ID": 29,
          "value": 0.0,
          "layer": 1,
          "target": 7.147079968428332,
          "weights": {
            "0": -0.5853745732482059,
            "1": -1.4459269567205504,
            "2": 0.21132487056687205,
            "3": 0.40616445091002523,
            "4": -21.122980870927176,
            "5": -35.76701167752304,
            "6": -32.00852383597076,
            "7": -6.181935865684863,
            "8": -33.96917780510754,
            "9": -3.0294859412650825,
            "10": -0.4050186170611084,
            "11": -0.31688436135054365,
            "12": -0.18653697962429458,
            "13": -1.0903306054734714,
            "14": -0.11613718208715496,
            "15": -1.0432597005033741,
            "16": -3.0362027544373005,
            "17": 0.25866002282677464,
            "18": -2.1646360153142608,
            "19": -0.9962430508558715,
            "20": 1.180766085245478,
            "21": 1.1456651662170976,
            "22": -10.72734319283625,
            "23": -3.156077205786012,
            "24": 0.0776264348450887,
            "25": -0.21345302301518213,
            "26": -0.3583311503014479
          },
          "weightChange": {
            "0": -0.0,
            "1": -0.0,
            "2": -0.0,
            "3": -0.0,
            "4": -0.0,
            "5": -0.0,
            "6": -0.0,
            "7": -0.0,
            "8": -0.0,
            "9": -6.174251515155905E-6,
            "10": -1.5435628787889762E-6,
            "11": -1.5435628787889762E-6,
            "12": -1.5435628787889762E-6,
            "13": -0.0,
            "14": -0.0,
            "15": -0.0,
            "16": -0.0,
            "17": -0.0,
            "18": -0.0,
            "19": -0.0,
            "20": -0.0,
            "21": -0.0,
            "22": -0.0,
            "23": -6.174251515155905E-6,
            "24": -1.5435628787889762E-6,
            "25": -1.5435628787889762E-6,
            "26": -1.5435628787889762E-6
          },
          "personalWeight": -1.5825381616196201,
          "id": 29
        },
        {
          "learningRate": 0.3,
          "ID": 30,
          "value": 0.0,
          "layer": 1,
          "target": 7.312101414999356,
          "weights": {
            "0": -4.251888940629317,
            "1": -0.1286860189644497,
            "2": 1.5774305964512942,
            "3": -4.09517270103067,
            "4": -9.53377799431314,
            "5": -49.17524043129841,
            "6": -38.27885492852518,
            "7": -9.477824143020305,
            "8": -45.07596112321921,
            "9": -7.8300515768312104,
            "10": -1.4226578246241102,
            "11": -1.5526477334310227,
            "12": -1.7480598007899106,
            "13": 0.18386103357020708,
            "14": 0.05800283861943903,
            "15": -1.6376960699493894,
            "16": -3.26047621224268,
            "17": -2.467965747686135,
            "18": 3.3502698017765384,
            "19": -2.160395657995461,
            "20": -8.626046964061741,
            "21": -2.008870731711139,
            "22": -18.94794228916517,
            "23": -7.8780748122561945,
            "24": -1.4235130331638852,
            "25": -1.9203469749784858,
            "26": -1.8328331892480318
          },
          "weightChange": {
            "0": -0.0,
            "1": -0.0,
            "2": -0.0,
            "3": -0.0,
            "4": -0.0,
            "5": -0.0,
            "6": -0.0,
            "7": -0.0,
            "8": -0.0,
            "9": -7.263024089954855E-17,
            "10": -1.8157560224887136E-17,
            "11": -1.8157560224887136E-17,
            "12": -1.8157560224887136E-17,
            "13": -0.0,
            "14": -0.0,
            "15": -0.0,
            "16": -0.0,
            "17": -0.0,
            "18": -0.0,
            "19": -0.0,
            "20": -0.0,
            "21": -0.0,
            "22": -0.0,
            "23": -7.263024089954855E-17,
            "24": -1.8157560224887136E-17,
            "25": -1.8157560224887136E-17,
            "26": -1.8157560224887136E-17
          },
          "personalWeight": -3.477546125464524,
          "id": 30
        },
        {
          "learningRate": 0.3,
          "ID": 31,
          "value": 0.0,
          "layer": 1,
          "target": 6.354387948832023,
          "weights": {
            "0": 1.4789969314580567,
            "1": 0.14077358879588575,
            "2": -2.29202792590118,
            "3": -0.20190169603119765,
            "4": -13.463418117082488,
            "5": -40.057024863887214,
            "6": -21.818299702556228,
            "7": -0.0481513196702909,
            "8": -46.12656851476583,
            "9": -5.164352254253329,
            "10": -1.2681784339115527,
            "11": -0.9829309339538042,
            "12": -1.3181728171698301,
            "13": 2.420703016476093,
            "14": 1.449341824626505,
            "15": 0.449231093449406,
            "16": 0.7939759041727573,
            "17": 0.041653684592609395,
            "18": -4.638585380229633,
            "19": -5.3415582855660135,
            "20": -0.16797580107172008,
            "21": -2.7873407031920427,
            "22": -15.883054274298443,
            "23": -4.574761705990513,
            "24": -1.1122831920981526,
            "25": -0.8038772801482954,
            "26": -0.6536577493937825
          },
          "weightChange": {
            "0": -0.0,
            "1": -0.0,
            "2": -0.0,
            "3": -0.0,
            "4": -0.0,
            "5": -0.0,
            "6": -0.0,
            "7": -0.0,
            "8": -0.0,
            "9": -3.1467176572600196E-10,
            "10": -7.866794143150049E-11,
            "11": -7.866794143150049E-11,
            "12": -7.866794143150049E-11,
            "13": -0.0,
            "14": -0.0,
            "15": -0.0,
            "16": -0.0,
            "17": -0.0,
            "18": -0.0,
            "19": -0.0,
            "20": -0.0,
            "21": -0.0,
            "22": -0.0,
            "23": -3.1467176572600196E-10,
            "24": -7.866794143150049E-11,
            "25": -7.866794143150049E-11,
            "26": -7.866794143150049E-11
          },
          "personalWeight": -1.874005679957636,
          "id": 31
        },
        {
          "learningRate": 0.3,
          "ID": 32,
          "value": 0.0,
          "layer": 1,
          "target": 3.8850974281378474,
          "weights": {
            "0": -0.5842316624329513,
            "1": -0.015305013337116048,
            "2": 0.7333602672022868,
            "3": 0.6987080222887385,
            "4": -6.960494769917644,
            "5": -10.163913138511159,
            "6": -6.520472148054568,
            "7": -5.440290232189703,
            "8": -9.27523776466244,
            "9": -3.404124514980216,
            "10": -0.593226076796728,
            "11": -0.9423153164790257,
            "12": -0.8784444389683194,
            "13": 0.07982532877319616,
            "14": 0.1650703465254104,
            "15": 0.4667381997776271,
            "16": 0.7583556202767601,
            "17": 0.4202366698892266,
            "18": 0.32119149848739464,
            "19": -1.643854928895084,
            "20": 2.0031661849721063,
            "21": 0.29582602477242387,
            "22": -5.686147562226845,
            "23": -3.3189481744171947,
            "24": -0.6093954538508551,
            "25": -0.31089002799417254,
            "26": -0.8697673060418623
          },
          "weightChange": {
            "0": -0.0,
            "1": -0.0,
            "2": -0.0,
            "3": -0.0,
            "4": -0.0,
            "5": -0.0,
            "6": -0.0,
            "7": -0.0,
            "8": -0.0,
            "9": -3.752582998914222E-7,
            "10": -9.381457497285555E-8,
            "11": -9.381457497285555E-8,
            "12": -9.381457497285555E-8,
            "13": -0.0,
            "14": -0.0,
            "15": -0.0,
            "16": -0.0,
            "17": -0.0,
            "18": -0.0,
            "19": -0.0,
            "20": -0.0,
            "21": -0.0,
            "22": -0.0,
            "23": -3.752582998914222E-7,
            "24": -9.381457497285555E-8,
            "25": -9.381457497285555E-8,
            "26": -9.381457497285555E-8
          },
          "personalWeight": -1.2977811015600302,
          "id": 32
        },
        {
          "learningRate": 0.3,
          "ID": 33,
          "value": 0.0,
          "layer": 1,
          "target": 5.658589011622886,
          "weights": {
            "0": -4.3034981247944435,
            "1": 0.12721429778325766,
            "2": -0.8812575580941909,
            "3": -4.078562793393759,
            "4": -6.761133833649236,
            "5": -15.104289908401988,
            "6": -10.089394373279088,
            "7": -7.514134970521328,
            "8": -16.677397899338697,
            "9": -4.653222611613996,
            "10": -0.7023101241234555,
            "11": -0.9714902584840833,
            "12": -0.8289947369546193,
            "13": -0.7226373748378436,
            "14": -0.0985613234299564,
            "15": 0.8463557497184967,
            "16": -0.21449783743070358,
            "17": 0.7694972407034766,
            "18": 2.591443923275461,
            "19": -4.544375927427482,
            "20": -2.898641884402821,
            "21": -1.3335181307190778,
            "22": -4.917249154926249,
            "23": -3.8656070224417745,
            "24": -1.0673672151394267,
            "25": -0.8741781155888909,
            "26": -1.0309603613312917
          },
          "weightChange": {
            "0": -0.0,
            "1": -0.0,
            "2": -0.0,
            "3": -0.0,
            "4": -0.0,
            "5": -0.0,
            "6": -0.0,
            "7": -0.0,
            "8": -0.0,
            "9": -2.8518693922653445E-9,
            "10": -7.129673480663361E-10,
            "11": -7.129673480663361E-10,
            "12": -7.129673480663361E-10,
            "13": -0.0,
            "14": -0.0,
            "15": -0.0,
            "16": -0.0,
            "17": -0.0,
            "18": -0.0,
            "19": -0.0,
            "20": -0.0,
            "21": -0.0,
            "22": -0.0,
            "23": -2.8518693922653445E-9,
            "24": -7.129673480663361E-10,
            "25": -7.129673480663361E-10,
            "26": -7.129673480663361E-10
          },
          "personalWeight": -2.326303202082837,
          "id": 33
        },
        {
          "learningRate": 0.3,
          "ID": 34,
          "value": 0.0,
          "layer": 1,
          "target": 5.369884476309708,
          "weights": {
            "0": -0.6331550708137088,
            "1": 1.8602053487794954,
            "2": 0.5057296032913173,
            "3": 0.1993637525700284,
            "4": -4.568754188346194,
            "5": -19.58950520868127,
            "6": -15.17712096338211,
            "7": -3.8656492714782638,
            "8": -14.71536602762959,
            "9": -7.867626128434149,
            "10": -1.8701006239408637,
            "11": -1.5284328822599207,
            "12": -1.6047692091966703,
            "13": -0.7625940914841097,
            "14": 1.6636060651131137,
            "15": 0.9565235453753849,
            "16": 1.0516326655371282,
            "17": 0.872225185301586,
            "18": 1.147533513117679,
            "19": -2.15152729223708,
            "20": 1.157494558126564,
            "21": -1.1047372826376252,
            "22": -9.948680891727957,
            "23": -8.550923641827255,
            "24": -1.5756313018707573,
            "25": -1.8891367717019343,
            "26": -1.5344635730763874
          },
          "weightChange": {
            "0": -0.0,
            "1": -0.0,
            "2": -0.0,
            "3": -0.0,
            "4": -0.0,
            "5": -0.0,
            "6": -0.0,
            "7": -0.0,
            "8": -0.0,
            "9": -9.326094129341397E-18,
            "10": -2.331523532335349E-18,
            "11": -2.331523532335349E-18,
            "12": -2.331523532335349E-18,
            "13": -0.0,
            "14": -0.0,
            "15": -0.0,
            "16": -0.0,
            "17": -0.0,
            "18": -0.0,
            "19": -0.0,
            "20": -0.0,
            "21": -0.0,
            "22": -0.0,
            "23": -9.326094129341397E-18,
            "24": -2.331523532335349E-18,
            "25": -2.331523532335349E-18,
            "26": -2.331523532335349E-18
          },
          "personalWeight": -3.7493022368524205,
          "id": 34
        },
        {
          "learningRate": 0.3,
          "ID": 35,
          "value": 0.0,
          "layer": 1,
          "target": 1.3242737749570055,
          "weights": {
            "0": 0.027174169126926002,
            "1": 0.5672995940303182,
            "2": 0.4761239629677092,
            "3": 0.8328604400033441,
            "4": 0.08302495047596156,
            "5": -0.17166030434425525,
            "6": -0.1551474990313588,
            "7": 0.6064944131261627,
            "8": -0.5661340697044228,
            "9": -3.02249596644972,
            "10": 0.04418437600940449,
            "11": -0.7495450127151289,
            "12": -0.0486613883535198,
            "13": 0.46154434563722374,
            "14": -0.41114375104493706,
            "15": 0.40931553393162506,
            "16": 0.7388273564164458,
            "17": 0.02430233998300604,
            "18": 0.6073332117374179,
            "19": -0.06778963858898279,
            "20": 0.6728561496369205,
            "21": 0.43716338535284666,
            "22": -0.14819945704182383,
            "23": -3.185127205721231,
            "24": -0.867837405052485,
            "25": -0.23464421544231065,
            "26": -0.28798497589852917
          },
          "weightChange": {
            "0": -0.0,
            "1": -0.0,
            "2": -0.0,
            "3": -0.0,
            "4": -0.0,
            "5": -0.0,
            "6": -0.0,
            "7": -0.0,
            "8": -0.0,
            "9": -8.637962136170682E-7,
            "10": -2.1594905340426705E-7,
            "11": -2.1594905340426705E-7,
            "12": -2.1594905340426705E-7,
            "13": -0.0,
            "14": -0.0,
            "15": -0.0,
            "16": -0.0,
            "17": -0.0,
            "18": -0.0,
            "19": -0.0,
            "20": -0.0,
            "21": -0.0,
            "22": -0.0,
            "23": -8.637962136170682E-7,
            "24": -2.1594905340426705E-7,
            "25": -2.1594905340426705E-7,
            "26": -2.1594905340426705E-7
          },
          "personalWeight": -1.448447441094053,
          "id": 35
        },
        {
          "learningRate": 0.3,
          "ID": 36,
          "value": 0.0,
          "layer": 1,
          "target": 7.3155505498777975,
          "weights": {
            "0": -0.37222022051014203,
            "1": -0.28817532142460056,
            "2": 1.357535532059253,
            "3": 0.605747198531353,
            "4": -15.150206558453574,
            "5": -20.81167591095862,
            "6": -20.064891190359308,
            "7": -7.649774386556273,
            "8": -21.76599322900797,
            "9": -5.418275427866076,
            "10": -0.5179973243160174,
            "11": -1.0171141716746908,
            "12": -1.0052351272976334,
            "13": -0.6964051506993768,
            "14": 0.9320845795520656,
            "15": 0.6427730240650522,
            "16": -0.4471963318775775,
            "17": 0.9121234219896944,
            "18": -2.8335146181032793,
            "19": -3.4633200062557874,
            "20": -0.510605490924987,
            "21": -1.5104569214783232,
            "22": -11.428925671339986,
            "23": -4.811728337133293,
            "24": -1.0951172440800512,
            "25": -0.4432009762495126,
            "26": -0.5384985306198999
          },
          "weightChange": {
            "0": -0.0,
            "1": -0.0,
            "2": -0.0,
            "3": -0.0,
            "4": -0.0,
            "5": -0.0,
            "6": -0.0,
            "7": -0.0,
            "8": -0.0,
            "9": -1.8859972751604746E-10,
            "10": -4.7149931879011865E-11,
            "11": -4.7149931879011865E-11,
            "12": -4.7149931879011865E-11,
            "13": -0.0,
            "14": -0.0,
            "15": -0.0,
            "16": -0.0,
            "17": -0.0,
            "18": -0.0,
            "19": -0.0,
            "20": -0.0,
            "21": -0.0,
            "22": -0.0,
            "23": -1.8859972751604746E-10,
            "24": -4.7149931879011865E-11,
            "25": -4.7149931879011865E-11,
            "26": -4.7149931879011865E-11
          },
          "personalWeight": -2.305954448400852,
          "id": 36
        },
        {
          "learningRate": 0.3,
          "ID": 37,
          "value": 0.0,
          "layer": 1,
          "target": 5.433568258398163,
          "weights": {
            "0": 0.3742920405723187,
            "1": -1.1728462250349327,
            "2": 0.39900150107957916,
            "3": 0.36737071386992,
            "4": -20.07083389001349,
            "5": -28.543188274137677,
            "6": -21.040595635997178,
            "7": -14.781691672880488,
            "8": -27.774692711282206,
            "9": -4.312967180809227,
            "10": -0.4822206481067674,
            "11": -0.4294068617843909,
            "12": -0.8969471233325436,
            "13": -10.621305081342385,
            "14": -0.7866191362900377,
            "15": 0.864944208496994,
            "16": 0.2298300331070431,
            "17": 0.24899685630181057,
            "18": 6.470695917515582,
            "19": -2.1285492867731515,
            "20": -2.087292952429799,
            "21": -1.1568421967221663,
            "22": -12.68812342561154,
            "23": -4.775979197164515,
            "24": -0.8074748218042022,
            "25": -0.6354647331862641,
            "26": -0.49199930860784336
          },
          "weightChange": {
            "0": -0.0,
            "1": -0.0,
            "2": -0.0,
            "3": -0.0,
            "4": -0.0,
            "5": -0.0,
            "6": -0.0,
            "7": -0.0,
            "8": -0.0,
            "9": -2.4747073638354883E-9,
            "10": -6.186768409588721E-10,
            "11": -6.186768409588721E-10,
            "12": -6.186768409588721E-10,
            "13": -0.0,
            "14": -0.0,
            "15": -0.0,
            "16": -0.0,
            "17": -0.0,
            "18": -0.0,
            "19": -0.0,
            "20": -0.0,
            "21": -0.0,
            "22": -0.0,
            "23": -2.4747073638354883E-9,
            "24": -6.186768409588721E-10,
            "25": -6.186768409588721E-10,
            "26": -6.186768409588721E-10
          },
          "personalWeight": -2.1532374125087372,
          "id": 37
        },
        {
          "learningRate": 0.3,
          "ID": 38,
          "value": 0.0,
          "layer": 1,
          "target": 5.730217444435315,
          "weights": {
            "0": -0.34840436217609777,
            "1": 0.1254008198717772,
            "2": -0.21399044655111282,
            "3": 0.5805152369051629,
            "4": -13.667667711657183,
            "5": -22.876656634030386,
            "6": -16.604936300594474,
            "7": -7.086256084084829,
            "8": -25.786631761454377,
            "9": -7.023152172614776,
            "10": -1.0333262043487499,
            "11": -1.680629979942276,
            "12": -1.0608468265389301,
            "13": -0.2904331270517201,
            "14": 0.8296330802905607,
            "15": 1.2631045732800688,
            "16": -0.7039002710863363,
            "17": 0.17541822201213017,
            "18": -3.8094552285234924,
            "19": -4.539716942428883,
            "20": 0.2088024076796051,
            "21": 10.762912523344415,
            "22": -5.866441558720203,
            "23": -6.252478613973285,
            "24": -1.6079283019715012,
            "25": -0.8517153064078997,
            "26": -1.6141002121332249
          },
          "weightChange": {
            "0": -0.0,
            "1": -0.0,
            "2": -0.0,
            "3": -0.0,
            "4": -0.0,
            "5": -0.0,
            "6": -0.0,
            "7": -0.0,
            "8": -0.0,
            "9": -2.42240153110237E-14,
            "10": -6.056003827755925E-15,
            "11": -6.056003827755925E-15,
            "12": -6.056003827755925E-15,
            "13": -0.0,
            "14": -0.0,
            "15": -0.0,
            "16": -0.0,
            "17": -0.0,
            "18": -0.0,
            "19": -0.0,
            "20": -0.0,
            "21": -0.0,
            "22": -0.0,
            "23": -2.42240153110237E-14,
            "24": -6.056003827755925E-15,
            "25": -6.056003827755925E-15,
            "26": -6.056003827755925E-15
          },
          "personalWeight": -3.314797555732905,
          "id": 38
        },
        {
          "learningRate": 0.3,
          "ID": 39,
          "value": 0.0,
          "layer": 1,
          "target": 1.544028108849987,
          "weights": {
            "0": 0.4518161019180328,
            "1": 0.2870602757918626,
            "2": 0.15060679194400248,
            "3": 0.880548386669116,
            "4": 0.41013750174896785,
            "5": 0.2234711478521895,
            "6": -0.08674796727578554,
            "7": 0.5457669961159535,
            "8": -0.5118028836137376,
            "9": -3.339113180060495,
            "10": -0.9917686445778825,
            "11": -0.032911607804145676,
            "12": -0.18320005320111812,
            "13": 0.5309840844945034,
            "14": 0.13955013888975665,
            "15": 0.6686776074333458,
            "16": 0.0054784786803827625,
            "17": 0.44593803641639107,
            "18": -0.13731665438681573,
            "19": 0.08168549803798193,
            "20": 0.19946382409158184,
            "21": 0.41527233568514255,
            "22": -0.10222342365834856,
            "23": -3.011013096532515,
            "24": -0.8103694774679336,
            "25": -0.8628012347931561,
            "26": -0.6997508062283884
          },
          "weightChange": {
            "0": -0.0,
            "1": -0.0,
            "2": -0.0,
            "3": -0.0,
            "4": -0.0,
            "5": -0.0,
            "6": -0.0,
            "7": -0.0,
            "8": -0.0,
            "9": -3.103110201808636E-7,
            "10": -7.75777550452159E-8,
            "11": -7.75777550452159E-8,
            "12": -7.75777550452159E-8,
            "13": -0.0,
            "14": -0.0,
            "15": -0.0,
            "16": -0.0,
            "17": -0.0,
            "18": -0.0,
            "19": -0.0,
            "20": -0.0,
            "21": -0.0,
            "22": -0.0,
            "23": -3.103110201808636E-7,
            "24": -7.75777550452159E-8,
            "25": -7.75777550452159E-8,
            "26": -7.75777550452159E-8
          },
          "personalWeight": -1.6225783687130748,
          "id": 39
        },
        {
          "learningRate": 0.3,
          "ID": 40,
          "value": 0.0,
          "layer": 1,
          "target": 6.44710266378561,
          "weights": {
            "0": -2.9249913402696746,
            "1": -2.17218423500943,
            "2": -5.0367354369785025,
            "3": -5.538409818511714,
            "4": -27.840201255186226,
            "5": -40.20944079158106,
            "6": -28.847449038985268,
            "7": -14.96475194104738,
            "8": -41.84818182112253,
            "9": -4.004380783107322,
            "10": -0.6679861993355944,
            "11": -0.15421106799598103,
            "12": -0.09740539443551965,
            "13": -0.6828288762712577,
            "14": 1.4173514929976505,
            "15": 0.4726524244732463,
            "16": 1.9044750510327255,
            "17": 1.732168785809567,
            "18": -0.5709357709262288,
            "19": -1.4394230276117224,
            "20": -1.3266173350866364,
            "21": -4.036694698906767,
            "22": -11.08710048680538,
            "23": -3.590285573464255,
            "24": -0.8101031874579498,
            "25": -0.5493199853931938,
            "26": -0.22209477620712859
          },
          "weightChange": {
            "0": -0.0,
            "1": -0.0,
            "2": -0.0,
            "3": -0.0,
            "4": -0.0,
            "5": -0.0,
            "6": -0.0,
            "7": -0.0,
            "8": -0.0,
            "9": -2.827711368895975E-7,
            "10": -7.069278422239937E-8,
            "11": -7.069278422239937E-8,
            "12": -7.069278422239937E-8,
            "13": -0.0,
            "14": -0.0,
            "15": -0.0,
            "16": -0.0,
            "17": -0.0,
            "18": -0.0,
            "19": -0.0,
            "20": -0.0,
            "21": -0.0,
            "22": -0.0,
            "23": -2.827711368895975E-7,
            "24": -7.069278422239937E-8,
            "25": -7.069278422239937E-8,
            "26": -7.069278422239937E-8
          },
          "personalWeight": -1.195512469902791,
          "id": 40
        },
        {
          "learningRate": 0.3,
          "ID": 41,
          "value": 0.0,
          "layer": 1,
          "target": 5.951855279664114,
          "weights": {
            "0": -0.04347123650063615,
            "1": -0.7852418844790503,
            "2": -1.0227895965042093,
            "3": -3.7061439428423233,
            "4": -11.904135856033296,
            "5": -24.911225100645517,
            "6": -15.247805426966925,
            "7": -9.304824205388732,
            "8": -24.38373999566986,
            "9": -4.0230036902536925,
            "10": -0.2005784477847167,
            "11": -0.8859043028137326,
            "12": -0.5015834092189349,
            "13": -4.832350516906845,
            "14": -1.7893738772386054,
            "15": 0.8637258726695589,
            "16": 2.811690281417976,
            "17": 0.6998198251125046,
            "18": -1.7123598204023611,
            "19": -3.0654473498613926,
            "20": -2.5092124044445727,
            "21": -3.094228846940009,
            "22": -7.330086488251049,
            "23": -4.346164387505676,
            "24": -0.2343547082315686,
            "25": -0.9993219704281118,
            "26": -0.842378311437945
          },
          "weightChange": {
            "0": -0.0,
            "1": -0.0,
            "2": -0.0,
            "3": -0.0,
            "4": -0.0,
            "5": -0.0,
            "6": -0.0,
            "7": -0.0,
            "8": -0.0,
            "9": -2.1762778127994318E-8,
            "10": -5.4406945319985795E-9,
            "11": -5.4406945319985795E-9,
            "12": -5.4406945319985795E-9,
            "13": -0.0,
            "14": -0.0,
            "15": -0.0,
            "16": -0.0,
            "17": -0.0,
            "18": -0.0,
            "19": -0.0,
            "20": -0.0,
            "21": -0.0,
            "22": -0.0,
            "23": -2.1762778127994318E-8,
            "24": -5.4406945319985795E-9,
            "25": -5.4406945319985795E-9,
            "26": -5.4406945319985795E-9
          },
          "personalWeight": -1.5495181462910002,
          "id": 41
        },
        {
          "learningRate": 0.3,
          "ID": 42,
          "value": 0.0,
          "layer": 1,
          "target": 4.0981242891676475,
          "weights": {
            "0": 0.26847740673574283,
            "1": 0.8682716946965757,
            "2": -0.735079974912938,
            "3": 0.12416416480372673,
            "4": -3.8237014894635903,
            "5": -13.51356800560842,
            "6": -8.50888926668318,
            "7": -6.413119051237312,
            "8": -11.179466610955112,
            "9": -4.4162936077676,
            "10": -1.1404875857818773,
            "11": -0.9877424524952488,
            "12": -0.7888923249439334,
            "13": 4.527810465887257,
            "14": -0.9759478892527222,
            "15": 0.29982971464444624,
            "16": -1.9306947388005402,
            "17": -2.3468354532338975,
            "18": 0.25465144283091945,
            "19": -3.013778599946377,
            "20": -1.0316074452879351,
            "21": 0.7302722526373887,
            "22": -8.370220835961586,
            "23": -4.501656338506531,
            "24": -0.857598779485284,
            "25": -0.4444400688166574,
            "26": -0.8855031608516982
          },
          "weightChange": {
            "0": -0.0,
            "1": -0.0,
            "2": -0.0,
            "3": -0.0,
            "4": -0.0,
            "5": -0.0,
            "6": -0.0,
            "7": -0.0,
            "8": -0.0,
            "9": -1.0734791952330403E-9,
            "10": -2.6836979880826007E-10,
            "11": -2.6836979880826007E-10,
            "12": -2.6836979880826007E-10,
            "13": -0.0,
            "14": -0.0,
            "15": -0.0,
            "16": -0.0,
            "17": -0.0,
            "18": -0.0,
            "19": -0.0,
            "20": -0.0,
            "21": -0.0,
            "22": -0.0,
            "23": -1.0734791952330403E-9,
            "24": -2.6836979880826007E-10,
            "25": -2.6836979880826007E-10,
            "26": -2.6836979880826007E-10
          },
          "personalWeight": -2.36780535753377,
          "id": 42
        },
        {
          "learningRate": 0.3,
          "ID": 43,
          "value": 0.0,
          "layer": 1,
          "target": 5.4705299519310815,
          "weights": {
            "0": -0.34079590985154684,
            "1": 0.896956447804473,
            "2": 1.0448098276166158,
            "3": 0.05007626853522343,
            "4": -17.124169178951252,
            "5": -24.065019116552424,
            "6": -24.89429578530504,
            "7": -16.797240260833895,
            "8": -30.41915995343234,
            "9": -4.88854022279484,
            "10": -1.069445094506719,
            "11": -0.5793026801715329,
            "12": -0.9751288392294758,
            "13": -3.571908941726258,
            "14": 0.3874386323781425,
            "15": 0.375553255523853,
            "16": 3.343959784441007,
            "17": 0.7638547305458221,
            "18": 3.2027312266176264,
            "19": -1.6717350951010927,
            "20": -0.19936475486711333,
            "21": 8.592553380857712,
            "22": -12.117549538953568,
            "23": -5.130428978431253,
            "24": -0.515344055074333,
            "25": -0.8578018993873509,
            "26": -1.2483566306714904
          },
          "weightChange": {
            "0": -0.0,
            "1": -0.0,
            "2": -0.0,
            "3": -0.0,
            "4": -0.0,
            "5": -0.0,
            "6": -0.0,
            "7": -0.0,
            "8": -0.0,
            "9": -1.4598869108586502E-10,
            "10": -3.6497172771466256E-11,
            "11": -3.6497172771466256E-11,
            "12": -3.6497172771466256E-11,
            "13": -0.0,
            "14": -0.0,
            "15": -0.0,
            "16": -0.0,
            "17": -0.0,
            "18": -0.0,
            "19": -0.0,
            "20": -0.0,
            "21": -0.0,
            "22": -0.0,
            "23": -1.4598869108586502E-10,
            "24": -3.6497172771466256E-11,
            "25": -3.6497172771466256E-11,
            "26": -3.6497172771466256E-11
          },
          "personalWeight": -2.379386628956713,
          "id": 43
        },
        {
          "learningRate": 0.3,
          "ID": 44,
          "value": 0.0,
          "layer": 1,
          "target": 6.176920305777497,
          "weights": {
            "0": -1.4033723793306958,
            "1": -1.1939539062213058,
            "2": -4.530800822749852,
            "3": -0.9849819847701156,
            "4": -13.090822064138584,
            "5": -20.783571540401933,
            "6": -17.15530466566699,
            "7": -13.656039170140719,
            "8": -21.643270206710124,
            "9": -3.862165674890403,
            "10": -0.38596013391141476,
            "11": -0.3218794561177852,
            "12": -0.4896767756151604,
            "13": -7.080887844188454,
            "14": -0.365625121075786,
            "15": 0.8393818323922443,
            "16": 0.1461550423142426,
            "17": -0.04189188969134481,
            "18": -1.9804852345314106,
            "19": -3.0383057938067717,
            "20": 1.3436496884200742,
            "21": 2.463489772646852,
            "22": -4.737982709872104,
            "23": -3.040910427915508,
            "24": -0.31668441670096775,
            "25": -0.093166412365714,
            "26": -0.2836399786739348
          },
          "weightChange": {
            "0": -0.0,
            "1": -0.0,
            "2": -0.0,
            "3": -0.0,
            "4": -0.0,
            "5": -0.0,
            "6": -0.0,
            "7": -0.0,
            "8": -0.0,
            "9": -9.023326907673867E-7,
            "10": -2.2558317269184667E-7,
            "11": -2.2558317269184667E-7,
            "12": -2.2558317269184667E-7,
            "13": -0.0,
            "14": -0.0,
            "15": -0.0,
            "16": -0.0,
            "17": -0.0,
            "18": -0.0,
            "19": -0.0,
            "20": -0.0,
            "21": -0.0,
            "22": -0.0,
            "23": -9.023326907673867E-7,
            "24": -2.2558317269184667E-7,
            "25": -2.2558317269184667E-7,
            "26": -2.2558317269184667E-7
          },
          "personalWeight": -1.6805921721542225,
          "id": 44
        },
        {
          "learningRate": 0.3,
          "ID": 45,
          "value": 0.0,
          "layer": 1,
          "target": 6.184022484834241,
          "weights": {
            "0": 2.0580037583093866,
            "1": -1.3498224463009585,
            "2": 0.5451683577513503,
            "3": -0.24553910582134894,
            "4": -3.4342233373980435,
            "5": -24.535462708959994,
            "6": -11.394516423222427,
            "7": -4.741533201549657,
            "8": -23.624691085420572,
            "9": -6.001354245869766,
            "10": -1.1218261236226261,
            "11": -1.5960601244715176,
            "12": -1.5088951440330005,
            "13": 1.0924141150397428,
            "14": 0.4513193727462525,
            "15": 2.0534184029900553,
            "16": -0.7862429891713925,
            "17": 0.5157638100128955,
            "18": 0.9515624674205586,
            "19": -6.086717717812352,
            "20": -1.903314715078059,
            "21": -0.4099180037874627,
            "22": -10.45807610308444,
            "23": -6.221143658547275,
            "24": -0.8476619173512285,
            "25": -1.4748181216774217,
            "26": -1.7073403247823598
          },
          "weightChange": {
            "0": -0.0,
            "1": -0.0,
            "2": -0.0,
            "3": -0.0,
            "4": -0.0,
            "5": -0.0,
            "6": -0.0,
            "7": -0.0,
            "8": -0.0,
            "9": -3.048526571339714E-13,
            "10": -7.621316428349285E-14,
            "11": -7.621316428349285E-14,
            "12": -7.621316428349285E-14,
            "13": -0.0,
            "14": -0.0,
            "15": -0.0,
            "16": -0.0,
            "17": -0.0,
            "18": -0.0,
            "19": -0.0,
            "20": -0.0,
            "21": -0.0,
            "22": -0.0,
            "23": -3.048526571339714E-13,
            "24": -7.621316428349285E-14,
            "25": -7.621316428349285E-14,
            "26": -7.621316428349285E-14
          },
          "personalWeight": -2.7607672673976067,
          "id": 45
        },
        {
          "learningRate": 0.3,
          "ID": 46,
          "value": 0.0,
          "layer": 1,
          "target": 4.907369578563157,
          "weights": {
            "0": 0.48767505504596825,
            "1": 0.4773196356494284,
            "2": -1.1347736290400652,
            "3": 0.3155633184481022,
            "4": -6.035593854203589,
            "5": -15.346179614680599,
            "6": -8.007512412465909,
            "7": -1.6228145213960092,
            "8": -11.204859133768998,
            "9": -5.464753105486168,
            "10": -0.5930576304403892,
            "11": -0.9614970868222291,
            "12": -0.5281203155816956,
            "13": -0.6562348876524943,
            "14": -0.4852436754683064,
            "15": -0.6680800134874728,
            "16": 1.0745869857119872,
            "17": 0.22985351946492605,
            "18": -1.2408490887061008,
            "19": -2.1713333884226684,
            "20": 0.4545740611836643,
            "21": 0.48193826919592986,
            "22": -8.482151273331286,
            "23": -4.906688396491106,
            "24": -1.1800641346591978,
            "25": -1.3570044951369586,
            "26": -0.422688203642046
          },
          "weightChange": {
            "0": -0.0,
            "1": -0.0,
            "2": -0.0,
            "3": -0.0,
            "4": -0.0,
            "5": -0.0,
            "6": -0.0,
            "7": -0.0,
            "8": -0.0,
            "9": -1.0947665444667832E-10,
            "10": -2.736916361166958E-11,
            "11": -2.736916361166958E-11,
            "12": -2.736916361166958E-11,
            "13": -0.0,
            "14": -0.0,
            "15": -0.0,
            "16": -0.0,
            "17": -0.0,
            "18": -0.0,
            "19": -0.0,
            "20": -0.0,
            "21": -0.0,
            "22": -0.0,
            "23": -1.0947665444667832E-10,
            "24": -2.736916361166958E-11,
            "25": -2.736916361166958E-11,
            "26": -2.736916361166958E-11
          },
          "personalWeight": -1.9550961049430016,
          "id": 46
        },
        {
          "learningRate": 0.3,
          "ID": 47,
          "value": 0.0,
          "layer": 1,
          "target": 3.3656003568560475,
          "weights": {
            "0": 0.18104496855163513,
            "1": 0.7729022946158485,
            "2": 0.687158513263619,
            "3": 0.7941886529420439,
            "4": -1.8050158227190025,
            "5": -8.348152870785183,
            "6": -2.641689266838919,
            "7": -1.4426093229260575,
            "8": -7.658814185314865,
            "9": -4.713379323958187,
            "10": -0.5050189893252884,
            "11": -1.1663324636824381,
            "12": -1.0794089984208775,
            "13": 0.5766231370849747,
            "14": 0.7812152654654246,
            "15": 0.19261158358708755,
            "16": 0.36378471910412413,
            "17": 0.31373811986935823,
            "18": 0.7918819216112497,
            "19": -0.9899483374913802,
            "20": -0.7468507781707697,
            "21": 0.510794960585066,
            "22": -6.343800146003121,
            "23": -4.356714657913592,
            "24": -1.251038572372819,
            "25": -1.1879540103500479,
            "26": -0.9579984876166714
          },
          "weightChange": {
            "0": -0.0,
            "1": -0.0,
            "2": -0.0,
            "3": -0.0,
            "4": -0.0,
            "5": -0.0,
            "6": -0.0,
            "7": -0.0,
            "8": -0.0,
            "9": -8.674015388152507E-10,
            "10": -2.1685038470381267E-10,
            "11": -2.1685038470381267E-10,
            "12": -2.1685038470381267E-10,
            "13": -0.0,
            "14": -0.0,
            "15": -0.0,
            "16": -0.0,
            "17": -0.0,
            "18": -0.0,
            "19": -0.0,
            "20": -0.0,
            "21": -0.0,
            "22": -0.0,
            "23": -8.674015388152507E-10,
            "24": -2.1685038470381267E-10,
            "25": -2.1685038470381267E-10,
            "26": -2.1685038470381267E-10
          },
          "personalWeight": -1.558208924068676,
          "id": 47
        },
        {
          "learningRate": 0.3,
          "ID": 48,
          "value": 0.0,
          "layer": 1,
          "target": 6.84158041493763,
          "weights": {
            "0": -1.313388353609393,
            "1": -1.2860947752925982,
            "2": 4.729172367133809,
            "3": 0.14921962131080307,
            "4": -14.668072235274309,
            "5": -35.883064616625525,
            "6": -32.8269167076528,
            "7": -12.595892982017364,
            "8": -34.89635491606499,
            "9": -6.637944493616351,
            "10": -1.670222133116116,
            "11": -1.3210570173966478,
            "12": -1.0383499271958105,
            "13": -8.804939675151658,
            "14": 0.3860776977437174,
            "15": 2.4281879400008335,
            "16": -0.8259193189054788,
            "17": 1.553273403097036,
            "18": 3.4165184338700776,
            "19": -0.7628426852650277,
            "20": -3.2130474939524514,
            "21": 0.965211501485999,
            "22": -11.647895616166393,
            "23": -6.016869111741376,
            "24": -0.7557910150097066,
            "25": -1.1790677933582623,
            "26": -0.8387812835303221
          },
          "weightChange": {
            "0": -0.0,
            "1": -0.0,
            "2": -0.0,
            "3": -0.0,
            "4": -0.0,
            "5": -0.0,
            "6": -0.0,
            "7": -0.0,
            "8": -0.0,
            "9": -2.3407014828888165E-13,
            "10": -5.851753707222041E-14,
            "11": -5.851753707222041E-14,
            "12": -5.851753707222041E-14,
            "13": -0.0,
            "14": -0.0,
            "15": -0.0,
            "16": -0.0,
            "17": -0.0,
            "18": -0.0,
            "19": -0.0,
            "20": -0.0,
            "21": -0.0,
            "22": -0.0,
            "23": -2.3407014828888165E-13,
            "24": -5.851753707222041E-14,
            "25": -5.851753707222041E-14,
            "26": -5.851753707222041E-14
          },
          "personalWeight": -2.9880596902669194,
          "id": 48
        },
        {
          "learningRate": 0.3,
          "ID": 49,
          "value": 0.0,
          "layer": 1,
          "target": 7.93294718958533,
          "weights": {
            "0": -0.8368539042816017,
            "1": -0.15265905935585528,
            "2": 0.878744292307253,
            "3": 0.4557535905663069,
            "4": -24.93865858728947,
            "5": -28.228743670226745,
            "6": -26.114268481821426,
            "7": -25.649148936962572,
            "8": -31.1684275323041,
            "9": -5.045082302939031,
            "10": -1.2709039766095573,
            "11": -1.1604264509802764,
            "12": -0.8593434240672776,
            "13": 0.35339961229430267,
            "14": -1.8702995870805055,
            "15": 0.11490203294617515,
            "16": 0.5169956340431013,
            "17": 0.6801899369038205,
            "18": 0.6395338604582477,
            "19": -4.755167119793255,
            "20": -0.2080529438984183,
            "21": 2.794865210205466,
            "22": -13.004016036620344,
            "23": -5.288652529357783,
            "24": -0.5467437836070838,
            "25": -0.9642329732843732,
            "26": -0.3494987971260208
          },
          "weightChange": {
            "0": -0.0,
            "1": -0.0,
            "2": -0.0,
            "3": -0.0,
            "4": -0.0,
            "5": -0.0,
            "6": -0.0,
            "7": -0.0,
            "8": -0.0,
            "9": -1.8450838531748198E-10,
            "10": -4.6127096329370496E-11,
            "11": -4.6127096329370496E-11,
            "12": -4.6127096329370496E-11,
            "13": -0.0,
            "14": -0.0,
            "15": -0.0,
            "16": -0.0,
            "17": -0.0,
            "18": -0.0,
            "19": -0.0,
            "20": -0.0,
            "21": -0.0,
            "22": -0.0,
            "23": -1.8450838531748198E-10,
            "24": -4.6127096329370496E-11,
            "25": -4.6127096329370496E-11,
            "26": -4.6127096329370496E-11
          },
          "personalWeight": -1.9344536346622372,
          "id": 49
        },
        {
          "learningRate": 0.3,
          "ID": 50,
          "value": 0.0,
          "layer": 1,
          "target": 7.104262601397293,
          "weights": {
            "0": 0.1896902030377829,
            "1": -0.0035454906497029205,
            "2": -0.07162377427990105,
            "3": -0.9387860677767712,
            "4": -16.415752143120404,
            "5": -28.209046906644573,
            "6": -20.666293238051487,
            "7": -18.53051822902393,
            "8": -28.97408287745302,
            "9": -3.596998461113038,
            "10": -1.0284978563203544,
            "11": -0.7796533228510069,
            "12": -0.6418691471758764,
            "13": -0.6162672572274995,
            "14": -1.094281005925986,
            "15": 0.19402798164194154,
            "16": -1.2881440726026523,
            "17": -0.1987548062229374,
            "18": 0.11373999748134844,
            "19": -2.017795860240744,
            "20": -2.57226937819473,
            "21": 1.362252688784068,
            "22": -17.60998398437343,
            "23": -3.7186094352428873,
            "24": -0.6414689852499807,
            "25": -0.9568038497056462,
            "26": -0.11589323243644269
          },
          "weightChange": {
            "0": -0.0,
            "1": -0.0,
            "2": -0.0,
            "3": -0.0,
            "4": -0.0,
            "5": -0.0,
            "6": -0.0,
            "7": -0.0,
            "8": -0.0,
            "9": -1.2094536093408036E-7,
            "10": -3.023634023352009E-8,
            "11": -3.023634023352009E-8,
            "12": -3.023634023352009E-8,
            "13": -0.0,
            "14": -0.0,
            "15": -0.0,
            "16": -0.0,
            "17": -0.0,
            "18": -0.0,
            "19": -0.0,
            "20": -0.0,
            "21": -0.0,
            "22": -0.0,
            "23": -1.2094536093408036E-7,
            "24": -3.023634023352009E-8,
            "25": -3.023634023352009E-8,
            "26": -3.023634023352009E-8
          },
          "personalWeight": -1.8684599084234301,
          "id": 50
        },
        {
          "learningRate": 0.3,
          "ID": 51,
          "value": 0.0,
          "layer": 1,
          "target": 4.653507692417222,
          "weights": {
            "0": 0.8680924570917622,
            "1": 1.0451353736214057,
            "2": 0.3332604202542315,
            "3": 0.07292446599215113,
            "4": -9.983228900504402,
            "5": -26.88390527478784,
            "6": -18.7787011819631,
            "7": -6.2118363145699815,
            "8": -28.39207844577467,
            "9": -8.433605111356991,
            "10": -1.3664021034452303,
            "11": -1.7226149762935896,
            "12": -1.350945725394701,
            "13": 0.014799284843992533,
            "14": -1.2145466370704476,
            "15": 0.36703094053754565,
            "16": -1.0520646795943276,
            "17": -1.2303452987214787,
            "18": -0.27639320372711557,
            "19": -4.297779775475518,
            "20": -0.5777836621516896,
            "21": -1.0497734491616963,
            "22": -11.627137593447184,
            "23": -8.55691487807649,
            "24": -1.8074911846137824,
            "25": -2.1773010204220666,
            "26": -1.517713198801928
          },
          "weightChange": {
            "0": -0.0,
            "1": -0.0,
            "2": -0.0,
            "3": -0.0,
            "4": -0.0,
            "5": -0.0,
            "6": -0.0,
            "7": -0.0,
            "8": -0.0,
            "9": -1.2831803643378182E-18,
            "10": -3.2079509108445455E-19,
            "11": -3.2079509108445455E-19,
            "12": -3.2079509108445455E-19,
            "13": -0.0,
            "14": -0.0,
            "15": -0.0,
            "16": -0.0,
            "17": -0.0,
            "18": -0.0,
            "19": -0.0,
            "20": -0.0,
            "21": -0.0,
            "22": -0.0,
            "23": -1.2831803643378182E-18,
            "24": -3.2079509108445455E-19,
            "25": -3.2079509108445455E-19,
            "26": -3.2079509108445455E-19
          },
          "personalWeight": -4.475684392874247,
          "id": 51
        },
        {
          "learningRate": 0.3,
          "ID": 52,
          "value": 1.0,
          "layer": 1,
          "target": 7.088036925083064,
          "weights": {
            "0": 0.09952683252450238,
            "1": -1.5145916592408453,
            "2": 2.0918136902653437,
            "3": 0.10053609371306464,
            "4": -13.168679041066854,
            "5": -47.317674899342855,
            "6": -23.025405477971283,
            "7": -19.44997494314299,
            "8": -49.85221275071914,
            "9": 2.346489612589872,
            "10": 0.5816697587412896,
            "11": 0.7506360208315512,
            "12": 0.8190983962339469,
            "13": 0.9692170657374553,
            "14": -2.2302302327283337,
            "15": 0.07884427699902449,
            "16": -0.6928810471000373,
            "17": -0.5498895354626322,
            "18": -2.442902349002021,
            "19": -7.075200027000335,
            "20": -7.231443087334375,
            "21": -1.5808601573254604,
            "22": -17.426851515598393,
            "23": 2.5921821740781414,
            "24": 0.9098028829343683,
            "25": 1.248639248233177,
            "26": 0.8564359023474668
          },
          "weightChange": {
            "0": -0.0,
            "1": -0.0,
            "2": -0.0,
            "3": -0.0,
            "4": -0.0,
            "5": -0.0,
            "6": -0.0,
            "7": -0.0,
            "8": -0.0,
            "9": -1.5369883532549445E-5,
            "10": -3.842470883137361E-6,
            "11": -3.842470883137361E-6,
            "12": -3.842470883137361E-6,
            "13": -0.0,
            "14": -0.0,
            "15": -0.0,
            "16": -0.0,
            "17": -0.0,
            "18": -0.0,
            "19": -0.0,
            "20": -0.0,
            "21": -0.0,
            "22": -0.0,
            "23": -1.5369883532549445E-5,
            "24": -3.842470883137361E-6,
            "25": -3.842470883137361E-6,
            "26": -3.842470883137361E-6
          },
          "personalWeight": 1.122110656660209,
          "id": 52
        },
        {
          "learningRate": 0.3,
          "ID": 53,
          "value": 0.0,
          "layer": 1,
          "target": 5.7222705474996545,
          "weights": {
            "0": 0.423404020431282,
            "1": 0.16287421278969072,
            "2": 0.6624099373105634,
            "3": 0.07037950690748523,
            "4": -7.010818863108206,
            "5": -20.95106417592501,
            "6": -11.771478307250277,
            "7": -8.567671663297803,
            "8": -22.46193614818281,
            "9": -5.335734997042984,
            "10": -1.0496683161019706,
            "11": -1.1727647123411629,
            "12": -1.1741162585993603,
            "13": -3.75086756413135,
            "14": 0.3450331707019639,
            "15": 0.720346447125623,
            "16": 0.9512988364018097,
            "17": 0.855458697321397,
            "18": -1.7929318468806912,
            "19": -7.592372993466197,
            "20": 1.397117679505256,
            "21": 0.7571247381774283,
            "22": -7.631787720670362,
            "23": -4.966860591870973,
            "24": -1.4095669384359695,
            "25": -0.4959125056555424,
            "26": -1.119160351669161
          },
          "weightChange": {
            "0": -0.0,
            "1": -0.0,
            "2": -0.0,
            "3": -0.0,
            "4": -0.0,
            "5": -0.0,
            "6": -0.0,
            "7": -0.0,
            "8": -0.0,
            "9": -3.949622792112652E-11,
            "10": -9.87405698028163E-12,
            "11": -9.87405698028163E-12,
            "12": -9.87405698028163E-12,
            "13": -0.0,
            "14": -0.0,
            "15": -0.0,
            "16": -0.0,
            "17": -0.0,
            "18": -0.0,
            "19": -0.0,
            "20": -0.0,
            "21": -0.0,
            "22": -0.0,
            "23": -3.949622792112652E-11,
            "24": -9.87405698028163E-12,
            "25": -9.87405698028163E-12,
            "26": -9.87405698028163E-12
          },
          "personalWeight": -2.576543081001824,
          "id": 53
        },
        {
          "learningRate": 0.3,
          "ID": 54,
          "value": 0.0,
          "layer": 1,
          "target": 6.624588265724633,
          "weights": {
            "0": -0.22798498897127112,
            "1": -0.3801373185186425,
            "2": 1.2965436506239416,
            "3": 0.3219033051729207,
            "4": -5.468859068517168,
            "5": -32.328641921378214,
            "6": -17.476035276819992,
            "7": -1.0935186212346695,
            "8": -33.025502395876906,
            "9": -6.088976709217328,
            "10": -1.081239738051483,
            "11": -0.7577121477846565,
            "12": -1.177972669721625,
            "13": -10.209482684018097,
            "14": 0.5205254149533041,
            "15": 0.5779885102280076,
            "16": -2.894977583947716,
            "17": 0.03663426908031809,
            "18": 5.378224641034804,
            "19": -4.116140322024922,
            "20": 2.2608336081516196,
            "21": -1.4597439740627087,
            "22": -14.419049995094175,
            "23": -5.322346745064462,
            "24": -1.1905117397851765,
            "25": -1.1734806364956185,
            "26": -0.9413600038216409
          },
          "weightChange": {
            "0": -0.0,
            "1": -0.0,
            "2": -0.0,
            "3": -0.0,
            "4": -0.0,
            "5": -0.0,
            "6": -0.0,
            "7": -0.0,
            "8": -0.0,
            "9": -3.3054314213974325E-12,
            "10": -8.263578553493581E-13,
            "11": -8.263578553493581E-13,
            "12": -8.263578553493581E-13,
            "13": -0.0,
            "14": -0.0,
            "15": -0.0,
            "16": -0.0,
            "17": -0.0,
            "18": -0.0,
            "19": -0.0,
            "20": -0.0,
            "21": -0.0,
            "22": -0.0,
            "23": -3.3054314213974325E-12,
            "24": -8.263578553493581E-13,
            "25": -8.263578553493581E-13,
            "26": -8.263578553493581E-13
          },
          "personalWeight": -3.0356041407006025,
          "id": 54
        },
        {
          "learningRate": 0.3,
          "ID": 55,
          "value": 0.0,
          "layer": 1,
          "target": 7.618109066828868,
          "weights": {
            "0": -0.3457438232633271,
            "1": -1.6319080648335569,
            "2": 2.4521582244193696,
            "3": 0.5469298048428579,
            "4": -5.303470642853902,
            "5": -52.22928543893209,
            "6": -39.93249985476281,
            "7": -2.2963874906238377,
            "8": -53.28095426979191,
            "9": -7.1536413191310855,
            "10": -1.1278040907665703,
            "11": -0.8471787407241405,
            "12": -1.7014429303472072,
            "13": -1.1466404082318258,
            "14": 0.615633440728628,
            "15": 0.8934555351976471,
            "16": 1.1942318749822063,
            "17": -0.5881489442473626,
            "18": 0.8604375084118012,
            "19": -4.777371187716024,
            "20": -3.449270373033396,
            "21": -4.8443592457167615,
            "22": -11.71933210389212,
            "23": -6.911157113916103,
            "24": -1.0335475880281144,
            "25": -0.8524127023350447,
            "26": -1.0949770414583764
          },
          "weightChange": {
            "0": -0.0,
            "1": -0.0,
            "2": -0.0,
            "3": -0.0,
            "4": -0.0,
            "5": -0.0,
            "6": -0.0,
            "7": -0.0,
            "8": -0.0,
            "9": -9.241644198235199E-15,
            "10": -2.3104110495587998E-15,
            "11": -2.3104110495587998E-15,
            "12": -2.3104110495587998E-15,
            "13": -0.0,
            "14": -0.0,
            "15": -0.0,
            "16": -0.0,
            "17": -0.0,
            "18": -0.0,
            "19": -0.0,
            "20": -0.0,
            "21": -0.0,
            "22": -0.0,
            "23": -9.241644198235199E-15,
            "24": -2.3104110495587998E-15,
            "25": -2.3104110495587998E-15,
            "26": -2.3104110495587998E-15
          },
          "personalWeight": -3.5804535341348447,
          "id": 55
        },
        {
          "learningRate": 0.3,
          "ID": 56,
          "value": 0.0,
          "layer": 1,
          "target": 6.487864936990598,
          "weights": {
            "0": -0.4000458854793923,
            "1": 0.28131411486883945,
            "2": 0.08515692844857713,
            "3": 0.2961056161499454,
            "4": -6.568534307626752,
            "5": -30.564603695647502,
            "6": -21.33813378231567,
            "7": -11.419027621507299,
            "8": -34.23194014209244,
            "9": -3.5032157285759196,
            "10": -0.7505277048163874,
            "11": -0.4860775583937405,
            "12": -0.437215288805196,
            "13": -1.132144557370614,
            "14": 0.08418730204504485,
            "15": 0.7362745455425572,
            "16": 1.076887571092296,
            "17": -0.28114974453290037,
            "18": -1.316323930759956,
            "19": -2.5204247856141233,
            "20": -2.930019725749933,
            "21": -5.082085656017126,
            "22": -12.163089271087326,
            "23": -3.911774498552571,
            "24": -0.5124527190954937,
            "25": -0.776511459937878,
            "26": -0.4895897313922755
          },
          "weightChange": {
            "0": -0.0,
            "1": -0.0,
            "2": -0.0,
            "3": -0.0,
            "4": -0.0,
            "5": -0.0,
            "6": -0.0,
            "7": -0.0,
            "8": -0.0,
            "9": -1.1917545080382298E-7,
            "10": -2.9793862700955744E-8,
            "11": -2.9793862700955744E-8,
            "12": -2.9793862700955744E-8,
            "13": -0.0,
            "14": -0.0,
            "15": -0.0,
            "16": -0.0,
            "17": -0.0,
            "18": -0.0,
            "19": -0.0,
            "20": -0.0,
            "21": -0.0,
            "22": -0.0,
            "23": -1.1917545080382298E-7,
            "24": -2.9793862700955744E-8,
            "25": -2.9793862700955744E-8,
            "26": -2.9793862700955744E-8
          },
          "personalWeight": -1.9495818399944411,
          "id": 56
        },
        {
          "learningRate": 0.3,
          "ID": 57,
          "value": 0.0,
          "layer": 2,
          "target": 0.11494529857911948,
          "weights": {
            "27": 0.6582184322845819,
            "28": 2.2262075525482734,
            "29": 1.014134734009254,
            "30": 0.8297587951197447,
            "31": 0.1964001766168808,
            "32": 0.7463291944360423,
            "33": 1.5799252179835768,
            "34": 0.39786117003393795,
            "35": 0.10446965920049262,
            "36": 1.835149267107193,
            "37": 0.15976798290147393,
            "38": 0.8771508013518761,
            "39": 0.8309292114446122,
            "40": 0.4793523122541122,
            "41": 1.7230716276358378,
            "42": 0.2140573180015391,
            "43": 0.34497787232985416,
            "44": 1.284335541718077,
            "45": 0.6130433711466409,
            "46": 0.945253602786941,
            "47": 0.14831264150322918,
            "48": 2.333599489614978,
            "49": 0.2138536940735494,
            "50": 1.1854549879539371,
            "51": 0.6764120500493318,
            "52": 0.3108063410739651,
            "53": 0.6381703568475012,
            "54": 0.2973018112639643,
            "55": 0.8104157322455345,
            "56": 0.3274855437897116
          },
          "weightChange": {
            "27": -2.8701604914340945E-18,
            "28": -2.1320765037022004E-13,
            "29": -2.5807322409393073E-11,
            "30": -2.96730601203286E-22,
            "31": -1.4793505901208657E-15,
            "32": -2.8854627814049803E-12,
            "33": -1.50559629883605E-14,
            "34": -5.1882621273310573E-23,
            "35": -1.948591590946786E-11,
            "36": -7.701602564693589E-16,
            "37": -1.3605853224819762E-14,
            "38": -1.2628800072510982E-19,
            "39": -6.003840232129683E-12,
            "40": -1.3102602355666273E-12,
            "41": -1.0923178500717415E-13,
            "42": -7.825202128671761E-15,
            "43": -7.972175902484091E-16,
            "44": -4.363970323581604E-12,
            "45": -1.4726718412949136E-18,
            "46": -6.664380866686483E-16,
            "47": -7.6991840455368E-15,
            "48": -1.022060613283883E-18,
            "49": -6.948140681357449E-16,
            "50": -5.085776502318056E-13,
            "51": -8.237479127970575E-24,
            "52": -5.974705530944449E-5,
            "53": -2.0619317745514248E-16,
            "54": -1.4905835300740814E-17,
            "55": -3.624007737445312E-20,
            "56": -5.487468823278349E-13
          },
          "personalWeight": -7.867260718158255,
          "id": 57
        },
        {
          "learningRate": 0.3,
          "ID": 58,
          "value": 0.0,
          "layer": 2,
          "target": 0.045866232796628284,
          "weights": {
            "27": 0.3552563133010303,
            "28": 0.5721197869126075,
            "29": 0.8858827629115738,
            "30": 0.14194828512115823,
            "31": 0.4676620469093985,
            "32": 0.2682832734799912,
            "33": 1.0662438232538072,
            "34": 0.14016280291551683,
            "35": 0.4099103134169443,
            "36": 0.8107820279441784,
            "37": 0.7563062191820819,
            "38": 0.8799595165840656,
            "39": 0.941947792144928,
            "40": 0.11747904607344965,
            "41": 0.9958469919558773,
            "42": 1.009928502945891,
            "43": 0.16178933532148596,
            "44": 1.2717920808236636,
            "45": 0.5296747534207878,
            "46": 0.623336945950483,
            "47": 0.5065363919097098,
            "48": 0.7610274537998417,
            "49": 0.4593547488150799,
            "50": 0.5529214251404799,
            "51": 0.820139535750578,
            "52": 0.25144483366799225,
            "53": 1.0375965650712697,
            "54": 1.098480591862297,
            "55": 0.7627743171129137,
            "56": 0.6790971732325128
          },
          "weightChange": {
            "27": -8.290964810714492E-19,
            "28": -6.158879030877369E-14,
            "29": -7.454900260581985E-12,
            "30": -8.571586781230318E-23,
            "31": -4.2733651034522485E-16,
            "32": -8.335168174272247E-13,
            "33": -4.349180462223748E-15,
            "34": -1.4987210246550162E-23,
            "35": -5.628850497806716E-12,
            "36": -2.224743739611512E-16,
            "37": -3.930290680378046E-15,
            "38": -3.6480516443322884E-20,
            "39": -1.7343151451738998E-12,
            "40": -3.784917790619248E-13,
            "41": -3.155352770024036E-14,
            "42": -2.2604476536825557E-15,
            "43": -2.302903620532238E-16,
            "44": -1.2606097985043019E-12,
            "45": -4.2540723594886862E-19,
            "46": -1.9251239579041268E-16,
            "47": -2.2240451076958817E-15,
            "48": -2.9524023497793755E-19,
            "49": -2.0070929852513166E-16,
            "50": -1.4691162442560526E-13,
            "51": -2.379541136561122E-24,
            "52": -1.725899072866502E-5,
            "53": -5.956253608786219E-17,
            "54": -4.3058134317429244E-18,
            "55": -1.0468585542372645E-20,
            "56": -1.5851521561068202E-13
          },
          "personalWeight": -8.127515473740361,
          "id": 58
        },
        {
          "learningRate": 0.3,
          "ID": 59,
          "value": 0.0,
          "layer": 2,
          "target": 0.06927843892159892,
          "weights": {
            "27": 0.8160590258277505,
            "28": 0.5288888907154169,
            "29": 0.48008231213419983,
            "30": 0.5345455877292674,
            "31": 0.7365569010087342,
            "32": 0.30971371483475735,
            "33": 0.41704720563233605,
            "34": 0.4998281303587355,
            "35": 0.4717087335228454,
            "36": 1.149713558097114,
            "37": 0.08110609475129914,
            "38": 1.1399232659287326,
            "39": 0.6638849784681313,
            "40": 0.22654335077826482,
            "41": 1.0491643446766061,
            "42": 0.7448775673361395,
            "43": 0.11483709826267055,
            "44": 0.4093171677305006,
            "45": 1.0823655582033576,
            "46": 0.3995202828320218,
            "47": 0.9932497656821462,
            "48": 0.1576131402980829,
            "49": 0.8749884863677225,
            "50": 0.8510902410727395,
            "51": 0.8838218682720177,
            "52": 0.07976729380314068,
            "53": 0.34725025628424894,
            "54": 0.06476028012615168,
            "55": 0.09828472970928494,
            "56": 0.8247200893101582
          },
          "weightChange": {
            "27": -1.4933960470105118E-18,
            "28": -1.1093576934305631E-13,
            "29": -1.3428013306272072E-11,
            "30": -1.5439426059503172E-22,
            "31": -7.6973267872045E-16,
            "32": -1.5013581032860865E-12,
            "33": -7.833887922943157E-15,
            "34": -2.699545957424543E-23,
            "35": -1.0138871982395118E-11,
            "36": -4.007282122405846E-16,
            "37": -7.079369771409045E-15,
            "38": -6.570991470010286E-20,
            "39": -3.123905891779998E-12,
            "40": -6.817519306638378E-13,
            "41": -5.6835259360743564E-14,
            "42": -4.071593195186656E-15,
            "43": -4.1480662891061824E-16,
            "44": -2.2706521290214062E-12,
            "45": -7.6625760576706625E-19,
            "46": -3.46759704615306E-16,
            "47": -4.0060237234559796E-15,
            "48": -5.317964916033821E-19,
            "49": -3.615242373581534E-16,
            "50": -2.646220846258601E-13,
            "51": -4.28610832173227E-24,
            "52": -3.108746583542457E-5,
            "53": -1.0728601311705343E-16,
            "54": -7.755773791030606E-18,
            "55": -1.8856363069551406E-20,
            "56": -2.855228574581432E-13
          },
          "personalWeight": -7.781384029249092,
          "id": 59
        },
        {
          "learningRate": 0.3,
          "ID": 60,
          "value": 0.0,
          "layer": 2,
          "target": 0.08652602403466736,
          "weights": {
            "27": 0.1389583595738211,
            "28": 0.9015166233043581,
            "29": 0.6010345245163276,
            "30": -0.06343649889377115,
            "31": 0.6633310154609661,
            "32": 0.8529808745541821,
            "33": 0.8471312288075638,
            "34": 0.4441556620818461,
            "35": -0.23725881775842622,
            "36": 0.51724992318873,
            "37": 0.014890999173432047,
            "38": 0.7756865873825121,
            "39": -0.037717329872638705,
            "40": 0.01835723507657767,
            "41": 0.5204616654344753,
            "42": 0.07461107715850096,
            "43": 0.9662154455262814,
            "44": 0.28656707489281635,
            "45": -0.009054993446366396,
            "46": -0.17714247266077426,
            "47": 0.056155163547686286,
            "48": 0.14371846630739035,
            "49": 0.34899685648902573,
            "50": 0.4369167669737717,
            "51": -0.3225250548607015,
            "52": 0.4432926783922807,
            "53": 0.6921836413932085,
            "54": 0.23731754862302087,
            "55": 0.3240993556231704,
            "56": 1.0633441096915843
          },
          "weightChange": {
            "27": -1.772020869048137E-18,
            "28": -1.3163319857001242E-13,
            "29": -1.5933295026595646E-11,
            "30": -1.8319979645274023E-22,
            "31": -9.133426950013624E-16,
            "32": -1.7814684164077924E-12,
            "33": -9.295466472559722E-15,
            "34": -3.203203720196503E-23,
            "35": -1.2030494373797644E-11,
            "36": -4.754925904137395E-16,
            "37": -8.400176898658326E-15,
            "38": -7.796949803439222E-20,
            "39": -3.7067370335269295E-12,
            "40": -8.089472655753424E-13,
            "41": -6.743908682938422E-14,
            "42": -4.831235576515728E-15,
            "43": -4.921976353965452E-16,
            "44": -2.6942906183721755E-12,
            "45": -9.09219273215703E-19,
            "46": -4.114551088797443E-16,
            "47": -4.753432724076275E-15,
            "48": -6.310144473022984E-19,
            "49": -4.2897427949389146E-16,
            "50": -3.139929674427119E-13,
            "51": -5.0857730662367345E-24,
            "52": -3.688749433646088E-5,
            "53": -1.2730250262879706E-16,
            "54": -9.2027784865471E-18,
            "55": -2.2374418989846493E-20,
            "56": -3.3879322435525695E-13
          },
          "personalWeight": -8.197773465828737,
          "id": 60
        },
        {
          "learningRate": 0.3,
          "ID": 61,
          "value": 0.0,
          "layer": 2,
          "target": 0.007571702091011916,
          "weights": {
            "27": 0.22471484363531477,
            "28": 1.0733400778376587,
            "29": 1.0154970278088533,
            "30": 0.5503225525744505,
            "31": 0.4505163666456319,
            "32": 0.15196015634723561,
            "33": 0.2336536012277107,
            "34": 0.8839681204192001,
            "35": 0.33055825918798226,
            "36": 0.831260124327834,
            "37": 0.722414321549302,
            "38": 0.48999045948559344,
            "39": 0.7579609688744582,
            "40": 0.8683458972025556,
            "41": 0.42869634088372066,
            "42": 0.5716029531988848,
            "43": 0.6539177787589827,
            "44": 0.1801011273941353,
            "45": 0.8006526490528001,
            "46": 0.08469714026177033,
            "47": 0.5163868314342953,
            "48": 1.0364744682925207,
            "49": 0.830806625366533,
            "50": 0.6051761412516274,
            "51": -0.006040108020983586,
            "52": 0.3830945639458916,
            "53": 0.9739638540501845,
            "54": 0.6631106300786952,
            "55": 0.4076052565381287,
            "56": 0.26258760622534466
          },
          "weightChange": {
            "27": -2.275617225518446E-19,
            "28": -1.6904246408616824E-14,
            "29": -2.0461429803174333E-12,
            "30": -2.3526394062349154E-23,
            "31": -1.1729085169651465E-16,
            "32": -2.287749701995476E-13,
            "33": -1.193717522951558E-15,
            "34": -4.113532571678713E-24,
            "35": -1.5449479578207484E-12,
            "36": -6.106243714461013E-17,
            "37": -1.0787450408672208E-15,
            "38": -1.0012790249326894E-20,
            "39": -4.760166650007938E-13,
            "40": -1.0388446119532057E-13,
            "41": -8.660481958353956E-15,
            "42": -6.204240080063119E-16,
            "43": -6.320768773279044E-17,
            "44": -3.45998980531979E-13,
            "45": -1.1676132465722168E-19,
            "46": -5.283878703963947E-17,
            "47": -6.104326182716756E-16,
            "48": -8.103444891162308E-20,
            "49": -5.5088587091247495E-17,
            "50": -4.0322764696789673E-14,
            "51": -6.531115404313948E-25,
            "52": -4.737067095793001E-6,
            "53": -1.6348101362333808E-17,
            "54": -1.1818145944221531E-18,
            "55": -2.8733077670587288E-21,
            "56": -4.3507596930610134E-14
          },
          "personalWeight": -7.663104436137892,
          "id": 61
        },
        {
          "learningRate": 0.3,
          "ID": 62,
          "value": 0.0,
          "layer": 2,
          "target": 0.007693143934623701,
          "weights": {
            "27": 0.10983654040855353,
            "28": 0.5591684349405112,
            "29": 0.06163388974636418,
            "30": 0.3284183761720599,
            "31": 0.7124422004449719,
            "32": 0.051079166918479475,
            "33": 0.31940881125255427,
            "34": 0.24961751347411726,
            "35": 0.6315966359063817,
            "36": 0.8066850416259128,
            "37": 0.5547945614287938,
            "38": 0.45568197092764134,
            "39": 0.8631518816170155,
            "40": -0.030029948747850244,
            "41": 0.52759917042198,
            "42": 0.7981797767072377,
            "43": 0.9070251014348368,
            "44": 0.38370122709911686,
            "45": 0.9647901581220362,
            "46": 0.8092982232704056,
            "47": 0.6544566133297608,
            "48": 1.0148388356391067,
            "49": 1.0645003462400764,
            "50": 0.7221719399974621,
            "51": 0.331829208443616,
            "52": 0.019194190348435922,
            "53": 0.12378072078988787,
            "54": 0.8971015824344803,
            "55": 0.41689073741040056,
            "56": 0.7641093331451922
          },
          "weightChange": {
            "27": -1.461448486148663E-19,
            "28": -1.0856256951442548E-14,
            "29": -1.3140753759004218E-12,
            "30": -1.5109137249180295E-23,
            "31": -7.532661281024796E-17,
            "32": -1.4692402136772462E-13,
            "33": -7.666301024809786E-16,
            "34": -2.641795765205391E-24,
            "35": -9.921975580147054E-13,
            "36": -3.9215561090335487E-17,
            "37": -6.927923946245406E-16,
            "38": -6.430421156910103E-21,
            "39": -3.057077555248565E-13,
            "40": -6.671675132608549E-14,
            "41": -5.5619407804713875E-15,
            "42": -3.984491403489601E-16,
            "43": -4.059328542347388E-17,
            "44": -2.222077072703819E-13,
            "45": -7.498653958471979E-20,
            "46": -3.393416276826595E-17,
            "47": -3.9203246304556223E-16,
            "48": -5.204200045585512E-20,
            "49": -3.537903093092922E-17,
            "50": -2.5896114145482565E-14,
            "51": -4.194417502847938E-25,
            "52": -3.0422425433847238E-6,
            "53": -1.0499089090848497E-17,
            "54": -7.589857953958662E-19,
            "55": -1.8452977237639285E-21,
            "56": -2.794147933017173E-14
          },
          "personalWeight": -7.797928183218805,
          "id": 62
        },
        {
          "learningRate": 0.3,
          "ID": 63,
          "value": 0.0,
          "layer": 2,
          "target": 0.06200963154412908,
          "weights": {
            "27": 0.6648669509583197,
            "28": 1.0800219553450203,
            "29": 0.40512958187852277,
            "30": 0.331424414514364,
            "31": 0.43708313952530814,
            "32": 0.09044865319207178,
            "33": 0.5518634811793924,
            "34": 0.34684007495131325,
            "35": 0.3205507277663105,
            "36": 1.256818175174304,
            "37": 0.46718345710187115,
            "38": 0.38008365751555473,
            "39": 0.13278482216018617,
            "40": 0.8461363390159482,
            "41": 1.0612139434675527,
            "42": 0.6289052325899401,
            "43": 0.2102616277320103,
            "44": 0.24546701447771865,
            "45": 1.0599890862301091,
            "46": 0.6143991172234955,
            "47": 0.26707946220313783,
            "48": 0.766046239844296,
            "49": 0.32562057579776726,
            "50": 0.45578983131850276,
            "51": -0.03137702584851912,
            "52": 0.7376318999419628,
            "53": 0.2948356770242335,
            "54": 0.5802225060802941,
            "55": 0.4367257334054236,
            "56": 0.9071202000596338
          },
          "weightChange": {
            "27": -2.9117849712229144E-18,
            "28": -2.1629969263062435E-13,
            "29": -2.618159289818257E-11,
            "30": -3.0103393439645497E-22,
            "31": -1.5008048603342701E-15,
            "32": -2.927309182532874E-12,
            "33": -1.5274311972321708E-14,
            "34": -5.2635048577298323E-23,
            "35": -1.976851025057212E-11,
            "36": -7.813294994873838E-16,
            "37": -1.380317200342339E-14,
            "38": -1.2811949145513735E-19,
            "39": -6.090910877532065E-12,
            "40": -1.3292622742526894E-12,
            "41": -1.1081591810387638E-13,
            "42": -7.938687060549413E-15,
            "43": -8.08779232035209E-16,
            "44": -4.42725876862677E-12,
            "45": -1.4940292530063806E-18,
            "46": -6.76103099740854E-16,
            "47": -7.810841401162138E-15,
            "48": -1.0368830392309866E-18,
            "49": -7.048906036543749E-16,
            "50": -5.159532935752E-13,
            "51": -8.356943103764387E-24,
            "52": -6.0613536505737064E-5,
            "53": -2.0918349237766647E-16,
            "54": -1.512200705910167E-17,
            "55": -3.676564880947224E-20,
            "56": -5.567050796414702E-13
          },
          "personalWeight": -7.649964344693698,
          "id": 63
        },
        {
          "learningRate": 0.3,
          "ID": 64,
          "value": 0.0,
          "layer": 2,
          "target": 0.0419921568643416,
          "weights": {
            "27": 0.9075752941600476,
            "28": 0.8495927646408241,
            "29": 0.5543596793390392,
            "30": 0.8782492662156363,
            "31": 0.6965220901252845,
            "32": 0.43414097702021553,
            "33": 0.46384218167531815,
            "34": 0.5016715799548941,
            "35": -0.01082607923239321,
            "36": 0.9102851938519025,
            "37": 0.45617529874587576,
            "38": 0.6153452320721495,
            "39": 0.9153365065726151,
            "40": 0.22169060145808817,
            "41": 0.45548500669951064,
            "42": 0.06654405848298434,
            "43": 0.9510480001270726,
            "44": 0.13699504303617668,
            "45": 0.4685670104965477,
            "46": 0.7451658616967158,
            "47": 0.47767765853597327,
            "48": 0.6256258615799487,
            "49": 0.42614945375917734,
            "50": 0.01868606272604529,
            "51": 0.7692667067539708,
            "52": 0.6121069625566139,
            "53": 0.17338359556553654,
            "54": 0.4389953012224192,
            "55": 0.49416812688841294,
            "56": 0.6144518682078289
          },
          "weightChange": {
            "27": -1.0112074271986523E-18,
            "28": -7.511676097325674E-14,
            "29": -9.092368240163872E-12,
            "30": -1.0454334825853558E-22,
            "31": -5.212009253926693E-16,
            "32": -1.016598689923468E-12,
            "33": -5.304477447479265E-15,
            "34": -1.827914924293743E-23,
            "35": -6.865226858299098E-12,
            "36": -2.713408444577628E-16,
            "37": -4.793578573523613E-15,
            "38": -4.4493457658701173E-20,
            "39": -2.1152572661224728E-12,
            "40": -4.616274545351337E-13,
            "41": -3.848425640833445E-14,
            "42": -2.756954719242844E-15,
            "43": -2.808736134298204E-16,
            "44": -1.5375025948724214E-12,
            "45": -5.188478860984023E-19,
            "46": -2.347977212489167E-16,
            "47": -2.712556358242572E-15,
            "48": -3.600897184266757E-19,
            "49": -2.447950727207998E-16,
            "50": -1.7918074573059088E-13,
            "51": -2.902207071854607E-24,
            "52": -2.1049926045066338E-5,
            "53": -7.264544024719307E-17,
            "54": -5.251584853771609E-18,
            "55": -1.2768009145366746E-20,
            "56": -1.933330643767428E-13
          },
          "personalWeight": -8.197254715512612,
          "id": 64
        },
        {
          "learningRate": 0.3,
          "ID": 65,
          "value": 0.0,
          "layer": 2,
          "target": 0.015933319619381988,
          "weights": {
            "27": 0.23303164495116022,
            "28": 0.6729004904217774,
            "29": 0.9993098529629867,
            "30": 0.5966276258804688,
            "31": 0.7550780604801258,
            "32": 0.8159572986327754,
            "33": 1.272718485202494,
            "34": 0.7020505158909346,
            "35": 0.7630557285391353,
            "36": 0.5901384237648706,
            "37": 0.4013178683402361,
            "38": 0.6869448010203657,
            "39": 0.8421051196099626,
            "40": 1.0455368751498393,
            "41": 0.9340835090611511,
            "42": 0.3780637094487308,
            "43": 0.9581698920783189,
            "44": 0.161294598095425,
            "45": 0.5728718727351663,
            "46": 0.41043069803291926,
            "47": 1.0081071726847262,
            "48": 0.37612197409710924,
            "49": 0.19300811071768084,
            "50": 1.104471805380627,
            "51": 0.9350107845685925,
            "52": 0.7692093793915808,
            "53": 1.0780841123432976,
            "54": 0.7569841586429717,
            "55": 0.7995329939827901,
            "56": 0.9316777066619533
          },
          "weightChange": {
            "27": -6.888306853493818E-19,
            "28": -5.116925425061109E-14,
            "29": -6.19368695072949E-12,
            "30": -7.121453451854367E-23,
            "31": -3.5504010451896625E-16,
            "32": -6.925031931828353E-13,
            "33": -3.613390029867407E-15,
            "34": -1.245168751924393E-23,
            "35": -4.676566641704601E-12,
            "36": -1.8483635980494295E-16,
            "37": -3.2653676439302E-15,
            "38": -3.0308775537292334E-20,
            "39": -1.44090527138421E-12,
            "40": -3.1445888086921537E-13,
            "41": -2.621533031096559E-14,
            "42": -1.878027156104132E-15,
            "43": -1.9133004607314102E-16,
            "44": -1.0473409684958399E-12,
            "45": -3.5343722302687297E-19,
            "46": -1.5994332210792921E-16,
            "47": -1.847783160051877E-15,
            "48": -2.452917580107777E-19,
            "49": -1.6675348022270247E-16,
            "50": -1.2205724816019304E-13,
            "51": -1.9769725108424285E-24,
            "52": -1.4339130226076106E-5,
            "53": -4.948579989331022E-17,
            "54": -3.577359794533313E-18,
            "55": -8.697519671621605E-21,
            "56": -1.3169775424242988E-13
          },
          "personalWeight": -7.718416937890266,
          "id": 65
        },
        {
          "learningRate": 0.3,
          "ID": 66,
          "value": 0.0,
          "layer": 2,
          "target": 0.07631406830707879,
          "weights": {
            "27": 0.13084179438570098,
            "28": 0.5756655150858676,
            "29": 0.719822564612197,
            "30": 0.2899930154126678,
            "31": 0.3572588352480384,
            "32": 0.7488539301798771,
            "33": 2.261553379755163,
            "34": 0.5533900406080279,
            "35": 0.8915337247045926,
            "36": 2.9632968180659356,
            "37": 1.0354784275793634,
            "38": 0.8346091283390611,
            "39": 0.7435057198847134,
            "40": 1.1263099571565947,
            "41": 1.8775482947183284,
            "42": 0.06408467024246384,
            "43": 1.0449020888360636,
            "44": 1.1957153433463976,
            "45": 0.425847870588478,
            "46": 0.6449953138358705,
            "47": 0.5866686674885879,
            "48": 2.0555357841467963,
            "49": 0.06903853731369745,
            "50": 1.589836131562448,
            "51": 0.6514870174082449,
            "52": 0.5161379099208642,
            "53": 1.0074191733430207,
            "54": 1.1444496111345936,
            "55": 0.44851838800885063,
            "56": 0.9628568877459281
          },
          "weightChange": {
            "27": -1.890369506880204E-18,
            "28": -1.4042463551996617E-13,
            "29": -1.699743811628E-11,
            "30": -1.9543523156527375E-22,
            "31": -9.74342464087233E-16,
            "32": -1.900448031211067E-12,
            "33": -9.916286359196851E-15,
            "34": -3.4171373163552783E-23,
            "35": -1.2833979618500267E-11,
            "36": -5.072494965301642E-16,
            "37": -8.96120273693676E-15,
            "38": -8.317687682207944E-20,
            "39": -3.9543003023247935E-12,
            "40": -8.629747370521562E-13,
            "41": -7.194316700265181E-14,
            "42": -5.153901161054578E-15,
            "43": -5.2507022776315525E-16,
            "44": -2.87423523989311E-12,
            "45": -9.699436497483234E-19,
            "46": -4.389351191412034E-16,
            "47": -5.0709020596507406E-15,
            "48": -6.731582513595817E-19,
            "49": -4.576243493265145E-16,
            "50": -3.349637362608324E-13,
            "51": -5.425438543785792E-24,
            "52": -3.9351113577075835E-5,
            "53": -1.3580470372692757E-16,
            "54": -9.817407985091405E-18,
            "55": -2.3868747897583714E-20,
            "56": -3.6142033744942524E-13
          },
          "personalWeight": -8.078332345432207,
          "id": 66
        },
        {
          "learningRate": 0.3,
          "ID": 67,
          "value": 0.0,
          "layer": 2,
          "target": 0.05173256184962594,
          "weights": {
            "27": 0.3659509266509629,
            "28": 0.8359534271626017,
            "29": 0.21244875580188047,
            "30": 0.37536849487583895,
            "31": 0.42598189609976156,
            "32": 0.4953308663914557,
            "33": 1.4559568224309722,
            "34": 0.3037223622157323,
            "35": 0.5759984028547054,
            "36": 1.3092683152597164,
            "37": 0.42383794588633666,
            "38": 0.17956647191321276,
            "39": 0.8566346053415476,
            "40": 0.07761219377295867,
            "41": 0.09890588099891912,
            "42": 0.13540498783318528,
            "43": 0.9034615608650309,
            "44": 1.098470843126822,
            "45": 0.7444579678359711,
            "46": 0.7640801930518316,
            "47": 0.7451774526670054,
            "48": 0.904093129497085,
            "49": 0.2909287788477123,
            "50": 0.771618693505936,
            "51": 0.09406818191264475,
            "52": 0.24415512186423127,
            "53": 1.322756351170462,
            "54": 1.1413540619304225,
            "55": 0.8153731747541368,
            "56": 1.13523548504143
          },
          "weightChange": {
            "27": -2.0354163711125842E-18,
            "28": -1.5119932955148434E-13,
            "29": -1.8301640860652028E-11,
            "30": -2.1043085405912967E-22,
            "31": -1.0491031490167853E-15,
            "32": -2.0462682142813578E-12,
            "33": -1.0677156779501923E-14,
            "34": -3.6793321150889815E-23,
            "35": -1.3818722808924421E-11,
            "36": -5.461704316105124E-16,
            "37": -9.648790191142175E-15,
            "38": -8.955898630690522E-20,
            "39": -4.2577112793839534E-12,
            "40": -9.29190246276994E-13,
            "41": -7.746332099302318E-14,
            "42": -5.54935675809726E-15,
            "43": -5.653585363513099E-16,
            "44": -3.0947735034946714E-12,
            "45": -1.044366816418151E-18,
            "46": -4.726143349776724E-16,
