[{"outputStart":65,"combatantMind":{"nodes":[{"ID":0,"value":1.0,"layer":0,"target":0.0,"weights":{},"weightChange":{},"personalWeight":0.5531569067361141,"id":0},{"ID":1,"value":0.0,"layer":0,"target":0.0,"weights":{},"weightChange":{},"personalWeight":0.4733253467376153,"id":1},{"ID":2,"value":0.0,"layer":0,"target":0.0,"weights":{},"weightChange":{},"personalWeight":0.2593945703381736,"id":2},{"ID":3,"value":0.0,"layer":0,"target":0.0,"weights":{},"weightChange":{},"personalWeight":0.8752868755645471,"id":3},{"ID":4,"value":0.0,"layer":0,"target":0.0,"weights":{},"weightChange":{},"personalWeight":0.7089521414127214,"id":4},{"ID":5,"value":0.0,"layer":0,"target":0.0,"weights":{},"weightChange":{},"personalWeight":0.16694043434574524,"id":5},{"ID":6,"value":0.0,"layer":0,"target":0.0,"weights":{},"weightChange":{},"personalWeight":0.9384806900319214,"id":6},{"ID":7,"value":0.0,"layer":0,"target":0.0,"weights":{},"weightChange":{},"personalWeight":0.9955151307047112,"id":7},{"ID":8,"value":0.0,"layer":0,"target":0.0,"weights":{},"weightChange":{},"personalWeight":75181.94532858087,"id":8},{"ID":9,"value":0.0,"layer":0,"target":0.0,"weights":{},"weightChange":{},"personalWeight":0.3257583919091931,"id":9},{"ID":10,"value":0.0,"layer":0,"target":0.0,"weights":{},"weightChange":{},"personalWeight":0.7718585985187808,"id":10},{"ID":11,"value":0.0,"layer":0,"target":0.0,"weights":{},"weightChange":{},"personalWeight":0.45782238523795404,"id":11},{"ID":12,"value":0.0,"layer":0,"target":0.0,"weights":{},"weightChange":{},"personalWeight":0.6775843819307537,"id":12},{"ID":13,"value":0.0,"layer":0,"target":0.0,"weights":{},"weightChange":{},"personalWeight":0.04857336402603274,"id":13},{"ID":14,"value":0.0,"layer":0,"target":0.0,"weights":{},"weightChange":{},"personalWeight":0.36045970459826726,"id":14},{"ID":15,"value":0.0,"layer":0,"target":0.0,"weights":{},"weightChange":{},"personalWeight":0.12744313254587158,"id":15},{"ID":16,"value":0.0,"layer":0,"target":0.0,"weights":{},"weightChange":{},"personalWeight":0.09978849884041552,"id":16},{"ID":17,"value":0.0,"layer":1,"target":294.0078028543782,"weights":{"0":-24.450263110314385,"1":0.5106049801078654,"2":0.8689486370284016,"3":0.27552224186121366,"4":-0.21261882617375275,"5":0.32300670487833916,"6":0.34893580936947355,"7":0.8650236174015232,"8":35.35993340646165,"9":27.210067804146487,"10":0.49053400294337124,"11":-41.116267652241646,"12":0.5821342451314886,"13":1.452570405196629,"14":35.7196962610971,"15":34.915954982113334,"16":26.357198212688743},"weightChange":{"0":-6.400041873863424E-20,"1":-0.0,"2":-0.0,"3":-0.0,"4":-0.0,"5":-0.0,"6":-0.0,"7":-0.0,"8":-0.0,"9":-0.0,"10":-0.0,"11":-0.0,"12":-0.0,"13":-0.0,"14":-0.0,"15":-0.0,"16":-0.0},"personalWeight":-25.428740523738657,"id":17},{"ID":18,"value":1.0,"layer":1,"target":-133.34468998906374,"weights":{"0":11.23355327849772,"1":0.1245410413786664,"2":0.3215087011659731,"3":0.7420645690447756,"4":0.3781694969288937,"5":0.08355664147291131,"6":0.06897971909283385,"7":0.009838328618019143,"8":-2.973355928006547,"9":-5.406867041163002,"10":0.04050519286085774,"11":14.25720274230249,"12":0.6908216388167278,"13":16.490780660158656,"14":-15.375593001873554,"15":-0.20352964698768833,"16":3.031989558935375},"weightChange":{"0":0.0,"1":0.0,"2":0.0,"3":0.0,"4":0.0,"5":0.0,"6":0.0,"7":0.0,"8":0.0,"9":0.0,"10":0.0,"11":0.0,"12":0.0,"13":0.0,"14":0.0,"15":0.0,"16":0.0},"personalWeight":37.27307575943378,"id":18},{"ID":19,"value":1.0,"layer":1,"target":-332.907232385845,"weights":{"0":9.8349678648796,"1":0.06964458287105046,"2":0.44462208107292056,"3":0.916273681598996,"4":0.34305396753821354,"5":0.6342504425354488,"6":0.7323942672773021,"7":0.17023606839510308,"8":8.11736392518752,"9":3.6564501155915603,"10":0.2011596395008176,"11":2.859913493875209,"12":0.5918229930739209,"13":2.049500877280033,"14":16.508479771917255,"15":4.886465534942968,"16":1.4912195604729228},"weightChange":{"0":4.911326788307592E-8,"1":0.0,"2":0.0,"3":0.0,"4":0.0,"5":0.0,"6":0.0,"7":0.0,"8":0.0,"9":0.0,"10":0.0,"11":0.0,"12":0.0,"13":0.0,"14":0.0,"15":0.0,"16":0.0},"personalWeight":12.805031287931046,"id":19},{"ID":20,"value":1.0,"layer":1,"target":-238.71500653533622,"weights":{"0":7.127112295236048,"1":0.7629526701620953,"2":0.410417639503891,"3":0.652725122276632,"4":-1.1705389998520699,"5":0.9962994010130805,"6":0.6188987224778707,"7":0.6170559374054987,"8":10.053256819813894,"9":2.3258770196074376,"10":0.09254417503698897,"11":2.144288944040957,"12":0.2914141784134514,"13":1.7345999689950793,"14":21.91254488927282,"15":1.00867680793824,"16":5.858686087721982},"weightChange":{"0":7.473540146238804E-7,"1":0.0,"2":0.0,"3":0.0,"4":0.0,"5":0.0,"6":0.0,"7":0.0,"8":0.0,"9":0.0,"10":0.0,"11":0.0,"12":0.0,"13":0.0,"14":0.0,"15":0.0,"16":0.0},"personalWeight":12.45906516604642,"id":20},{"ID":21,"value":1.0,"layer":1,"target":217.55146992836654,"weights":{"0":22.875771289711036,"1":0.05888886456665099,"2":0.7772453756826341,"3":0.4374054950234785,"4":0.3921121729746249,"5":0.8396095632534257,"6":0.46861873172279067,"7":4.3263013706418274E-4,"8":5.165053701926989,"9":3.488837837104353,"10":0.6912715663473405,"11":-0.8483686190898103,"12":0.22726857705824222,"13":-4.345461261826828,"14":33.23887297581645,"15":21.912761942216864,"16":10.064097611187405},"weightChange":{"0":-2.3714598981176867E-5,"1":-0.0,"2":-0.0,"3":-0.0,"4":-0.0,"5":-0.0,"6":-0.0,"7":-0.0,"8":-0.0,"9":-0.0,"10":-0.0,"11":-0.0,"12":-0.0,"13":-0.0,"14":-0.0,"15":-0.0,"16":-0.0},"personalWeight":-6.848518800085389,"id":21},{"ID":22,"value":0.0,"layer":1,"target":98.41478370321823,"weights":{"0":-5.772448371531333,"1":0.8709407635871605,"2":-0.8460080918590658,"3":0.8489690831436046,"4":4.006904615307874,"5":0.7271633366462646,"6":0.15207269482626096,"7":0.24690404519724052,"8":28.518762634610773,"9":20.92352822554753,"10":0.7679085011095466,"11":-1.562481294492028,"12":0.034223203504104016,"13":21.821875398043552,"14":36.35728336011676,"15":-8.73779047253414,"16":25.07522817340883},"weightChange":{"0":-6.644001974459231E-4,"1":-0.0,"2":-0.0,"3":-0.0,"4":-0.0,"5":-0.0,"6":-0.0,"7":-0.0,"8":-0.0,"9":-0.0,"10":-0.0,"11":-0.0,"12":-0.0,"13":-0.0,"14":-0.0,"15":-0.0,"16":-0.0},"personalWeight":-6.1332220943583575,"id":22},{"ID":23,"value":0.0,"layer":1,"target":215.49692255013846,"weights":{"0":-41.76320110331206,"1":0.07150610860925077,"2":1.7205208492138255,"3":0.8520739108235003,"4":-2.7085195046382564,"5":0.5636591559664955,"6":0.17890065034458436,"7":0.08357383511541783,"8":-1.9360149225019183,"9":22.822834617681814,"10":0.039452464100185214,"11":-33.55039994269504,"12":0.8323532485137214,"13":15.423951447176995,"14":36.0265574432131,"15":49.14726976669811,"16":18.236307373449986},"weightChange":{"0":-1.9357529149483596E-30,"1":-0.0,"2":-0.0,"3":-0.0,"4":-0.0,"5":-0.0,"6":-0.0,"7":-0.0,"8":-0.0,"9":-0.0,"10":-0.0,"11":-0.0,"12":-0.0,"13":-0.0,"14":-0.0,"15":-0.0,"16":-0.0},"personalWeight":-32.02680196130819,"id":23},{"ID":24,"value":0.0,"layer":1,"target":282.5510838247141,"weights":{"0":-0.9194239490601201,"1":0.4263750202925971,"2":0.35702979290235853,"3":0.02596685254571729,"4":0.16983803318133903,"5":0.11884923396046798,"6":0.7731838696467721,"7":0.3151968530467819,"8":-24.08712085476962,"9":7.985390362104104,"10":0.6408966271071774,"11":-14.961836203397697,"12":0.3135473992854053,"13":-2.0979781419082473,"14":-4.772491951602919,"15":48.048859138013555,"16":14.63498729205357},"weightChange":{"0":-1.42095818670666E-13,"1":-0.0,"2":-0.0,"3":-0.0,"4":-0.0,"5":-0.0,"6":-0.0,"7":-0.0,"8":-0.0,"9":-0.0,"10":-0.0,"11":-0.0,"12":-0.0,"13":-0.0,"14":-0.0,"15":-0.0,"16":-0.0},"personalWeight":-34.30671019837687,"id":24},{"ID":25,"value":0.0,"layer":1,"target":403.6475129288558,"weights":{"0":-18.60166772221875,"1":0.820804590190141,"2":2.6984419366031456,"3":0.18144570667814164,"4":-1.6879827683767175,"5":0.8208287860317013,"6":0.33723073984763585,"7":0.781388864356913,"8":4.476330706819313,"9":42.32410471875194,"10":0.4083752215849846,"11":-21.186535486614858,"12":0.7333161396615336,"13":-17.296407883329643,"14":38.94163871780269,"15":89.79638657659456,"16":1.7743998167252972},"weightChange":{"0":-1.1226299482345525E-26,"1":-0.0,"2":-0.0,"3":-0.0,"4":-0.0,"5":-0.0,"6":-0.0,"7":-0.0,"8":-0.0,"9":-0.0,"10":-0.0,"11":-0.0,"12":-0.0,"13":-0.0,"14":-0.0,"15":-0.0,"16":-0.0},"personalWeight":-47.1504125992587,"id":25},{"ID":26,"value":0.0,"layer":1,"target":382.28348337644456,"weights":{"0":-23.556615643068973,"1":0.5409559321230616,"2":0.5333142314367825,"3":0.9083278196032624,"4":0.41945374172404293,"5":0.724524654282354,"6":0.9817292279342401,"7":0.6960494605463422,"8":0.4790083030343106,"9":18.963925898864723,"10":0.4675020847745661,"11":-0.6270403780143474,"12":0.24265496154374555,"13":7.545413832093753,"14":20.111427866345274,"15":9.317816699328757,"16":2.214519974809569},"weightChange":{"0":-2.1134935746470073E-32,"1":-0.0,"2":-0.0,"3":-0.0,"4":-0.0,"5":-0.0,"6":-0.0,"7":-0.0,"8":-0.0,"9":-0.0,"10":-0.0,"11":-0.0,"12":-0.0,"13":-0.0,"14":-0.0,"15":-0.0,"16":-0.0},"personalWeight":-55.323927468332435,"id":26},{"ID":27,"value":1.0,"layer":1,"target":210.2697174318564,"weights":{"0":22.706121851138107,"1":0.18604126686703837,"2":-0.16930119790764725,"3":0.2145431364107796,"4":1.541939719960929,"5":0.6123573900973492,"6":0.6179082972599783,"7":0.07180266015360981,"8":-4.387354570753915,"9":33.92722858683178,"10":0.2671380525184731,"11":33.82757905466818,"12":0.7668316595729888,"13":17.95787492271911,"14":2.9505765322509347,"15":25.989893986338945,"16":36.22207722221607},"weightChange":{"0":-4.879057231642484E-12,"1":-0.0,"2":-0.0,"3":-0.0,"4":-0.0,"5":-0.0,"6":-0.0,"7":-0.0,"8":-0.0,"9":-0.0,"10":-0.0,"11":-0.0,"12":-0.0,"13":-0.0,"14":-0.0,"15":-0.0,"16":-0.0},"personalWeight":8.681890802387327,"id":27},{"ID":28,"value":0.0,"layer":1,"target":505.28845843566944,"weights":{"0":-48.59121782101642,"1":0.23043949045757728,"2":0.285807745846136,"3":0.4567298150776773,"4":2.2726153331136913,"5":0.974079928055366,"6":0.7540317226323271,"7":0.3075322155265927,"8":-54.737355192447836,"9":3.827334143749815,"10":0.10808571529252875,"11":4.999729754621394,"12":0.7267947203822743,"13":20.775763731715106,"14":58.770181436009054,"15":-31.974274670170196,"16":-0.7110635387302114},"weightChange":{"0":-3.6847572885869405E-45,"1":-0.0,"2":-0.0,"3":-0.0,"4":-0.0,"5":-0.0,"6":-0.0,"7":-0.0,"8":-0.0,"9":-0.0,"10":-0.0,"11":-0.0,"12":-0.0,"13":-0.0,"14":-0.0,"15":-0.0,"16":-0.0},"personalWeight":-59.946036175964856,"id":28},{"ID":29,"value":1.0,"layer":1,"target":275.2262283140605,"weights":{"0":14.942771643460585,"1":0.20001956174133673,"2":-1.1520245892669325,"3":0.3356442829287515,"4":-2.2536384538294856,"5":0.2963917721461913,"6":0.38992393771021483,"7":0.15125829945990144,"8":48.00320791010138,"9":43.26525328280304,"10":0.34028199258756775,"11":-0.10504361263452687,"12":0.16410836352414526,"13":6.687493253829602,"14":31.669514045849997,"15":27.383112593161957,"16":20.697623782409284},"weightChange":{"0":-8.692909865329032E-6,"1":-0.0,"2":-0.0,"3":-0.0,"4":-0.0,"5":-0.0,"6":-0.0,"7":-0.0,"8":-0.0,"9":-0.0,"10":-0.0,"11":-0.0,"12":-0.0,"13":-0.0,"14":-0.0,"15":-0.0,"16":-0.0},"personalWeight":2.324186274521493,"id":29},{"ID":30,"value":1.0,"layer":1,"target":-176.1361350095462,"weights":{"0":10.221402190687334,"1":0.11274855858597943,"2":-0.5017532021869648,"3":0.33291903010432655,"4":-1.4061674164775622,"5":0.017453208192642622,"6":0.982948652758683,"7":0.6784877918170087,"8":15.347164429136551,"9":10.676573523817982,"10":0.7491762170901912,"11":1.0086841362628844,"12":0.2973066094573015,"13":3.505666742869979,"14":28.356401817083142,"15":17.611586896097634,"16":8.207530359085162},"weightChange":{"0":3.108732346304945E-8,"1":0.0,"2":0.0,"3":0.0,"4":0.0,"5":0.0,"6":0.0,"7":0.0,"8":0.0,"9":0.0,"10":0.0,"11":0.0,"12":0.0,"13":0.0,"14":0.0,"15":0.0,"16":0.0},"personalWeight":12.241982062958597,"id":30},{"ID":31,"value":0.0,"layer":1,"target":146.96458988095492,"weights":{"0":-1.2774021146632701,"1":0.1634981624383306,"2":0.404716686356832,"3":0.11496830463497154,"4":-0.2955026643993594,"5":0.5240316670015897,"6":0.6769708693245402,"7":0.9056353275778938,"8":-10.358838605924777,"9":8.175807546877195,"10":0.4034242493495783,"11":-39.16794564311196,"12":0.9334606908120858,"13":-24.13987455793165,"14":1.06478290297465,"15":10.165236639533859,"16":-1.7786453107524516},"weightChange":{"0":-7.216525173550744E-14,"1":-0.0,"2":-0.0,"3":-0.0,"4":-0.0,"5":-0.0,"6":-0.0,"7":-0.0,"8":-0.0,"9":-0.0,"10":-0.0,"11":-0.0,"12":-0.0,"13":-0.0,"14":-0.0,"15":-0.0,"16":-0.0},"personalWeight":-33.97260730069924,"id":31},{"ID":32,"value":1.0,"layer":1,"target":11.115733989591497,"weights":{"0":2.2075538896728726,"1":0.4162761015407124,"2":3.9633710043488852,"3":0.09009823309389808,"4":1.3110298591216611,"5":0.3718895972536793,"6":0.8708978177553444,"7":0.32613090599139183,"8":-2.0964288695601163,"9":11.690693379909883,"10":0.7786795011455818,"11":6.55940514059587,"12":0.6373706778634555,"13":8.235782818024838,"14":14.833951775436274,"15":8.194527488531444,"16":11.219270135124718},"weightChange":{"0":-4.027336473939835E-12,"1":-0.0,"2":-0.0,"3":-0.0,"4":-0.0,"5":-0.0,"6":-0.0,"7":-0.0,"8":-0.0,"9":-0.0,"10":-0.0,"11":-0.0,"12":-0.0,"13":-0.0,"14":-0.0,"15":-0.0,"16":-0.0},"personalWeight":26.344303678884483,"id":32},{"ID":33,"value":0.0,"layer":2,"target":2.0658503938290296,"weights":{"32":5.416471255922453,"17":0.41606630077681406,"18":2.6075812666257496,"19":-2.224311001116182,"20":-0.5774771875892752,"21":0.2607720296932636,"22":12.044847928354656,"23":0.38032046428180705,"24":7.046144385515505,"25":5.531871336183995,"26":7.38505347853661,"27":1.552955892158363,"28":7.920879937960321,"29":-4.716159692204714,"30":-0.5084588329153915,"31":4.2482842939810315},"weightChange":{"32":-0.0031874613778227604,"17":-6.938552681712409E-25,"18":-0.0031874613778240294,"19":-0.0031874613773551965,"20":-0.0031874613678865536,"21":-0.0031874610287643966,"22":-2.151876305094012E-8,"23":-2.8632138131683105E-35,"24":-1.60298423857406E-18,"25":-8.865010899291529E-32,"26":-1.7622208215657588E-37,"27":-0.0031874613778239552,"28":-2.324419120988447E-50,"29":-0.003187461276782216,"30":-0.003187461377264631,"31":-1.5651658192915986E-18},"personalWeight":-8.278814674946872,"id":33},{"ID":34,"value":0.0,"layer":2,"target":13.446992679033837,"weights":{"32":1.134824817769897,"17":4.3152082211459675,"18":-5.526841304379252,"19":-6.781057930708331,"20":-4.73863937537219,"21":8.423947677548265,"22":-1.4577353621796276,"23":3.107321828848037,"24":2.0532675118892167,"25":3.684965079047789,"26":21.439333638503026,"27":1.2175967370003955,"28":13.915638712523938,"29":4.975734952788519,"30":-4.761227853475898,"31":-6.608114030482086},"weightChange":{"32":-5.0676637384584237E-8,"17":-1.1031428354597191E-29,"18":-5.067663738460441E-8,"19":-5.067663737715056E-8,"20":-5.067663722661102E-8,"21":-5.067663183499413E-8,"22":-3.421213382174884E-13,"23":-4.552150786014368E-40,"24":-2.5485438523778885E-23,"25":-1.4094255255279346E-36,"26":-2.801710043842226E-42,"27":-5.067663738460323E-8,"28":-3.695534814749229E-55,"29":-5.0676635778166334E-8,"30":-5.067663737571068E-8,"31":-2.488417309864468E-23},"personalWeight":-13.340883084898522,"id":34},{"ID":35,"value":1.0,"layer":2,"target":3.81967179017862,"weights":{"32":-0.2194725827295679,"17":9.868287370760964,"18":-1.5991271130497213,"19":-1.2550939649205226,"20":0.7199406547790521,"21":2.9002212408805166,"22":7.998183154482068,"23":2.565594099798239,"24":-0.8841741993571706,"25":0.7343197666226653,"26":8.234030086318162,"27":4.688708896547303,"28":11.997199928825399,"29":10.141872137769383,"30":2.6566162718912603,"31":-2.3056982695633237},"weightChange":{"32":-1.9008661879341056E-4,"17":-4.1378572545640503E-26,"18":-1.9008661879348624E-4,"19":-1.9008661876552705E-4,"20":-1.900866182008575E-4,"21":-1.9008659797705663E-4,"22":-1.2832873638656628E-9,"23":-1.707498752501012E-36,"24":-9.559515168080448E-20,"25":-5.286714873276686E-33,"26":-1.050913431828279E-38,"27":-1.900866187934818E-4,"28":-1.3861845493771946E-51,"29":-1.9008661276778292E-4,"30":-1.900866187601261E-4,"31":-9.333982225170721E-20},"personalWeight":-8.429007554778977,"id":35},{"ID":36,"value":0.0,"layer":2,"target":1.5694524346415957,"weights":{"32":-1.759936197639178,"17":-0.7508024338988992,"18":-3.235292658839698,"19":-3.0300626395796306,"20":5.979114144781347,"21":-1.0822804316780166,"22":1.399893648027816,"23":1.4966371311319657,"24":-2.4679776263627584,"25":-2.931109605100486,"26":-0.009536417459554183,"27":-0.5030948272441357,"28":2.3524583557307968,"29":-3.37811472079339,"30":-0.8896044024078541,"31":-1.576247151536432},"weightChange":{"32":-2.0772790728960455E-8,"17":-4.521877624052385E-30,"18":-2.0772790728968727E-8,"19":-2.0772790725913327E-8,"20":-2.077279066420587E-8,"21":-2.0772788454135608E-8,"22":-1.402384871902663E-13,"23":-1.8659658676034134E-40,"24":-1.0446701052254298E-23,"25":-5.7773567862561324E-37,"26":-1.1484451105602628E-42,"27":-2.0772790728968243E-8,"28":-1.5148315930236853E-55,"29":-2.0772790070475903E-8,"30":-2.077279072532311E-8,"31":-1.0200237168826395E-23},"personalWeight":-10.241086506753215,"id":36},{"ID":37,"value":1.0,"layer":2,"target":3.800382328244102,"weights":{"32":0.6930107225862839,"17":-7.335328172077496,"18":-0.8028403431077813,"19":-2.148110620286283,"20":-0.41317214562002574,"21":1.8391544249378264,"22":-0.5572278287260147,"23":4.88435111856153,"24":3.9651221399759837,"25":7.602497447429781,"26":3.5091455376591534,"27":17.744036672714277,"28":8.354586674009138,"29":11.64558781455264,"30":-1.0218032544769555,"31":-8.771651347679317},"weightChange":{"32":-2.2754436055509143E-8,"17":-4.953247572262368E-30,"18":-2.2754436055518202E-8,"19":-2.275443605217133E-8,"20":-2.2754435984577214E-8,"21":-2.2754433563674647E-8,"22":-1.5361670614836758E-13,"23":-2.0439719231826737E-40,"24":-1.1443276649060831E-23,"25":-6.328494677388285E-37,"26":-1.2580024115427737E-42,"27":-2.2754436055517673E-8,"28":-1.6593407726515642E-55,"29":-2.2754435334207665E-8,"30":-2.2754436051524806E-8,"31":-1.117330104738907E-23},"personalWeight":-8.907597275503193,"id":37},{"ID":38,"value":1.0,"layer":2,"target":-5.079577087779508,"weights":{"32":1.2615606857868333,"17":0.8928337204712069,"18":2.18411348578099,"19":1.7834755106564077,"20":3.1326006691848667,"21":-0.07908181465284088,"22":4.711899367069561,"23":2.12067291439146,"24":0.29878478200196873,"25":5.4637164335009825,"26":0.3175156106608439,"27":9.283736015011158,"28":4.105433760097407,"29":0.2203799702764621,"30":2.6811040180839094,"31":1.456235088943946},"weightChange":{"32":1.3604584242341969E-6,"17":2.961482926038239E-28,"18":1.3604584242347386E-6,"19":1.3604584240346334E-6,"20":1.3604584199932683E-6,"21":1.3604582752506219E-6,"22":9.184545003568957E-12,"23":1.222064486682274E-38,"24":6.84178772002044E-22,"25":3.783725457124507E-35,"26":7.521434388948238E-41,"27":1.3604584242347068E-6,"28":9.920984757970044E-54,"29":1.3604583811085107E-6,"30":1.3604584239959786E-6,"31":6.6803727850442255E-22},"personalWeight":-5.1552980768838506,"id":38},{"ID":39,"value":0.0,"layer":2,"target":3.723158488136218,"weights":{"32":-3.0286924481234987,"17":1.49636465405266,"18":-1.3727915795992496,"19":-2.2291119745037764,"20":-0.4034313615087882,"21":2.9294903666601004,"22":13.849273030211416,"23":2.370426459785663,"24":-0.5924310425837639,"25":2.357123941832245,"26":2.4369004260733855,"27":1.8647586228091482,"28":2.6244596264541653,"29":5.522441991265839,"30":-1.5941489918840075,"31":-0.36670333521113024},"weightChange":{"32":-0.002104586798858878,"17":-4.581321825174062E-25,"18":-0.0021045867988597157,"19":-0.002104586798550159,"20":-0.0021045867922982932,"21":-0.0021045865683859285,"22":-1.420820498716613E-8,"23":-1.8904956889612502E-35,"24":-1.058403245527704E-18,"25":-5.853305404796173E-32,"26":-1.1635424678541055E-37,"27":-0.0021045867988596667,"28":-1.534745434433766E-50,"29":-0.0021045867321447848,"30":-0.0021045867984903614,"31":-1.0334328579555273E-18},"personalWeight":-9.163638374597745,"id":39},{"ID":40,"value":1.0,"layer":2,"target":-1.2747336840937231,"weights":{"32":0.5256530698290108,"17":0.261483228372789,"18":6.137374094871288,"19":1.492003433569502,"20":14.01311258945163,"21":1.5177835900233445,"22":2.0459609775802856,"23":3.3349373039098893,"24":3.20791043932922,"25":9.331385270469893,"26":0.40934148486155975,"27":3.8330090828014276,"28":1.2201577516353324,"29":-7.29299184797349,"30":2.7145283717434014,"31":4.016447285196189},"weightChange":{"32":2.6975773367847103E-5,"17":5.872159767802197E-27,"18":2.6975773367857843E-5,"19":2.697577336389007E-5,"20":2.6975773283756088E-5,"21":2.697577041373466E-5,"22":1.8211523416640464E-10,"23":2.4231636958837673E-37,"24":1.3566200310022786E-20,"25":7.502538747187299E-34,"26":1.4913833885927813E-39,"27":2.6975773367857213E-5,"28":1.967176884273493E-52,"29":2.697577251273186E-5,"30":2.6975773363123607E-5,"31":1.3246139613823625E-20},"personalWeight":-11.598105066161946,"id":40},{"ID":41,"value":1.0,"layer":2,"target":-4.557095283090203,"weights":{"32":2.755529017777929,"17":2.4442458146326502,"18":1.9969282345147839,"19":3.5177402937773667,"20":8.410381522104517,"21":-0.7452441792608834,"22":2.0053820570963325,"23":1.9662649567197923,"24":1.2281803049270512,"25":0.04030898407602599,"26":0.673218332116684,"27":3.3982727779368065,"28":2.6828979273973,"29":-0.40200367474140547,"30":0.20224266314431166,"31":0.7859010990982935},"weightChange":{"32":3.120652081959892E-6,"17":6.793120388101604E-28,"18":3.1206520819611344E-6,"19":3.1206520815021285E-6,"20":3.1206520722319484E-6,"21":3.120651740217803E-6,"22":2.106772906594005E-11,"23":2.8032007569808573E-38,"24":1.5693856359357556E-21,"25":8.679199977747791E-35,"26":1.7252846148832758E-40,"27":3.1206520819610615E-6,"28":2.27569921936269E-53,"29":3.120651983037161E-6,"30":3.120652081413461E-6,"31":1.5323598919718053E-21},"personalWeight":-4.741320176052826,"id":41},{"ID":42,"value":0.0,"layer":2,"target":4.234852765853055,"weights":{"32":-1.2536055513357807,"17":2.928077691950161,"18":0.3548187991899586,"19":-8.001274616696032,"20":-6.294099904175137,"21":2.7698828862929235,"22":0.044179326411818605,"23":6.346017364058863,"24":17.742083774693924,"25":15.624821113546334,"26":5.222415916226011,"27":8.118929832951975,"28":4.028420999487263,"29":1.421343320445785,"30":-5.728707258471394,"31":9.161266837992978},"weightChange":{"32":-3.688550116827421E-10,"17":-8.029336287119286E-32,"18":-3.68855011682889E-10,"19":-3.6885501162863535E-10,"20":-3.688550105329181E-10,"21":-3.688549712894913E-10,"22":-2.4901646343945234E-15,"23":-3.313328819776247E-42,"24":-1.8549833235951575E-25,"25":-1.0258645709644226E-38,"26":-2.0392528871054233E-44,"27":-3.688550116828804E-10,"28":-2.689832253319486E-57,"29":-3.6885499999026756E-10,"30":-3.6885501161815507E-10,"31":-1.8112196137560015E-25},"personalWeight":-14.551253512190025,"id":42},{"ID":43,"value":1.0,"layer":2,"target":4.8988375532409,"weights":{"32":8.199913799276255,"17":5.2413254831717415,"18":-1.4664179665854502,"19":-1.4940820747559675,"20":-0.4285848542473553,"21":7.862053381301921,"22":7.3682358416393825,"23":10.961135171385406,"24":14.688169372163246,"25":11.505810903774583,"26":3.6429178943025984,"27":4.307677773214834,"28":12.992849561669898,"29":6.235820860403993,"30":-0.5181673471870841,"31":13.056680442054052},"weightChange":{"32":-1.90638684453757E-6,"17":-4.149874770116489E-28,"18":-1.906386844538329E-6,"19":-1.9063868442579251E-6,"20":-1.9063868385948301E-6,"21":-1.9063866357694646E-6,"22":-1.2870143957337855E-11,"23":-1.7124578150185305E-38,"24":-9.587278721808519E-22,"25":-5.302068998443966E-35,"26":-1.0539655836388163E-40,"27":-1.9063868445382846E-6,"28":-1.390210423967797E-53,"29":-1.9063867841062923E-6,"30":-1.9063868442037589E-6,"31":-9.361090767021324E-22},"personalWeight":-8.167282137063884,"id":43},{"ID":44,"value":0.0,"layer":2,"target":6.064517324534758,"weights":{"32":-2.58722973080624,"17":12.093182287049602,"18":-4.3055496163570375,"19":-3.46781302033367,"20":-3.5785655351461476,"21":5.180031471408918,"22":5.053078835910043,"23":5.910735257414624,"24":-2.4959904682340217,"25":9.384506117022081,"26":3.692400398717459,"27":7.1814883981223465,"28":11.851725480737025,"29":2.9565234579295363,"30":-3.5340080686527044,"31":3.5187014441272786},"weightChange":{"32":-1.482644038189826E-5,"17":-3.2274598960737482E-27,"18":-1.4826440381904163E-5,"19":-1.4826440379723392E-5,"20":-1.4826440335680108E-5,"21":-1.4826438758257247E-5,"22":-1.0009428182778109E-10,"23":-1.331820651912164E-37,"24":-7.456262972063036E-21,"25":-4.123549747071875E-34,"26":-8.19695012854751E-40,"27":-1.4826440381903817E-5,"28":-1.0812009130419615E-52,"29":-1.4826439911909317E-5,"30":-1.4826440379302128E-5,"31":-7.280351024476695E-21},"personalWeight":-10.766445598913272,"id":44},{"ID":45,"value":0.0,"layer":2,"target":10.338398186263111,"weights":{"32":0.40016685379879896,"17":11.17696840607014,"18":1.4223125995886248,"19":-12.353281562760902,"20":-0.7641196240749651,"21":-1.5015006579498824,"22":0.4654837182859047,"23":7.919810396816566,"24":11.867376472044986,"25":19.430518829361485,"26":-2.8703771472246786,"27":13.758221735624497,"28":12.762280862068007,"29":3.3449038284232757,"30":-3.094056304031917,"31":13.699378661680043},"weightChange":{"32":-4.1764594150123666E-8,"17":-9.091430527039459E-30,"18":-4.1764594150140296E-8,"19":-4.176459414399728E-8,"20":-4.176459401993177E-8,"21":-4.176458957648993E-8,"22":-2.819555435834256E-13,"23":-3.751605076817713E-40,"24":-2.1003544268454908E-23,"25":-1.1615625680090078E-36,"26":-2.3089985631720453E-42,"27":-4.176459415013932E-8,"28":-3.0456344317866046E-55,"29":-4.1764592826212E-8,"30":-4.176459414281063E-8,"31":-2.0508017971659403E-23},"personalWeight":-20.53973185725047,"id":45},{"ID":46,"value":1.0,"layer":2,"target":-2.6242100914276056,"weights":{"32":0.5715998463494423,"17":2.413335671759654,"18":2.1850472864568493,"19":1.292981102585361,"20":4.3261338791329775,"21":2.1739084129267203,"22":3.5491751332078434,"23":0.2170296967593656,"24":1.226285218775836,"25":0.8737798407334618,"26":0.37827661057733064,"27":1.8518346607784741,"28":1.711188312452232,"29":0.324698586665748,"30":3.509267376361969,"31":1.6789637085518314},"weightChange":{"32":2.6456404691466182E-5,"17":5.759102180740176E-27,"18":2.6456404691476716E-5,"19":2.6456404687585335E-5,"20":2.6456404608994186E-5,"21":2.645640179422972E-5,"22":1.786089418044387E-10,"23":2.3765101559009064E-37,"24":1.3305008187652236E-20,"25":7.358091225127833E-34,"26":1.4626695568909938E-39,"27":2.64564046914761E-5,"28":1.929302527877467E-52,"29":2.6456403852814602E-5,"30":2.6456404686833627E-5,"31":1.2991109668821624E-20},"personalWeight":-4.4078866299351835,"id":46},{"ID":47,"value":0.0,"layer":2,"target":-3.488421031320925,"weights":{"32":-5.353626158015745,"17":-7.3021315394428585,"18":-4.287888425639764,"19":-3.205084929147264,"20":3.721988192149425,"21":5.479383833594239,"22":0.44462048557620915,"23":4.763763337310102,"24":-3.2820572765649807,"25":3.2870192442595862,"26":0.4351132754744353,"27":7.332600209854195,"28":2.5542932445306525,"29":-10.733453891407063,"30":-2.0294745273219834,"31":-8.3707802245924},"weightChange":{"32":1.5859339003500818E-9,"17":3.452304079307519E-31,"18":1.5859339003507131E-9,"19":1.5859339001174436E-9,"20":1.5859338954062832E-9,"21":1.5859337266747248E-9,"22":1.0706744889062104E-14,"23":1.424603253814467E-41,"24":7.975710900748131E-25,"25":4.410820915346374E-38,"26":8.767998759981565E-44,"27":1.5859339003506761E-9,"28":1.1565238431580765E-56,"29":1.585933850076963E-9,"30":1.5859339000723824E-9,"31":7.787543873486213E-25},"personalWeight":-12.435988634641285,"id":47},{"ID":48,"value":1.0,"layer":2,"target":4.013527171324335,"weights":{"32":-3.696080568251708,"17":1.525599155997078,"18":-0.5113222241166178,"19":0.07413822711025593,"20":0.22996233273959477,"21":15.840763053143226,"22":4.277552881207036,"23":0.7690653447721698,"24":2.26986234995263,"25":5.181856879500108,"26":5.671493971391165,"27":-6.757432466281664E-4,"28":5.7552913556591365,"29":1.32618764201307,"30":-0.13979067700662676,"31":2.82897010167809},"weightChange":{"32":-0.0031639005567834313,"17":-6.887264845209289E-25,"18":-0.003163900556784691,"19":-0.003163900556319324,"20":-0.0031639005469206705,"21":-0.0031639002103052093,"22":-2.1359702386312638E-8,"23":-2.8420497392382686E-35,"24":-1.5911354284091173E-18,"25":-8.799483223642459E-32,"26":-1.7491949792143605E-37,"27":-0.0031639005567846174,"28":-2.3072376663954474E-50,"29":-0.003163900456489751,"30":-0.003163900556229428,"31":-1.5535965522812503E-18},"personalWeight":-6.2630545626904865,"id":48},{"ID":49,"value":0.0,"layer":3,"target":0.3724326942546153,"weights":{"33":0.4409301285450315,"34":4.233106823732987,"35":0.17728608448888658,"36":0.578956411781199,"37":0.4926551156872349,"38":-1.3719357290013252,"39":1.6372945729268296,"40":-0.4997397704589639,"41":-1.3016831817320125,"42":1.4130973942460372,"43":0.8620785467715806,"44":2.807029674685456,"45":3.6738876471203623,"46":-0.5761333542476085,"47":-1.3996590564115465,"48":0.7963645334686013},"weightChange":{"33":-1.317013916887117E-7,"34":-3.209442109951801E-13,"35":-8.515646864823657E-5,"36":-1.1271808988343607E-12,"37":-8.516220936948586E-5,"38":-8.516219100427585E-5,"39":-4.817413993585506E-8,"40":-8.516120011656204E-5,"41":-8.516216223759892E-5,"42":-7.417615139736353E-15,"43":-8.516216842029448E-5,"44":-2.0820387817253353E-10,"45":-3.440344521291988E-13,"46":-8.516158837927566E-5,"47":-3.871712582753555E-14,"48":-8.507273545924438E-5},"personalWeight":-6.961774057727889,"id":49},{"ID":50,"value":0.0,"layer":3,"target":0.4719655146032512,"weights":{"33":0.19612168191381155,"34":7.872731169590054,"35":3.3905113535821205,"36":0.4062927333835474,"37":0.41366840077979167,"38":-2.2779981669071843,"39":1.4088974891793808,"40":-1.3077814863835688,"41":-2.43985230164985,"42":-1.3840563791258231,"43":1.2457756882758542,"44":2.9264875542371485,"45":2.2886194053341256,"46":-1.833065507627371,"47":-2.214017847358449,"48":0.9040059695880609},"weightChange":{"33":-3.375907191882039E-8,"34":-8.226776165375946E-14,"35":-2.1828192645400844E-5,"36":-2.8893074356579736E-13,"37":-2.1829664166840632E-5,"38":-2.18296594592788E-5,"39":-1.2348497110537686E-8,"40":-2.1829405464623425E-5,"41":-2.1829652085504663E-5,"42":-1.901360340674013E-15,"43":-2.182965367031756E-5,"44":-5.336898575542026E-11,"45":-8.818649266389695E-14,"46":-2.1829504988164553E-5,"47":-9.92437679315594E-15,"48":-2.1806729282615272E-5},"personalWeight":-8.076404442721348,"id":50},{"ID":51,"value":0.0,"layer":3,"target":0.06495125518368666,"weights":{"33":-0.046120829620533633,"34":0.3471457142117089,"35":-0.06945139680289153,"36":0.15045672322399978,"37":0.12795175468212655,"38":-1.1406417561815394,"39":-0.7034789142987569,"40":-0.6422056968358949,"41":-0.5782936753954975,"42":0.5116394251199534,"43":-0.20568629140281847,"44":0.24582767970175073,"45":0.22128454892429045,"46":-0.38225481214540524,"47":0.11206530129313343,"48":0.058028089369624496},"weightChange":{"33":-1.6672508474950898E-7,"34":-4.0629373837225793E-13,"35":-1.0780234946874182E-4,"36":-1.4269350420409733E-12,"37":-1.0780961683489898E-4,"38":-1.07809593585781E-4,"39":-6.098521405547577E-8,"40":-1.0780833918872456E-4,"41":-1.0780955716910696E-4,"42":-9.390200794042056E-15,"43":-1.0780956499598282E-4,"44":-2.63572076106371E-10,"45":-4.355244272859714E-13,"46":-1.0780883070314975E-4,"47":-4.9013271629737414E-14,"48":-1.0769634889538367E-4},"personalWeight":-3.5378006921013165,"id":51},{"ID":52,"value":0.0,"layer":3,"target":-0.03860290086961217,"weights":{"33":0.7581938917349698,"34":-0.061796541667819026,"35":-3.0579888720831945,"36":0.1761047545669667,"37":-8.059158107186526,"38":-1.7241709103546383,"39":-1.1156969036023718,"40":0.9477177990928302,"41":1.5290425763733646,"42":-3.5848559414357295,"43":-3.7795114486401,"44":-1.0307380004006401,"45":-5.971228315603591,"46":2.0140583107420165,"47":-2.337691394168853,"48":0.6391261191012759},"weightChange":{"33":8.237028871551115E-9,"34":2.0072883803482848E-14,"35":5.325959595877095E-6,"36":7.049752085463622E-14,"37":5.32631863905855E-6,"38":5.326317490439214E-6,"39":3.012965743381685E-9,"40":5.3262555171327636E-6,"41":5.326315691278663E-6,"42":4.639215218657396E-16,"43":5.32631607796434E-6,"44":1.30217405730198E-11,"45":2.151702179195249E-14,"46":5.326279800332362E-6,"47":2.4214936469211374E-15,"48":5.320722652771241E-6},"personalWeight":2.5991276099401732,"id":52},{"ID":53,"value":0.0,"layer":3,"target":0.3716114859966651,"weights":{"33":0.07681224836275002,"34":3.260649953709288,"35":0.01465794953403489,"36":0.623737890273968,"37":0.7219501348346509,"38":-1.2195275466688869,"39":1.4253814560720655,"40":-0.33225596276076097,"41":-1.5214544852821827,"42":1.5629135165814199,"43":1.5061875636541584,"44":1.1815635446187585,"45":2.8561490965994953,"46":-0.5831250063179501,"47":-1.2636366153857213,"48":0.694206477601285},"weightChange":{"33":-2.8919864841169707E-7,"34":-7.047505789061456E-13,"35":-1.869922202097269E-4,"36":-2.475138556081933E-12,"37":-1.870048260660881E-4,"38":-1.8700478573854226E-4,"39":-1.0578397068707181E-7,"40":-1.8700260988159886E-4,"41":-1.8700472257076567E-4,"42":-1.6288091153358402E-14,"43":-1.8700473614713853E-4,"44":-4.571878807772022E-10,"45":-7.554536614008368E-13,"46":-1.8700346245460942E-4,"47":-8.501763205489796E-14,"48":-1.8680835332135734E-4},"personalWeight":-6.872780668766695,"id":53},{"ID":54,"value":0.0,"layer":3,"target":0.3739815847124464,"weights":{"33":-0.007183267713825086,"34":2.4496497326512467,"35":0.4909746305780116,"36":0.6578572244543143,"37":1.0549001444345638,"38":-1.6155536638587156,"39":1.4959274589026659,"40":-0.3629809698487007,"41":-1.415428783759387,"42":2.2913140996713706,"43":1.1730083174020185,"44":1.017071184883958,"45":2.1412279265199756,"46":-0.7098559532094069,"47":-1.000375566396906,"48":0.9849522189833213},"weightChange":{"33":-4.41860487885368E-7,"34":-1.076773478517993E-12,"35":-2.85701451602276E-4,"36":-3.7817117610360634E-12,"37":-2.8572071182314E-4,"38":-2.857206502075371E-4,"39":-1.616250876515178E-7,"40":-2.857173257618114E-4,"41":-2.857205536948295E-4,"42":-2.4886229390321017E-14,"43":-2.8572057443788197E-4,"44":-6.985276769617203E-10,"45":-1.154241644055554E-12,"46":-2.8571862839005144E-4,"47":-1.298966388153995E-13,"48":-2.854205252789784E-4},"personalWeight":-6.772902000948249,"id":54},{"ID":55,"value":0.0,"layer":3,"target":0.3291490683981761,"weights":{"33":0.3986641985315281,"34":2.6340357426011756,"35":0.7724321185668528,"36":-0.048373128120330455,"37":0.6681970007065077,"38":-1.3499810478687302,"39":1.495841362454654,"40":-0.7990313476365781,"41":-1.2095281251867778,"42":0.4847773167004941,"43":0.7766787742605545,"44":2.70698132352142,"45":3.792202083467754,"46":-1.0160377437069639,"47":-0.33263925000454686,"48":0.46348121823594685},"weightChange":{"33":-2.694526592599994E-7,"34":-6.566314145803053E-13,"35":-1.742247111913003E-4,"36":-2.306140328234871E-12,"37":-1.7423645634134658E-4,"38":-1.742364187672966E-4,"39":-9.856122207091356E-8,"40":-1.7423439147414436E-4,"41":-1.7423635991250776E-4,"42":-1.51759681438545E-14,"43":-1.7423637256190912E-4,"44":-4.2597187411985874E-10,"45":-7.038725773101691E-13,"46":-1.7423518583492773E-4,"47":-7.921277352779589E-14,"48":-1.740533984196358E-4},"personalWeight":-5.848180293882099,"id":55},{"ID":56,"value":0.0,"layer":3,"target":0.1401963348275412,"weights":{"33":0.07974032187859594,"34":0.8829970342139356,"35":-0.11374190882268481,"36":0.43197908782378214,"37":0.5971260353928725,"38":-1.5227731096109183,"39":-0.5105910255221083,"40":-0.7713720169642092,"41":-0.8021250775440218,"42":1.2516872601625386,"43":-0.013580654776697555,"44":-0.003815566278642204,"45":0.28936646384506937,"46":-0.8456717434553245,"47":-0.3802987119062627,"48":0.588642260447921},"weightChange":{"33":-3.9910273448458616E-7,"34":-9.725767555131546E-13,"35":-2.580548243323928E-4,"36":-3.4157648086732047E-12,"37":-2.580722207890218E-4,"38":-2.580721651358094E-4,"39":-1.459850251642465E-7,"40":-2.5806916238852573E-4,"41":-2.580720779623993E-4,"42":-2.2478050137998527E-14,"43":-2.5807209669819755E-4,"44":-6.309328705148068E-10,"45":-1.0425485170741618E-12,"46":-2.5807033896463257E-4,"47":-1.1732686033930235E-13,"48":-2.5780108255893543E-4},"personalWeight":-3.3959071005201475,"id":56},{"ID":57,"value":0.0,"layer":3,"target":0.2499645366179451,"weights":{"33":0.9099669197541355,"34":3.4975427826651475,"35":-0.3506272549244547,"36":0.010867112342987971,"37":0.37099624142491106,"38":-1.769163136503863,"39":-0.5217007782766133,"40":-0.28755840046009834,"41":-1.4769899537187334,"42":1.2511259861525643,"43":0.7615956539091928,"44":0.9064644712849997,"45":2.49684673752183,"46":-0.49823935182801915,"47":-0.4637136584971029,"48":1.212983932908332},"weightChange":{"33":-3.8311219147298023E-7,"34":-9.336092689555755E-13,"35":-2.4771553970391597E-4,"36":-3.2789079811669823E-12,"37":-2.477322391500664E-4,"38":-2.4773218572666855E-4,"39":-1.401359551824185E-7,"40":-2.477293032881561E-4,"41":-2.477321020459686E-4,"42":-2.157743935162322E-14,"43":-2.47732120031094E-4,"44":-6.056537673374451E-10,"45":-1.000777525638862E-12,"46":-2.47730432723291E-4,"47":-1.1262601505670821E-13,"48":-2.474719644073873E-4},"personalWeight":-4.873386492683515,"id":57},{"ID":58,"value":0.0,"layer":3,"target":0.3575101393827383,"weights":{"33":0.3432893725303282,"34":3.1844074744852704,"35":0.5210363576601793,"36":-0.011284899991552423,"37":0.8369089010993768,"38":-1.148846182830562,"39":0.9478731384469513,"40":-0.587802325916036,"41":-0.9843721805669782,"42":1.83052529411315,"43":0.9311727648827005,"44":2.5163906526931976,"45":2.2594174013314534,"46":-1.3332496418405784,"47":-0.9027463213216645,"48":0.46467853437080514},"weightChange":{"33":-1.7498213348752374E-7,"34":-4.2641540875395396E-13,"35":-1.1314125365927348E-4,"36":-1.4976039051326632E-12,"37":-1.1314888094125642E-4,"38":-1.1314885654072743E-4,"39":-6.400550272715874E-8,"40":-1.1314754001974017E-4,"41":-1.1314881832052004E-4,"42":-9.855249864088359E-15,"43":-1.131488265350214E-4,"44":-2.766254656527599E-10,"45":-4.570937455928066E-13,"46":-1.1314805587638458E-4,"47":-5.144065064870348E-14,"48":-1.130300034145669E-4},"personalWeight":-6.756685326598526,"id":58},{"ID":59,"value":0.0,"layer":3,"target":0.24631509066388824,"weights":{"33":0.27212274613705084,"34":2.2481618964830536,"35":0.519992993053541,"36":0.1847110672946706,"37":0.4907870563549258,"38":-1.645353430107706,"39":-0.46619376273886365,"40":-0.5107584101605253,"41":-0.9702309906552564,"42":0.9482097485103425,"43":1.2133692722710363,"44":0.5864230321006356,"45":1.8586958933738562,"46":-0.7223036465210342,"47":-0.3999983385027194,"48":0.9265496851839928},"weightChange":{"33":-9.86812767121066E-7,"34":-2.4047721962742688E-12,"35":-6.380607629693503E-4,"36":-8.445745998294445E-12,"37":-6.381037770707856E-4,"38":-6.381036394638594E-4,"39":-3.609594076738462E-7,"40":-6.380962149360375E-4,"41":-6.381034239207759E-4,"42":-5.557873935594663E-14,"43":-6.381034702465044E-4,"44":-1.5600309344520408E-9,"45":-2.57778285663851E-12,"46":-6.380991241126064E-4,"47":-2.9009985075290274E-13,"48":-6.374333665624502E-4},"personalWeight":-5.240532349953864,"id":59},{"ID":60,"value":0.0,"layer":3,"target":0.2232878043436921,"weights":{"33":0.7342284346668634,"34":1.0586875611503315,"35":0.2915121925222251,"36":0.7170568238177596,"37":0.5943950964494886,"38":-1.6382772617759673,"39":-0.5952051723834174,"40":-0.4308582398968877,"41":-1.2318870135093063,"42":0.9368221230454039,"43":0.48787594014198854,"44":0.8647885264802798,"45":1.7172215960186403,"46":-0.8467305678878871,"47":0.056649254266922536,"48":0.8522914225819812},"weightChange":{"33":-8.081365295167855E-7,"34":-1.969354594636212E-12,"35":-5.225309479033345E-4,"36":-6.91652569529899E-12,"37":-5.22566173700783E-4,"38":-5.225660610095131E-4,"39":-2.956026641862338E-7,"40":-5.225599807961766E-4,"41":-5.225658844935161E-4,"42":-4.551543214126487E-14,"43":-5.225659224313243E-4,"44":-1.277565539595649E-9,"45":-2.111039257922507E-12,"46":-5.225623632256855E-4,"47":-2.375732199784422E-13,"48":-5.220171503808492E-4},"personalWeight":-4.119791055734218,"id":60},{"ID":61,"value":0.0,"layer":3,"target":0.3439564536475031,"weights":{"33":0.6435959277364196,"34":3.8696378412249777,"35":-0.04562636344237406,"36":0.43625975358329283,"37":0.35443347843564554,"38":-1.2513054992809372,"39":0.9745678131116579,"40":-0.2809147354259278,"41":-1.2470915213264877,"42":1.468093388327743,"43":0.6273166913325423,"44":0.6461551491979415,"45":3.377385010350455,"46":-0.4755654714776219,"47":-1.0297508668739852,"48":0.8819924184368583},"weightChange":{"33":-1.846138808657975E-7,"34":-4.4988709362522266E-13,"35":-1.1936902075519254E-4,"36":-1.5800382782852946E-12,"37":-1.1937706787462848E-4,"38":-1.1937704213099245E-4,"39":-6.752863289365292E-8,"40":-1.1937565314319207E-4,"41":-1.1937700180698523E-4,"42":-1.0397723973580423E-14,"43":-1.1937701047364705E-4,"44":-2.9185208651090997E-10,"45":-4.822540942409316E-13,"46":-1.1937619739474049E-4,"47":-5.427215888412955E-14,"48":-1.1925164683241993E-4},"personalWeight":-6.528040759032777,"id":61},{"ID":62,"value":0.0,"layer":3,"target":0.35827631850669817,"weights":{"33":0.47856425098198896,"34":1.2100097829060963,"35":0.2698637960230481,"36":0.6479410923406713,"37":0.7138331369824401,"38":-1.389191961530369,"39":0.8873322932078906,"40":-0.3155906037287444,"41":-1.236853610412443,"42":1.157197773491326,"43":0.8288346663171595,"44":0.17002938702451187,"45":1.6841317451936741,"46":-0.5787599612621828,"47":-0.20614482756241057,"48":0.40246817051533745},"weightChange":{"33":-2.412641590417274E-7,"34":-5.879386251899394E-13,"35":-1.5599838036594552E-4,"36":-2.064885937484589E-12,"37":-1.5600889680974874E-4,"38":-1.5600886316646762E-4,"39":-8.82503458023729E-8,"40":-1.5600704795640862E-4,"41":-1.5600881046870922E-4,"42":-1.3588350554514802E-14,"43":-1.5600882179480705E-4,"44":-3.8140928453702923E-10,"45":-6.302377044770962E-13,"46":-1.560077592159928E-4,"47":-7.092601439908508E-14,"48":-1.5584498929568387E-4},"personalWeight":-6.432329353892694,"id":62},{"ID":63,"value":0.0,"layer":3,"target":0.010455018424286578,"weights":{"33":-0.0378329561965656,"34":0.4234286428686114,"35":0.47832086057105583,"36":0.4611047075073745,"37":-0.234215441097155,"38":-1.6053694748805625,"39":-0.3331899672106369,"40":-0.099747813819535,"41":-0.5467878152391685,"42":0.12384247908945056,"43":-0.2603188698474737,"44":0.5072513067163382,"45":-0.5369892510222045,"46":0.05273306991732626,"47":0.05701908953979294,"48":0.3671824868933141},"weightChange":{"33":2.267825919572592E-8,"34":5.5264837455322723E-14,"35":1.4663478065303868E-5,"36":1.9409438470214697E-13,"37":1.4664466586099224E-5,"38":1.4664463423710526E-5,"39":8.295323367415352E-9,"40":1.4664292798266712E-5,"41":1.4664458470246121E-5,"42":1.2772727500912202E-15,"43":1.4664459534872476E-5,"44":3.5851568872652706E-11,"45":5.924085066683665E-14,"46":1.4664359654982063E-5,"47":6.66687727116587E-15,"48":1.4649059668209494E-5},"personalWeight":-2.585732185529249,"id":63},{"ID":64,"value":0.0,"layer":3,"target":0.18396863874511507,"weights":{"33":4.291880562474815,"34":2.8595891620705114,"35":1.4843596329261872,"36":0.33875629094968507,"37":0.7219735797683571,"38":-1.4668179802025254,"39":1.9869291126436766,"40":-0.33937431784571426,"41":-0.7680102377293464,"42":0.6203145204572041,"43":1.0304686896928597,"44":0.827753381006674,"45":2.9072982038801785,"46":-1.0776363698379843,"47":-0.4006266502596556,"48":0.765209387410641},"weightChange":{"33":-5.059431486773099E-6,"34":-1.2329370447690881E-11,"35":-0.003271364966283971,"36":-4.3301702872898124E-11,"37":-0.0032715855014314966,"38":-0.003271584795914869,"39":-1.8506544032257879E-6,"40":-0.0032715467300414953,"41":-0.0032715836908162117,"42":-2.84954586383187E-13,"43":-0.003271583928330214,"44":-7.998345677198144E-9,"45":-1.321640354227473E-11,"46":-0.003271561645514849,"47":-1.4873544081613456E-12,"48":-0.003268148277929786},"personalWeight":-4.224666018479169,"id":64},{"ID":65,"value":1.0,"layer":4,"target":0.5072578428118834,"weights":{"64":0.5449861825654533,"49":0.221425621074811,"50":0.9084522333508379,"51":0.7332818520702674,"52":0.5083394793843051,"53":0.20342057207985687,"54":0.9537946932646157,"55":0.9351250050321545,"56":0.5368060410472555,"57":0.12830934635926639,"58":0.29222257379951677,"59":0.15830199525003086,"60":0.7815893413854085,"61":0.24428260688214287,"62":0.022677647900588904,"63":0.8644009971252862},"weightChange":{"64":0.0,"49":0.0,"50":0.0,"51":0.0,"52":0.0,"53":0.0,"54":0.0,"55":0.0,"56":0.0,"57":0.0,"58":0.0,"59":0.0,"60":0.0,"61":0.0,"62":0.0,"63":0.0},"personalWeight":0.0014411959231407367,"id":65},{"ID":66,"value":1.0,"layer":4,"target":0.7123484647838987,"weights":{"64":0.05003146654051186,"49":0.9248141246875317,"50":0.7229568996396314,"51":0.6790325323418904,"52":0.06136955806850088,"53":0.35267148999736275,"54":0.006327815313201587,"55":0.031508478718891286,"56":0.7373159187861177,"57":0.27129009578139507,"58":0.47763867607948984,"59":0.9698090100561795,"60":0.9047785829988162,"61":0.2947163888790064,"62":0.3566398554988403,"63":0.6825079064165377},"weightChange":{"64":0.0,"49":0.0,"50":0.0,"51":0.0,"52":0.0,"53":0.0,"54":0.0,"55":0.0,"56":0.0,"57":0.0,"58":0.0,"59":0.0,"60":0.0,"61":0.0,"62":0.0,"63":0.0},"personalWeight":0.8894345177552707,"id":66},{"ID":67,"value":1.0,"layer":4,"target":0.5609691907892584,"weights":{"64":0.8454280020527563,"49":0.9069446561409452,"50":0.592232717789314,"51":0.012217367321503685,"52":0.940186528050711,"53":0.02628021543398877,"54":0.05200459645375335,"55":0.47098230898047844,"56":0.1574447826038058,"57":0.45493768241465576,"58":0.648726561981629,"59":0.059006727838379125,"60":0.5060762148086694,"61":0.6460456121638435,"62":0.23292216268160534,"63":0.9609257535355491},"weightChange":{"64":0.0,"49":0.0,"50":0.0,"51":0.0,"52":0.0,"53":0.0,"54":0.0,"55":0.0,"56":0.0,"57":0.0,"58":0.0,"59":0.0,"60":0.0,"61":0.0,"62":0.0,"63":0.0},"personalWeight":0.21324702149398414,"id":67},{"ID":68,"value":1.0,"layer":4,"target":0.6118360440554729,"weights":{"64":0.711530830035847,"49":0.501167248875225,"50":0.37387409593612464,"51":0.823036751725422,"52":0.0932506458527449,"53":0.7603099547865855,"54":0.40348876204078576,"55":0.47529579163120805,"56":0.21208161921643787,"57":0.32540551111867133,"58":0.6836481760419135,"59":0.5877482733626189,"60":0.01955899408032502,"61":0.0663648304255795,"62":0.687038671528993,"63":0.523230411271879},"weightChange":{"64":0.0,"49":0.0,"50":0.0,"51":0.0,"52":0.0,"53":0.0,"54":0.0,"55":0.0,"56":0.0,"57":0.0,"58":0.0,"59":0.0,"60":0.0,"61":0.0,"62":0.0,"63":0.0},"personalWeight":0.4290295284792742,"id":68},{"ID":69,"value":1.0,"layer":4,"target":0.5495410558068956,"weights":{"64":0.44871691383480694,"49":0.35332108269241047,"50":0.6402587020658556,"51":0.204994176563717,"52":0.738082085439019,"53":0.9454080295808306,"54":0.2836672721654596,"55":0.5829924126966352,"56":0.6238949543167597,"57":0.4885483269981422,"58":0.6009665237650468,"59":0.7559592818517138,"60":0.5495574152088732,"61":0.23854910732499857,"62":0.6100041448661397,"63":0.2845721756475602},"weightChange":{"64":0.0,"49":0.0,"50":0.0,"51":0.0,"52":0.0,"53":0.0,"54":0.0,"55":0.0,"56":0.0,"57":0.0,"58":0.0,"59":0.0,"60":0.0,"61":0.0,"62":0.0,"63":0.0},"personalWeight":0.1792727360256534,"id":69},{"ID":70,"value":1.0,"layer":4,"target":0.5430782424904828,"weights":{"64":0.40535741056466157,"49":0.19957194490016605,"50":0.30039319854305857,"51":0.5319262622345312,"52":0.8421569728071215,"53":0.29720947283451393,"54":0.43152056196374033,"55":0.28739356002476435,"56":0.1585407479759786,"57":0.48147285376138593,"58":0.48975214901025366,"59":0.34753132008493903,"60":0.4472235377059909,"61":0.8695561998443997,"62":0.4555759672919186,"63":0.6614926760503377},"weightChange":{"64":0.0,"49":0.0,"50":0.0,"51":0.0,"52":0.0,"53":0.0,"54":0.0,"55":0.0,"56":0.0,"57":0.0,"58":0.0,"59":0.0,"60":0.0,"61":0.0,"62":0.0,"63":0.0},"personalWeight":0.15158874062322203,"id":70},{"ID":71,"value":1.0,"layer":4,"target":0.6418300187572493,"weights":{"64":0.03687347194216627,"49":0.46180247881515674,"50":0.23623206203625538,"51":0.5103846234880481,"52":0.5788550999774603,"53":0.6048486163240644,"54":0.2920000488519597,"55":0.8757968650870221,"56":0.5245668125911288,"57":0.10118167870552543,"58":0.3495901045427921,"59":0.6930333314770329,"60":0.45293576082298165,"61":0.24214458752107057,"62":0.3147149566365688,"63":0.7911789167197276},"weightChange":{"64":0.0,"49":0.0,"50":0.0,"51":0.0,"52":0.0,"53":0.0,"54":0.0,"55":0.0,"56":0.0,"57":0.0,"58":0.0,"59":0.0,"60":0.0,"61":0.0,"62":0.0,"63":0.0},"personalWeight":0.5669215265542511,"id":71},{"ID":72,"value":1.0,"layer":4,"target":0.5275784529036219,"weights":{"64":0.5006263515172238,"49":0.8412853259207151,"50":0.45160953766353734,"51":0.6364419077122678,"52":0.8882233314828129,"53":0.5016987777303974,"54":0.17555671884492866,"55":0.2105956269323081,"56":0.004923707204554302,"57":0.8541692131289608,"58":0.9135025321902811,"59":0.5282843233927406,"60":0.46025732792640606,"61":0.975019159107785,"62":0.806749227815966,"63":0.20447270482621793},"weightChange":{"64":0.0,"49":0.0,"50":0.0,"51":0.0,"52":0.0,"53":0.0,"54":0.0,"55":0.0,"56":0.0,"57":0.0,"58":0.0,"59":0.0,"60":0.0,"61":0.0,"62":0.0,"63":0.0},"personalWeight":0.09156610138245116,"id":72},{"ID":73,"value":1.0,"layer":4,"target":0.6129342106732125,"weights":{"64":0.8436562421308429,"49":0.6416437963500375,"50":0.925298864146978,"51":0.9208717065672692,"52":0.1480688745469214,"53":0.14110872915357442,"54":0.9468577392221629,"55":0.43067329257183234,"56":0.5672379620199552,"57":0.4962290547037235,"58":0.8104595894184435,"59":0.7997606686139003,"60":0.11476768009732945,"61":0.09603491092322783,"62":0.075665590612001,"63":0.19281040187753398},"weightChange":{"64":0.0,"49":0.0,"50":0.0,"51":0.0,"52":0.0,"53":0.0,"54":0.0,"55":0.0,"56":0.0,"57":0.0,"58":0.0,"59":0.0,"60":0.0,"61":0.0,"62":0.0,"63":0.0},"personalWeight":0.43311776645196,"id":73},{"ID":74,"value":1.0,"layer":4,"target":1.0,"weights":{"64":0.6141388563252607,"49":1.3974233168056158,"50":1.7717993035915571,"51":0.23745432306574163,"52":-0.14544835511734122,"53":1.3933079342281836,"54":1.4012241038726427,"55":1.2337860457326733,"56":0.5193527251538896,"57":0.9347459642902473,"58":1.341067283521144,"59":0.9149353520306757,"60":0.8294340386438797,"61":1.290065608163434,"62":1.3434966145807985,"63":-0.004692012401143515},"weightChange":{"64":-0.0010628434549736076,"49":-1.1911341362598817E-5,"50":-2.407657135868768E-6,"51":-8.887464309056664E-5,"52":-7.156783485056275E-6,"53":-2.6240221510897284E-5,"54":-3.9875871383543745E-5,"55":-2.7610391275598664E-5,"56":-9.728401097567657E-5,"57":-5.184013045235874E-5,"58":-1.649224701274873E-5,"59":-1.3664415317521725E-4,"60":-1.2340672542682818E-4,"61":-1.8088503754732248E-5,"62":-2.2700998064432214E-5,"63":-6.100414357053587E-4},"personalWeight":0.9949930712604634,"id":74},{"ID":75,"value":1.0,"layer":4,"target":0.6293104853104724,"weights":{"64":0.551508143484245,"49":0.549984211381705,"50":0.23075319326553564,"51":0.1775499478643794,"52":0.6550292589753076,"53":0.3422508221952495,"54":0.839280324594818,"55":0.15484332599359227,"56":0.17815337544265536,"57":0.8486457375885778,"58":0.9784081255993764,"59":0.266104923376499,"60":0.44911121111475943,"61":0.06950848111781512,"62":0.8404033993219974,"63":0.15203075312825756},"weightChange":{"64":0.0,"49":0.0,"50":0.0,"51":0.0,"52":0.0,"53":0.0,"54":0.0,"55":0.0,"56":0.0,"57":0.0,"58":0.0,"59":0.0,"60":0.0,"61":0.0,"62":0.0,"63":0.0},"personalWeight":0.5111456825189528,"id":75},{"ID":76,"value":1.0,"layer":4,"target":0.5127081288749786,"weights":{"64":0.7526418098207952,"49":0.36012088374091766,"50":0.7610557552486972,"51":0.007777097583489323,"52":0.9093073699217432,"53":0.3571320623389238,"54":0.528490034188435,"55":0.35666571983328266,"56":0.27242513049827854,"57":0.8899651122750052,"58":0.0241084068034364,"59":0.5040979565694003,"60":0.4939722318181661,"61":0.43321659348776564,"62":0.8251294042258382,"63":0.19583339710464354},"weightChange":{"64":0.0,"49":0.0,"50":0.0,"51":0.0,"52":0.0,"53":0.0,"54":0.0,"55":0.0,"56":0.0,"57":0.0,"58":0.0,"59":0.0,"60":0.0,"61":0.0,"62":0.0,"63":0.0},"personalWeight":0.027739978781000985,"id":76},{"ID":77,"value":1.0,"layer":4,"target":0.5457356555609809,"weights":{"64":0.041884468211912385,"49":0.06714657670973267,"50":0.8920497371012022,"51":0.4543766008850737,"52":0.898687651218882,"53":0.4331596046778472,"54":0.5942575208265795,"55":0.005962660071585746,"56":0.7698437880213949,"57":0.017602369927572026,"58":0.4637155668807812,"59":0.7375784900183762,"60":0.33140137121323,"61":0.48245830722407,"62":0.47026570779016186,"63":0.9540506908870467},"weightChange":{"64":0.0,"49":0.0,"50":0.0,"51":0.0,"52":0.0,"53":0.0,"54":0.0,"55":0.0,"56":0.0,"57":0.0,"58":0.0,"59":0.0,"60":0.0,"61":0.0,"62":0.0,"63":0.0},"personalWeight":0.16508632665734368,"id":77},{"ID":78,"value":1.0,"layer":4,"target":0.725203462923199,"weights":{"64":0.3948927563584793,"49":0.6383340420098368,"50":0.6475492627911671,"51":0.26872135846326817,"52":0.06170508952442666,"53":0.35238476688395404,"54":0.9473170619352307,"55":0.692109666830449,"56":0.031703985263893286,"57":0.10046400013278878,"58":0.43365813405465414,"59":0.5767867833818505,"60":0.25814196831127223,"61":0.765863378939954,"62":0.10425669704254348,"63":0.2545379368532553},"weightChange":{"64":0.0,"49":0.0,"50":0.0,"51":0.0,"52":0.0,"53":0.0,"54":0.0,"55":0.0,"56":0.0,"57":0.0,"58":0.0,"59":0.0,"60":0.0,"61":0.0,"62":0.0,"63":0.0},"personalWeight":0.9547250588668763,"id":78},{"ID":79,"value":1.0,"layer":4,"target":0.7245437426337397,"weights":{"64":0.2717329585708028,"49":0.48283136137493776,"50":0.08599695300342947,"51":0.9447013513772137,"52":0.21745348150989696,"53":0.4208703275199698,"54":0.08162577436781193,"55":0.5159442812996211,"56":0.6402278097735594,"57":0.5757196106689235,"58":0.6029969584597946,"59":0.5392629681668739,"60":0.10892929060616818,"61":0.742096999501574,"62":0.8238265631547889,"63":0.6578533200661218},"weightChange":{"64":0.0,"49":0.0,"50":0.0,"51":0.0,"52":0.0,"53":0.0,"54":0.0,"55":0.0,"56":0.0,"57":0.0,"58":0.0,"59":0.0,"60":0.0,"61":0.0,"62":0.0,"63":0.0},"personalWeight":0.9472951301212247,"id":79}],"amountOfLayers":5},"name":"REED","hitPoints":100,"weapon":{"name":"SWORD","length":2,"options":[{"type":"OVERHEAD","damageType":"SLASH","unavailableOn":["TURNED","CROUCHED","KNOCKED","WEAPON_LOW","WEAPON_SIDE","WEAPON_EXTENDED"],"positionDuringMove":["STANDARD"],"weaponMovement":["STANDARD","HIGH"],"removedStates":["WEAPON_HIGH","ABOVE"],"addedStates":["WEAPON_LOW"]},{"type":"SLASH","damageType":"SLASH","unavailableOn":["TURNED","KNOCKED","WEAPON_LOW","WEAPON_HIGH","ABOVE"],"positionDuringMove":["STANDARD"],"weaponMovement":["STANDARD","SIDE"],"removedStates":[],"addedStates":["WEAPON_SIDE"]},{"type":"KICK","damageType":"BLUNT","unavailableOn":["KNOCKED","WEAPON_LOW","WEAPON_EXTENDED"],"positionDuringMove":["STANDARD"],"weaponMovement":["STANDARD"],"removedStates":["ABOVE","TURNED"],"addedStates":[]},{"type":"THRUST","damageType":"PIERCE","unavailableOn":["KNOCKED","TURNED","WEAPON_EXTENDED"],"positionDuringMove":["STANDARD"],"weaponMovement":["STANDARD","BACK"],"removedStates":[],"addedStates":["WEAPON_EXTENDED"]},{"type":"UNDERSTRIKE","damageType":"SLASH","unavailableOn":["KNOCKED","ABOVE","TURNED","WEAPON_EXTENDED","WEAPON_HIGH","WEAPON_SIDE"],"positionDuringMove":["STANDARD"],"weaponMovement":["STANDARD","LOW"],"removedStates":["WEAPON_LOW","CROUCHED"],"addedStates":["WEAPON_HIGH"]},{"type":"JUMP","damageType":"NONE","unavailableOn":["KNOCKED","ABOVE"],"positionDuringMove":["HIGH"],"weaponMovement":[],"removedStates":["TURNED","CROUCHED","WEAPON_HIGH","WEAPON_LOW","WEAPON_SIDE","WEAPON_EXTENDED"],"addedStates":["ABOVE"]},{"type":"DODGE","damageType":"NONE","unavailableOn":["ABOVE"],"positionDuringMove":["SIDE"],"weaponMovement":[],"removedStates":["TURNED","WEAPON_HIGH","WEAPON_LOW","WEAPON_SIDE","WEAPON_EXTENDED"],"addedStates":[]},{"type":"DUCK","damageType":"NONE","unavailableOn":["KNOCKED","ABOVE","CROUCHED"],"positionDuringMove":["LOW"],"weaponMovement":[],"removedStates":["TURNED","WEAPON_HIGH","WEAPON_LOW","WEAPON_SIDE","WEAPON_EXTENDED"],"addedStates":["CROUCHED"]},{"type":"CLOSE_IN","damageType":"NONE","unavailableOn":["KNOCKED","ABOVE"],"positionDuringMove":["STANDARD"],"weaponMovement":[],"removedStates":["TURNED","WEAPON_HIGH","WEAPON_LOW","WEAPON_SIDE","WEAPON_EXTENDED"],"addedStates":[]},{"type":"BACK_AWAY","damageType":"NONE","unavailableOn":["KNOCKED","ABOVE"],"positionDuringMove":["BACK"],"weaponMovement":[],"removedStates":["TURNED","WEAPON_HIGH","WEAPON_LOW","WEAPON_SIDE","WEAPON_EXTENDED"],"addedStates":[]},{"type":"GET_UP","damageType":"NONE","unavailableOn":["ABOVE"],"positionDuringMove":["STANDARD"],"weaponMovement":[],"removedStates":["TURNED","KNOCKED","WEAPON_HIGH","WEAPON_LOW","WEAPON_SIDE","WEAPON_EXTENDED"],"addedStates":[]}],"efficiencies":{"BLUNT":0.5,"SLASH":0.5,"PIERCE":0.5}},"statesList":["ABOVE"],"wantedMove":{"type":"CLOSE_IN","damageType":"NONE","unavailableOn":["KNOCKED","ABOVE"],"positionDuringMove":["STANDARD"],"weaponMovement":[],"removedStates":["TURNED","WEAPON_HIGH","WEAPON_LOW","WEAPON_SIDE","WEAPON_EXTENDED"],"addedStates":[]},"move":{"type":"CLOSE_IN","damageType":"NONE","unavailableOn":["KNOCKED","ABOVE"],"positionDuringMove":["STANDARD"],"weaponMovement":[],"removedStates":["TURNED","WEAPON_HIGH","WEAPON_LOW","WEAPON_SIDE","WEAPON_EXTENDED"],"addedStates":[]},"victoriesCount":0,"lossesCount":0},{"outputStart":65,"combatantMind":{"nodes":[{"ID":400,"value":1.0,"layer":0,"target":0.0,"weights":{},"weightChange":{},"personalWeight":-97800.07634905721,"id":400},{"ID":401,"value":1.0,"layer":0,"target":0.0,"weights":{},"weightChange":{},"personalWeight":-95792.31636299155,"id":401},{"ID":402,"value":1.0,"layer":0,"target":0.0,"weights":{},"weightChange":{},"personalWeight":-57161.106491923325,"id":402},{"ID":403,"value":1.0,"layer":0,"target":0.0,"weights":{},"weightChange":{},"personalWeight":-91224.59833080246,"id":403},{"ID":404,"value":1.0,"layer":0,"target":0.0,"weights":{},"weightChange":{},"personalWeight":-93379.02838841036,"id":404},{"ID":405,"value":0.0,"layer":0,"target":0.0,"weights":{},"weightChange":{},"personalWeight":-10620.125308379585,"id":405},{"ID":406,"value":0.0,"layer":0,"target":0.0,"weights":{},"weightChange":{},"personalWeight":-9476.9913587184,"id":406},{"ID":407,"value":1.0,"layer":0,"target":0.0,"weights":{},"weightChange":{},"personalWeight":-93421.68419863802,"id":407},{"ID":408,"value":1.0,"layer":0,"target":0.0,"weights":{},"weightChange":{},"personalWeight":-37100.7394645599,"id":408},{"ID":409,"value":1.0,"layer":0,"target":0.0,"weights":{},"weightChange":{},"personalWeight":-101498.56937320714,"id":409},{"ID":410,"value":0.0,"layer":0,"target":0.0,"weights":{},"weightChange":{},"personalWeight":-75231.70386453961,"id":410},{"ID":411,"value":1.0,"layer":0,"target":0.0,"weights":{},"weightChange":{},"personalWeight":-79539.132656271,"id":411},{"ID":412,"value":1.0,"layer":0,"target":0.0,"weights":{},"weightChange":{},"personalWeight":-95002.38534324981,"id":412},{"ID":413,"value":1.0,"layer":0,"target":0.0,"weights":{},"weightChange":{},"personalWeight":-31874.27989132193,"id":413},{"ID":414,"value":1.0,"layer":0,"target":0.0,"weights":{},"weightChange":{},"personalWeight":-85717.12910443166,"id":414},{"ID":415,"value":0.0,"layer":0,"target":0.0,"weights":{},"weightChange":{},"personalWeight":-75210.12782510254,"id":415},{"ID":416,"value":0.0,"layer":0,"target":0.0,"weights":{},"weightChange":{},"personalWeight":-51335.259194794395,"id":416},{"ID":417,"value":1.0,"layer":1,"target":0.9963156456241087,"weights":{"416":0.6392502056684559,"400":0.6951441591584541,"401":0.5120712484004505,"402":0.4769043437014435,"403":0.31470019925193615,"404":0.5630376518794841,"405":0.3613786756556112,"406":0.04651291101515387,"407":0.5658668795145811,"408":0.7727571933486606,"409":0.5122405706216234,"410":0.41258040460879886,"411":0.23426851350561362,"412":0.23560124429984586,"413":0.30008139931607136,"414":0.7039231192502174,"415":0.8314953243368105},"weightChange":{"416":0.0,"400":0.0,"401":0.0,"402":0.0,"403":0.0,"404":0.0,"405":0.0,"406":0.0,"407":0.0,"408":0.0,"409":0.0,"410":0.0,"411":0.0,"412":0.0,"413":0.0,"414":0.0,"415":0.0},"personalWeight":0.5254095779156329,"id":417},{"ID":418,"value":1.0,"layer":1,"target":0.9931633071881644,"weights":{"416":0.7446761930502419,"400":0.10830899092918056,"401":0.420780311026818,"402":0.39643342418895733,"403":0.02348954371083578,"404":0.6303259721988882,"405":0.9000671806568247,"406":0.6406519768045433,"407":0.10040939089540957,"408":0.09229949022215056,"409":0.7790543788799434,"410":0.3394935068951044,"411":0.7760253206055135,"412":0.9951765929419966,"413":0.4359941732422289,"414":0.09434327947687648,"415":0.5330809272954453},"weightChange":{"416":0.0,"400":0.0,"401":0.0,"402":0.0,"403":0.0,"404":0.0,"405":0.0,"406":0.0,"407":0.0,"408":0.0,"409":0.0,"410":0.0,"411":0.0,"412":0.0,"413":0.0,"414":0.0,"415":0.0},"personalWeight":0.7927638998215615,"id":418},{"ID":419,"value":1.0,"layer":1,"target":0.9942292280563992,"weights":{"416":0.5519766053013365,"400":0.41166559411105463,"401":0.3209550729901507,"402":0.8165932749309587,"403":0.9185866370241137,"404":0.4969066548567228,"405":0.4159986061491019,"406":0.7950718658526363,"407":0.3458364417993428,"408":0.3532912810461243,"409":0.33869360642034463,"410":0.10163725842751803,"411":0.3408306178876691,"412":0.8684168094862491,"413":0.04711092640293335,"414":0.2615041724389623,"415":0.9312287923711972},"weightChange":{"416":0.0,"400":0.0,"401":0.0,"402":0.0,"403":0.0,"404":0.0,"405":0.0,"406":0.0,"407":0.0,"408":0.0,"409":0.0,"410":0.0,"411":0.0,"412":0.0,"413":0.0,"414":0.0,"415":0.0},"personalWeight":0.6117390214671596,"id":419},{"ID":420,"value":1.0,"layer":1,"target":0.9993405861909392,"weights":{"416":0.5026420371326044,"400":0.5823632644100495,"401":0.32504617899226895,"402":0.9583315470161335,"403":0.808412070160455,"404":0.26507116084134585,"405":0.2302418295010229,"406":0.16237424143606427,"407":0.7560643026564231,"408":0.7824959149729153,"409":0.29508247727979253,"410":0.4617013839354128,"411":0.9305759236805565,"412":0.7920456678557819,"413":0.9888924809866827,"414":0.48216984770484805,"415":0.8565883706166785},"weightChange":{"416":0.0,"400":0.0,"401":0.0,"402":0.0,"403":0.0,"404":0.0,"405":0.0,"406":0.0,"407":0.0,"408":0.0,"409":0.0,"410":0.0,"411":0.0,"412":0.0,"413":0.0,"414":0.0,"415":0.0},"personalWeight":0.5188256920688862,"id":420},{"ID":421,"value":1.0,"layer":1,"target":0.9960799415951805,"weights":{"416":0.06584780641595378,"400":0.4898688330974049,"401":0.7275870696230949,"402":0.7032261941234661,"403":0.6393178591416795,"404":0.9552117647115191,"405":0.8298225024879032,"406":0.9348517044564907,"407":0.7928191250074966,"408":0.35204867506791615,"409":0.10905020233664775,"410":0.8843884734702699,"411":0.4337580448098425,"412":0.3439826013945091,"413":0.34912803738556764,"414":0.20282552959881406,"415":0.6269494495399807},"weightChange":{"416":0.0,"400":0.0,"401":0.0,"402":0.0,"403":0.0,"404":0.0,"405":0.0,"406":0.0,"407":0.0,"408":0.0,"409":0.0,"410":0.0,"411":0.0,"412":0.0,"413":0.0,"414":0.0,"415":0.0},"personalWeight":0.3783226441783083,"id":421},{"ID":422,"value":1.0,"layer":1,"target":0.9977294784899994,"weights":{"416":0.5828208662130281,"400":0.01086044209451098,"401":0.6055269348682827,"402":0.5046707942884423,"403":0.7292053625488489,"404":0.8644043202799735,"405":0.9476411526885575,"406":0.9776099077256103,"407":0.9514472968931339,"408":0.9894514975747152,"409":0.8023617833148116,"410":0.11855572575761486,"411":0.681058571173559,"412":0.5088189651965592,"413":0.18497421251219215,"414":0.3413356471095568,"415":0.06878627390304526},"weightChange":{"416":0.0,"400":0.0,"401":0.0,"402":0.0,"403":0.0,"404":0.0,"405":0.0,"406":0.0,"407":0.0,"408":0.0,"409":0.0,"410":0.0,"411":0.0,"412":0.0,"413":0.0,"414":0.0,"415":0.0},"personalWeight":0.43165864137583054,"id":422},{"ID":423,"value":1.0,"layer":1,"target":0.9872088197063735,"weights":{"416":0.07331045526923774,"400":0.028107164175744215,"401":0.6070325060354623,"402":0.8222322292042102,"403":0.6146697625523676,"404":0.40709267120863957,"405":0.6697408090312071,"406":0.3353376108665489,"407":0.5259549650820747,"408":0.250671553242658,"409":0.9196247454831722,"410":0.74173166561072,"411":0.30723377762841697,"412":0.1619880244475207,"413":0.02252858344455222,"414":0.19897781385119695,"415":0.8772916005733405},"weightChange":{"416":0.0,"400":0.0,"401":0.0,"402":0.0,"403":0.0,"404":0.0,"405":0.0,"406":0.0,"407":0.0,"408":0.0,"409":0.0,"410":0.0,"411":0.0,"412":0.0,"413":0.0,"414":0.0,"415":0.0},"personalWeight":0.08740337059732639,"id":423},{"ID":424,"value":1.0,"layer":1,"target":0.9899470078812442,"weights":{"416":0.9843495358502236,"400":0.03810408243755592,"401":0.44495391691212804,"402":0.14918392288540827,"403":0.13581746229759295,"404":0.7591980796750498,"405":0.024937503451696208,"406":0.2593855196307483,"407":0.15713235942306247,"408":0.42944761531246367,"409":0.8226051363782219,"410":0.45663230536237953,"411":0.08613283966379937,"412":0.5662033337962368,"413":0.8761964212723684,"414":0.8637652468732124,"415":0.3886843018410048},"weightChange":{"416":0.0,"400":0.0,"401":0.0,"402":0.0,"403":0.0,"404":0.0,"405":0.0,"406":0.0,"407":0.0,"408":0.0,"409":0.0,"410":0.0,"411":0.0,"412":0.0,"413":0.0,"414":0.0,"415":0.0},"personalWeight":0.003515330483597756,"id":424},{"ID":425,"value":1.0,"layer":1,"target":0.997273936243552,"weights":{"416":0.42383941082637144,"400":0.6250728469341843,"401":0.09682815112756749,"402":0.2548755740407196,"403":0.5214649550499033,"404":0.6164185542243894,"405":0.8433640573699426,"406":0.6653026167438194,"407":0.8696902613870284,"408":0.21563138717459984,"409":0.7255718618333504,"410":0.9901434465376068,"411":0.5167348998911157,"412":0.8981504284068274,"413":0.5643194914142381,"414":0.39697667462885533,"415":0.13907751032763682},"weightChange":{"416":0.0,"400":0.0,"401":0.0,"402":0.0,"403":0.0,"404":0.0,"405":0.0,"406":0.0,"407":0.0,"408":0.0,"409":0.0,"410":0.0,"411":0.0,"412":0.0,"413":0.0,"414":0.0,"415":0.0},"personalWeight":0.6921054444840077,"id":425},{"ID":426,"value":1.0,"layer":1,"target":0.9955595267704853,"weights":{"416":0.01734644959753795,"400":0.5573726431990177,"401":0.7637951323805406,"402":0.31990926099227934,"403":0.5169620269283721,"404":0.30354144303574493,"405":0.3344571113724225,"406":0.9066462467454091,"407":0.6774276939811934,"408":0.27307974266443813,"409":0.33629072138881444,"410":0.15759951049911103,"411":0.1079449316966391,"412":0.9441816175354388,"413":0.6554480164316919,"414":0.40271484046933237,"415":0.36191644815095625},"weightChange":{"416":0.0,"400":0.0,"401":0.0,"402":0.0,"403":0.0,"404":0.0,"405":0.0,"406":0.0,"407":0.0,"408":0.0,"409":0.0,"410":0.0,"411":0.0,"412":0.0,"413":0.0,"414":0.0,"415":0.0},"personalWeight":0.9863860178898894,"id":426},{"ID":427,"value":1.0,"layer":1,"target":0.9847590761319037,"weights":{"416":0.25585193993325184,"400":0.395105692865925,"401":0.3574581843775534,"402":0.24951608231335765,"403":0.8540227110577269,"404":0.9706550912578784,"405":0.8048954513577017,"406":0.45922747767458116,"407":0.044924186260916654,"408":0.5765906894312742,"409":0.763051882647441,"410":0.0809869782934799,"411":0.02780463349858242,"412":0.06665934421165243,"413":0.4667159374118576,"414":0.36206724537178714,"415":0.4155856383283195},"weightChange":{"416":0.0,"400":0.0,"401":0.0,"402":0.0,"403":0.0,"404":0.0,"405":0.0,"406":0.0,"407":0.0,"408":0.0,"409":0.0,"410":0.0,"411":0.0,"412":0.0,"413":0.0,"414":0.0,"415":0.0},"personalWeight":0.2163849572502401,"id":427},{"ID":428,"value":1.0,"layer":1,"target":0.9866638285767476,"weights":{"416":0.06696073947915449,"400":0.3324574840775575,"401":0.12872438817993315,"402":0.354719226972241,"403":0.7496390308190077,"404":0.27893524717691875,"405":0.15163578990130056,"406":0.09169958820369817,"407":0.566495849594574,"408":0.34957326425195767,"409":0.419280856147065,"410":0.1780472445933875,"411":0.047217502642492026,"412":0.7531975196176065,"413":0.01140164309338576,"414":0.6161288737166959,"415":0.5096696164847679},"weightChange":{"416":0.0,"400":0.0,"401":0.0,"402":0.0,"403":0.0,"404":0.0,"405":0.0,"406":0.0,"407":0.0,"408":0.0,"409":0.0,"410":0.0,"411":0.0,"412":0.0,"413":0.0,"414":0.0,"415":0.0},"personalWeight":0.8163148549100915,"id":428},{"ID":429,"value":1.0,"layer":1,"target":0.9949356380228737,"weights":{"416":0.9944637551256293,"400":0.39860183497755564,"401":0.2932207686117121,"402":0.9039521379300544,"403":0.45611877123105016,"404":0.382190096484751,"405":0.5821872839217139,"406":0.6071807064923151,"407":0.09906904949036865,"408":0.47765163865922755,"409":0.43347822613526465,"410":0.31705609974051896,"411":0.5189051352062726,"412":0.07644671755918597,"413":0.2961718402233795,"414":0.7039455713717883,"415":0.16174075379439357},"weightChange":{"416":0.0,"400":0.0,"401":0.0,"402":0.0,"403":0.0,"404":0.0,"405":0.0,"406":0.0,"407":0.0,"408":0.0,"409":0.0,"410":0.0,"411":0.0,"412":0.0,"413":0.0,"414":0.0,"415":0.0},"personalWeight":0.803065133833436,"id":429},{"ID":430,"value":1.0,"layer":1,"target":0.9981407505253304,"weights":{"416":0.5392646986999357,"400":0.652673203814778,"401":0.8337173530858808,"402":0.8663604884206347,"403":0.5662835991184745,"404":0.4963798260991006,"405":0.009471704656369151,"406":0.9332181792966847,"407":0.6277660836852378,"408":0.5435655463793857,"409":0.7703343549143334,"410":0.4390158237566294,"411":0.3974649052036232,"412":0.9929451487054972,"413":0.41874855611340533,"414":0.12390417679995691,"415":0.009868648313100303},"weightChange":{"416":0.0,"400":0.0,"401":0.0,"402":0.0,"403":0.0,"404":0.0,"405":0.0,"406":0.0,"407":0.0,"408":0.0,"409":0.0,"410":0.0,"411":0.0,"412":0.0,"413":0.0,"414":0.0,"415":0.0},"personalWeight":0.7358452008323154,"id":430},{"ID":431,"value":1.0,"layer":1,"target":0.9916536228945577,"weights":{"416":0.07488807730956049,"400":0.005361650923982442,"401":0.7749364709109746,"402":0.2237946745305358,"403":0.8939828719270251,"404":0.02421217713764523,"405":0.10618184156667854,"406":0.6686455931837748,"407":0.3746412094454714,"408":0.18220612256779345,"409":0.25414791508298873,"410":0.4490917470183188,"411":0.5295015094007504,"412":0.19717033369427306,"413":0.8772825089543581,"414":0.1557771859571131,"415":0.6130402213462665},"weightChange":{"416":0.0,"400":0.0,"401":0.0,"402":0.0,"403":0.0,"404":0.0,"405":0.0,"406":0.0,"407":0.0,"408":0.0,"409":0.0,"410":0.0,"411":0.0,"412":0.0,"413":0.0,"414":0.0,"415":0.0},"personalWeight":0.9301511382732962,"id":431},{"ID":432,"value":1.0,"layer":1,"target":0.9952226674389504,"weights":{"416":0.8601475161884797,"400":0.5026366201080067,"401":0.3084163136331405,"402":0.4975809419649657,"403":0.5711525834198582,"404":0.8356388674766649,"405":0.09657299378765505,"406":0.06874965135154687,"407":0.5692075796295332,"408":0.27981953585848074,"409":0.045369504710269126,"410":0.7243340079578608,"411":0.1445078724654475,"412":0.7532911383968506,"413":0.18042233260230056,"414":0.434806369477749,"415":0.9702315900936495},"weightChange":{"416":0.0,"400":0.0,"401":0.0,"402":0.0,"403":0.0,"404":0.0,"405":0.0,"406":0.0,"407":0.0,"408":0.0,"409":0.0,"410":0.0,"411":0.0,"412":0.0,"413":0.0,"414":0.0,"415":0.0},"personalWeight":0.8207038504265842,"id":432},{"ID":433,"value":1.0,"layer":2,"target":0.9999758384431182,"weights":{"417":0.9809520158856472,"418":0.41454246331262967,"419":0.4261971839176789,"420":0.9225236513963467,"421":0.4858874618347132,"422":0.688611740993247,"423":0.7659652066200255,"424":0.8777566869705338,"425":0.5921988456193189,"426":0.93859055067006,"427":0.4405263105481563,"428":0.15415936262087393,"429":0.6203730654385876,"430":0.8386735606070221,"431":0.8152815665235458,"432":0.23832006396556682},"weightChange":{"417":0.0,"418":0.0,"419":0.0,"420":0.0,"421":0.0,"422":0.0,"423":0.0,"424":0.0,"425":0.0,"426":0.0,"427":0.0,"428":0.0,"429":0.0,"430":0.0,"431":0.0,"432":0.0},"personalWeight":0.4889661891765281,"id":433},{"ID":434,"value":1.0,"layer":2,"target":0.9999832003227261,"weights":{"417":0.9216201797792061,"418":0.7858386679624103,"419":0.8530292569178788,"420":0.608719996344025,"421":0.7412760191961518,"422":0.8689114330272256,"423":0.07159345288622632,"424":0.619970516203676,"425":0.28921186564315726,"426":0.3002834251200305,"427":0.26213164087268914,"428":0.9269300842852768,"429":0.8826350849181523,"430":0.997587891042914,"431":0.31084936367053784,"432":0.9278853468006039},"weightChange":{"417":0.0,"418":0.0,"419":0.0,"420":0.0,"421":0.0,"422":0.0,"423":0.0,"424":0.0,"425":0.0,"426":0.0,"427":0.0,"428":0.0,"429":0.0,"430":0.0,"431":0.0,"432":0.0},"personalWeight":0.6836097251937222,"id":434},{"ID":435,"value":1.0,"layer":2,"target":0.9996613935742176,"weights":{"417":0.7026983255851084,"418":0.20908280945527702,"419":0.25091100093146923,"420":0.008256871091383844,"421":0.9510601108592215,"422":0.0890118477861831,"423":0.7229195137423157,"424":0.4145988352222746,"425":0.6515951487453432,"426":0.5638384988449323,"427":0.6050733257298028,"428":0.12064307377138517,"429":0.7299902462986662,"430":0.9915448917773511,"431":0.3043874880518933,"432":0.059350703165662155},"weightChange":{"417":0.0,"418":0.0,"419":0.0,"420":0.0,"421":0.0,"422":0.0,"423":0.0,"424":0.0,"425":0.0,"426":0.0,"427":0.0,"428":0.0,"429":0.0,"430":0.0,"431":0.0,"432":0.0},"personalWeight":0.6616631705843398,"id":435},{"ID":436,"value":1.0,"layer":2,"target":0.9999597263465305,"weights":{"417":0.7177718628146615,"418":0.9812051355466966,"419":0.35006700240174526,"420":0.8183287149193119,"421":0.6920285727165452,"422":0.7852215800083634,"423":0.9890436057570379,"424":0.4604562181861527,"425":0.2590924431511282,"426":0.8720332254924229,"427":0.190459244653579,"428":0.7375201396995611,"429":0.4999381757338286,"430":0.8942065870769462,"431":0.4043000471177637,"432":0.036825714287978206},"weightChange":{"417":0.0,"418":0.0,"419":0.0,"420":0.0,"421":0.0,"422":0.0,"423":0.0,"424":0.0,"425":0.0,"426":0.0,"427":0.0,"428":0.0,"429":0.0,"430":0.0,"431":0.0,"432":0.0},"personalWeight":0.49002447257881965,"id":436},{"ID":437,"value":1.0,"layer":2,"target":0.9987566833233565,"weights":{"417":0.4266882948655417,"418":0.6653345270380983,"419":0.1368982886721768,"420":0.49692074894538796,"421":0.05508807977905272,"422":0.4101877141745557,"423":0.07635562842839072,"424":0.536508009587315,"425":0.29605171830786636,"426":0.6204054339032012,"427":0.17478292731023437,"428":0.3128357388046925,"429":0.9891848948639612,"430":0.5115754889255785,"431":0.04397337052658912,"432":0.4749293277616161},"weightChange":{"417":0.0,"418":0.0,"419":0.0,"420":0.0,"421":0.0,"422":0.0,"423":0.0,"424":0.0,"425":0.0,"426":0.0,"427":0.0,"428":0.0,"429":0.0,"430":0.0,"431":0.0,"432":0.0},"personalWeight":0.4947588549597012,"id":437},{"ID":438,"value":1.0,"layer":2,"target":0.9999000767247102,"weights":{"417":0.16844040221848755,"418":0.656856911605016,"419":0.8038409380478415,"420":0.08727713111983049,"421":0.22602345721142636,"422":0.329327786752737,"423":0.9617367975830728,"424":0.8726455452642584,"425":0.9778341689959565,"426":0.9442718927236391,"427":0.3338417998990486,"428":0.38330398584216296,"429":0.9530380152022165,"430":0.31493600060810767,"431":0.4873555466840944,"432":0.33162691294831614},"weightChange":{"417":0.0,"418":0.0,"419":0.0,"420":0.0,"421":0.0,"422":0.0,"423":0.0,"424":0.0,"425":0.0,"426":0.0,"427":0.0,"428":0.0,"429":0.0,"430":0.0,"431":0.0,"432":0.0},"personalWeight":0.4392891054390339,"id":438},{"ID":439,"value":1.0,"layer":2,"target":0.9994962570051334,"weights":{"417":0.9131171712603016,"418":0.3335818704501311,"419":0.06661543294508787,"420":0.6073537325922906,"421":0.968741431218213,"422":0.8040046719495832,"423":0.11416174614276797,"424":0.07688795332100207,"425":0.5731786590182782,"426":0.39639701488662304,"427":0.04749977537664407,"428":0.6741872121640847,"429":0.21657188126753923,"430":0.7095668554202524,"431":0.3831051405519985,"432":0.4469404200328235},"weightChange":{"417":0.0,"418":0.0,"419":0.0,"420":0.0,"421":0.0,"422":0.0,"423":0.0,"424":0.0,"425":0.0,"426":0.0,"427":0.0,"428":0.0,"429":0.0,"430":0.0,"431":0.0,"432":0.0},"personalWeight":0.29610203834089444,"id":439},{"ID":440,"value":1.0,"layer":2,"target":0.9998531260676089,"weights":{"417":0.16740285296205437,"418":0.8809192839630079,"419":0.6016660109907177,"420":0.7143165527871829,"421":0.8243934293192234,"422":0.2610876929394875,"423":0.6542917353444242,"424":0.2772914775766048,"425":0.3403503538562791,"426":0.3280420458513328,"427":0.01297424580514217,"428":0.7730029770629886,"429":0.2894037873039248,"430":0.8959509668773171,"431":0.5434404791522346,"432":0.8779439358767965},"weightChange":{"417":0.0,"418":0.0,"419":0.0,"420":0.0,"421":0.0,"422":0.0,"423":0.0,"424":0.0,"425":0.0,"426":0.0,"427":0.0,"428":0.0,"429":0.0,"430":0.0,"431":0.0,"432":0.0},"personalWeight":0.43362748085836955,"id":440},{"ID":441,"value":1.0,"layer":2,"target":0.9998929023695249,"weights":{"417":0.8676310144962676,"418":0.9195161189390594,"419":0.7586468865155606,"420":0.8377785938733987,"421":0.7167452635651024,"422":0.17945225922481434,"423":0.3740436251997191,"424":0.5683537162420786,"425":0.16135170741779137,"426":0.5746766977920726,"427":0.6015907175403001,"428":0.11287080426815932,"429":0.38888116357275304,"430":0.11468300830722677,"431":0.9954837460125235,"432":0.90006044821765},"weightChange":{"417":0.0,"418":0.0,"419":0.0,"420":0.0,"421":0.0,"422":0.0,"423":0.0,"424":0.0,"425":0.0,"426":0.0,"427":0.0,"428":0.0,"429":0.0,"430":0.0,"431":0.0,"432":0.0},"personalWeight":0.12648259370185466,"id":441},{"ID":442,"value":1.0,"layer":2,"target":0.9998851073659697,"weights":{"417":0.7449927563951952,"418":0.8926260210823538,"419":0.17988215714800815,"420":0.3666302216462588,"421":0.10321647608182394,"422":0.6547938856014588,"423":0.6827921471562991,"424":0.9036301679287582,"425":0.05052152989326941,"426":0.8552399347989609,"427":0.04325405242725011,"428":0.789516987376068,"429":0.881051560985368,"430":0.7514433275734358,"431":0.3288639107505026,"432":0.5079812443913916},"weightChange":{"417":0.0,"418":0.0,"419":0.0,"420":0.0,"421":0.0,"422":0.0,"423":0.0,"424":0.0,"425":0.0,"426":0.0,"427":0.0,"428":0.0,"429":0.0,"430":0.0,"431":0.0,"432":0.0},"personalWeight":0.39095215488537005,"id":442},{"ID":443,"value":1.0,"layer":2,"target":0.999880988976927,"weights":{"417":0.037166108106716056,"418":0.6344014976120961,"419":0.2969410689419949,"420":0.816958409767791,"421":0.9464070991729309,"422":0.5319408371005965,"423":0.6561956496757809,"424":0.9488273612684864,"425":0.552002490476395,"426":0.9738185523496382,"427":0.7728678991689535,"428":0.4391917645214898,"429":0.2717313993498426,"430":0.4238431728206422,"431":0.44850706229724346,"432":0.20923517145654158},"weightChange":{"417":0.0,"418":0.0,"419":0.0,"420":0.0,"421":0.0,"422":0.0,"423":0.0,"424":0.0,"425":0.0,"426":0.0,"427":0.0,"428":0.0,"429":0.0,"430":0.0,"431":0.0,"432":0.0},"personalWeight":0.1360886733685499,"id":443},{"ID":444,"value":1.0,"layer":2,"target":0.9999855652076934,"weights":{"417":0.9605082085416944,"418":0.3072543569084567,"419":0.6130878874485938,"420":0.32473731930070493,"421":0.9200475300725686,"422":0.7438383056103028,"423":0.08313726106478914,"424":0.8811220186766101,"425":0.5484489903162002,"426":0.44641387583111014,"427":0.8553506892935918,"428":0.5448172270006175,"429":0.1511875490499751,"430":0.9153419543388884,"431":0.9939047439713232,"432":0.950359829497523},"weightChange":{"417":0.0,"418":0.0,"419":0.0,"420":0.0,"421":0.0,"422":0.0,"423":0.0,"424":0.0,"425":0.0,"426":0.0,"427":0.0,"428":0.0,"429":0.0,"430":0.0,"431":0.0,"432":0.0},"personalWeight":0.9699881243030001,"id":444},{"ID":445,"value":1.0,"layer":2,"target":0.9992294664252568,"weights":{"417":0.41129285891000766,"418":0.7134966062597731,"419":0.1617692039721813,"420":0.746902724912426,"421":0.17665672302230073,"422":0.5718657107884214,"423":0.5845760134117899,"424":0.29732428197601146,"425":0.3577375310726941,"426":0.6226601451497794,"427":0.17562962567102092,"428":0.8772724913382514,"429":0.49840647662945425,"430":0.3786169779460373,"431":0.5668463409707917,"432":0.06871511713298017},"weightChange":{"417":0.0,"418":0.0,"419":0.0,"420":0.0,"421":0.0,"422":0.0,"423":0.0,"424":0.0,"425":0.0,"426":0.0,"427":0.0,"428":0.0,"429":0.0,"430":0.0,"431":0.0,"432":0.0},"personalWeight":0.004568157590362665,"id":445},{"ID":446,"value":1.0,"layer":2,"target":0.9990848771615267,"weights":{"417":0.500664044879026,"418":0.9288451766810286,"419":0.9509981575767381,"420":0.14641573722913392,"421":0.1654067299362365,"422":0.174584124608686,"423":0.3169643783311512,"424":0.9603248898513521,"425":0.5752097227841666,"426":0.12063760872026219,"427":0.24505219196629136,"428":0.6586550579098684,"429":0.7707810090231624,"430":0.14567007417712607,"431":0.13288744555518017,"432":0.21930441014960356},"weightChange":{"417":0.0,"418":0.0,"419":0.0,"420":0.0,"421":0.0,"422":0.0,"423":0.0,"424":0.0,"425":0.0,"426":0.0,"427":0.0,"428":0.0,"429":0.0,"430":0.0,"431":0.0,"432":0.0},"personalWeight":0.032622308755843266,"id":446},{"ID":447,"value":1.0,"layer":2,"target":0.999877422783227,"weights":{"417":0.7665206605539849,"418":0.9263707583328089,"419":0.6601181567092624,"420":0.33742247239437617,"421":0.824525901193922,"422":0.2309610710883715,"423":0.4771924241560336,"424":0.08273720652864858,"425":0.7591337649181356,"426":0.40811007456626425,"427":0.947171130426662,"428":0.6235794215363201,"429":0.48155308682952425,"430":0.37666001805513183,"431":0.345084707163426,"432":0.6107222578844865},"weightChange":{"417":0.0,"418":0.0,"419":0.0,"420":0.0,"421":0.0,"422":0.0,"423":0.0,"424":0.0,"425":0.0,"426":0.0,"427":0.0,"428":0.0,"429":0.0,"430":0.0,"431":0.0,"432":0.0},"personalWeight":0.20823569807208342,"id":447},{"ID":448,"value":1.0,"layer":2,"target":0.9998685612815035,"weights":{"417":0.9700808222048641,"418":0.8405388246320128,"419":0.4007356965676422,"420":0.41019637113947705,"421":0.6129121413434165,"422":0.5472831048722923,"423":0.2537722787578438,"424":0.809585468677395,"425":0.2927464974595039,"426":0.43955428816504527,"427":0.18808846044068128,"428":0.7001555090268624,"429":0.9428952456959923,"430":0.6041441033118254,"431":0.35226777461578573,"432":0.5008523894966384},"weightChange":{"417":0.0,"418":0.0,"419":0.0,"420":0.0,"421":0.0,"422":0.0,"423":0.0,"424":0.0,"425":0.0,"426":0.0,"427":0.0,"428":0.0,"429":0.0,"430":0.0,"431":0.0,"432":0.0},"personalWeight":0.12414837974774795,"id":448},{"ID":449,"value":1.0,"layer":3,"target":0.9981767304332039,"weights":{"448":0.4826402915091632,"433":0.9521543369751966,"434":0.32169926190808673,"435":0.24248647053250327,"436":0.004903235731060329,"437":0.373478904139082,"438":0.20016012093912527,"439":0.18131243673634356,"440":0.9372449642002958,"441":0.07669154274709378,"442":0.26730998430638975,"443":0.29687468385438376,"444":0.10942663475214387,"445":0.4226002510177985,"446":0.5124215612789205,"447":0.8719720659040407},"weightChange":{"448":0.0,"433":0.0,"434":0.0,"435":0.0,"436":0.0,"437":0.0,"438":0.0,"439":0.0,"440":0.0,"441":0.0,"442":0.0,"443":0.0,"444":0.0,"445":0.0,"446":0.0,"447":0.0},"personalWeight":0.05378701813592546,"id":449},{"ID":450,"value":1.0,"layer":3,"target":0.999890050315548,"weights":{"448":0.44273113645458684,"433":0.9740604045555311,"434":0.9394270238182144,"435":0.1447468726679152,"436":0.3991776580763974,"437":0.7222521627291861,"438":0.2751967106374451,"439":0.1665078537650121,"440":0.1906797758587867,"441":0.803283170807953,"442":0.6872574883007365,"443":0.6605134903845259,"444":0.44405952482647626,"445":0.7256128653309095,"446":0.38943761856713677,"447":0.8568814191870646},"weightChange":{"448":0.0,"433":0.0,"434":0.0,"435":0.0,"436":0.0,"437":0.0,"438":0.0,"439":0.0,"440":0.0,"441":0.0,"442":0.0,"443":0.0,"444":0.0,"445":0.0,"446":0.0,"447":0.0},"personalWeight":0.296023081740184,"id":450},{"ID":451,"value":1.0,"layer":3,"target":0.999309699980425,"weights":{"448":0.33869181960536754,"433":0.6336748355743795,"434":0.2743170532346437,"435":0.3385601447905675,"436":0.8859866183643067,"437":0.27163642299798996,"438":0.6341244124803717,"439":0.08127104656414241,"440":0.4005436396614601,"441":0.5843085264575355,"442":0.03294600878644405,"443":0.6989963053533667,"444":0.7154113034610001,"445":0.7198348577316164,"446":0.03580336847808396,"447":0.09310965114366432},"weightChange":{"448":0.0,"433":0.0,"434":0.0,"435":0.0,"436":0.0,"437":0.0,"438":0.0,"439":0.0,"440":0.0,"441":0.0,"442":0.0,"443":0.0,"444":0.0,"445":0.0,"446":0.0,"447":0.0},"personalWeight":0.5399520235546243,"id":451},{"ID":452,"value":1.0,"layer":3,"target":0.9993820105018536,"weights":{"448":0.8297457957480943,"433":0.8644067931528135,"434":0.48614189653299833,"435":0.4331672688888767,"436":0.19235359149250697,"437":0.4659512452545621,"438":0.8526500882701046,"439":0.5327603675183353,"440":0.07922919536083928,"441":0.4956647483837294,"442":0.8034958151490301,"443":0.06636178263272297,"444":0.5123239756872489,"445":0.33364926381809756,"446":0.27460525803393787,"447":0.12189058165596034},"weightChange":{"448":0.0,"433":0.0,"434":0.0,"435":0.0,"436":0.0,"437":0.0,"438":0.0,"439":0.0,"440":0.0,"441":0.0,"442":0.0,"443":0.0,"444":0.0,"445":0.0,"446":0.0,"447":0.0},"personalWeight":0.04594433440271484,"id":452},{"ID":453,"value":1.0,"layer":3,"target":0.9998772995699776,"weights":{"448":0.8553859097800034,"433":0.6832499523100505,"434":0.13375578932078036,"435":0.1460031161173393,"436":0.9014195479351179,"437":0.5278193065138036,"438":0.5452994772756231,"439":0.6945547977562531,"440":0.4219178835677456,"441":0.9667707255472437,"442":0.5844504791458306,"443":0.2825247402736325,"444":0.6828067026002611,"445":0.2684496430412229,"446":0.9176421381696935,"447":0.2593845296165179},"weightChange":{"448":0.0,"433":0.0,"434":0.0,"435":0.0,"436":0.0,"437":0.0,"438":0.0,"439":0.0,"440":0.0,"441":0.0,"442":0.0,"443":0.0,"444":0.0,"445":0.0,"446":0.0,"447":0.0},"personalWeight":0.1368393294992879,"id":453},{"ID":454,"value":1.0,"layer":3,"target":0.9995168116180627,"weights":{"448":0.10796484370627712,"433":0.4458074610100621,"434":0.5489735239752971,"435":0.5943436274574722,"436":0.6433443265065768,"437":0.08388988162920163,"438":0.5885677904475424,"439":0.3448413309901158,"440":0.9646638895604338,"441":0.8852779169380377,"442":0.7097578302925768,"443":0.691676535779168,"444":0.2969841425652566,"445":0.004256111687754305,"446":0.27748089289766453,"447":0.4415970869032988},"weightChange":{"448":0.0,"433":0.0,"434":0.0,"435":0.0,"436":0.0,"437":0.0,"438":0.0,"439":0.0,"440":0.0,"441":0.0,"442":0.0,"443":0.0,"444":0.0,"445":0.0,"446":0.0,"447":0.0},"personalWeight":0.006507609439316497,"id":454},{"ID":455,"value":1.0,"layer":3,"target":0.9996782198900589,"weights":{"448":0.9395896374933764,"433":0.03686352184214514,"434":0.4111844759276575,"435":0.26460446506209134,"436":0.6961520708396777,"437":0.5094709255397031,"438":0.20430026302713233,"439":0.1361007348497435,"440":0.6542404072996433,"441":0.2661399222292792,"442":0.908029421327957,"443":0.2419954014875132,"444":0.8702589835396947,"445":0.49451326583935695,"446":0.3173345392853931,"447":0.5852325457862537},"weightChange":{"448":0.0,"433":0.0,"434":0.0,"435":0.0,"436":0.0,"437":0.0,"438":0.0,"439":0.0,"440":0.0,"441":0.0,"442":0.0,"443":0.0,"444":0.0,"445":0.0,"446":0.0,"447":0.0},"personalWeight":0.5072945160841218,"id":455},{"ID":456,"value":1.0,"layer":3,"target":0.9988690713599749,"weights":{"448":0.10868613206976652,"433":0.023299391079206533,"434":0.438127215572676,"435":0.7683526639955782,"436":0.14536343000217666,"437":0.1587982393348547,"438":0.7341105297110028,"439":0.6994097707427726,"440":0.13970049394134698,"441":0.5097168965372926,"442":0.19611474988975908,"443":0.5776406892851699,"444":0.7916282872203654,"445":0.3147745513293534,"446":0.8774353300610929,"447":0.026172660485028865},"weightChange":{"448":0.0,"433":0.0,"434":0.0,"435":0.0,"436":0.0,"437":0.0,"438":0.0,"439":0.0,"440":0.0,"441":0.0,"442":0.0,"443":0.0,"444":0.0,"445":0.0,"446":0.0,"447":0.0},"personalWeight":0.27639145113473806,"id":456},{"ID":457,"value":1.0,"layer":3,"target":0.9989653101624681,"weights":{"448":0.26389799703480943,"433":0.6236846191893839,"434":0.4856189943543454,"435":0.1822830458092084,"436":0.7788339936691819,"437":0.1388995606678477,"438":0.06362410471627256,"439":0.25125543412126516,"440":0.7273084523957459,"441":0.760549452992649,"442":0.024897023234778493,"443":0.01990024236868093,"444":0.8137033615483298,"445":0.46969454943930644,"446":0.2606187095237923,"447":0.973815616182551},"weightChange":{"448":0.0,"433":0.0,"434":0.0,"435":0.0,"436":0.0,"437":0.0,"438":0.0,"439":0.0,"440":0.0,"441":0.0,"442":0.0,"443":0.0,"444":0.0,"445":0.0,"446":0.0,"447":0.0},"personalWeight":0.03541484402472983,"id":457},{"ID":458,"value":1.0,"layer":3,"target":0.999986950523987,"weights":{"448":0.6171112888983222,"433":0.9106009662316719,"434":0.3478029216336955,"435":0.48573936581543786,"436":0.9064517603180126,"437":0.5514497375890555,"438":0.7113528622912948,"439":0.6609369898930901,"440":0.7707466478535309,"441":0.9941164211705635,"442":0.9712682168434981,"443":0.3354239617591884,"444":0.09652993966131385,"445":0.7972055288112311,"446":0.7826987660193186,"447":0.3534906031791951},"weightChange":{"448":0.0,"433":0.0,"434":0.0,"435":0.0,"436":0.0,"437":0.0,"438":0.0,"439":0.0,"440":0.0,"441":0.0,"442":0.0,"443":0.0,"444":0.0,"445":0.0,"446":0.0,"447":0.0},"personalWeight":0.9569695801471972,"id":458},{"ID":459,"value":1.0,"layer":3,"target":0.9999197553225421,"weights":{"448":0.6360460946911247,"433":0.9156806284987468,"434":0.26046149453422296,"435":0.3899570879194989,"436":0.5871815690597735,"437":0.5329155574654068,"438":0.32813539716835693,"439":0.39459754697462335,"440":0.7474954733522979,"441":0.9738031236290794,"442":0.5097934954002701,"443":0.5943423411980412,"444":0.26323716143674836,"445":0.1147062433960705,"446":0.754471479074299,"447":0.6554577842906633},"weightChange":{"448":0.0,"433":0.0,"434":0.0,"435":0.0,"436":0.0,"437":0.0,"438":0.0,"439":0.0,"440":0.0,"441":0.0,"442":0.0,"443":0.0,"444":0.0,"445":0.0,"446":0.0,"447":0.0},"personalWeight":0.7744336820097586,"id":459},{"ID":460,"value":1.0,"layer":3,"target":0.999976469673979,"weights":{"448":0.13085205783668719,"433":0.9145992025017711,"434":0.45209845646573765,"435":0.6873307544391222,"436":0.6904520329248661,"437":0.5360396468487547,"438":0.8345117044456533,"439":0.7731858969903147,"440":0.928339675417996,"441":0.6080820525467355,"442":0.8190710194346521,"443":0.7114925819786619,"444":0.9064277262603287,"445":0.3094223976523458,"446":0.14952369154905254,"447":0.6756251924677278},"weightChange":{"448":0.0,"433":0.0,"434":0.0,"435":0.0,"436":0.0,"437":0.0,"438":0.0,"439":0.0,"440":0.0,"441":0.0,"442":0.0,"443":0.0,"444":0.0,"445":0.0,"446":0.0,"447":0.0},"personalWeight":0.5324410614493602,"id":460},{"ID":461,"value":1.0,"layer":3,"target":0.999763586158216,"weights":{"448":0.9874288158154136,"433":0.7441114319105672,"434":0.057875544835093384,"435":0.3290451450514733,"436":0.515255411776741,"437":0.13582047895752392,"438":0.308460359024436,"439":0.6648351495021348,"440":0.23651759487945567,"441":0.9253047401592389,"442":0.4908081800713815,"443":0.4448415448253362,"444":0.9927555459574623,"445":0.3168158847809426,"446":0.8912756229683706,"447":0.23119164662797076},"weightChange":{"448":0.0,"433":0.0,"434":0.0,"435":0.0,"436":0.0,"437":0.0,"438":0.0,"439":0.0,"440":0.0,"441":0.0,"442":0.0,"443":0.0,"444":0.0,"445":0.0,"446":0.0,"447":0.0},"personalWeight":0.07950826519748522,"id":461},{"ID":462,"value":1.0,"layer":3,"target":0.9994145285777531,"weights":{"448":0.2598367259662381,"433":0.3630392889044699,"434":0.6353093664467278,"435":0.41086332614749177,"436":0.6168951249462251,"437":0.9342406994837416,"438":0.5060559839523315,"439":0.12901450375795698,"440":0.5506728931217629,"441":0.5004052140238778,"442":0.05185899335144728,"443":0.1545105926995235,"444":0.24013921665477123,"445":0.8931589527960401,"446":0.05778397558476467,"447":0.9282184830279123},"weightChange":{"448":0.0,"433":0.0,"434":0.0,"435":0.0,"436":0.0,"437":0.0,"438":0.0,"439":0.0,"440":0.0,"441":0.0,"442":0.0,"443":0.0,"444":0.0,"445":0.0,"446":0.0,"447":0.0},"personalWeight":0.21301602983943702,"id":462},{"ID":463,"value":1.0,"layer":3,"target":0.9999011463364886,"weights":{"448":0.9503626596510046,"433":0.2844242666676151,"434":0.30119877989080046,"435":0.4583717220172394,"436":0.1545109649070059,"437":0.5568381643324951,"438":0.11237665104432115,"439":0.8952466148485551,"440":0.5941839506242964,"441":0.7972288015977516,"442":0.5967246021727971,"443":0.6647056613852217,"444":0.20647822600952703,"445":0.7604048007175308,"446":0.2258574615593265,"447":0.9150245491745944},"weightChange":{"448":0.0,"433":0.0,"434":0.0,"435":0.0,"436":0.0,"437":0.0,"438":0.0,"439":0.0,"440":0.0,"441":0.0,"442":0.0,"443":0.0,"444":0.0,"445":0.0,"446":0.0,"447":0.0},"personalWeight":0.7505140833477313,"id":463},{"ID":464,"value":1.0,"layer":3,"target":0.9998600869625158,"weights":{"448":0.7318810027585664,"433":0.950471621997041,"434":0.8780181899342733,"435":0.1562958851260614,"436":0.656912968283169,"437":0.1606865700482073,"438":0.367098171261357,"439":0.6011947530005087,"440":0.5134572650513184,"441":0.31825889267838714,"442":0.6042524212855622,"443":0.23359499723355293,"444":0.02763927400437083,"445":0.7756637391231443,"446":0.8571767464723444,"447":0.7957965070008737},"weightChange":{"448":0.0,"433":0.0,"434":0.0,"435":0.0,"436":0.0,"437":0.0,"438":0.0,"439":0.0,"440":0.0,"441":0.0,"442":0.0,"443":0.0,"444":0.0,"445":0.0,"446":0.0,"447":0.0},"personalWeight":0.24838993181209224,"id":464},{"ID":465,"value":1.0,"layer":4,"target":0.999694409737373,"weights":{"449":0.5222020628225427,"450":0.20453934651746886,"451":0.4665092020435321,"452":0.12255399500427966,"453":0.640460699878043,"454":0.054476828129387256,"455":0.8446422730329093,"456":0.9483206557165685,"457":0.41947551743314426,"458":0.29955022030577527,"459":0.24013900728770265,"460":0.301063795275756,"461":0.3994384606295832,"462":0.8466893609286533,"463":0.7265424203266136,"464":0.08454511184514812},"weightChange":{"449":0.0,"450":0.0,"451":0.0,"452":0.0,"453":0.0,"454":0.0,"455":0.0,"456":0.0,"457":0.0,"458":0.0,"459":0.0,"460":0.0,"461":0.0,"462":0.0,"463":0.0,"464":0.0},"personalWeight":0.9757704077582509,"id":465},{"ID":466,"value":1.0,"layer":4,"target":0.9999037289770423,"weights":{"449":0.041768713046705375,"450":0.06743621206603667,"451":0.8840615097878126,"452":0.9124890514831322,"453":0.8631405026019556,"454":0.28478851576436504,"455":0.6855714849558626,"456":0.5858125508774769,"457":0.09432699168317626,"458":0.17065572057640488,"459":0.5125689488601232,"460":0.932929817802722,"461":0.7549192473513231,"462":0.7140133981577098,"463":0.3472505152647314,"464":0.8871322452954338},"weightChange":{"449":0.0,"450":0.0,"451":0.0,"452":0.0,"453":0.0,"454":0.0,"455":0.0,"456":0.0,"457":0.0,"458":0.0,"459":0.0,"460":0.0,"461":0.0,"462":0.0,"463":0.0,"464":0.0},"personalWeight":0.5126837286610536,"id":466},{"ID":467,"value":1.0,"layer":4,"target":0.9999449439202687,"weights":{"449":0.0802003699942484,"450":0.7638986796138456,"451":0.05109536869172793,"452":0.8818525900736244,"453":0.771815167238246,"454":0.39583104538196767,"455":0.8355809353905008,"456":0.939628479753956,"457":0.35283603440947864,"458":0.4875882295812788,"459":0.72426870363889,"460":0.08282998030127198,"461":0.7868448203576935,"462":0.10649823118444646,"463":0.9997261211443692,"464":0.810237299383682},"weightChange":{"449":0.0,"450":0.0,"451":0.0,"452":0.0,"453":0.0,"454":0.0,"455":0.0,"456":0.0,"457":0.0,"458":0.0,"459":0.0,"460":0.0,"461":0.0,"462":0.0,"463":0.0,"464":0.0},"personalWeight":0.7396911685565843,"id":467},{"ID":468,"value":1.0,"layer":4,"target":0.9996194226430635,"weights":{"449":0.09303291418200899,"450":0.6537810959100244,"451":0.6991459541508978,"452":0.6228026521785716,"453":0.2673656206927787,"454":0.3690032628802957,"455":0.4127684480986985,"456":0.06457644879855151,"457":0.11832890696290066,"458":0.7555045930294274,"459":0.3959914084697993,"460":0.9599724597164837,"461":0.44758269951775165,"462":0.31065660434113185,"463":0.4730804706046581,"464":0.8697918028633136},"weightChange":{"449":0.0,"450":0.0,"451":0.0,"452":0.0,"453":0.0,"454":0.0,"455":0.0,"456":0.0,"457":0.0,"458":0.0,"459":0.0,"460":0.0,"461":0.0,"462":0.0,"463":0.0,"464":0.0},"personalWeight":0.36222388840590614,"id":468},{"ID":469,"value":1.0,"layer":4,"target":0.9999750203645514,"weights":{"449":0.010141306365684444,"450":0.8256073643257529,"451":0.7384236762042053,"452":0.8852287039657687,"453":0.049039476394515225,"454":0.6630685590562307,"455":0.5445841779761489,"456":0.5800545233389803,"457":0.886927015814479,"458":0.8983546772306863,"459":0.3985259865656511,"460":0.7866677006837878,"461":0.9181795572825985,"462":0.9277152867905105,"463":0.8443635572930183,"464":0.009015746191839535},"weightChange":{"449":0.0,"450":0.0,"451":0.0,"452":0.0,"453":0.0,"454":0.0,"455":0.0,"456":0.0,"457":0.0,"458":0.0,"459":0.0,"460":0.0,"461":0.0,"462":0.0,"463":0.0,"464":0.0},"personalWeight":0.6356759125844608,"id":469},{"ID":470,"value":1.0,"layer":4,"target":0.9999141728896056,"weights":{"449":0.5264731005295895,"450":0.13404438929541374,"451":0.5287621558198494,"452":0.10411825131634123,"453":0.4197202927985074,"454":0.4264385448256721,"455":0.9457818040028715,"456":0.2983662360614264,"457":0.9986579669895665,"458":0.8773798486923061,"459":0.5301228370934364,"460":0.9641510416703968,"461":0.7743123741424511,"462":0.17798064173128558,"463":0.32963189838345774,"464":0.4569651526888173},"weightChange":{"449":0.0,"450":0.0,"451":0.0,"452":0.0,"453":0.0,"454":0.0,"455":0.0,"456":0.0,"457":0.0,"458":0.0,"459":0.0,"460":0.0,"461":0.0,"462":0.0,"463":0.0,"464":0.0},"personalWeight":0.8739803246868728,"id":470},{"ID":471,"value":1.0,"layer":4,"target":0.9999301201004345,"weights":{"449":0.03281566247449008,"450":0.8955575131165928,"451":0.9246111104602326,"452":0.22577190512338996,"453":0.740788569995298,"454":0.8402442062806905,"455":0.7633483301265478,"456":0.8203284643177001,"457":0.9618359324814125,"458":0.2408388731785026,"459":0.5343284016862827,"460":0.39655765634325413,"461":0.8455903365157131,"462":0.9546486491956844,"463":0.12319836395072792,"464":0.06250963944126997},"weightChange":{"449":0.0,"450":0.0,"451":0.0,"452":0.0,"453":0.0,"454":0.0,"455":0.0,"456":0.0,"457":0.0,"458":0.0,"459":0.0,"460":0.0,"461":0.0,"462":0.0,"463":0.0,"464":0.0},"personalWeight":0.21012565540461525,"id":471},{"ID":472,"value":1.0,"layer":4,"target":0.9994860814501922,"weights":{"449":0.7288363144303799,"450":0.8103227017029861,"451":0.5125232200807823,"452":0.49861660105991235,"453":0.2597600675314934,"454":0.382291694222602,"455":0.798183868241734,"456":0.137922237092031,"457":0.2653608033991338,"458":0.4464278054222516,"459":0.5656207162326484,"460":0.1731766038260525,"461":0.6089019733871193,"462":0.5758024701557584,"463":0.1254397543888166,"464":0.6021851613895566},"weightChange":{"449":0.0,"450":0.0,"451":0.0,"452":0.0,"453":0.0,"454":0.0,"455":0.0,"456":0.0,"457":0.0,"458":0.0,"459":0.0,"460":0.0,"461":0.0,"462":0.0,"463":0.0,"464":0.0},"personalWeight":0.08517660835647167,"id":472},{"ID":473,"value":1.0,"layer":4,"target":0.9999035690958908,"weights":{"449":0.7461765004340368,"450":0.6466587827064821,"451":0.683906447277527,"452":0.7158883586930392,"453":0.38937557827053215,"454":0.17705007204434942,"455":0.7204623662456149,"456":0.8656343486603933,"457":0.8710516097555612,"458":0.4430509803853099,"459":0.5447662043635603,"460":0.8271679049925255,"461":0.07297468494344705,"462":0.5869547403028313,