[{"outputStart":57,"combatantMind":{"lastNodeId":73,"nodes":[{"learningRate":0.3,"ID":0,"value":0.0,"layer":0,"target":0.0,"weights":{},"weightChange":{},"personalWeight":0.1930458239814058,"id":0},{"learningRate":0.3,"ID":1,"value":0.0,"layer":0,"target":0.0,"weights":{},"weightChange":{},"personalWeight":0.01621671234368849,"id":1},{"learningRate":0.3,"ID":2,"value":0.0,"layer":0,"target":0.0,"weights":{},"weightChange":{},"personalWeight":0.5025570728810881,"id":2},{"learningRate":0.3,"ID":3,"value":0.0,"layer":0,"target":0.0,"weights":{},"weightChange":{},"personalWeight":0.1918130181422022,"id":3},{"learningRate":0.3,"ID":4,"value":0.0,"layer":0,"target":0.0,"weights":{},"weightChange":{},"personalWeight":0.21469075701418672,"id":4},{"learningRate":0.3,"ID":5,"value":0.0,"layer":0,"target":0.0,"weights":{},"weightChange":{},"personalWeight":0.43137539788231716,"id":5},{"learningRate":0.3,"ID":6,"value":0.0,"layer":0,"target":0.0,"weights":{},"weightChange":{},"personalWeight":0.5342283390588747,"id":6},{"learningRate":0.3,"ID":7,"value":0.0,"layer":0,"target":0.0,"weights":{},"weightChange":{},"personalWeight":0.685832069779852,"id":7},{"learningRate":0.3,"ID":8,"value":0.0,"layer":0,"target":0.0,"weights":{},"weightChange":{},"personalWeight":0.42319314266108476,"id":8},{"learningRate":0.3,"ID":9,"value":1.0,"layer":0,"target":0.0,"weights":{},"weightChange":{},"personalWeight":2.738018353752853E7,"id":9},{"learningRate":0.3,"ID":10,"value":1.0,"layer":0,"target":0.0,"weights":{},"weightChange":{},"personalWeight":-855629.8298724804,"id":10},{"learningRate":0.3,"ID":11,"value":1.0,"layer":0,"target":0.0,"weights":{},"weightChange":{},"personalWeight":-855630.1539770415,"id":11},{"learningRate":0.3,"ID":12,"value":1.0,"layer":0,"target":0.0,"weights":{},"weightChange":{},"personalWeight":-855629.8662949011,"id":12},{"learningRate":0.3,"ID":13,"value":0.0,"layer":0,"target":0.0,"weights":{},"weightChange":{},"personalWeight":425117.63007746724,"id":13},{"learningRate":0.3,"ID":14,"value":0.0,"layer":0,"target":0.0,"weights":{},"weightChange":{},"personalWeight":0.42288745542674433,"id":14},{"learningRate":0.3,"ID":15,"value":0.0,"layer":0,"target":0.0,"weights":{},"weightChange":{},"personalWeight":0.7048741138472899,"id":15},{"learningRate":0.3,"ID":16,"value":0.0,"layer":0,"target":0.0,"weights":{},"weightChange":{},"personalWeight":0.3969847012467117,"id":16},{"learningRate":0.3,"ID":17,"value":0.0,"layer":0,"target":0.0,"weights":{},"weightChange":{},"personalWeight":0.9347519776949891,"id":17},{"learningRate":0.3,"ID":18,"value":0.0,"layer":0,"target":0.0,"weights":{},"weightChange":{},"personalWeight":0.6106505877291981,"id":18},{"learningRate":0.3,"ID":19,"value":0.0,"layer":0,"target":0.0,"weights":{},"weightChange":{},"personalWeight":0.9717923604797299,"id":19},{"learningRate":0.3,"ID":20,"value":0.0,"layer":0,"target":0.0,"weights":{},"weightChange":{},"personalWeight":0.10176338320519684,"id":20},{"learningRate":0.3,"ID":21,"value":1.0,"layer":0,"target":0.0,"weights":{},"weightChange":{},"personalWeight":0.21109705016027658,"id":21},{"learningRate":0.3,"ID":22,"value":0.0,"layer":0,"target":0.0,"weights":{},"weightChange":{},"personalWeight":0.6350445116155685,"id":22},{"learningRate":0.3,"ID":23,"value":1.0,"layer":0,"target":0.0,"weights":{},"weightChange":{},"personalWeight":2.7380183344117574E7,"id":23},{"learningRate":0.3,"ID":24,"value":1.0,"layer":0,"target":0.0,"weights":{},"weightChange":{},"personalWeight":-855630.1354340131,"id":24},{"learningRate":0.3,"ID":25,"value":1.0,"layer":0,"target":0.0,"weights":{},"weightChange":{},"personalWeight":-855630.3010160455,"id":25},{"learningRate":0.3,"ID":26,"value":1.0,"layer":0,"target":0.0,"weights":{},"weightChange":{},"personalWeight":-855629.8145448446,"id":26},{"learningRate":0.3,"ID":27,"value":0.0,"layer":1,"target":3.4553649272403575E-4,"weights":{"0":0.05302375727809702,"1":0.4474220153512114,"2":0.6200805284950291,"3":0.5398589517656108,"4":0.11622399236286506,"5":0.2961899975630571,"6":-0.07117110128986838,"7":0.0223005308485369,"8":-0.21275036492940716,"9":-2.094979176811877,"10":-0.308701546050289,"11":-0.008112856230801773,"12":-0.4892778624130306,"13":0.5725087819590631,"14":-0.04020901736453558,"15":0.8844082544501788,"16":0.21897149014041745,"17":0.05989119723532277,"18":0.19607947200164738,"19":0.35611527097168744,"20":0.45297286512937585,"21":0.7630310722144645,"22":0.14660415016324893,"23":-1.9011063583950252,"24":-0.08804052958521608,"25":0.15981370068880302,"26":-0.6210769111234052},"weightChange":{"0":-0.0,"1":-0.0,"2":-0.0,"3":-0.0,"4":-0.0,"5":-0.0,"6":-0.0,"7":-0.0,"8":-0.0,"9":-5.2263903683907414E-8,"10":-1.3065975920976854E-8,"11":-1.3065975920976854E-8,"12":-1.3065975920976854E-8,"13":-0.0,"14":-0.0,"15":-0.0,"16":-0.0,"17":-0.0,"18":-0.0,"19":-0.0,"20":-0.0,"21":-2.6131951841953707E-8,"22":-0.0,"23":-5.2263903683907414E-8,"24":-1.3065975920976854E-8,"25":-1.3065975920976854E-8,"26":-1.3065975920976854E-8},"personalWeight":-1.191619123569134,"id":27},{"learningRate":0.3,"ID":28,"value":0.0,"layer":1,"target":1.1868545394505074E-4,"weights":{"0":0.6116959644458605,"1":0.5330833651386727,"2":0.6374070002040213,"3":0.021492127708025062,"4":0.0882451255115833,"5":-0.017052812733088642,"6":0.4254134998532604,"7":0.189193620445272,"8":0.412567609918221,"9":-2.4455139601536087,"10":-0.6314717257302712,"11":-0.33133649941135035,"12":-0.17690950741521186,"13":0.15838894486587335,"14":0.43575474397769076,"15":0.0896118108591327,"16":0.4384282856480167,"17":0.1943091168541646,"18":0.2176209348397931,"19":-0.2979351098701234,"20":0.4078156562913422,"21":0.41753963587685444,"22":-0.181613645513074,"23":-1.8623530330228326,"24":-0.33497343262283585,"25":-0.18476798688909166,"26":-0.1336974367001934},"weightChange":{"0":-0.0,"1":-0.0,"2":-0.0,"3":-0.0,"4":-0.0,"5":-0.0,"6":-0.0,"7":-0.0,"8":-0.0,"9":-6.316518110463951E-9,"10":-1.5791295276159878E-9,"11":-1.5791295276159878E-9,"12":-1.5791295276159878E-9,"13":-0.0,"14":-0.0,"15":-0.0,"16":-0.0,"17":-0.0,"18":-0.0,"19":-0.0,"20":-0.0,"21":-3.1582590552319756E-9,"22":-0.0,"23":-6.316518110463951E-9,"24":-1.5791295276159878E-9,"25":-1.5791295276159878E-9,"26":-1.5791295276159878E-9},"personalWeight":-0.35887810807104387,"id":28},{"learningRate":0.3,"ID":29,"value":0.0,"layer":1,"target":0.001019218097986695,"weights":{"0":0.17595653715528317,"1":0.1659228145307585,"2":0.7956714073319456,"3":0.9296517495294091,"4":0.6232065566054312,"5":0.24233949405055272,"6":0.3537339763834732,"7":0.06785068144548685,"8":-0.20869958093073418,"9":-1.7397905944673144,"10":-0.030456497998255734,"11":-0.3982951547511559,"12":-0.4860650245342612,"13":0.11058157172306932,"14":0.8498356157045828,"15":0.33431048218852727,"16":0.04921639645264182,"17":0.4993018996268718,"18":0.5860367841123838,"19":-0.08484150070359121,"20":0.29049663985723906,"21":0.26986962554651006,"22":0.18599056851611098,"23":-2.010034131766434,"24":0.13270495373584937,"25":0.060602360357747104,"26":-0.031510662141512616},"weightChange":{"0":-0.0,"1":-0.0,"2":-0.0,"3":-0.0,"4":-0.0,"5":-0.0,"6":-0.0,"7":-0.0,"8":-0.0,"9":-2.9710235572851726E-7,"10":-7.427558893212932E-8,"11":-7.427558893212932E-8,"12":-7.427558893212932E-8,"13":-0.0,"14":-0.0,"15":-0.0,"16":-0.0,"17":-0.0,"18":-0.0,"19":-0.0,"20":-0.0,"21":-1.4855117786425863E-7,"22":-0.0,"23":-2.9710235572851726E-7,"24":-7.427558893212932E-8,"25":-7.427558893212932E-8,"26":-7.427558893212932E-8},"personalWeight":-1.037104424748327,"id":29},{"learningRate":0.3,"ID":30,"value":0.0,"layer":1,"target":2.1672723290535413E-4,"weights":{"0":0.5839189509245576,"1":0.286387289102132,"2":0.20840481496060054,"3":0.2198625339127771,"4":0.5096662117478885,"5":0.022344756695951352,"6":0.49397632787496554,"7":0.815275406198412,"8":0.39838634660461447,"9":-1.7108164179170453,"10":-0.48390571954918404,"11":-0.33591585596474216,"12":-0.5991764069738165,"13":0.6857517821947576,"14":0.7677860254628885,"15":0.6964782678478939,"16":0.6596324335629598,"17":0.918309356964378,"18":0.5833327715461687,"19":0.11456942819271583,"20":0.6148459075717694,"21":0.09478774156784776,"22":-0.14243506530694564,"23":-2.612599235760038,"24":-0.11681838844920552,"25":-0.2735107313564879,"26":-0.4249987293848585},"weightChange":{"0":-0.0,"1":-0.0,"2":-0.0,"3":-0.0,"4":-0.0,"5":-0.0,"6":-0.0,"7":-0.0,"8":-0.0,"9":-1.2887925406528434E-8,"10":-3.2219813516321085E-9,"11":-3.2219813516321085E-9,"12":-3.2219813516321085E-9,"13":-0.0,"14":-0.0,"15":-0.0,"16":-0.0,"17":-0.0,"18":-0.0,"19":-0.0,"20":-0.0,"21":-6.443962703264217E-9,"22":-0.0,"23":-1.2887925406528434E-8,"24":-3.2219813516321085E-9,"25":-3.2219813516321085E-9,"26":-3.2219813516321085E-9},"personalWeight":-0.5746830220175068,"id":30},{"learningRate":0.3,"ID":31,"value":0.0,"layer":1,"target":7.044921089417194E-4,"weights":{"0":0.1442490866679829,"1":0.5229550863605593,"2":0.6390372785925956,"3":0.13451480200574042,"4":0.6903962314091205,"5":-0.12120269537239563,"6":0.3525804225169534,"7":0.44669600136318294,"8":0.276767702659773,"9":-2.4579607164888153,"10":-0.22322533655453916,"11":-0.2757396471519033,"12":-0.045106420093539955,"13":-0.5329026918785371,"14":0.781047793574422,"15":0.8296819431115219,"16":0.09936377022277036,"17":0.31147213320571926,"18":0.21307356279996847,"19":0.19233688146578834,"20":0.5758297233968166,"21":0.7334329225204045,"22":-0.027874042661878564,"23":-1.7082477094609911,"24":-0.014060665239860728,"25":-0.4864790642566385,"26":0.14668298895290574},"weightChange":{"0":-0.0,"1":-0.0,"2":-0.0,"3":-0.0,"4":-0.0,"5":-0.0,"6":-0.0,"7":-0.0,"8":-0.0,"9":-1.389202144939251E-7,"10":-3.473005362348127E-8,"11":-3.473005362348127E-8,"12":-3.473005362348127E-8,"13":-0.0,"14":-0.0,"15":-0.0,"16":-0.0,"17":-0.0,"18":-0.0,"19":-0.0,"20":-0.0,"21":-6.946010724696255E-8,"22":-0.0,"23":-1.389202144939251E-7,"24":-3.473005362348127E-8,"25":-3.473005362348127E-8,"26":-3.473005362348127E-8},"personalWeight":-0.9920203898114383,"id":31},{"learningRate":0.3,"ID":32,"value":1.0,"layer":1,"target":1.0094528695491312,"weights":{"0":-1.0730301682082972,"1":-10.162102683036075,"2":-0.6153065075608654,"3":-16.569382679590372,"4":-1.1004577082346982,"5":-19.178903938045277,"6":-20.324179926743273,"7":0.060214550730105315,"8":-19.767248387016842,"9":2.657935588313668,"10":0.9032842996400904,"11":0.5774327579302779,"12":0.7317078340191918,"13":-7.7052075630655885,"14":-1.2671363850108186,"15":1.468622742739589,"16":-1.5312032322916935,"17":1.0507052661099612,"18":-0.3012274563229039,"19":0.5465081003550148,"20":0.8856241191087401,"21":-0.14924006690298738,"22":-0.9564861807930625,"23":2.512156497674412,"24":0.9799316626911428,"25":0.9384867862078089,"26":0.8486928600350755},"weightChange":{"0":-0.0,"1":-0.0,"2":-0.0,"3":-0.0,"4":-0.0,"5":-0.0,"6":-0.0,"7":-0.0,"8":-0.0,"9":-1.0137560492454222E-8,"10":-2.5343901231135555E-9,"11":-2.5343901231135555E-9,"12":-2.5343901231135555E-9,"13":-0.0,"14":-0.0,"15":-0.0,"16":-0.0,"17":-0.0,"18":-0.0,"19":-0.0,"20":-0.0,"21":-5.068780246227111E-9,"22":-0.0,"23":-1.0137560492454222E-8,"24":-2.5343901231135555E-9,"25":-2.5343901231135555E-9,"26":-2.5343901231135555E-9},"personalWeight":1.758072163464367,"id":32},{"learningRate":0.3,"ID":33,"value":0.0,"layer":1,"target":6.442040187207738E-4,"weights":{"0":0.7020645887777355,"1":0.6405905597785676,"2":0.10361028508347171,"3":0.8103836227541902,"4":0.18954075939402226,"5":-0.047765447595789844,"6":0.5406815325176444,"7":0.1650269886494363,"8":0.5333220644158112,"9":-2.0567198822858375,"10":0.26334738481801506,"11":-0.23050238774786233,"12":-0.3971267317344978,"13":0.023547269044748565,"14":0.8434762240723898,"15":0.17122399276969907,"16":0.455287287341814,"17":0.5820501770260966,"18":0.8038199557616093,"19":0.19658042927709035,"20":0.5222684833635178,"21":0.4482764151114367,"22":-0.03458282360696999,"23":-2.550341469059852,"24":0.01610216441043579,"25":-0.0021310578673140253,"26":0.011555554526923483},"weightChange":{"0":-0.0,"1":-0.0,"2":-0.0,"3":-0.0,"4":-0.0,"5":-0.0,"6":-0.0,"7":-0.0,"8":-0.0,"9":-4.886775461831481E-8,"10":-1.2216938654578702E-8,"11":-1.2216938654578702E-8,"12":-1.2216938654578702E-8,"13":-0.0,"14":-0.0,"15":-0.0,"16":-0.0,"17":-0.0,"18":-0.0,"19":-0.0,"20":-0.0,"21":-2.4433877309157403E-8,"22":-0.0,"23":-4.886775461831481E-8,"24":-1.2216938654578702E-8,"25":-1.2216938654578702E-8,"26":-1.2216938654578702E-8},"personalWeight":-1.17960842567452,"id":33},{"learningRate":0.3,"ID":34,"value":0.0,"layer":1,"target":5.931155178865838E-4,"weights":{"0":0.006390141936487508,"1":0.8151413665962658,"2":-0.05657463232815583,"3":0.23442579771800645,"4":0.728226018381351,"5":-0.06375598765520084,"6":0.807284638630505,"7":-0.004149681499346757,"8":0.44605996431290346,"9":-2.2821622727675512,"10":0.22925721711764352,"11":-0.4322956350095115,"12":0.030542123888283354,"13":0.13077083678072873,"14":0.09377516450540789,"15":0.20539490944129368,"16":0.6576934534402574,"17":0.9143634875151809,"18":0.2341356323550118,"19":0.46441090579148386,"20":0.9020798371233476,"21":0.7683892618301018,"22":0.2018002743785848,"23":-2.4115763183617034,"24":-0.5578007007906466,"25":0.0553804446571536,"26":0.3232995181515781},"weightChange":{"0":-0.0,"1":-0.0,"2":-0.0,"3":-0.0,"4":-0.0,"5":-0.0,"6":-0.0,"7":-0.0,"8":-0.0,"9":-6.164640755587914E-8,"10":-1.5411601888969785E-8,"11":-1.5411601888969785E-8,"12":-1.5411601888969785E-8,"13":-0.0,"14":-0.0,"15":-0.0,"16":-0.0,"17":-0.0,"18":-0.0,"19":-0.0,"20":-0.0,"21":-3.082320377793957E-8,"22":-0.0,"23":-6.164640755587914E-8,"24":-1.5411601888969785E-8,"25":-1.5411601888969785E-8,"26":-1.5411601888969785E-8},"personalWeight":-0.9677866441323242,"id":34},{"learningRate":0.3,"ID":35,"value":0.0,"layer":1,"target":5.839361378969863E-4,"weights":{"0":0.7978418902486327,"1":0.003535187763893569,"2":0.574804623380865,"3":0.809043209258836,"4":0.041928154785095546,"5":-0.17446063814234947,"6":0.43019494596062313,"7":0.6928942024915279,"8":0.5777864954927674,"9":-2.3402871520142177,"10":-0.6703163961861408,"11":-0.0514126714531394,"12":0.2052303355844133,"13":0.1535540631246844,"14":0.5903984912252684,"15":0.1819898326857621,"16":0.8061310012852215,"17":0.24671102608419898,"18":0.8439085165133527,"19":0.5996366479924025,"20":0.7052091616395755,"21":0.3168914609849015,"22":0.28595539998032876,"23":-2.3204459146687904,"24":-0.6019102449986041,"25":0.04387041046958343,"26":0.10931632838006605},"weightChange":{"0":-0.0,"1":-0.0,"2":-0.0,"3":-0.0,"4":-0.0,"5":-0.0,"6":-0.0,"7":-0.0,"8":-0.0,"9":-4.695337155549102E-8,"10":-1.1738342888872756E-8,"11":-1.1738342888872756E-8,"12":-1.1738342888872756E-8,"13":-0.0,"14":-0.0,"15":-0.0,"16":-0.0,"17":-0.0,"18":-0.0,"19":-0.0,"20":-0.0,"21":-2.347668577774551E-8,"22":-0.0,"23":-4.695337155549102E-8,"24":-1.1738342888872756E-8,"25":-1.1738342888872756E-8,"26":-1.1738342888872756E-8},"personalWeight":-0.5569675726312557,"id":35},{"learningRate":0.3,"ID":36,"value":0.0,"layer":1,"target":9.434212016347293E-5,"weights":{"0":0.17534083356510544,"1":0.5992748981534687,"2":0.8376629972537565,"3":0.8765211718881949,"4":0.12103767662400491,"5":0.12933858621090139,"6":0.6026970956978341,"7":-0.03565957092363939,"8":0.4150793803882302,"9":-1.7277521148205526,"10":-0.6484634932967999,"11":0.2013924657986022,"12":0.06370094395452007,"13":0.05922626621613006,"14":0.23574861031582292,"15":0.3648567542189421,"16":0.13735778073502689,"17":0.7170846630097084,"18":-0.0520545978580658,"19":0.4255483623293947,"20":0.09863848328053361,"21":0.263382327507108,"22":0.2962687191496509,"23":-2.4142108146383743,"24":-0.12510765939067117,"25":-0.30928254957915136,"26":-0.41559995029749813},"weightChange":{"0":-0.0,"1":-0.0,"2":-0.0,"3":-0.0,"4":-0.0,"5":-0.0,"6":-0.0,"7":-0.0,"8":-0.0,"9":-3.4570780605896853E-9,"10":-8.642695151474213E-10,"11":-8.642695151474213E-10,"12":-8.642695151474213E-10,"13":-0.0,"14":-0.0,"15":-0.0,"16":-0.0,"17":-0.0,"18":-0.0,"19":-0.0,"20":-0.0,"21":-1.7285390302948427E-9,"22":-0.0,"23":-3.4570780605896853E-9,"24":-8.642695151474213E-10,"25":-8.642695151474213E-10,"26":-8.642695151474213E-10},"personalWeight":-0.9375784968782791,"id":36},{"learningRate":0.3,"ID":37,"value":0.0,"layer":1,"target":7.793093009882186E-5,"weights":{"0":0.19514092062064067,"1":0.861523558100772,"2":0.4397682063210392,"3":0.23318604947866006,"4":0.14719095124864537,"5":0.14677978257115312,"6":0.23715764069293624,"7":0.7501038611180789,"8":0.3548904222619995,"9":-1.993784689221688,"10":0.1986901288162771,"11":-0.12242627276916072,"12":-0.5131496834008321,"13":0.7519072457095571,"14":0.5406457662155935,"15":0.6100177456154318,"16":0.7654665631322592,"17":0.6502386413774399,"18":0.17188001377847104,"19":-0.15071082128820631,"20":0.1274992321553872,"21":0.12355296633672262,"22":-0.12170739213389693,"23":-2.249296849202748,"24":-0.5668104991292625,"25":0.03760573736928373,"26":0.13936925594300367},"weightChange":{"0":0.0,"1":0.0,"2":0.0,"3":0.0,"4":0.0,"5":0.0,"6":0.0,"7":0.0,"8":0.0,"9":4.0795310420157963E-10,"10":1.0198827605039491E-10,"11":1.0198827605039491E-10,"12":1.0198827605039491E-10,"13":0.0,"14":0.0,"15":0.0,"16":0.0,"17":0.0,"18":0.0,"19":0.0,"20":0.0,"21":2.0397655210078981E-10,"22":0.0,"23":4.0795310420157963E-10,"24":1.0198827605039491E-10,"25":1.0198827605039491E-10,"26":1.0198827605039491E-10},"personalWeight":-0.6516236741516528,"id":37},{"learningRate":0.3,"ID":38,"value":0.0,"layer":1,"target":8.704217932986016E-4,"weights":{"0":0.43981193395569934,"1":0.3058000949990337,"2":0.3128925128669489,"3":0.5825344336403596,"4":0.060344975921357416,"5":0.12495043266038434,"6":0.16722069998672354,"7":0.44968103512611,"8":0.07700325281887475,"9":-1.8033859916302142,"10":-0.40748414698450225,"11":-0.4897620669839397,"12":-0.1833219219627597,"13":-0.05394246785936333,"14":0.5327418778262756,"15":0.35357517413802864,"16":0.04271256134373882,"17":0.6716015882037625,"18":0.5797364840067589,"19":0.29514487297751024,"20":0.5581432311081195,"21":0.1928020952197827,"22":0.005778609317903534,"23":-2.4050226047395946,"24":-0.21217026198242234,"25":0.12615458242072797,"26":-0.05095174271760172},"weightChange":{"0":-0.0,"1":-0.0,"2":-0.0,"3":-0.0,"4":-0.0,"5":-0.0,"6":-0.0,"7":-0.0,"8":-0.0,"9":-7.380371340772797E-8,"10":-1.8450928351931993E-8,"11":-1.8450928351931993E-8,"12":-1.8450928351931993E-8,"13":-0.0,"14":-0.0,"15":-0.0,"16":-0.0,"17":-0.0,"18":-0.0,"19":-0.0,"20":-0.0,"21":-3.6901856703863986E-8,"22":-0.0,"23":-7.380371340772797E-8,"24":-1.8450928351931993E-8,"25":-1.8450928351931993E-8,"26":-1.8450928351931993E-8},"personalWeight":-1.1828886307541373,"id":38},{"learningRate":0.3,"ID":39,"value":0.0,"layer":1,"target":2.425503378043771E-4,"weights":{"0":0.7464476876857679,"1":0.8236231242672221,"2":0.4483988937113013,"3":0.7212210926585116,"4":0.8249384577849923,"5":0.6494003077932252,"6":0.4818270252493387,"7":0.20321817058768385,"8":-0.03807631763264037,"9":-1.9544830430945288,"10":-0.6270537412867753,"11":-0.6610153675158871,"12":-0.3805495181900345,"13":0.391065484033442,"14":-0.008639211730790622,"15":0.932558665010419,"16":0.5718642243994192,"17":0.5854227227790157,"18":0.23775224454204844,"19":-0.025217666011513297,"20":0.3456886074347818,"21":0.6262841171052169,"22":0.5208700218972615,"23":-2.032129590403373,"24":-0.5316388405066634,"25":-0.5062697238983991,"26":0.3095018586363197},"weightChange":{"0":-0.0,"1":-0.0,"2":-0.0,"3":-0.0,"4":-0.0,"5":-0.0,"6":-0.0,"7":-0.0,"8":-0.0,"9":-2.256128792924691E-8,"10":-5.640321982311727E-9,"11":-5.640321982311727E-9,"12":-5.640321982311727E-9,"13":-0.0,"14":-0.0,"15":-0.0,"16":-0.0,"17":-0.0,"18":-0.0,"19":-0.0,"20":-0.0,"21":-1.1280643964623455E-8,"22":-0.0,"23":-2.256128792924691E-8,"24":-5.640321982311727E-9,"25":-5.640321982311727E-9,"26":-5.640321982311727E-9},"personalWeight":-1.1309877912653277,"id":39},{"learningRate":0.3,"ID":40,"value":0.0,"layer":1,"target":9.852094857560881E-5,"weights":{"0":0.4175273344116275,"1":0.47798478345726747,"2":0.7409215530525093,"3":0.7850039423389475,"4":0.8336063951018098,"5":0.2588307795914846,"6":0.0697521725637571,"7":0.8197188986526897,"8":-0.2208990188966291,"9":-2.284273897229646,"10":-0.2094211728600423,"11":-0.1243641148757483,"12":-0.613801798614899,"13":0.5118084795461191,"14":0.14596639236791373,"15":0.5236789589321483,"16":0.531280929953868,"17":0.23452855628706615,"18":-8.209600098494737E-4,"19":0.014414462619294074,"20":0.17197460097899267,"21":0.7861261264418457,"22":0.32339241951819137,"23":-2.1581816078531917,"24":-0.4732268819717614,"25":-0.056918236634776666,"26":-0.27791904413246643},"weightChange":{"0":-0.0,"1":-0.0,"2":-0.0,"3":-0.0,"4":-0.0,"5":-0.0,"6":-0.0,"7":-0.0,"8":-0.0,"9":-4.189171432059378E-9,"10":-1.0472928580148444E-9,"11":-1.0472928580148444E-9,"12":-1.0472928580148444E-9,"13":-0.0,"14":-0.0,"15":-0.0,"16":-0.0,"17":-0.0,"18":-0.0,"19":-0.0,"20":-0.0,"21":-2.094585716029689E-9,"22":-0.0,"23":-4.189171432059378E-9,"24":-1.0472928580148444E-9,"25":-1.0472928580148444E-9,"26":-1.0472928580148444E-9},"personalWeight":-0.6270354094930686,"id":40},{"learningRate":0.3,"ID":41,"value":0.0,"layer":1,"target":0.006701009255654395,"weights":{"0":0.40922679511862403,"1":-0.0032580742732620763,"2":11.487179785173629,"3":10.92601264061575,"4":12.305747269010327,"5":14.312752476077168,"6":-2.4074046411241325,"7":-2.137640118250703,"8":12.927087725255967,"9":-1.3251896090365627,"10":0.2753350601950726,"11":-0.16868113902409695,"12":-0.4555477829955648,"13":-3.148540701852334,"14":0.2049670601623801,"15":0.13737460821313163,"16":0.45227788174200184,"17":-0.46428887213303116,"18":2.3537243183342755,"19":0.4021905939208902,"20":0.7392446090853463,"21":1.0737646495994058,"22":3.800339673467317,"23":-1.460346896910066,"24":0.10310296560981483,"25":-0.34817266864917734,"26":-0.163413738875917},"weightChange":{"0":-0.0,"1":-0.0,"2":-0.0,"3":-0.0,"4":-0.0,"5":-0.0,"6":-0.0,"7":-0.0,"8":-0.0,"9":-9.478974132725493E-6,"10":-2.3697435331813733E-6,"11":-2.3697435331813733E-6,"12":-2.3697435331813733E-6,"13":-0.0,"14":-0.0,"15":-0.0,"16":-0.0,"17":-0.0,"18":-0.0,"19":-0.0,"20":-0.0,"21":-4.7394870663627465E-6,"22":-0.0,"23":-9.478974132725493E-6,"24":-2.3697435331813733E-6,"25":-2.3697435331813733E-6,"26":-2.3697435331813733E-6},"personalWeight":-0.25226702643313786,"id":41},{"learningRate":0.3,"ID":42,"value":0.0,"layer":1,"target":2.957155297913206E-4,"weights":{"0":0.38103361402976066,"1":0.6998665318239754,"2":0.6395795636077469,"3":0.4746433573773018,"4":0.49504032478233445,"5":0.1897411415746459,"6":0.08676807911909126,"7":0.25978367604104796,"8":0.06704935316610232,"9":-2.1990205608494704,"10":-0.1959683351084507,"11":0.1884568749596907,"12":0.12930314107181234,"13":-0.07841115133878095,"14":0.44365005532839363,"15":0.36353195482842365,"16":0.0948135285969429,"17":0.35510787135294575,"18":0.48940957278939823,"19":-0.079778403072617,"20":0.3665252351143068,"21":0.5016215762451772,"22":0.4129213438005479,"23":-2.2419823248173425,"24":-0.29677057655056266,"25":-0.09406352430785829,"26":-0.014634907012494838},"weightChange":{"0":-0.0,"1":-0.0,"2":-0.0,"3":-0.0,"4":-0.0,"5":-0.0,"6":-0.0,"7":-0.0,"8":-0.0,"9":-3.115398934510079E-8,"10":-7.788497336275198E-9,"11":-7.788497336275198E-9,"12":-7.788497336275198E-9,"13":-0.0,"14":-0.0,"15":-0.0,"16":-0.0,"17":-0.0,"18":-0.0,"19":-0.0,"20":-0.0,"21":-1.5576994672550396E-8,"22":-0.0,"23":-3.115398934510079E-8,"24":-7.788497336275198E-9,"25":-7.788497336275198E-9,"26":-7.788497336275198E-9},"personalWeight":-1.0651161678621053,"id":42},{"learningRate":0.3,"ID":43,"value":0.0,"layer":1,"target":7.844044078997627E-4,"weights":{"0":0.4798179562185856,"1":0.8963089628032418,"2":0.2998576279849457,"3":0.8774178529659289,"4":0.07118697568337426,"5":0.13832528843047914,"6":0.36441942838221375,"7":0.03092989288200299,"8":0.021750366811189928,"9":-1.9335461792944977,"10":0.0028445154920287165,"11":-0.5939451937844455,"12":-0.020318538750136447,"13":0.38901689187919103,"14":0.3236785805822339,"15":0.840410062834073,"16":0.7535211907505194,"17":0.5672790762817655,"18":0.5744430870862062,"19":0.2718194057457561,"20":-0.012255053704989652,"21":0.7655297548303412,"22":-0.25107339292710873,"23":-1.9732605846463604,"24":-0.638740366506001,"25":-0.16715139313190897,"26":0.020474309478004576},"weightChange":{"0":-0.0,"1":-0.0,"2":-0.0,"3":-0.0,"4":-0.0,"5":-0.0,"6":-0.0,"7":-0.0,"8":-0.0,"9":-1.7363061444395626E-7,"10":-4.3407653610989064E-8,"11":-4.3407653610989064E-8,"12":-4.3407653610989064E-8,"13":-0.0,"14":-0.0,"15":-0.0,"16":-0.0,"17":-0.0,"18":-0.0,"19":-0.0,"20":-0.0,"21":-8.681530722197813E-8,"22":-0.0,"23":-1.7363061444395626E-7,"24":-4.3407653610989064E-8,"25":-4.3407653610989064E-8,"26":-4.3407653610989064E-8},"personalWeight":-1.1757703234047892,"id":43},{"learningRate":0.3,"ID":44,"value":0.0,"layer":1,"target":6.204835086677101E-5,"weights":{"0":0.18602405839611943,"1":0.7024389081947299,"2":0.11989091601281437,"3":0.15498008253584492,"4":0.014186531997764804,"5":0.03507253473283094,"6":0.10168416884842045,"7":0.6530785789454108,"8":0.46377097242580484,"9":-1.9478594153720383,"10":0.031180421093133483,"11":-0.24615010973779136,"12":-0.3403513491316315,"13":-0.5930780127885404,"14":0.28611364888640867,"15":0.39832637139698396,"16":0.27573697719058854,"17":0.550881047442755,"18":0.6043778423729796,"19":0.5052611255683267,"20":0.7879012434078013,"21":-0.041540703572857766,"22":0.3644640121541495,"23":-2.537328825322279,"24":-0.4231004903299884,"25":-0.13108873330767992,"26":-0.2987592595453192},"weightChange":{"0":-0.0,"1":-0.0,"2":-0.0,"3":-0.0,"4":-0.0,"5":-0.0,"6":-0.0,"7":-0.0,"8":-0.0,"9":-1.8690261679484215E-9,"10":-4.672565419871054E-10,"11":-4.672565419871054E-10,"12":-4.672565419871054E-10,"13":-0.0,"14":-0.0,"15":-0.0,"16":-0.0,"17":-0.0,"18":-0.0,"19":-0.0,"20":-0.0,"21":-9.345130839742107E-10,"22":-0.0,"23":-1.8690261679484215E-9,"24":-4.672565419871054E-10,"25":-4.672565419871054E-10,"26":-4.672565419871054E-10},"personalWeight":-0.507296548073679,"id":44},{"learningRate":0.3,"ID":45,"value":0.0,"layer":1,"target":3.376644416873286E-5,"weights":{"0":0.24626389689155376,"1":0.7889978089054652,"2":0.20328579372215902,"3":0.8222376563838985,"4":0.5658342206083586,"5":0.49784698907322655,"6":0.3152010787869484,"7":0.48937575742836203,"8":0.5323032015142362,"9":-2.2949835650532346,"10":0.2507501769964906,"11":-0.30636798554756905,"12":-0.08854892194544028,"13":0.06820847135022393,"14":0.26300288262542504,"15":0.40689466353905185,"16":0.5065312420688828,"17":0.5095840836141202,"18":0.014297351240900353,"19":0.03815861519816002,"20":0.4688733910185219,"21":0.37465421372739843,"22":0.48088368063524733,"23":-2.3754055977102464,"24":0.028549848863250547,"25":0.06083470430917609,"26":-0.33841492850810984},"weightChange":{"0":0.0,"1":0.0,"2":0.0,"3":0.0,"4":0.0,"5":0.0,"6":0.0,"7":0.0,"8":0.0,"9":1.878186232046393E-10,"10":4.6954655801159826E-11,"11":4.6954655801159826E-11,"12":4.6954655801159826E-11,"13":0.0,"14":0.0,"15":0.0,"16":0.0,"17":0.0,"18":0.0,"19":0.0,"20":0.0,"21":9.390931160231965E-11,"22":0.0,"23":1.878186232046393E-10,"24":4.6954655801159826E-11,"25":4.6954655801159826E-11,"26":4.6954655801159826E-11},"personalWeight":-1.05955700620925,"id":45},{"learningRate":0.3,"ID":46,"value":0.0,"layer":1,"target":5.986290083211557E-4,"weights":{"0":0.4619004712099518,"1":0.6542637787819428,"2":0.3888996384274463,"3":0.4885763167466966,"4":-0.07667759999891732,"5":0.20183551243191805,"6":0.3304612075991277,"7":0.3527770408952482,"8":-0.14665661012456935,"9":-2.4523494660351646,"10":-0.29068807323525286,"11":-0.247245642552644,"12":7.57187873445244E-4,"13":-0.2937636950876912,"14":0.3416664349545967,"15":0.05044462397118705,"16":0.37266679257659296,"17":0.7737914197257934,"18":0.19600562429024662,"19":0.45587483032988196,"20":0.07816619520563142,"21":0.48448760894400633,"22":0.1476904452352533,"23":-2.1147246124031542,"24":0.15046240767516864,"25":-0.665983342955263,"26":-0.2949155375168516},"weightChange":{"0":-0.0,"1":-0.0,"2":-0.0,"3":-0.0,"4":-0.0,"5":-0.0,"6":-0.0,"7":-0.0,"8":-0.0,"9":-6.123318581332188E-8,"10":-1.530829645333047E-8,"11":-1.530829645333047E-8,"12":-1.530829645333047E-8,"13":-0.0,"14":-0.0,"15":-0.0,"16":-0.0,"17":-0.0,"18":-0.0,"19":-0.0,"20":-0.0,"21":-3.061659290666094E-8,"22":-0.0,"23":-6.123318581332188E-8,"24":-1.530829645333047E-8,"25":-1.530829645333047E-8,"26":-1.530829645333047E-8},"personalWeight":-0.4581825039981587,"id":46},{"learningRate":0.3,"ID":47,"value":0.0,"layer":1,"target":5.175170533352289E-4,"weights":{"0":0.1363096547798737,"1":0.6597733838649825,"2":0.5206558434723195,"3":0.5290291778109525,"4":-0.05648196955627195,"5":-0.2043695332153466,"6":0.4616540519382319,"7":0.483117391382447,"8":0.26534928218789816,"9":-2.118467035903191,"10":-0.07436623097127594,"11":-0.04486988564457838,"12":-0.40242054400973193,"13":0.3105533466226656,"14":0.1791652885483066,"15":0.9618453417697915,"16":0.25220577868007993,"17":0.9195414949743053,"18":0.5089864635768951,"19":0.07085014301316303,"20":0.6070174501718135,"21":0.4981841651349991,"22":-0.05652682949184007,"23":-1.862973815114115,"24":-0.08798821277625245,"25":-0.6272584094622848,"26":-0.1916784032522229},"weightChange":{"0":-0.0,"1":-0.0,"2":-0.0,"3":-0.0,"4":-0.0,"5":-0.0,"6":-0.0,"7":-0.0,"8":-0.0,"9":-8.023737193585792E-8,"10":-2.005934298396448E-8,"11":-2.005934298396448E-8,"12":-2.005934298396448E-8,"13":-0.0,"14":-0.0,"15":-0.0,"16":-0.0,"17":-0.0,"18":-0.0,"19":-0.0,"20":-0.0,"21":-4.011868596792896E-8,"22":-0.0,"23":-8.023737193585792E-8,"24":-2.005934298396448E-8,"25":-2.005934298396448E-8,"26":-2.005934298396448E-8},"personalWeight":-1.083084561397782,"id":47},{"learningRate":0.3,"ID":48,"value":0.0,"layer":1,"target":4.3139432516926276E-4,"weights":{"0":0.8049294595425986,"1":0.7093615790918322,"2":0.912567010918451,"3":0.37642584570852256,"4":0.18005001262069723,"5":0.09435617532835079,"6":0.6788844240427692,"7":0.7739824387471907,"8":-0.2570895322909672,"9":-2.356756094989844,"10":-0.41713938724730654,"11":-0.5042859125218105,"12":-0.11341756879912453,"13":0.5454905106643424,"14":0.11686810084236915,"15":0.9002034457492581,"16":0.07426815756229575,"17":0.10602714172882007,"18":0.7080416622569845,"19":0.42779588267970375,"20":0.41406981873242743,"21":-0.10654083213452917,"22":0.34464393692469963,"23":-1.631516971369939,"24":-0.6080303312363493,"25":-0.49720689474189056,"26":-0.5647606809301137},"weightChange":{"0":-0.0,"1":-0.0,"2":-0.0,"3":-0.0,"4":-0.0,"5":-0.0,"6":-0.0,"7":-0.0,"8":-0.0,"9":-3.1214835872440503E-8,"10":-7.803708968110126E-9,"11":-7.803708968110126E-9,"12":-7.803708968110126E-9,"13":-0.0,"14":-0.0,"15":-0.0,"16":-0.0,"17":-0.0,"18":-0.0,"19":-0.0,"20":-0.0,"21":-1.5607417936220252E-8,"22":-0.0,"23":-3.1214835872440503E-8,"24":-7.803708968110126E-9,"25":-7.803708968110126E-9,"26":-7.803708968110126E-9},"personalWeight":-0.6944842573453708,"id":48},{"learningRate":0.3,"ID":49,"value":0.0,"layer":1,"target":-0.001020729649344701,"weights":{"0":14.218212593719459,"1":16.158911379874517,"2":-1.322748440925402,"3":13.498052482587585,"4":-4.528934775521623,"5":19.4561665728947,"6":-4.7094525313877895,"7":16.257110110940058,"8":18.803793513307696,"9":-2.4814538450228327,"10":0.061334800458811525,"11":0.05481055586094559,"12":0.02486750642764207,"13":6.102715288839553,"14":1.5416995248721075,"15":2.565916202205341,"16":1.281358482032021,"17":-0.7044612303306709,"18":-3.031548650091678,"19":-0.5178761456764345,"20":-3.170054556382422,"21":-1.5296905060237729,"22":2.0334439834174867,"23":-1.8789357837634635,"24":-0.09999961636947184,"25":-0.2951945587889427,"26":-0.16544741236872193},"weightChange":{"0":0.0,"1":0.0,"2":0.0,"3":0.0,"4":0.0,"5":0.0,"6":0.0,"7":0.0,"8":0.0,"9":3.118723947208423E-8,"10":7.796809868021058E-9,"11":7.796809868021058E-9,"12":7.796809868021058E-9,"13":0.0,"14":0.0,"15":0.0,"16":0.0,"17":0.0,"18":0.0,"19":0.0,"20":0.0,"21":1.5593619736042116E-8,"22":0.0,"23":3.118723947208423E-8,"24":7.796809868021058E-9,"25":7.796809868021058E-9,"26":7.796809868021058E-9},"personalWeight":-0.6434938979452063,"id":49},{"learningRate":0.3,"ID":50,"value":0.0,"layer":1,"target":4.0282393929091356E-4,"weights":{"0":0.4911756857010736,"1":0.23578186405507917,"2":0.30028674140877615,"3":0.18312563014235017,"4":0.45584856322022627,"5":0.09339107321042273,"6":0.0882912153203719,"7":0.32270487048815244,"8":0.42114306649531386,"9":-2.3646422742626014,"10":0.044591926146859584,"11":-0.13034452775007127,"12":-0.33498836976880497,"13":-0.5524413015723014,"14":0.2024287839056154,"15":0.2789409899524409,"16":-0.007091429086395217,"17":0.9446474235258765,"18":0.036135446599704364,"19":0.18209469183765967,"20":0.3638944844190612,"21":0.7545535185335127,"22":0.07941200036202309,"23":-1.7738296294189184,"24":-0.3272071339691748,"25":-0.1197563832486525,"26":0.18447152236954356},"weightChange":{"0":-0.0,"1":-0.0,"2":-0.0,"3":-0.0,"4":-0.0,"5":-0.0,"6":-0.0,"7":-0.0,"8":-0.0,"9":-6.684234868084878E-8,"10":-1.6710587170212194E-8,"11":-1.6710587170212194E-8,"12":-1.6710587170212194E-8,"13":-0.0,"14":-0.0,"15":-0.0,"16":-0.0,"17":-0.0,"18":-0.0,"19":-0.0,"20":-0.0,"21":-3.342117434042439E-8,"22":-0.0,"23":-6.684234868084878E-8,"24":-1.6710587170212194E-8,"25":-1.6710587170212194E-8,"26":-1.6710587170212194E-8},"personalWeight":-1.1900388749165474,"id":50},{"learningRate":0.3,"ID":51,"value":0.0,"layer":1,"target":0.00565724913210197,"weights":{"0":-4.742974175753046,"1":-12.686166416942497,"2":10.112657829639899,"3":-9.000276134456012,"4":-6.329226418615069,"5":18.585138816087838,"6":-25.166838892507037,"7":-24.69137458376557,"8":-27.531547169624265,"9":-1.171886044692337,"10":0.5475248607167018,"11":0.5099111932602349,"12":0.43267215308524665,"13":5.307634133977729,"14":-1.033153708759671,"15":0.8731865981489978,"16":-0.7406392731903214,"17":-0.9907188980305367,"18":-1.0758731027242798,"19":-1.7394866885841016,"20":-2.782817458091225,"21":-1.3761181527214033,"22":-1.7631125541533381,"23":-0.8392477970948428,"24":0.040751656053162964,"25":0.19644841719618314,"26":-0.049492581276096924},"weightChange":{"0":0.0,"1":0.0,"2":0.0,"3":0.0,"4":0.0,"5":0.0,"6":0.0,"7":0.0,"8":0.0,"9":4.323249111183943E-5,"10":1.0808122777959858E-5,"11":1.0808122777959858E-5,"12":1.0808122777959858E-5,"13":0.0,"14":0.0,"15":0.0,"16":0.0,"17":0.0,"18":0.0,"19":0.0,"20":0.0,"21":2.1616245555919715E-5,"22":0.0,"23":4.323249111183943E-5,"24":1.0808122777959858E-5,"25":1.0808122777959858E-5,"26":1.0808122777959858E-5},"personalWeight":-0.22529618542928206,"id":51},{"learningRate":0.3,"ID":52,"value":0.0,"layer":1,"target":5.75252518397869E-4,"weights":{"0":0.7814983389397793,"1":0.6341051893015621,"2":0.3988477844100695,"3":0.5591966373549199,"4":0.2817676347739146,"5":0.4062629459646781,"6":0.5080869926104244,"7":0.10848912329640767,"8":0.39252647177943456,"9":-1.9401629122445887,"10":-0.4773492261710648,"11":-0.5194328826904498,"12":-0.005071685886264766,"13":0.44975947488931656,"14":0.13138048067161612,"15":0.5013257658117428,"16":0.7211870196524219,"17":0.7618147144961661,"18":0.23845260782380934,"19":-0.003420825143903178,"20":0.10114831246905802,"21":-0.07738993732447158,"22":0.1085172544995208,"23":-2.1397176428784785,"24":0.027632183511529126,"25":-0.36184045474609516,"26":-0.14994459684052164},"weightChange":{"0":-0.0,"1":-0.0,"2":-0.0,"3":-0.0,"4":-0.0,"5":-0.0,"6":-0.0,"7":-0.0,"8":-0.0,"9":-7.431933259397438E-8,"10":-1.8579833148493595E-8,"11":-1.8579833148493595E-8,"12":-1.8579833148493595E-8,"13":-0.0,"14":-0.0,"15":-0.0,"16":-0.0,"17":-0.0,"18":-0.0,"19":-0.0,"20":-0.0,"21":-3.715966629698719E-8,"22":-0.0,"23":-7.431933259397438E-8,"24":-1.8579833148493595E-8,"25":-1.8579833148493595E-8,"26":-1.8579833148493595E-8},"personalWeight":-0.5290127076051686,"id":52},{"learningRate":0.3,"ID":53,"value":0.0,"layer":1,"target":4.7149536977815845E-4,"weights":{"0":0.8909861324894848,"1":0.29430347641176363,"2":0.7261450317051671,"3":-0.03874763147131889,"4":0.7399695309431159,"5":0.2798139306668094,"6":-0.0029209477386526097,"7":0.34947274352121854,"8":0.05674796355895885,"9":-2.006473846439537,"10":-0.625386076091208,"11":-0.22437166383259396,"12":-0.4284247319668536,"13":-0.31902292986280667,"14":0.24947945490479267,"15":0.20372154030952164,"16":0.275381474201703,"17":0.08293390794399463,"18":-0.09564975959151327,"19":0.4254638157296526,"20":0.4362054120757764,"21":0.4203760956187414,"22":0.2336381925567417,"23":-2.1387232259812845,"24":0.1467008638807791,"25":-0.6608281501230862,"26":0.06603393258960612},"weightChange":{"0":-0.0,"1":-0.0,"2":-0.0,"3":-0.0,"4":-0.0,"5":-0.0,"6":-0.0,"7":-0.0,"8":-0.0,"9":-4.125030923065168E-8,"10":-1.031257730766292E-8,"11":-1.031257730766292E-8,"12":-1.031257730766292E-8,"13":-0.0,"14":-0.0,"15":-0.0,"16":-0.0,"17":-0.0,"18":-0.0,"19":-0.0,"20":-0.0,"21":-2.062515461532584E-8,"22":-0.0,"23":-4.125030923065168E-8,"24":-1.031257730766292E-8,"25":-1.031257730766292E-8,"26":-1.031257730766292E-8},"personalWeight":-1.1946506627099862,"id":53},{"learningRate":0.3,"ID":54,"value":0.0,"layer":1,"target":3.3818714844971725E-4,"weights":{"0":-0.1248274194374084,"1":0.6903278338868105,"2":0.4374228301005922,"3":0.012277536044144239,"4":0.5965512927577444,"5":0.22661472075740258,"6":0.2674476745846777,"7":0.7499474084052995,"8":-0.28284730479217446,"9":-2.2385632338402575,"10":-0.29435350725571585,"11":-0.11909901307923333,"12":-0.20735694184189327,"13":0.28665800646535045,"14":0.49862114606913355,"15":0.6800459867466125,"16":0.716271694570131,"17":0.16734334755686534,"18":-0.09403402062123138,"19":0.2682361262000629,"20":0.22717724501961917,"21":0.1798174345911845,"22":0.07989209635035867,"23":-2.0136052660306554,"24":0.31177157212738554,"25":0.3567122617457104,"26":-0.27059854240373965},"weightChange":{"0":-0.0,"1":-0.0,"2":-0.0,"3":-0.0,"4":-0.0,"5":-0.0,"6":-0.0,"7":-0.0,"8":-0.0,"9":-3.485441353949045E-8,"10":-8.713603384872612E-9,"11":-8.713603384872612E-9,"12":-8.713603384872612E-9,"13":-0.0,"14":-0.0,"15":-0.0,"16":-0.0,"17":-0.0,"18":-0.0,"19":-0.0,"20":-0.0,"21":-1.7427206769745225E-8,"22":-0.0,"23":-3.485441353949045E-8,"24":-8.713603384872612E-9,"25":-8.713603384872612E-9,"26":-8.713603384872612E-9},"personalWeight":-1.2294936863709474,"id":54},{"learningRate":0.3,"ID":55,"value":0.0,"layer":1,"target":2.477297052395903E-4,"weights":{"0":0.7959386252542762,"1":0.09183412439149753,"2":0.8231361549663587,"3":0.45648706213544404,"4":-0.08525146740322927,"5":-0.16028570926059701,"6":0.6476280243826333,"7":0.322502960558379,"8":0.2400281242591108,"9":-2.540069824164555,"10":0.3549139096695864,"11":-0.4070802806949879,"12":-0.03284881877808438,"13":-0.26780695256237846,"14":0.30152698848186643,"15":0.4679878578502565,"16":0.07009545342914636,"17":0.6688090471642345,"18":0.5772048190850885,"19":0.28703821051723305,"20":0.4270521720821078,"21":0.2373928943688603,"22":0.12973031276697386,"23":-1.799385320808021,"24":-0.5811458308330377,"25":-0.0945877239923559,"26":0.3420296143647818},"weightChange":{"0":-0.0,"1":-0.0,"2":-0.0,"3":-0.0,"4":-0.0,"5":-0.0,"6":-0.0,"7":-0.0,"8":-0.0,"9":-2.7039605549599693E-8,"10":-6.759901387399923E-9,"11":-6.759901387399923E-9,"12":-6.759901387399923E-9,"13":-0.0,"14":-0.0,"15":-0.0,"16":-0.0,"17":-0.0,"18":-0.0,"19":-0.0,"20":-0.0,"21":-1.3519802774799846E-8,"22":-0.0,"23":-2.7039605549599693E-8,"24":-6.759901387399923E-9,"25":-6.759901387399923E-9,"26":-6.759901387399923E-9},"personalWeight":-0.7678263971460182,"id":55},{"learningRate":0.3,"ID":56,"value":1.0,"layer":1,"target":0.611239850317236,"weights":{"0":2.9441265416181643,"1":0.7793627699192532,"2":5.915024043616661,"3":2.1698533474113364,"4":5.717861408039071,"5":4.5924428851777925,"6":8.01317000822036,"7":3.5568490714131826,"8":5.192343297739793,"9":-0.20706050119519329,"10":-0.04055011538638025,"11":0.7084401393680871,"12":-0.0136267019808906,"13":2.4641027058586524,"14":-0.1497699364082064,"15":-3.1954097750855044,"16":-0.286045090333203,"17":-0.8352153261724629,"18":0.4801513725048724,"19":0.24089799922993343,"20":-0.3096349379882834,"21":-0.252602151226909,"22":3.139937820866808,"23":-0.18527217089675665,"24":0.4008010063322053,"25":0.44079398963713934,"26":0.7716955718127468},"weightChange":{"0":0.0,"1":0.0,"2":0.0,"3":0.0,"4":0.0,"5":0.0,"6":0.0,"7":0.0,"8":0.0,"9":6.275943809252227E-4,"10":1.5689859523130567E-4,"11":1.5689859523130567E-4,"12":1.5689859523130567E-4,"13":0.0,"14":0.0,"15":0.0,"16":0.0,"17":0.0,"18":0.0,"19":0.0,"20":0.0,"21":3.1379719046261133E-4,"22":0.0,"23":6.275943809252227E-4,"24":1.5689859523130567E-4,"25":1.5689859523130567E-4,"26":1.5689859523130567E-4},"personalWeight":0.36050248355752945,"id":56},{"learningRate":0.3,"ID":57,"value":1.0,"layer":2,"target":0.9979422875667093,"weights":{"27":-0.002471325804084737,"28":0.145506321250436,"29":0.6618576752025387,"30":0.732297847704894,"31":0.6116116958765654,"32":8.550043573237929,"33":0.6777070435741294,"34":0.9408638136869399,"35":0.49046888760186297,"36":0.383506715257188,"37":0.566584764707465,"38":0.8217545279104327,"39":0.20234388274656526,"40":0.042847313745745116,"41":-14.110166085278765,"42":0.5953293654816831,"43":0.6505405325692357,"44":0.20157021326313038,"45":0.663358728566735,"46":0.1099292205444834,"47":0.3908569372244161,"48":0.17032582333053242,"49":5.106258183466596,"50":0.5620091466501318,"51":6.0331066481106195,"52":0.35746710996192094,"53":0.8679856615804765,"54":0.8864438853802216,"55":0.29779307640645697,"56":-2.4481536046783687},"weightChange":{"27":0.0,"28":0.0,"29":0.0,"30":0.0,"31":0.0,"32":0.0,"33":0.0,"34":0.0,"35":0.0,"36":0.0,"37":0.0,"38":0.0,"39":0.0,"40":0.0,"41":0.0,"42":0.0,"43":0.0,"44":0.0,"45":0.0,"46":0.0,"47":0.0,"48":0.0,"49":0.0,"50":0.0,"51":0.0,"52":0.0,"53":0.0,"54":0.0,"55":0.0,"56":0.0},"personalWeight":-0.8341112326809222,"id":57},{"learningRate":0.3,"ID":58,"value":1.0,"layer":2,"target":0.9950354540374275,"weights":{"27":0.9388664395247226,"28":0.9665705106812578,"29":0.21888464303432778,"30":0.6145208129581353,"31":0.7612973251156542,"32":7.29171856815682,"33":-0.011860882655917608,"34":0.4515709938669423,"35":0.10485160748677648,"36":0.797896041708158,"37":0.7282492336833647,"38":0.6229221769232013,"39":0.8171615811099651,"40":-0.0032371225715228987,"41":5.053645412707038,"42":0.3044559098363911,"43":0.25245725452718754,"44":0.6009009775808238,"45":0.11483815082554519,"46":0.6526476633178764,"47":0.20749947668678456,"48":0.31231474457996183,"49":-8.162996887370628,"50":0.43516070162546755,"51":14.126401763606276,"52":0.38609865835795704,"53":0.4265633035849194,"54":0.1778377112188341,"55":0.8582436371656078,"56":-2.0254697104346797},"weightChange":{"27":0.0,"28":0.0,"29":0.0,"30":0.0,"31":0.0,"32":0.0,"33":0.0,"34":0.0,"35":0.0,"36":0.0,"37":0.0,"38":0.0,"39":0.0,"40":0.0,"41":0.0,"42":0.0,"43":0.0,"44":0.0,"45":0.0,"46":0.0,"47":0.0,"48":0.0,"49":0.0,"50":0.0,"51":0.0,"52":0.0,"53":0.0,"54":0.0,"55":0.0,"56":0.0},"personalWeight":-0.898140670115298,"id":58},{"learningRate":0.3,"ID":59,"value":1.0,"layer":2,"target":1.0,"weights":{"27":0.2661913811878978,"28":0.04588803388546818,"29":0.9601146721079554,"30":0.20633070102330547,"31":0.6673630717282154,"32":10.76721908110338,"33":0.6876360780701308,"34":0.609989628839708,"35":0.6156163931447514,"36":0.02834904948844663,"37":-0.00288747098157078,"38":0.9404878814678942,"39":0.20479947724826988,"40":0.03535757114639653,"41":0.9216439363421569,"42":0.25869435286909953,"43":0.7415171675367619,"44":0.02931406237397492,"45":-0.002942626389485847,"46":0.6175009466342191,"47":0.48129532989772317,"48":0.4459440874122117,"49":-1.179735801927901,"50":0.3256571431874928,"51":-2.995659576456524,"52":0.5707294939117773,"53":0.4814448060266532,"54":0.31293976684404645,"55":0.18969113404283094,"56":-1.505955041089467},"weightChange":{"27":-8.612509532750052E-11,"28":-6.037896114591501E-11,"29":-1.3574781103344033E-10,"30":-2.73973086186693E-11,"31":-9.131204292652358E-11,"32":-7.701721546000179E-7,"33":-3.1171277384437606E-11,"34":-4.4328558787048993E-11,"35":-3.345405481098405E-11,"36":-5.3490189975516876E-11,"37":-6.197276179171959E-11,"38":-3.4420542600083305E-11,"39":-4.832096350760791E-11,"40":-5.19694724263668E-11,"41":-4.537721266109655E-9,"42":-5.2823819343695095E-11,"43":-1.0271557666997993E-10,"44":-2.7965876592735777E-11,"45":-2.7995782145154024E-11,"46":-4.349577241723448E-11,"47":-7.312730664422378E-11,"48":-3.070232404860568E-11,"49":-1.1595033467434211E-11,"50":-9.00357856868521E-11,"51":-6.382712073371199E-9,"52":-5.7118525384960494E-11,"53":-3.758159324026144E-11,"54":-4.885374560606609E-11,"55":-6.252617630889861E-11,"56":-4.717784862643288E-7},"personalWeight":-2.7890928436667166,"id":59},{"learningRate":0.3,"ID":60,"value":1.0,"layer":2,"target":0.7810399218881858,"weights":{"27":0.11260642867271542,"28":0.06018541322235549,"29":0.7377266767756537,"30":0.5449808126357396,"31":0.5616401582827173,"32":0.032008410609339455,"33":0.08698228611141134,"34":0.5643787775627785,"35":0.1405020224246044,"36":0.7879281281623861,"37":0.9723707376384786,"38":0.959030250277157,"39":0.7839526378578471,"40":0.8962334085516753,"41":0.3926895760162773,"42":0.9352600398657755,"43":0.2032059116248467,"44":0.054242096931637174,"45":0.6992140532585122,"46":0.5269548580712721,"47":0.3960254434653576,"48":0.18255079846543854,"49":0.958794441100893,"50":0.9377918146146077,"51":0.8730236318437722,"52":0.19957575873558575,"53":0.29293732139807815,"54":0.8798133151648009,"55":0.1473131091765536,"56":0.6302241395298683},"weightChange":{"27":0.0,"28":0.0,"29":0.0,"30":0.0,"31":0.0,"32":0.0,"33":0.0,"34":0.0,"35":0.0,"36":0.0,"37":0.0,"38":0.0,"39":0.0,"40":0.0,"41":0.0,"42":0.0,"43":0.0,"44":0.0,"45":0.0,"46":0.0,"47":0.0,"48":0.0,"49":0.0,"50":0.0,"51":0.0,"52":0.0,"53":0.0,"54":0.0,"55":0.0,"56":0.0},"personalWeight":0.843153211114727,"id":60},{"learningRate":0.3,"ID":61,"value":1.0,"layer":2,"target":0.9999971247011097,"weights":{"27":0.7038138947041908,"28":0.9834484604849121,"29":0.1036911999612486,"30":0.7883549530181873,"31":0.2740291214831864,"32":4.933312317155537,"33":0.9048205794480244,"34":0.15533674490640398,"35":0.05049470469771538,"36":0.27056749472868863,"37":0.6706504337901181,"38":0.9751901608010128,"39":0.3154166824995246,"40":0.8895399023617395,"41":-7.222526779945391,"42":0.17803829655364772,"43":0.8322656270764105,"44":0.3581811506674279,"45":0.6752057250594099,"46":0.6428797959066934,"47":0.6362459200764867,"48":0.4215150961782441,"49":-6.309783455949925,"50":0.18565488592539892,"51":0.8910430473412081,"52":0.6333250196070835,"53":0.9093216009344119,"54":0.4905878404456687,"55":0.469872371960906,"56":3.158601386925824},"weightChange":{"27":0.0,"28":0.0,"29":0.0,"30":0.0,"31":0.0,"32":0.0,"33":0.0,"34":0.0,"35":0.0,"36":0.0,"37":0.0,"38":0.0,"39":0.0,"40":0.0,"41":0.0,"42":0.0,"43":0.0,"44":0.0,"45":0.0,"46":0.0,"47":0.0,"48":0.0,"49":0.0,"50":0.0,"51":0.0,"52":0.0,"53":0.0,"54":0.0,"55":0.0,"56":0.0},"personalWeight":5.925531371929679,"id":61},{"learningRate":0.3,"ID":62,"value":1.0,"layer":2,"target":0.9989140613033339,"weights":{"27":0.5143498109048342,"28":0.449059836040097,"29":0.2365305242841896,"30":0.07791367224535269,"31":0.20696790538682508,"32":1.5945840646238363,"33":0.6683521238357523,"34":0.6540606994951386,"35":0.07166614094678006,"36":0.20089705871430258,"37":0.4840247656194736,"38":0.8289175289860541,"39":0.07890444550052826,"40":0.1555413772497458,"41":-10.654212275387737,"42":0.5036878993230004,"43":0.03422121201416144,"44":0.3600457238623456,"45":0.5442206026839601,"46":0.981755011830459,"47":0.5492212810742686,"48":0.1654910059942687,"49":-10.298631670271794,"50":0.06386396975579493,"51":8.497500916888459,"52":0.5854996123083944,"53":0.25827239688455705,"54":0.32208680052699107,"55":0.9438370722690835,"56":1.710027666290158},"weightChange":{"27":0.0,"28":0.0,"29":0.0,"30":0.0,"31":0.0,"32":0.0,"33":0.0,"34":0.0,"35":0.0,"36":0.0,"37":0.0,"38":0.0,"39":0.0,"40":0.0,"41":0.0,"42":0.0,"43":0.0,"44":0.0,"45":0.0,"46":0.0,"47":0.0,"48":0.0,"49":0.0,"50":0.0,"51":0.0,"52":0.0,"53":0.0,"54":0.0,"55":0.0,"56":0.0},"personalWeight":4.173966870170239,"id":62},{"learningRate":0.3,"ID":63,"value":0.0,"layer":2,"target":0.003601280825355659,"weights":{"27":0.15364344286398893,"28":0.18362882871073216,"29":0.9030110569114402,"30":0.5626795091014848,"31":0.38912392911476495,"32":-1.0820924292927134,"33":0.1396581039608891,"34":0.43411293382337385,"35":0.28188314391609887,"36":0.70791245206527,"37":0.1404448180194742,"38":0.45544000126108286,"39":0.9315356279297422,"40":0.9912380269020284,"41":-0.990967615524862,"42":0.3621083880303188,"43":0.5526438603044678,"44":0.6494384170284769,"45":0.03244183056335446,"46":0.3956679541220681,"47":0.246230255723595,"48":0.34873468476476904,"49":-0.8883211636362494,"50":0.43617959100986486,"51":0.23943585434448267,"52":0.09536204411546498,"53":0.23764278641948372,"54":0.8334176078565154,"55":0.6264574365518432,"56":-2.4867852800855097},"weightChange":{"27":0.0,"28":0.0,"29":0.0,"30":0.0,"31":0.0,"32":0.0,"33":0.0,"34":0.0,"35":0.0,"36":0.0,"37":0.0,"38":0.0,"39":0.0,"40":0.0,"41":0.0,"42":0.0,"43":0.0,"44":0.0,"45":0.0,"46":0.0,"47":0.0,"48":0.0,"49":0.0,"50":0.0,"51":0.0,"52":0.0,"53":0.0,"54":0.0,"55":0.0,"56":0.0},"personalWeight":-3.014450346898624,"id":63},{"learningRate":0.3,"ID":64,"value":0.0,"layer":2,"target":0.0037966094681843626,"weights":{"27":0.8791035696884778,"28":0.8889647511079403,"29":0.642074823568364,"30":0.6757182586724191,"31":0.9330807471828665,"32":-1.319393776250496,"33":0.17345544057541057,"34":0.141350151485782,"35":0.6346262685510394,"36":0.8309435035003544,"37":0.0572530129684872,"38":0.7898132551544442,"39":0.8021734764623184,"40":0.40298288969179846,"41":-1.302567966167883,"42":0.825488786667691,"43":0.06044269553935146,"44":0.9894251560089852,"45":0.43268066471067307,"46":0.06653636395552004,"47":0.2635583479222673,"48":0.08733954018597205,"49":-1.0399897323345564,"50":0.30428660684996944,"51":0.05448932530204956,"52":0.05133802623280982,"53":0.19773433203234728,"54":0.7189974176798033,"55":0.556797475234277,"56":-2.3486035306514226},"weightChange":{"27":0.0,"28":0.0,"29":0.0,"30":0.0,"31":0.0,"32":0.0,"33":0.0,"34":0.0,"35":0.0,"36":0.0,"37":0.0,"38":0.0,"39":0.0,"40":0.0,"41":0.0,"42":0.0,"43":0.0,"44":0.0,"45":0.0,"46":0.0,"47":0.0,"48":0.0,"49":0.0,"50":0.0,"51":0.0,"52":0.0,"53":0.0,"54":0.0,"55":0.0,"56":0.0},"personalWeight":-2.8054681042221437,"id":64},{"learningRate":0.3,"ID":65,"value":0.0,"layer":2,"target":0.004142283572468967,"weights":{"27":0.20881647975994913,"28":0.2556562173389264,"29":0.4540737122691903,"30":0.7678055960574329,"31":0.7358281437945166,"32":-1.4184900684830923,"33":0.7963379474293152,"34":0.059366937167510125,"35":0.692309570652341,"36":0.09846122426016271,"37":0.9793613618102733,"38":0.9083080423086044,"39":0.5120168591549284,"40":0.16086669907765275,"41":-1.0107316223220442,"42":0.5596838281038281,"43":0.8868602689275848,"44":0.5580688248100775,"45":0.3224818148236227,"46":0.1986014967943638,"47":0.32133065737649485,"48":0.14697949432714671,"49":-0.8045098452078834,"50":0.3488392326686427,"51":-0.2949252327872764,"52":0.07212115843502763,"53":0.713332005538492,"54":0.2521896922756763,"55":0.556630687285737,"56":-2.189061659297052},"weightChange":{"27":0.0,"28":0.0,"29":0.0,"30":0.0,"31":0.0,"32":0.0,"33":0.0,"34":0.0,"35":0.0,"36":0.0,"37":0.0,"38":0.0,"39":0.0,"40":0.0,"41":0.0,"42":0.0,"43":0.0,"44":0.0,"45":0.0,"46":0.0,"47":0.0,"48":0.0,"49":0.0,"50":0.0,"51":0.0,"52":0.0,"53":0.0,"54":0.0,"55":0.0,"56":0.0},"personalWeight":-2.7153717200805043,"id":65},{"learningRate":0.3,"ID":66,"value":0.0,"layer":2,"target":1.4663493846831833E-4,"weights":{"27":0.764755885440905,"28":0.2650592679595968,"29":0.045308513644164335,"30":0.880526960706971,"31":0.3558343369171594,"32":-2.439183867636221,"33":0.48346818772068,"34":0.6722481307535099,"35":0.5298007091579787,"36":0.3786986246860223,"37":0.7658154990107104,"38":0.3864750398782468,"39":0.6794470233535299,"40":0.8431413538850551,"41":-1.6325230176217407,"42":0.9256748619215022,"43":0.03185888642718829,"44":0.2980214853326844,"45":0.3980271829142274,"46":0.9405516630624531,"47":0.2818131298927985,"48":0.6300400219114075,"49":-1.821607628144689,"50":0.5819920159078326,"51":-0.5353574243174363,"52":-0.12899405271515185,"53":0.49551211521768923,"54":0.7291980376032691,"55":0.3463638031556531,"56":-3.8013448284516684},"weightChange":{"27":0.0,"28":0.0,"29":0.0,"30":0.0,"31":0.0,"32":0.0,"33":0.0,"34":0.0,"35":0.0,"36":0.0,"37":0.0,"38":0.0,"39":0.0,"40":0.0,"41":0.0,"42":0.0,"43":0.0,"44":0.0,"45":0.0,"46":0.0,"47":0.0,"48":0.0,"49":0.0,"50":0.0,"51":0.0,"52":0.0,"53":0.0,"54":0.0,"55":0.0,"56":0.0},"personalWeight":-4.046421845489033,"id":66},{"learningRate":0.3,"ID":67,"value":0.0,"layer":2,"target":0.0036880667788950963,"weights":{"27":0.6057185378007081,"28":0.7551490030034113,"29":0.9785481856239885,"30":0.8197834983043837,"31":0.1952357157723254,"32":-1.4300074003461645,"33":0.7251258637736073,"34":0.5198321009065452,"35":0.9418571547913689,"36":8.829395029447919E-4,"37":0.5947430491855785,"38":0.9338014946843383,"39":0.9685206853122242,"40":0.25153909167955363,"41":-1.0653868723559903,"42":0.4063433047765758,"43":0.47690777538560236,"44":0.6296987930203052,"45":0.6436425948924399,"46":0.5848998631653917,"47":0.8717046803903207,"48":0.9373471582358686,"49":-0.9386789994745346,"50":0.3493047632677897,"51":0.023090796328911714,"52":0.9154583186785704,"53":0.6264199436854414,"54":0.23912117329977672,"55":0.9006278711522456,"56":-2.404931544848299},"weightChange":{"27":0.0,"28":0.0,"29":0.0,"30":0.0,"31":0.0,"32":0.0,"33":0.0,"34":0.0,"35":0.0,"36":0.0,"37":0.0,"38":0.0,"39":0.0,"40":0.0,"41":0.0,"42":0.0,"43":0.0,"44":0.0,"45":0.0,"46":0.0,"47":0.0,"48":0.0,"49":0.0,"50":0.0,"51":0.0,"52":0.0,"53":0.0,"54":0.0,"55":0.0,"56":0.0},"personalWeight":-2.6908194837212647,"id":67},{"learningRate":0.3,"ID":68,"value":0.0,"layer":2,"target":0.0035310016385725488,"weights":{"27":0.16136951487056284,"28":0.17860640623507343,"29":0.7184696140861777,"30":0.46509317854648846,"31":0.896687951388056,"32":-1.2875641545065661,"33":0.8229971800807785,"34":0.2864717947992123,"35":0.8838970976320285,"36":0.09503358015268719,"37":0.045037655161734684,"38":0.25910376471884067,"39":0.5559867450209861,"40":0.042501356996199564,"41":-1.068658146253093,"42":0.24783642295703517,"43":0.5528114991926163,"44":0.32526044163848816,"45":0.7206457256247166,"46":0.9909720578047438,"47":0.31572095258430455,"48":0.960314146758611,"49":-1.0840367335481278,"50":0.5141644004387191,"51":-0.05135207709769364,"52":0.12490798916808761,"53":0.9927655728442807,"54":0.6491127206515004,"55":0.03755248648964999,"56":-2.5645088998146153},"weightChange":{"27":0.0,"28":0.0,"29":0.0,"30":0.0,"31":0.0,"32":0.0,"33":0.0,"34":0.0,"35":0.0,"36":0.0,"37":0.0,"38":0.0,"39":0.0,"40":0.0,"41":0.0,"42":0.0,"43":0.0,"44":0.0,"45":0.0,"46":0.0,"47":0.0,"48":0.0,"49":0.0,"50":0.0,"51":0.0,"52":0.0,"53":0.0,"54":0.0,"55":0.0,"56":0.0},"personalWeight":-2.7782581956326586,"id":68},{"learningRate":0.3,"ID":69,"value":1.0,"layer":2,"target":0.5798862983818868,"weights":{"27":0.3632675545222699,"28":0.6942306275289177,"29":0.5130607677981704,"30":0.33777949357849224,"31":0.029698587201908877,"32":0.13184473226869553,"33":0.9576420705889269,"34":0.1532616471262589,"35":0.17786911502105074,"36":0.23004151500056946,"37":0.9585003344957704,"38":0.20918008015356526,"39":0.8736486905354827,"40":0.634328849219311,"41":0.8499879780903727,"42":0.38755700926203707,"43":0.858839323197813,"44":0.7311803995798083,"45":0.6305274857697234,"46":0.29156397923510513,"47":0.07208274457165098,"48":0.5532061156461542,"49":0.42941516245704414,"50":0.9651992798795678,"51":0.7768394206241508,"52":0.5308735768589318,"53":0.0318838746380915,"54":0.8732279620668999,"55":0.2889017129377598,"56":0.002432074482026203},"weightChange":{"27":0.0,"28":0.0,"29":0.0,"30":0.0,"31":0.0,"32":0.0,"33":0.0,"34":0.0,"35":0.0,"36":0.0,"37":0.0,"38":0.0,"39":0.0,"40":0.0,"41":0.0,"42":0.0,"43":0.0,"44":0.0,"45":0.0,"46":0.0,"47":0.0,"48":0.0,"49":0.0,"50":0.0,"51":0.0,"52":0.0,"53":0.0,"54":0.0,"55":0.0,"56":0.0},"personalWeight":0.17659483638948992,"id":69},{"learningRate":0.3,"ID":70,"value":1.0,"layer":2,"target":0.6655286739679108,"weights":{"27":0.23437967327439868,"28":0.4337296615118408,"29":0.7428245320107761,"30":0.4096196523402942,"31":0.9888249945203106,"32":0.3709034068358287,"33":0.4834818645238965,"34":0.3856772472031458,"35":0.4491348176957841,"36":0.25146128334321916,"37":0.11965870276474289,"38":0.1342699067274601,"39":0.572103705831906,"40":0.33306371986953376,"41":0.5440597280997514,"42":0.5930129401405074,"43":0.17696903678829712,"44":0.1643515888214504,"45":0.6027264937900434,"46":0.8167588327359965,"47":0.35402125072667623,"48":0.21845701361448266,"49":0.58833802256662,"50":0.3114791782882602,"51":0.44732663352893065,"52":0.5373714188723604,"53":0.6689678944280916,"54":0.3591218185074585,"55":0.9868381299724469,"56":0.49413546677655096},"weightChange":{"27":0.0,"28":0.0,"29":0.0,"30":0.0,"31":0.0,"32":0.0,"33":0.0,"34":0.0,"35":0.0,"36":0.0,"37":0.0,"38":0.0,"39":0.0,"40":0.0,"41":0.0,"42":0.0,"43":0.0,"44":0.0,"45":0.0,"46":0.0,"47":0.0,"48":0.0,"49":0.0,"50":0.0,"51":0.0,"52":0.0,"53":0.0,"54":0.0,"55":0.0,"56":0.0},"personalWeight":0.006649108784136493,"id":70},{"learningRate":0.3,"ID":71,"value":1.0,"layer":2,"target":0.8059959034575265,"weights":{"27":0.13364455979907075,"28":0.0698538271977086,"29":0.7142403609199076,"30":0.17210161018100323,"31":0.17183656110520562,"32":0.36382700811327207,"33":0.49429806427971756,"34":0.18603312469213962,"35":0.3314434082339428,"36":0.4076317428402917,"37":0.40054108570153346,"38":0.5226530424127508,"39":0.7591215705014852,"40":0.7377698573248365,"41":0.6099957093118021,"42":0.8833930766017393,"43":0.7667526740756101,"44":0.5965455828206143,"45":0.2532903592311705,"46":0.29410625650637034,"47":0.5828346272831206,"48":0.07711946478915821,"49":0.1707813998627683,"50":0.8676062138800786,"51":0.7075267980908795,"52":0.006226402500152273,"53":0.5438323165485954,"54":0.8503950042949107,"55":0.6294361606150326,"56":0.8668346690044769},"weightChange":{"27":0.0,"28":0.0,"29":0.0,"30":0.0,"31":0.0,"32":0.0,"33":0.0,"34":0.0,"35":0.0,"36":0.0,"37":0.0,"38":0.0,"39":0.0,"40":0.0,"41":0.0,"42":0.0,"43":0.0,"44":0.0,"45":0.0,"46":0.0,"47":0.0,"48":0.0,"49":0.0,"50":0.0,"51":0.0,"52":0.0,"53":0.0,"54":0.0,"55":0.0,"56":0.0},"personalWeight":0.5190210146173083,"id":71},{"learningRate":0.3,"ID":72,"value":0.0,"layer":2,"target":0.003114974094481135,"weights":{"27":0.013931643735925035,"28":0.5950062992771126,"29":0.505587695738718,"30":0.9433267547289947,"31":0.38128053707814114,"32":-1.02455280992922,"33":0.6179219217675842,"34":0.7790601752604195,"35":0.9025322241264333,"36":0.6942077417677295,"37":0.02461171021705403,"38":0.8678832638545814,"39":0.46784447177508526,"40":0.37030480946570116,"41":-1.470049221287034,"42":0.17389895987739157,"43":0.8250019572265261,"44":0.5601852920226899,"45":0.9749251610299258,"46":0.2750945756079513,"47":0.77991790649084,"48":0.057651643786194105,"49":-1.536118685215834,"50":0.8557946065034946,"51":-0.4846002505640922,"52":0.19354580869580854,"53":0.45866447365024043,"54":0.37725376862052235,"55":0.4698043374009069,"56":-2.8368976203012224},"weightChange":{"27":0.0,"28":0.0,"29":0.0,"30":0.0,"31":0.0,"32":0.0,"33":0.0,"34":0.0,"35":0.0,"36":0.0,"37":0.0,"38":0.0,"39":0.0,"40":0.0,"41":0.0,"42":0.0,"43":0.0,"44":0.0,"45":0.0,"46":0.0,"47":0.0,"48":0.0,"49":0.0,"50":0.0,"51":0.0,"52":0.0,"53":0.0,"54":0.0,"55":0.0,"56":0.0},"personalWeight":-2.9943229902982296,"id":72}],"amountOfLayers":3},"name":"Red Samurai","hitPoints":100,"weapon":{"name":"SWORD","length":2,"options":[{"type":"OVERHEAD","damageType":"SLASH","unavailableOn":["TURNED","CROUCHED","KNOCKED","WEAPON_LOW","WEAPON_SIDE","WEAPON_EXTENDED","STAGGERED"],"positionDuringMove":["STANDARD"],"weaponMovement":["STANDARD","HIGH"],"removedStates":["WEAPON_HIGH","ABOVE"],"addedStates":["WEAPON_LOW"]},{"type":"SLASH","damageType":"SLASH","unavailableOn":["TURNED","KNOCKED","WEAPON_LOW","WEAPON_HIGH","ABOVE","STAGGERED"],"positionDuringMove":["STANDARD"],"weaponMovement":["STANDARD","SIDE"],"removedStates":[],"addedStates":["WEAPON_SIDE"]},{"type":"KICK","damageType":"BLUNT","unavailableOn":["KNOCKED","WEAPON_LOW","WEAPON_EXTENDED","STAGGERED"],"positionDuringMove":["STANDARD"],"weaponMovement":["STANDARD"],"removedStates":["ABOVE","TURNED"],"addedStates":["WEAPON_EXTENDED"]},{"type":"THRUST","damageType":"PIERCE","unavailableOn":["KNOCKED","TURNED","WEAPON_EXTENDED","STAGGERED"],"positionDuringMove":["STANDARD"],"weaponMovement":["STANDARD","BACK"],"removedStates":[],"addedStates":["WEAPON_EXTENDED"]},{"type":"UNDERSTRIKE","damageType":"SLASH","unavailableOn":["KNOCKED","ABOVE","TURNED","WEAPON_EXTENDED","WEAPON_HIGH","WEAPON_SIDE","STAGGERED"],"positionDuringMove":["STANDARD"],"weaponMovement":["STANDARD","LOW"],"removedStates":["WEAPON_LOW","CROUCHED"],"addedStates":["WEAPON_HIGH"]},{"type":"JUMP","damageType":"NONE","unavailableOn":["KNOCKED","ABOVE"],"positionDuringMove":["HIGH"],"weaponMovement":[],"removedStates":["TURNED","CROUCHED","WEAPON_HIGH","WEAPON_LOW","WEAPON_SIDE","WEAPON_EXTENDED","STAGGERED"],"addedStates":["ABOVE"]},{"type":"DODGE","damageType":"NONE","unavailableOn":["ABOVE"],"positionDuringMove":["SIDE"],"weaponMovement":[],"removedStates":["TURNED","WEAPON_HIGH","WEAPON_LOW","WEAPON_SIDE","WEAPON_EXTENDED","STAGGERED"],"addedStates":[]},{"type":"DUCK","damageType":"NONE","unavailableOn":["KNOCKED","ABOVE","CROUCHED"],"positionDuringMove":["LOW"],"weaponMovement":[],"removedStates":["TURNED","WEAPON_HIGH","WEAPON_LOW","WEAPON_SIDE","WEAPON_EXTENDED","STAGGERED"],"addedStates":["CROUCHED"]},{"type":"CLOSE_IN","damageType":"NONE","unavailableOn":["KNOCKED","ABOVE"],"positionDuringMove":["STANDARD"],"weaponMovement":["LOW","HIGH","SIDE","BACK"],"removedStates":["TURNED","WEAPON_HIGH","WEAPON_LOW","WEAPON_SIDE","WEAPON_EXTENDED","STAGGERED"],"addedStates":[]},{"type":"BACK_AWAY","damageType":"NONE","unavailableOn":["KNOCKED","ABOVE"],"positionDuringMove":["BACK"],"weaponMovement":[],"removedStates":["TURNED","WEAPON_HIGH","WEAPON_LOW","WEAPON_SIDE","WEAPON_EXTENDED","STAGGERED"],"addedStates":[]},{"type":"GET_UP","damageType":"NONE","unavailableOn":["ABOVE"],"positionDuringMove":["STANDARD"],"weaponMovement":[],"removedStates":["TURNED","KNOCKED","WEAPON_HIGH","WEAPON_LOW","WEAPON_SIDE","WEAPON_EXTENDED","STAGGERED"],"addedStates":[]},{"type":"WAIT","damageType":"NONE","unavailableOn":["STAGGERED"],"positionDuringMove":["STANDARD"],"weaponMovement":[],"removedStates":["ABOVE","TURNED","CROUCHED","KNOCKED","WEAPON_SIDE","WEAPON_EXTENDED","WEAPON_HIGH","WEAPON_LOW","STAGGERED","STAGGERED"],"addedStates":[]}],"efficiencies":{"BLUNT":0.5,"SLASH":0.5,"PIERCE":0.5}},"statesList":[],"wantedMove":{"type":"KICK","damageType":"BLUNT","unavailableOn":["KNOCKED","WEAPON_LOW","WEAPON_EXTENDED","STAGGERED"],"positionDuringMove":["STANDARD"],"weaponMovement":["STANDARD"],"removedStates":["ABOVE","TURNED"],"addedStates":["WEAPON_EXTENDED"]},"move":{"type":"KICK","damageType":"BLUNT","unavailableOn":["KNOCKED","WEAPON_LOW","WEAPON_EXTENDED","STAGGERED"],"positionDuringMove":["STANDARD"],"weaponMovement":["STANDARD"],"removedStates":["ABOVE","TURNED"],"addedStates":["WEAPON_EXTENDED"]},"victoriesCount":0,"lossesCount":0},{"outputStart":57,"combatantMind":{"lastNodeId":73,"nodes":[{"learningRate":0.3,"ID":0,"value":0.0,"layer":0,"target":0.0,"weights":{},"weightChange":{},"personalWeight":0.6489194559679871,"id":0},{"learningRate":0.3,"ID":1,"value":0.0,"layer":0,"target":0.0,"weights":{},"weightChange":{},"personalWeight":0.412262788021893,"id":1},{"learningRate":0.3,"ID":2,"value":0.0,"layer":0,"target":0.0,"weights":{},"weightChange":{},"personalWeight":0.4447636992444911,"id":2},{"learningRate":0.3,"ID":3,"value":0.0,"layer":0,"target":0.0,"weights":{},"weightChange":{},"personalWeight":0.31398971802444187,"id":3},{"learningRate":0.3,"ID":4,"value":0.0,"layer":0,"target":0.0,"weights":{},"weightChange":{},"personalWeight":0.7761578874281309,"id":4},{"learningRate":0.3,"ID":5,"value":0.0,"layer":0,"target":0.0,"weights":{},"weightChange":{},"personalWeight":0.5019808821024163,"id":5},{"learningRate":0.3,"ID":6,"value":0.0,"layer":0,"target":0.0,"weights":{},"weightChange":{},"personalWeight":0.813287439047123,"id":6},{"learningRate":0.3,"ID":7,"value":0.0,"layer":0,"target":0.0,"weights":{},"weightChange":{},"personalWeight":0.5880659145593579,"id":7},{"learningRate":0.3,"ID":8,"value":0.0,"layer":0,"target":0.0,"weights":{},"weightChange":{},"personalWeight":0.208715092180631,"id":8},{"learningRate":0.3,"ID":9,"value":1.0,"layer":0,"target":0.0,"weights":{},"weightChange":{},"personalWeight":2.825520396502624E7,"id":9},{"learningRate":0.3,"ID":10,"value":1.0,"layer":0,"target":0.0,"weights":{},"weightChange":{},"personalWeight":-882974.262561698,"id":10},{"learningRate":0.3,"ID":11,"value":1.0,"layer":0,"target":0.0,"weights":{},"weightChange":{},"personalWeight":-882974.7307198966,"id":11},{"learningRate":0.3,"ID":12,"value":1.0,"layer":0,"target":0.0,"weights":{},"weightChange":{},"personalWeight":-882974.1913238517,"id":12},{"learningRate":0.3,"ID":13,"value":0.0,"layer":0,"target":0.0,"weights":{},"weightChange":{},"personalWeight":425072.62397191755,"id":13},{"learningRate":0.3,"ID":14,"value":0.0,"layer":0,"target":0.0,"weights":{},"weightChange":{},"personalWeight":0.5264809425602431,"id":14},{"learningRate":0.3,"ID":15,"value":0.0,"layer":0,"target":0.0,"weights":{},"weightChange":{},"personalWeight":0.5998898993213664,"id":15},{"learningRate":0.3,"ID":16,"value":0.0,"layer":0,"target":0.0,"weights":{},"weightChange":{},"personalWeight":0.015695007023348695,"id":16},{"learningRate":0.3,"ID":17,"value":0.0,"layer":0,"target":0.0,"weights":{},"weightChange":{},"personalWeight":0.5526726014166676,"id":17},{"learningRate":0.3,"ID":18,"value":1.0,"layer":0,"target":0.0,"weights":{},"weightChange":{},"personalWeight":0.5904318844938071,"id":18},{"learningRate":0.3,"ID":19,"value":0.0,"layer":0,"target":0.0,"weights":{},"weightChange":{},"personalWeight":0.8551579087258862,"id":19},{"learningRate":0.3,"ID":20,"value":0.0,"layer":0,"target":0.0,"weights":{},"weightChange":{},"personalWeight":0.7341687915493795,"id":20},{"learningRate":0.3,"ID":21,"value":0.0,"layer":0,"target":0.0,"weights":{},"weightChange":{},"personalWeight":0.4068334402465291,"id":21},{"learningRate":0.3,"ID":22,"value":0.0,"layer":0,"target":0.0,"weights":{},"weightChange":{},"personalWeight":0.4937136195645748,"id":22},{"learningRate":0.3,"ID":23,"value":1.0,"layer":0,"target":0.0,"weights":{},"weightChange":{},"personalWeight":2.8255204275888532E7,"id":23},{"learningRate":0.3,"ID":24,"value":1.0,"layer":0,"target":0.0,"weights":{},"weightChange":{},"personalWeight":-882974.441285465,"id":24},{"learningRate":0.3,"ID":25,"value":1.0,"layer":0,"target":0.0,"weights":{},"weightChange":{},"personalWeight":-882974.640607277,"id":25},{"learningRate":0.3,"ID":26,"value":1.0,"layer":0,"target":0.0,"weights":{},"weightChange":{},"personalWeight":-882974.5759499732,"id":26},{"learningRate":0.3,"ID":27,"value":0.0,"layer":1,"target":9.053788433506909E-5,"weights":{"0":0.3674938466542977,"1":0.7557662374980435,"2":-0.021346527180543633,"3":0.6289258327658617,"4":-0.014209464409562606,"5":0.4566114411820453,"6":0.7776841453028502,"7":0.8177755928979129,"8":-0.0210346477230414,"9":-1.9125487489552366,"10":-0.4745154825664696,"11":-0.3939114336382856,"12":0.1460836612278236,"13":-0.038691080311498115,"14":0.11866443453185067,"15":0.7259948467076959,"16":-0.005678586908340637,"17":0.028106315378032085,"18":0.5910080623208772,"19":-0.005442440674683255,"20":0.3208895342660185,"21":0.0014606082886706943,"22":-0.36316721295035276,"23":-2.457274356090306,"24":-0.20767889060825231,"25":-0.060792541119395846,"26":0.11182054428097223},"weightChange":{"0":-0.0,"1":-0.0,"2":-0.0,"3":-0.0,"4":-0.0,"5":-0.0,"6":-0.0,"7":-0.0,"8":-0.0,"9":-3.828733903276572E-9,"10":-9.57183475819143E-10,"11":-9.57183475819143E-10,"12":-9.57183475819143E-10,"13":-0.0,"14":-0.0,"15":-0.0,"16":-0.0,"17":-0.0,"18":-1.914366951638286E-9,"19":-0.0,"20":-0.0,"21":-0.0,"22":-0.0,"23":-3.828733903276572E-9,"24":-9.57183475819143E-10,"25":-9.57183475819143E-10,"26":-9.57183475819143E-10},"personalWeight":-1.1863863137505206,"id":27},{"learningRate":0.3,"ID":28,"value":0.0,"layer":1,"target":-3.660758908006149E-7,"weights":{"0":0.4345813931458823,"1":0.46930661116106454,"2":0.5117648469826274,"3":0.46855511121909177,"4":0.0851623645132645,"5":0.2633000843616144,"6":0.18997835816639866,"7":0.7191440003534197,"8":0.21169560232167367,"9":-2.0338616616683,"10":0.1009832096914647,"11":-0.22910103778661728,"12":-0.262473624820901,"13":-0.13983354237896795,"14":0.8965838069116064,"15":0.8720209083384648,"16":0.04299277624279342,"17":0.3938572064044178,"18":-0.022085551381642442,"19":0.5388226644835529,"20":0.8219972960618936,"21":0.36920025401986806,"22":0.36517384531459113,"23":-2.5569880442446355,"24":-0.5208006219480062,"25":-0.13988014870843674,"26":-0.5559289401003759},"weightChange":{"0":0.0,"1":0.0,"2":0.0,"3":0.0,"4":0.0,"5":0.0,"6":0.0,"7":0.0,"8":0.0,"9":8.539867282841804E-10,"10":2.134966820710451E-10,"11":2.134966820710451E-10,"12":2.134966820710451E-10,"13":0.0,"14":0.0,"15":0.0,"16":0.0,"17":0.0,"18":4.269933641420902E-10,"19":0.0,"20":0.0,"21":0.0,"22":0.0,"23":8.539867282841804E-10,"24":2.134966820710451E-10,"25":2.134966820710451E-10,"26":2.134966820710451E-10},"personalWeight":-0.7885677444504782,"id":28},{"learningRate":0.3,"ID":29,"value":0.0,"layer":1,"target":1.419897935910822E-4,"weights":{"0":0.49429749394637595,"1":0.48394482448008974,"2":0.17721256435369653,"3":-1.9823618705720283E-4,"4":0.3030725831139783,"5":0.4479120476056981,"6":0.05037880711034727,"7":0.19500652549180877,"8":0.14117816774616337,"9":-2.075181552693721,"10":-0.028777813328043265,"11":0.1694213837507483,"12":-0.1592893342362711,"13":0.07501179546133407,"14":0.8113033668079737,"15":0.7511565888735706,"16":0.45978878230720555,"17":0.9048501639862804,"18":0.2749534667286471,"19":-0.008366409731451458,"20":0.7595032821522611,"21":-0.01789840244760711,"22":0.42514103491146477,"23":-2.5932964528392093,"24":-0.29889859281423403,"25":-0.4713820649327961,"26":-0.11388125749253322},"weightChange":{"0":-0.0,"1":-0.0,"2":-0.0,"3":-0.0,"4":-0.0,"5":-0.0,"6":-0.0,"7":-0.0,"8":-0.0,"9":-5.682708974290241E-9,"10":-1.4206772435725602E-9,"11":-1.4206772435725602E-9,"12":-1.4206772435725602E-9,"13":-0.0,"14":-0.0,"15":-0.0,"16":-0.0,"17":-0.0,"18":-2.8413544871451204E-9,"19":-0.0,"20":-0.0,"21":-0.0,"22":-0.0,"23":-5.682708974290241E-9,"24":-1.4206772435725602E-9,"25":-1.4206772435725602E-9,"26":-1.4206772435725602E-9},"personalWeight":-1.1197448140063182,"id":29},{"learningRate":0.3,"ID":30,"value":0.0,"layer":1,"target":0.004868128614063578,"weights":{"0":10.630855002675517,"1":-10.220701614457909,"2":10.493300222756512,"3":-8.429828726798533,"4":13.217612372165807,"5":-20.964351210136115,"6":15.372475489824561,"7":9.97891231414013,"8":-19.751578964424994,"9":-1.618119347721465,"10":-0.5651417314380692,"11":0.2656555683164001,"12":-0.490692857191438,"13":-0.08705042409854027,"14":-0.8365577402868836,"15":1.7773822732763815,"16":-0.14556743386295862,"17":0.09172115895452507,"18":-0.2057466653931249,"19":0.1569324103768193,"20":-0.9135417527862773,"21":0.3312063098576909,"22":-0.9393264000519973,"23":-1.7262857090817612,"24":7.707261306334527E-4,"25":0.2920722361807258,"26":0.12275530189533268},"weightChange":{"0":-0.0,"1":-0.0,"2":-0.0,"3":-0.0,"4":-0.0,"5":-0.0,"6":-0.0,"7":-0.0,"8":-0.0,"9":-5.663161348799663E-6,"10":-1.4157903371999157E-6,"11":-1.4157903371999157E-6,"12":-1.4157903371999157E-6,"13":-0.0,"14":-0.0,"15":-0.0,"16":-0.0,"17":-0.0,"18":-2.8315806743998314E-6,"19":-0.0,"20":-0.0,"21":-0.0,"22":-0.0,"23":-5.663161348799663E-6,"24":-1.4157903371999157E-6,"25":-1.4157903371999157E-6,"26":-1.4157903371999157E-6},"personalWeight":-0.21694563490167104,"id":30},{"learningRate":0.3,"ID":31,"value":0.0,"layer":1,"target":3.3309972262193137E-4,"weights":{"0":0.5788510192862527,"1":0.4755565540406226,"2":0.7676348515764366,"3":0.6157864566508137,"4":0.05538128348088422,"5":0.026933040034031092,"6":0.5693214627571144,"7":0.4040163052988271,"8":0.23133306917105337,"9":-2.2394988996417755,"10":-0.20150710171518058,"11":-0.052002102779870184,"12":-0.6855695128672088,"13":0.08224810268690648,"14":0.6561424632962053,"15":0.31111318617272227,"16":0.5828418532801989,"17":0.7683137728233091,"18":0.5531257766031721,"19":0.5604362547316042,"20":0.3667338131723689,"21":-0.022906684309138427,"22":-0.02922717852868868,"23":-2.3977413336844804,"24":-0.26318055345232433,"25":0.030432979181592792,"26":0.2655599149498046},"weightChange":{"0":-0.0,"1":-0.0,"2":-0.0,"3":-0.0,"4":-0.0,"5":-0.0,"6":-0.0,"7":-0.0,"8":-0.0,"9":-1.6940389717371933E-8,"10":-4.235097429342983E-9,"11":-4.235097429342983E-9,"12":-4.235097429342983E-9,"13":-0.0,"14":-0.0,"15":-0.0,"16":-0.0,"17":-0.0,"18":-8.470194858685966E-9,"19":-0.0,"20":-0.0,"21":-0.0,"22":-0.0,"23":-1.6940389717371933E-8,"24":-4.235097429342983E-9,"25":-4.235097429342983E-9,"26":-4.235097429342983E-9},"personalWeight":-1.3181518141693442,"id":31},{"learningRate":0.3,"ID":32,"value":0.0,"layer":1,"target":1.47706437043308E-4,"weights":{"0":0.8119430919381838,"1":0.12053737626876573,"2":0.12278196147266648,"3":0.3529523040278415,"4":0.6370298688669319,"5":-0.14769849213974745,"6":0.7440558376052337,"7":0.20836762836831743,"8":0.30295042908125985,"9":-2.596693892957966,"10":0.24371682758788926,"11":-0.4957184851693503,"12":-0.5289912794857708,"13":-0.056123122216605544,"14":0.5353329057581512,"15":0.7389308538350957,"16":0.9046609410728483,"17":0.5355191241423952,"18":0.6909491372766274,"19":0.06638191556225372,"20":0.6166343088613904,"21":0.2477258644577028,"22":-0.12631161370643496,"23":-1.936837455004609,"24":-0.6109535399664463,"25":0.18972872580041122,"26":-0.47465320715888865},"weightChange":{"0":-0.0,"1":-0.0,"2":-0.0,"3":-0.0,"4":-0.0,"5":-0.0,"6":-0.0,"7":-0.0,"8":-0.0,"9":-9.41669183613909E-9,"10":-2.3541729590347724E-9,"11":-2.3541729590347724E-9,"12":-2.3541729590347724E-9,"13":-0.0,"14":-0.0,"15":-0.0,"16":-0.0,"17":-0.0,"18":-4.708345918069545E-9,"19":-0.0,"20":-0.0,"21":-0.0,"22":-0.0,"23":-9.41669183613909E-9,"24":-2.3541729590347724E-9,"25":-2.3541729590347724E-9,"26":-2.3541729590347724E-9},"personalWeight":-0.7604930141970038,"id":32},{"learningRate":0.3,"ID":33,"value":0.0,"layer":1,"target":1.883798699321671E-4,"weights":{"0":0.7956102977217072,"1":0.2181669627568251,"2":0.07894886086440735,"3":0.6368233148784155,"4":0.4716520993687341,"5":0.1196909782970922,"6":0.26930754693571435,"7":0.8252204497275887,"8":0.07411811390743711,"9":-2.1193778354870476,"10":-0.5863639441409408,"11":-0.09255142698145613,"12":0.03107258308458861,"13":-0.16458385318115581,"14":0.3364561203942254,"15":0.616971386521491,"16":0.6409756871883581,"17":0.4464704020210791,"18":0.35342325524977936,"19":0.20826998123822832,"20":0.4924005665053661,"21":-0.031780807589995845,"22":0.3017621014622593,"23":-2.4533610287439527,"24":-0.13083041158571315,"25":0.1760265219117831,"26":-0.14991286283876695},"weightChange":{"0":-0.0,"1":-0.0,"2":-0.0,"3":-0.0,"4":-0.0,"5":-0.0,"6":-0.0,"7":-0.0,"8":-0.0,"9":-1.0928453380416004E-8,"10":-2.732113345104001E-9,"11":-2.732113345104001E-9,"12":-2.732113345104001E-9,"13":-0.0,"14":-0.0,"15":-0.0,"16":-0.0,"17":-0.0,"18":-5.464226690208002E-9,"19":-0.0,"20":-0.0,"21":-0.0,"22":-0.0,"23":-1.0928453380416004E-8,"24":-2.732113345104001E-9,"25":-2.732113345104001E-9,"26":-2.732113345104001E-9},"personalWeight":-1.0686991586115084,"id":33},{"learningRate":0.3,"ID":34,"value":1.0,"layer":1,"target":1.0000858912257384,"weights":{"0":-19.63515705351299,"1":-21.057972794480772,"2":0.25190427296846113,"3":-20.12877798327992,"4":4.772993860270518,"5":1.4905811724369105,"6":-23.30586989960907,"7":-22.67733969833347,"8":-26.797282004659678,"9":2.740168183310825,"10":0.8143441245441176,"11":0.7624481017377669,"12":0.8819209108480612,"13":-4.656675995589412,"14":-2.419000380052051,"15":-1.2384585060516768,"16":-2.3837347588781417,"17":-0.29200174382796495,"18":0.3681841498907319,"19":1.2030751926755159,"20":0.49909491336879247,"21":-0.8121708511210587,"22":-3.100593973693276,"23":2.7516526341882814,"24":1.091262244823307,"25":0.5425532156739199,"26":1.3882975266188506},"weightChange":{"0":-0.0,"1":-0.0,"2":-0.0,"3":-0.0,"4":-0.0,"5":-0.0,"6":-0.0,"7":-0.0,"8":-0.0,"9":-2.1043283192136835E-11,"10":-5.260820798034209E-12,"11":-5.260820798034209E-12,"12":-5.260820798034209E-12,"13":-0.0,"14":-0.0,"15":-0.0,"16":-0.0,"17":-0.0,"18":-1.0521641596068418E-11,"19":-0.0,"20":-0.0,"21":-0.0,"22":-0.0,"23":-2.1043283192136835E-11,"24":-5.260820798034209E-12,"25":-5.260820798034209E-12,"26":-5.260820798034209E-12},"personalWeight":1.824342080900427,"id":34},{"learningRate":0.3,"ID":35,"value":0.0,"layer":1,"target":1.0476685573134077E-4,"weights":{"0":0.06337561599942745,"1":0.6550604674556819,"2":0.5932448073105052,"3":0.234202967503984,"4":0.3573707821546814,"5":-0.28891203319691816,"6":-0.08385285004993734,"7":0.4451723059181296,"8":-0.5657134838167273,"9":-2.2438554523564327,"10":0.26657234126155865,"11":-0.2032643119995875,"12":0.2891395669361622,"13":0.3291965673946773,"14":0.799274728917818,"15":0.8384565270628459,"16":0.051589963413547275,"17":0.2926853432655306,"18":0.2255100080191363,"19":-0.06167392701271383,"20":0.39624259653855726,"21":0.31961577404545,"22":-0.16357365646000557,"23":-2.1254435216830276,"24":-0.1384812511106962,"25":0.1709384419186583,"26":-0.6396272697129565},"weightChange":{"0":-0.0,"1":-0.0,"2":-0.0,"3":-0.0,"4":-0.0,"5":-0.0,"6":-0.0,"7":-0.0,"8":-0.0,"9":-4.440002494846766E-9,"10":-1.1100006237116915E-9,"11":-1.1100006237116915E-9,"12":-1.1100006237116915E-9,"13":-0.0,"14":-0.0,"15":-0.0,"16":-0.0,"17":-0.0,"18":-2.220001247423383E-9,"19":-0.0,"20":-0.0,"21":-0.0,"22":-0.0,"23":-4.440002494846766E-9,"24":-1.1100006237116915E-9,"25":-1.1100006237116915E-9,"26":-1.1100006237116915E-9},"personalWeight":-0.8538870406929294,"id":35},{"learningRate":0.3,"ID":36,"value":0.0,"layer":1,"target":1.4796936038659122E-4,"weights":{"0":0.007770265307498422,"1":0.8467683462550575,"2":0.0721749337114193,"3":0.08888357610520031,"4":0.6687575858822953,"5":0.011283363697638575,"6":0.5725130225339948,"7":0.7596708419676205,"8":-0.1992682905215377,"9":-2.369831342263234,"10":-0.6080461674362829,"11":0.3393152385105926,"12":-0.3564241436215357,"13":0.5868706087549942,"14":0.25068180925155925,"15":0.9753581870140847,"16":0.7994765264774594,"17":0.5396712634696428,"18":0.1761915082398959,"19":0.11997729771875919,"20":0.14793921040473337,"21":0.42818112957341053,"22":0.0753445898628033,"23":-1.985999962537394,"24":-0.5898696253049083,"25":-0.6026866071303469,"26":0.24861807801793842},"weightChange":{"0":-0.0,"1":-0.0,"2":-0.0,"3":-0.0,"4":-0.0,"5":-0.0,"6":-0.0,"7":-0.0,"8":-0.0,"9":-8.040212426496882E-9,"10":-2.0100531066242206E-9,"11":-2.0100531066242206E-9,"12":-2.0100531066242206E-9,"13":-0.0,"14":-0.0,"15":-0.0,"16":-0.0,"17":-0.0,"18":-4.020106213248441E-9,"19":-0.0,"20":-0.0,"21":-0.0,"22":-0.0,"23":-8.040212426496882E-9,"24":-2.0100531066242206E-9,"25":-2.0100531066242206E-9,"26":-2.0100531066242206E-9},"personalWeight":-0.9158313125116683,"id":36},{"learningRate":0.3,"ID":37,"value":0.0,"layer":1,"target":4.0855117885573204E-4,"weights":{"0":0.5193024640054983,"1":0.8427235832622608,"2":0.023355781805050727,"3":0.38692283638719854,"4":-0.05167493451410542,"5":0.347388282767607,"6":0.5780584400466291,"7":0.10926244265052126,"8":-0.13846113485449835,"9":-2.2552164687622,"10":-0.29996106144952,"11":-0.44375907155047706,"12":-0.35663202184155035,"13":0.4369132208986561,"14":0.17660417288402117,"15":0.5480373668366976,"16":0.3580168960769871,"17":0.7323710716598113,"18":0.28488401016205567,"19":0.511282910479194,"20":0.7438932020967791,"21":0.39068636396934714,"22":0.3917020766006422,"23":-2.627993038675755,"24":-0.06598944314909962,"25":0.09426201318480383,"26":0.15425983282372657},"weightChange":{"0":-0.0,"1":-0.0,"2":-0.0,"3":-0.0,"4":-0.0,"5":-0.0,"6":-0.0,"7":-0.0,"8":-0.0,"9":-1.378787910564552E-8,"10":-3.44696977641138E-9,"11":-3.44696977641138E-9,"12":-3.44696977641138E-9,"13":-0.0,"14":-0.0,"15":-0.0,"16":-0.0,"17":-0.0,"18":-6.89393955282276E-9,"19":-0.0,"20":-0.0,"21":-0.0,"22":-0.0,"23":-1.378787910564552E-8,"24":-3.44696977641138E-9,"25":-3.44696977641138E-9,"26":-3.44696977641138E-9},"personalWeight":-1.0051238206646516,"id":37},{"learningRate":0.3,"ID":38,"value":0.0,"layer":1,"target":1.6172957710895627E-4,"weights":{"0":0.603967041325983,"1":0.38375722360013725,"2":0.8410068949208159,"3":0.035742215157396125,"4":-0.09074090550015705,"5":0.042508097466928796,"6":0.5383804924806606,"7":0.5095545721694461,"8":0.3987018811978456,"9":-2.1238085955587613,"10":-0.1302925157819249,"11":-0.08397779067704376,"12":-0.486351587073826,"13":0.14596180894861235,"14":0.5169671893124703,"15":0.4628575960123868,"16":0.36587475532101116,"17":0.5994589016394635,"18":0.0848119066372211,"19":0.4367950441878133,"20":0.11348798278868348,"21":0.2841561982869388,"22":0.3252589228990385,"23":-2.616040002792145,"24":-0.42336716048111495,"25":-0.07791142315109699,"26":-0.6075872186666429},"weightChange":{"0":-0.0,"1":-0.0,"2":-0.0,"3":-0.0,"4":-0.0,"5":-0.0,"6":-0.0,"7":-0.0,"8":-0.0,"9":-4.925150383326674E-9,"10":-1.2312875958316684E-9,"11":-1.2312875958316684E-9,"12":-1.2312875958316684E-9,"13":-0.0,"14":-0.0,"15":-0.0,"16":-0.0,"17":-0.0,"18":-2.462575191663337E-9,"19":-0.0,"20":-0.0,"21":-0.0,"22":-0.0,"23":-4.925150383326674E-9,"24":-1.2312875958316684E-9,"25":-1.2312875958316684E-9,"26":-1.2312875958316684E-9},"personalWeight":-0.6816316812493951,"id":38},{"learningRate":0.3,"ID":39,"value":0.0,"layer":1,"target":4.238871302881446E-5,"weights":{"0":0.24010220941401947,"1":0.5670216507874682,"2":0.47290592617821803,"3":0.9096482756083224,"4":0.2436311751747983,"5":0.2492440080795431,"6":0.1093599323372704,"7":0.6629033194999825,"8":0.4413640190285505,"9":-2.2927282366021338,"10":-0.3124284424146156,"11":0.12514037081653032,"12":0.06628743519796018,"13":0.26020055983689694,"14":0.7142578163997181,"15":0.340870364268472,"16":0.8895280276426036,"17":0.12310241022331626,"18":0.5499417457719149,"19":0.006330499520931783,"20":0.7455643106359743,"21":0.705359007512516,"22":-0.08228290159714624,"23":-2.610198995020513,"24":-0.5031764700109225,"25":-0.3511876077357696,"26":-0.2853446069943959},"weightChange":{"0":-0.0,"1":-0.0,"2":-0.0,"3":-0.0,"4":-0.0,"5":-0.0,"6":-0.0,"7":-0.0,"8":-0.0,"9":-8.543708524477319E-10,"10":-2.1359271311193299E-10,"11":-2.1359271311193299E-10,"12":-2.1359271311193299E-10,"13":-0.0,"14":-0.0,"15":-0.0,"16":-0.0,"17":-0.0,"18":-4.2718542622386597E-10,"19":-0.0,"20":-0.0,"21":-0.0,"22":-0.0,"23":-8.543708524477319E-10,"24":-2.1359271311193299E-10,"25":-2.1359271311193299E-10,"26":-2.1359271311193299E-10},"personalWeight":-0.6755448818836078,"id":39},{"learningRate":0.3,"ID":40,"value":0.0,"layer":1,"target":2.0948166041362317E-4,"weights":{"0":0.625788081739554,"1":0.5898379284884359,"2":0.5082209079749374,"3":0.12674757617150625,"4":0.6483165213506878,"5":0.3087149386331092,"6":0.2285078602141387,"7":0.764695892380707,"8":-0.06162854024624405,"9":-2.481808414859523,"10":0.16721198602853357,"11":-0.2609549408968449,"12":0.03809746693325388,"13":0.11339278386845313,"14":0.05409194128241302,"15":0.35818723054690255,"16":0.10362907300213692,"17":0.4972790182567233,"18":0.45220435026210054,"19":-0.29961737437043434,"20":0.2182659329921231,"21":0.6255188313470806,"22":-0.07320434948220564,"23":-2.240095793395418,"24":-0.29689881234493215,"25":-0.36707196325720814,"26":0.21488313845820964},"weightChange":{"0":-0.0,"1":-0.0,"2":-0.0,"3":-0.0,"4":-0.0,"5":-0.0,"6":-0.0,"7":-0.0,"8":-0.0,"9":-1.362403542128253E-8,"10":-3.4060088553206324E-9,"11":-3.4060088553206324E-9,"12":-3.4060088553206324E-9,"13":-0.0,"14":-0.0,"15":-0.0,"16":-0.0,"17":-0.0,"18":-6.812017710641265E-9,"19":-0.0,"20":-0.0,"21":-0.0,"22":-0.0,"23":-1.362403542128253E-8,"24":-3.4060088553206324E-9,"25":-3.4060088553206324E-9,"26":-3.4060088553206324E-9},"personalWeight":-0.8762514211525303,"id":40},{"learningRate":0.3,"ID":41,"value":0.0,"layer":1,"target":6.89827819953896E-5,"weights":{"0":-0.08193162611354018,"1":0.2860197610259121,"2":0.43604258638904453,"3":0.4831818056977588,"4":0.6797108587585352,"5":0.3693586475023561,"6":0.4466223464099585,"7":0.6267399734222964,"8":0.06805622944199642,"9":-2.031459664886502,"10":0.027576702946249865,"11":0.1002999858197465,"12":-0.46719721409718823,"13":0.12963521452960147,"14":0.5960519581154101,"15":0.29292105599656537,"16":0.6294205401349569,"17":0.7079358982991314,"18":0.0680400280810992,"19":-0.009999118642767235,"20":-0.05441791284534184,"21":0.6247579194662942,"22":-0.37365036359728393,"23":-2.20734398674361,"24":-0.09160987890006912,"25":0.30218131456406455,"26":-0.530416675304443},"weightChange":{"0":-0.0,"1":-0.0,"2":-0.0,"3":-0.0,"4":-0.0,"5":-0.0,"6":-0.0,"7":-0.0,"8":-0.0,"9":-1.9841218759735876E-9,"10":-4.960304689933969E-10,"11":-4.960304689933969E-10,"12":-4.960304689933969E-10,"13":-0.0,"14":-0.0,"15":-0.0,"16":-0.0,"17":-0.0,"18":-9.920609379867938E-10,"19":-0.0,"20":-0.0,"21":-0.0,"22":-0.0,"23":-1.9841218759735876E-9,"24":-4.960304689933969E-10,"25":-4.960304689933969E-10,"26":-4.960304689933969E-10},"personalWeight":-1.1937891156676066,"id":41},{"learningRate":0.3,"ID":42,"value":0.0,"layer":1,"target":5.266076955963192E-5,"weights":{"0":0.6612747968910216,"1":0.2649517796095206,"2":0.8042517274201433,"3":0.08558679321727881,"4":0.6316187405896547,"5":0.0912143428201165,"6":0.06738794053794958,"7":0.07134512749551626,"8":0.4660802175403651,"9":-2.1542724278158447,"10":0.24052191932915998,"11":-0.443927608784366,"12":-0.5137735519505577,"13":0.333632334698851,"14":0.3131390119439834,"15":0.7027958189591297,"16":0.7640061265038043,"17":0.12177235514149023,"18":0.778932498958013,"19":0.43669583166864984,"20":0.24313630017402113,"21":0.6308665926089083,"22":0.04765021447759303,"23":-2.691334706416091,"24":0.17298253908918923,"25":-0.31890158868664986,"26":0.0921940375621394},"weightChange":{"0":-0.0,"1":-0.0,"2":-0.0,"3":-0.0,"4":-0.0,"5":-0.0,"6":-0.0,"7":-0.0,"8":-0.0,"9":-5.008827728061894E-10,"10":-1.2522069320154735E-10,"11":-1.2522069320154735E-10,"12":-1.2522069320154735E-10,"13":-0.0,"14":-0.0,"15":-0.0,"16":-0.0,"17":-0.0,"18":-2.504413864030947E-10,"19":-0.0,"20":-0.0,"21":-0.0,"22":-0.0,"23":-5.008827728061894E-10,"24":-1.2522069320154735E-10,"25":-1.2522069320154735E-10,"26":-1.2522069320154735E-10},"personalWeight":-0.6596546424853589,"id":42},{"learningRate":0.3,"ID":43,"value":0.0,"layer":1,"target":4.0792392344590734E-4,"weights":{"0":0.17621798291996763,"1":0.36445094328323124,"2":0.7189407880953198,"3":0.1869646948064809,"4":0.17788714859858665,"5":0.23051552447389453,"6":0.5043336196899547,"7":0.3627856932399877,"8":-0.1651277783365218,"9":-2.086177397703244,"10":-0.10429548986925252,"11":-0.47460089697222074,"12":-0.32827249949229265,"13":-0.507876543042193,"14":0.6796375989314051,"15":0.6927252851515243,"16":0.6626788962613973,"17":0.25503044384724727,"18":0.39949498866726624,"19":0.05379959718545312,"20":0.24348222227770486,"21":-0.057184348913933016,"22":-0.18452180779691357,"23":-2.2708015935135504,"24":-0.2521047748119809,"25":-0.25816350339919425,"26":0.050618476600521364},"weightChange":{"0":-0.0,"1":-0.0,"2":-0.0,"3":-0.0,"4":-0.0,"5":-0.0,"6":-0.0,"7":-0.0,"8":-0.0,"9":-4.579822013301997E-8,"10":-1.1449555033254992E-8,"11":-1.1449555033254992E-8,"12":-1.1449555033254992E-8,"13":-0.0,"14":-0.0,"15":-0.0,"16":-0.0,"17":-0.0,"18":-2.2899110066509984E-8,"19":-0.0,"20":-0.0,"21":-0.0,"22":-0.0,"23":-4.579822013301997E-8,"24":-1.1449555033254992E-8,"25":-1.1449555033254992E-8,"26":-1.1449555033254992E-8},"personalWeight":-0.609679979727118,"id":43},{"learningRate":0.3,"ID":44,"value":0.0,"layer":1,"target":3.30185385399767E-4,"weights":{"0":0.5498183081247007,"1":0.1459564773521146,"2":0.5989407549282291,"3":0.02371430622798176,"4":0.129884132561228,"5":-0.08847641010312642,"6":0.16342669745050875,"7":0.6182226792551531,"8":-0.33108042830276585,"9":-2.285065450256252,"10":-0.358328659661058,"11":-0.4129047017781097,"12":-0.07854099221174593,"13":0.6274838403099217,"14":0.06315266409637321,"15":0.61548843090922,"16":0.17091812370192283,"17":0.52133302753599,"18":0.4524925787985649,"19":0.20207564651752125,"20":0.43530320197715355,"21":0.6527077323725956,"22":0.23883205390588094,"23":-2.115502540947859,"24":-0.47352845019977197,"25":-0.3376614023249024,"26":0.19314504605037217},"weightChange":{"0":-0.0,"1":-0.0,"2":-0.0,"3":-0.0,"4":-0.0,"5":-0.0,"6":-0.0,"7":-0.0,"8":-0.0,"9":-2.6104429857450918E-8,"10":-6.526107464362729E-9,"11":-6.526107464362729E-9,"12":-6.526107464362729E-9,"13":-0.0,"14":-0.0,"15":-0.0,"16":-0.0,"17":-0.0,"18":-1.3052214928725459E-8,"19":-0.0,"20":-0.0,"21":-0.0,"22":-0.0,"23":-2.6104429857450918E-8,"24":-6.526107464362729E-9,"25":-6.526107464362729E-9,"26":-6.526107464362729E-9},"personalWeight":-0.9060704516220717,"id":44},{"learningRate":0.3,"ID":45,"value":0.0,"layer":1,"target":6.909340409926522E-5,"weights":{"0":0.5060155075153311,"1":-0.011261410162953499,"2":0.4069341365662429,"3":0.8900442703485473,"4":0.05963114379984157,"5":0.48311149549005034,"6":0.770947313439899,"7":0.04298035438251108,"8":0.4717704133059313,"9":-2.261587414400815,"10":-0.09502756383456556,"11":-0.0271432217583831,"12":-0.3764549073797366,"13":0.444419755786708,"14":0.015180032464837125,"15":0.26907963696646464,"16":0.8989830606927044,"17":0.9165633741762739,"18":-0.0935767222077014,"19":-0.20078076907801465,"20":0.18590500967758425,"21":0.3408080154060205,"22":-0.021689108454413245,"23":-2.3275644594766844,"24":-0.591623930608891,"25":0.37017587566513205,"26":-0.5821316706996867},"weightChange":{"0":-0.0,"1":-0.0,"2":-0.0,"3":-0.0,"4":-0.0,"5":-0.0,"6":-0.0,"7":-0.0,"8":-0.0,"9":-1.9232915157789606E-9,"10":-4.808228789447402E-10,"11":-4.808228789447402E-10,"12":-4.808228789447402E-10,"13":-0.0,"14":-0.0,"15":-0.0,"16":-0.0,"17":-0.0,"18":-9.616457578894803E-10,"19":-0.0,"20":-0.0,"21":-0.0,"22":-0.0,"23":-1.9232915157789606E-9,"24":-4.808228789447402E-10,"25":-4.808228789447402E-10,"26":-4.808228789447402E-10},"personalWeight":-0.9312955481528401,"id":45},{"learningRate":0.3,"ID":46,"value":0.0,"layer":1,"target":-0.005132912071465954,"weights":{"0":0.6918540671695679,"1":3.943889429737301,"2":3.0843094304392977,"3":19.66570566996352,"4":19.337909923479895,"5":23.023071828720973,"6":21.137700003430034,"7":-0.5866121979701423,"8":22.455250088079705,"9":-2.8501731002330914,"10":0.03173243010976611,"11":-0.3596461426825675,"12":0.060350974226326605,"13":3.297672371332952,"14":0.8179514244442866,"15":3.7379764315916586,"16":1.0270813893209427,"17":-0.2875761748518376,"18":2.3911533296249456,"19":-0.7552316001491256,"20":2.4832073917708772,"21":1.178652274527553,"22":1.5657749353635777,"23":-2.535220500004534,"24":-0.3170017399144651,"25":-0.3568358149553745,"26":-0.026823727220093442},"weightChange":{"0":0.0,"1":0.0,"2":0.0,"3":0.0,"4":0.0,"5":0.0,"6":0.0,"7":0.0,"8":0.0,"9":3.834010078948388E-7,"10":9.58502519737097E-8,"11":9.58502519737097E-8,"12":9.58502519737097E-8,"13":0.0,"14":0.0,"15":0.0,"16":0.0,"17":0.0,"18":1.917005039474194E-7,"19":0.0,"20":0.0,"21":0.0,"22":0.0,"23":3.834010078948388E-7,"24":9.58502519737097E-8,"25":9.58502519737097E-8,"26":9.58502519737097E-8},"personalWeight":-1.3386282112801917,"id":46},{"learningRate":0.3,"ID":47,"value":0.0,"layer":1,"target":2.0420876325617766E-4,"weights":{"0":-0.0442442655784992,"1":0.767843686371959,"2":0.5791642407030074,"3":-0.022832506288449853,"4":0.25721837708115325,"5":-0.027491313260690785,"6":0.26264112917930427,"7":-0.0037841330110337974,"8":0.3702315226579333,"9":-2.347765334970347,"10":-0.2517096718988073,"11":0.2020449893970633,"12":-0.07032172350301287,"13":0.5176894877965347,"14":0.3695620367600177,"15":0.277736413548733,"16":0.08082902596145528,"17":0.6682804555506852,"18":0.3738849367011121,"19":0.18875410901327958,"20":0.6817295599009037,"21":0.7091452489929448,"22":-0.040660381512894854,"23":-2.427027014444177,"24":0.1662015277684684,"25":-0.6730797233856257,"26":0.06863977123721167},"weightChange":{"0":-0.0,"1":-0.0,"2":-0.0,"3":-0.0,"4":-0.0,"5":-0.0,"6":-0.0,"7":-0.0,"8":-0.0,"9":-9.38266181751938E-9,"10":-2.345665454379845E-9,"11":-2.345665454379845E-9,"12":-2.345665454379845E-9,"13":-0.0,"14":-0.0,"15":-0.0,"16":-0.0,"17":-0.0,"18":-4.69133090875969E-9,"19":-0.0,"20":-0.0,"21":-0.0,"22":-0.0,"23":-9.38266181751938E-9,"24":-2.345665454379845E-9,"25":-2.345665454379845E-9,"26":-2.345665454379845E-9},"personalWeight":-1.0879827613401787,"id":47},{"learningRate":0.3,"ID":48,"value":0.0,"layer":1,"target":2.750048746181146E-4,"weights":{"0":0.5336886412496255,"1":0.15307006096729034,"2":0.42869222148395497,"3":0.03809918782500361,"4":0.45126304365997383,"5":-0.03718215006574487,"6":0.8828199502863399,"7":0.0037535043200367588,"8":0.4347981515479913,"9":-2.1636949136493207,"10":-0.1539026628566568,"11":-0.1935576229784202,"12":-0.4224311686647829,"13":0.26345088232026,"14":0.12842734863313032,"15":0.6353869901617973,"16":0.640845221922071,"17":0.7525777033602115,"18":-0.0266035986296995,"19":-0.1835738664053802,"20":0.3623194487294359,"21":0.4229833835166803,"22":-0.3870604353517134,"23":-2.388089913876328,"24":-0.4399717620881217,"25":-0.23778250075326338,"26":0.31811210887933783},"weightChange":{"0":-0.0,"1":-0.0,"2":-0.0,"3":-0.0,"4":-0.0,"5":-0.0,"6":-0.0,"7":-0.0,"8":-0.0,"9":-1.6230093549889164E-8,"10":-4.057523387472291E-9,"11":-4.057523387472291E-9,"12":-4.057523387472291E-9,"13":-0.0,"14":-0.0,"15":-0.0,"16":-0.0,"17":-0.0,"18":-8.115046774944582E-9,"19":-0.0,"20":-0.0,"21":-0.0,"22":-0.0,"23":-1.6230093549889164E-8,"24":-4.057523387472291E-9,"25":-4.057523387472291E-9,"26":-4.057523387472291E-9},"personalWeight":-0.6054214322186908,"id":48},{"learningRate":0.3,"ID":49,"value":0.0,"layer":1,"target":2.0307538694347045E-5,"weights":{"0":0.29895736411022233,"1":0.47556383712267175,"2":0.17395720854381672,"3":0.540070016877656,"4":0.7283356871592401,"5":-0.23659920060434195,"6":0.5591455119156498,"7":0.4342024131616189,"8":0.39413603601521063,"9":-2.6008752382009437,"10":-0.5963207913253423,"11":-0.12323104586266864,"12":-0.401688756263362,"13":-0.17714271465055664,"14":0.9136770543677313,"15":0.10078278850291567,"16":0.23527466406755132,"17":0.7430663570415879,"18":0.7779092074922084,"19":0.2986194353407835,"20":0.8114227038631464,"21":0.204851905052586,"22":0.4859974983141712,"23":-2.329533952383345,"24":-0.1985272875572663,"25":-0.302657498456543,"26":0.23040193630895403},"weightChange":{"0":0.0,"1":0.0,"2":0.0,"3":0.0,"4":0.0,"5":0.0,"6":0.0,"7":0.0,"8":0.0,"9":7.446873564093241E-10,"10":1.8617183910233103E-10,"11":1.8617183910233103E-10,"12":1.8617183910233103E-10,"13":0.0,"14":0.0,"15":0.0,"16":0.0,"17":0.0,"18":3.7234367820466206E-10,"19":0.0,"20":0.0,"21":0.0,"22":0.0,"23":7.446873564093241E-10,"24":1.8617183910233103E-10,"25":1.8617183910233103E-10,"26":1.8617183910233103E-10},"personalWeight":-0.5721135408375262,"id":49},{"learningRate":0.3,"ID":50,"value":1.0,"layer":1,"target":1.0014599205942925,"weights":{"0":0.9686746175693675,"1":0.7935917700950961,"2":0.32395896356291237,"3":0.8088676613223669,"4":0.9249405977066905,"5":-0.049146433462951174,"6":0.8734713807538625,"7":0.8577696525234695,"8":0.6702828793201877,"9":1.804033963307509,"10":0.8563881306501644,"11":0.778095649498658,"12":0.7131668143984151,"13":0.6887867003802823,"14":0.7851671909303453,"15":0.7688215484001817,"16":0.6116564384560563,"17":0.3183175230965491,"18":0.26669000541723636,"19":0.7404758303802736,"20":0.1298965012079811,"21":0.9772671086511917,"22":-0.08400808377934121,"23":1.782085924256189,"24":0.3544111245423081,"25":1.135166334347557,"26":1.0074932339769562},"weightChange":{"0":-0.0,"1":-0.0,"2":-0.0,"3":-0.0,"4":-0.0,"5":-0.0,"6":-0.0,"7":-0.0,"8":-0.0,"9":-7.503583451446147E-8,"10":-1.8758958628615366E-8,"11":-1.8758958628615366E-8,"12":-1.8758958628615366E-8,"13":-0.0,"14":-0.0,"15":-0.0,"16":-0.0,"17":-0.0,"18":-3.751791725723073E-8,"19":-0.0,"20":-0.0,"21":-0.0,"22":-0.0,"23":-7.503583451446147E-8,"24":-1.8758958628615366E-8,"25":-1.8758958628615366E-8,"26":-1.8758958628615366E-8},"personalWeight":0.7248889309884047,"id":50},{"learningRate":0.3,"ID":51,"value":1.0,"layer":1,"target":1.0002003855904689,"weights":{"0":0.28908122645285095,"1":-0.07770307798779091,"2":-2.107502657382968,"3":0.3087282710274783,"4":1.5569831552104834,"5":-5.2097423267553795,"6":0.5370116179600875,"7":1.0334218018847585,"8":-9.626314470652888,"9":1.7351510079376542,"10":0.592570978369292,"11":0.5911492610258159,"12":0.6599741355600733,"13":-7.6099640477484884,"14":0.45996347992112124,"15":0.7483017855441423,"16":0.22571032490997714,"17":0.7213997029322576,"18":0.6599543995372944,"19":-0.29683776506340503,"20":0.6657907570887514,"21":0.07715880201367965,"22":-2.3752352547098807,"23":1.5812472351180453,"24":1.1403465083033477,"25":0.993034583611076,"26":0.4656451906924116},"weightChange":{"0":-0.0,"1":-0.0,"2":-0.0,"3":-0.0,"4":-0.0,"5":-0.0,"6":-0.0,"7":-0.0,"8":-0.0,"9":-6.845105749462171E-9,"10":-1.7112764373655428E-9,"11":-1.7112764373655428E-9,"12":-1.7112764373655428E-9,"13":-0.0,"14":-0.0,"15":-0.0,"16":-0.0,"17":-0.0,"18":-3.4225528747310857E-9,"19":-0.0,"20":-0.0,"21":-0.0,"22":-0.0,"23":-6.845105749462171E-9,"24":-1.7112764373655428E-9,"25":-1.7112764373655428E-9,"26":-1.7112764373655428E-9},"personalWeight":1.5394999945557697,"id":51},{"learningRate":0.3,"ID":52,"value":0.0,"layer":1,"target":2.3859141351737382E-4,"weights":{"0":0.4857107505975833,"1":0.8696328153852919,"2":0.8547405184475079,"3":-5.039010696983212E-4,"4":0.35396331842860257,"5":-0.2856893755176484,"6":0.3349821843812026,"7":0.17914790739435127,"8":-0.37767531542757243,"9":-2.507859820213509,"10":0.22344531386746788,"11":-0.22215000186322645,"12":-0.5005592278529951,"13":0.1286824609699151,"14":0.6603725449808447,"15":0.3861573604119928,"16":0.8029831967224454,"17":0.14316020273976066,"18":0.2761281604124278,"19":0.14533197067972867,"20":0.5768928765787321,"21":0.6748618650182138,"22":0.24049300231067555,"23":-1.9436224091600771,"24":-0.6396889710054147,"25":0.13397968865683016,"26":0.025693984545191017},"weightChange":{"0":-0.0,"1":-0.0,"2":-0.0,"3":-0.0,"4":-0.0,"5":-0.0,"6":-0.0,"7":-0.0,"8":-0.0,"9":-1.3305388631783259E-8,"10":-3.3263471579458148E-9,"11":-3.3263471579458148E-9,"12":-3.3263471579458148E-9,"13":-0.0,"14":-0.0,"15":-0.0,"16":-0.0,"17":-0.0,"18":-6.6526943158916296E-9,"19":-0.0,"20":-0.0,"21":-0.0,"22":-0.0,"23":-1.3305388631783259E-8,"24":-3.3263471579458148E-9,"25":-3.3263471579458148E-9,"26":-3.3263471579458148E-9},"personalWeight":-1.2257696660881299,"id":52},{"learningRate":0.3,"ID":53,"value":0.0,"layer":1,"target":4.5785768115294735E-4,"weights":{"0":0.08399103168532271,"1":0.5159787844326285,"2":0.6291709753034952,"3":0.22385841344119115,"4":0.71769451202739,"5":-0.14840190112996268,"6":0.3641129471449789,"7":0.5692333392659779,"8":-0.2932671270402018,"9":-2.506299704143025,"10":0.05345804267121011,"11":-0.06774568084533528,"12":-0.45938031584737066,"13":-0.24341048719012584,"14":0.2783540012348288,"15":0.4213420025106767,"16":0.058087585106231465,"17":0.4862339912766418,"18":0.321175526775534,"19":-0.34382996402154004,"20":-0.013041418403167557,"21":0.6175987058683075,"22":-0.10229166142639598,"23":-1.9455754577450837,"24":-0.343852328285251,"25":-0.06701999801118338,"26":-0.0309242711067403},"weightChange":{"0":-0.0,"1":-0.0,"2":-0.0,"3":-0.0,"4":-0.0,"5":-0.0,"6":-0.0,"7":-0.0,"8":-0.0,"9":-4.787136270872995E-8,"10":-1.1967840677182488E-8,"11":-1.1967840677182488E-8,"12":-1.1967840677182488E-8,"13":-0.0,"14":-0.0,