[
  {
    "outputStart": 46,
    "combatantMind": {
      "lastNodeId": 62,
      "nodes": [
        {
          "learningRate": 0.3,
          "ID": 0,
          "value": 0.0,
          "layer": 0,
          "target": 0.0,
          "weights": {},
          "weightChange": {},
          "personalWeight": 0.9930965920764739,
          "id": 0
        },
        {
          "learningRate": 0.3,
          "ID": 1,
          "value": 0.0,
          "layer": 0,
          "target": 0.0,
          "weights": {},
          "weightChange": {},
          "personalWeight": 0.6046419113055732,
          "id": 1
        },
        {
          "learningRate": 0.3,
          "ID": 2,
          "value": 0.0,
          "layer": 0,
          "target": 0.0,
          "weights": {},
          "weightChange": {},
          "personalWeight": 0.9261316792767489,
          "id": 2
        },
        {
          "learningRate": 0.3,
          "ID": 3,
          "value": 0.0,
          "layer": 0,
          "target": 0.0,
          "weights": {},
          "weightChange": {},
          "personalWeight": 0.2337428790190743,
          "id": 3
        },
        {
          "learningRate": 0.3,
          "ID": 4,
          "value": 0.0,
          "layer": 0,
          "target": 0.0,
          "weights": {},
          "weightChange": {},
          "personalWeight": 0.05773974030790485,
          "id": 4
        },
        {
          "learningRate": 0.3,
          "ID": 5,
          "value": 0.0,
          "layer": 0,
          "target": 0.0,
          "weights": {},
          "weightChange": {},
          "personalWeight": 0.08664468537953196,
          "id": 5
        },
        {
          "learningRate": 0.3,
          "ID": 6,
          "value": 0.0,
          "layer": 0,
          "target": 0.0,
          "weights": {},
          "weightChange": {},
          "personalWeight": 0.14870782309260933,
          "id": 6
        },
        {
          "learningRate": 0.3,
          "ID": 7,
          "value": 0.0,
          "layer": 0,
          "target": 0.0,
          "weights": {},
          "weightChange": {},
          "personalWeight": 0.982087700137497,
          "id": 7
        },
        {
          "learningRate": 0.3,
          "ID": 8,
          "value": 0.0,
          "layer": 0,
          "target": 0.0,
          "weights": {},
          "weightChange": {},
          "personalWeight": 0.6313498401873656,
          "id": 8
        },
        {
          "learningRate": 0.3,
          "ID": 9,
          "value": 0.0,
          "layer": 0,
          "target": 0.0,
          "weights": {},
          "weightChange": {},
          "personalWeight": 367337.89127594844,
          "id": 9
        },
        {
          "learningRate": 0.3,
          "ID": 10,
          "value": 0.0,
          "layer": 0,
          "target": 0.0,
          "weights": {},
          "weightChange": {},
          "personalWeight": 0.033947573768532746,
          "id": 10
        },
        {
          "learningRate": 0.3,
          "ID": 11,
          "value": 0.0,
          "layer": 0,
          "target": 0.0,
          "weights": {},
          "weightChange": {},
          "personalWeight": 0.016757623942490696,
          "id": 11
        },
        {
          "learningRate": 0.3,
          "ID": 12,
          "value": 0.0,
          "layer": 0,
          "target": 0.0,
          "weights": {},
          "weightChange": {},
          "personalWeight": 0.7828246107276752,
          "id": 12
        },
        {
          "learningRate": 0.3,
          "ID": 13,
          "value": 0.0,
          "layer": 0,
          "target": 0.0,
          "weights": {},
          "weightChange": {},
          "personalWeight": 0.0779644249091982,
          "id": 13
        },
        {
          "learningRate": 0.3,
          "ID": 14,
          "value": 0.0,
          "layer": 0,
          "target": 0.0,
          "weights": {},
          "weightChange": {},
          "personalWeight": 0.45630265262984493,
          "id": 14
        },
        {
          "learningRate": 0.3,
          "ID": 15,
          "value": 0.0,
          "layer": 0,
          "target": 0.0,
          "weights": {},
          "weightChange": {},
          "personalWeight": 0.8077624259493433,
          "id": 15
        },
        {
          "learningRate": 0.3,
          "ID": 16,
          "value": 0.0,
          "layer": 0,
          "target": 0.0,
          "weights": {},
          "weightChange": {},
          "personalWeight": 0.18295363149270993,
          "id": 16
        },
        {
          "learningRate": 0.3,
          "ID": 17,
          "value": 0.0,
          "layer": 0,
          "target": 0.0,
          "weights": {},
          "weightChange": {},
          "personalWeight": 0.9233010188243513,
          "id": 17
        },
        {
          "learningRate": 0.3,
          "ID": 18,
          "value": 0.0,
          "layer": 0,
          "target": 0.0,
          "weights": {},
          "weightChange": {},
          "personalWeight": 0.025974808733186583,
          "id": 18
        },
        {
          "learningRate": 0.3,
          "ID": 19,
          "value": 1.0,
          "layer": 0,
          "target": 0.0,
          "weights": {},
          "weightChange": {},
          "personalWeight": 3.17203207108025E7,
          "id": 19
        },
        {
          "learningRate": 0.3,
          "ID": 20,
          "value": 1.0,
          "layer": 0,
          "target": 0.0,
          "weights": {},
          "weightChange": {},
          "personalWeight": 3.172032086261129E7,
          "id": 20
        },
        {
          "learningRate": 0.3,
          "ID": 21,
          "value": 0.0,
          "layer": 1,
          "target": 1.0311307186540744,
          "weights": {
            "0": 0.5670084172181142,
            "1": 0.5728080268607054,
            "2": 0.3202841602173126,
            "3": 0.027125142791140644,
            "4": 0.3658948738139186,
            "5": 0.7272195633967365,
            "6": 0.01748054248114361,
            "7": 0.3414715639879602,
            "8": 0.5515503116691644,
            "9": 0.28961167823725675,
            "10": -0.4275574705386015,
            "11": 0.5157285782442343,
            "12": 0.1803677460584847,
            "13": 0.7461737474073512,
            "14": 0.6686160358512362,
            "15": 0.20645252723559368,
            "16": -0.016237148244305475,
            "17": 0.7785037921904844,
            "18": 0.21580228382071923,
            "19": -4.618033026805086,
            "20": -4.592847708884013
          },
          "weightChange": {
            "0": -0.0,
            "1": -0.0,
            "2": -0.0,
            "3": -0.0,
            "4": -0.0,
            "5": -0.0,
            "6": -0.0,
            "7": -0.0,
            "8": -0.0,
            "9": -0.0,
            "10": -0.0,
            "11": -0.0,
            "12": -0.0,
            "13": -0.0,
            "14": -0.0,
            "15": -0.0,
            "16": -0.0,
            "17": -0.0,
            "18": -0.0,
            "19": -4.420366036560397E-9,
            "20": -4.420366036560397E-9
          },
          "personalWeight": -1.5390848753976047,
          "id": 21
        },
        {
          "learningRate": 0.3,
          "ID": 22,
          "value": 0.0,
          "layer": 1,
          "target": 1.6104943538165561,
          "weights": {
            "0": 0.26486022697695644,
            "1": 0.11496587350676667,
            "2": 0.6156325713481571,
            "3": 0.3629528299579591,
            "4": 0.3868144794874151,
            "5": 0.17529749319515328,
            "6": 0.6382650847647018,
            "7": 0.4892869645497209,
            "8": 0.6912171136458922,
            "9": -0.03733554067849854,
            "10": -0.13180861019694703,
            "11": 0.13617925149579144,
            "12": 0.6562899559051318,
            "13": 0.0783613912244483,
            "14": 0.4205766701393784,
            "15": 0.8136831533459008,
            "16": 0.01151979600717597,
            "17": 0.5977236281381328,
            "18": 0.27004373886572497,
            "19": -4.259918104108287,
            "20": -4.084193445270342
          },
          "weightChange": {
            "0": -0.0,
            "1": -0.0,
            "2": -0.0,
            "3": -0.0,
            "4": -0.0,
            "5": -0.0,
            "6": -0.0,
            "7": -0.0,
            "8": -0.0,
            "9": -0.0,
            "10": -0.0,
            "11": -0.0,
            "12": -0.0,
            "13": -0.0,
            "14": -0.0,
            "15": -0.0,
            "16": -0.0,
            "17": -0.0,
            "18": -0.0,
            "19": -2.232932153132393E-8,
            "20": -2.232932153132393E-8
          },
          "personalWeight": -2.0988296793740533,
          "id": 22
        },
        {
          "learningRate": 0.3,
          "ID": 23,
          "value": 0.0,
          "layer": 1,
          "target": 3.836515785926635,
          "weights": {
            "0": 0.2873850464399987,
            "1": 0.8759473790399523,
            "2": 0.42831624412277164,
            "3": 0.7655295598906342,
            "4": -0.35681591179390454,
            "5": 0.5896348758363434,
            "6": 0.34464996521811114,
            "7": 0.17638693692355106,
            "8": 0.615083232260366,
            "9": 0.05506673122690043,
            "10": 0.1598701052802293,
            "11": 0.7719221400122336,
            "12": 0.03437721529749037,
            "13": 0.34569802047790354,
            "14": 0.08507838414689842,
            "15": 0.530957558298583,
            "16": 0.3840673420307839,
            "17": 0.6799126186408833,
            "18": 0.7178444374389024,
            "19": -3.9309348554176142,
            "20": -4.586217774889812
          },
          "weightChange": {
            "0": -0.0,
            "1": -0.0,
            "2": -0.0,
            "3": -0.0,
            "4": -0.0,
            "5": -0.0,
            "6": -0.0,
            "7": -0.0,
            "8": -0.0,
            "9": -0.0,
            "10": -0.0,
            "11": -0.0,
            "12": -0.0,
            "13": -0.0,
            "14": -0.0,
            "15": -0.0,
            "16": -0.0,
            "17": -0.0,
            "18": -0.0,
            "19": -3.876257069586585E-8,
            "20": -3.876257069586585E-8
          },
          "personalWeight": -2.069215988613727,
          "id": 23
        },
        {
          "learningRate": 0.3,
          "ID": 24,
          "value": 0.0,
          "layer": 1,
          "target": 0.8508193333967339,
          "weights": {
            "0": -0.21532618655522356,
            "1": 0.08348343760202913,
            "2": 0.5152875927152512,
            "3": 0.519208318733107,
            "4": 0.563397384910909,
            "5": 0.7883132180260648,
            "6": 0.6239233248559914,
            "7": 0.3886207692430609,
            "8": 0.6160497400268133,
            "9": -0.004080385685913077,
            "10": 0.8247857206125045,
            "11": 0.2174722681482672,
            "12": 0.8516156926847804,
            "13": 0.0020221738677007606,
            "14": 0.20436269577308921,
            "15": 0.2754274350040811,
            "16": 0.5169944033981578,
            "17": 0.7760687307307391,
            "18": 0.5020745347621427,
            "19": -4.123083635038586,
            "20": -3.9881372591266397
          },
          "weightChange": {
            "0": -0.0,
            "1": -0.0,
            "2": -0.0,
            "3": -0.0,
            "4": -0.0,
            "5": -0.0,
            "6": -0.0,
            "7": -0.0,
            "8": -0.0,
            "9": -0.0,
            "10": -0.0,
            "11": -0.0,
            "12": -0.0,
            "13": -0.0,
            "14": -0.0,
            "15": -0.0,
            "16": -0.0,
            "17": -0.0,
            "18": -0.0,
            "19": -3.616275150900805E-8,
            "20": -3.616275150900805E-8
          },
          "personalWeight": -1.4443848926471936,
          "id": 24
        },
        {
          "learningRate": 0.3,
          "ID": 25,
          "value": 0.0,
          "layer": 1,
          "target": 2.228555657170121,
          "weights": {
            "0": 0.7518235737252283,
            "1": -0.00948504270357816,
            "2": 0.39564885387113213,
            "3": 0.3358350239948398,
            "4": 0.2994087584257916,
            "5": 0.1723933704234566,
            "6": 0.6364600883518509,
            "7": 0.07552419425612338,
            "8": 0.6507746746039481,
            "9": 0.6022749327799527,
            "10": -0.010560608607940865,
            "11": 0.4929776964446013,
            "12": 0.2185558173741538,
            "13": 0.8324721810809892,
            "14": 0.7474827336284546,
            "15": 0.4480887798788261,
            "16": -0.05684566558083837,
            "17": 0.7517315139666626,
            "18": 0.3150703520434029,
            "19": -4.208692010615304,
            "20": -4.872899149253462
          },
          "weightChange": {
            "0": -0.0,
            "1": -0.0,
            "2": -0.0,
            "3": -0.0,
            "4": -0.0,
            "5": -0.0,
            "6": -0.0,
            "7": -0.0,
            "8": -0.0,
            "9": -0.0,
            "10": -0.0,
            "11": -0.0,
            "12": -0.0,
            "13": -0.0,
            "14": -0.0,
            "15": -0.0,
            "16": -0.0,
            "17": -0.0,
            "18": -0.0,
            "19": -1.2559897083239622E-8,
            "20": -1.2559897083239622E-8
          },
          "personalWeight": -1.524075005195201,
          "id": 25
        },
        {
          "learningRate": 0.3,
          "ID": 26,
          "value": 1.0,
          "layer": 1,
          "target": 6.707366690432503,
          "weights": {
            "0": 0.22402033973095883,
            "1": 0.8411086140552428,
            "2": 0.7020174851143335,
            "3": 0.17862489736395737,
            "4": 0.9626156470589781,
            "5": 0.4774972268287866,
            "6": 0.4872216536269635,
            "7": 0.5063007856753718,
            "8": 0.9254946353722582,
            "9": 0.3433295193374808,
            "10": 0.579420512190369,
            "11": 0.07306453497403444,
            "12": 0.7584658935485494,
            "13": 0.7819466810093261,
            "14": 0.4100148652012545,
            "15": 0.7875210519230448,
            "16": 0.25519016024013164,
            "17": 0.19055599400023676,
            "18": 0.26474610584592506,
            "19": 4.302117551984559,
            "20": 4.547307564702402
          },
          "weightChange": {
            "0": -0.0,
            "1": -0.0,
            "2": -0.0,
            "3": -0.0,
            "4": -0.0,
            "5": -0.0,
            "6": -0.0,
            "7": -0.0,
            "8": -0.0,
            "9": -0.0,
            "10": -0.0,
            "11": -0.0,
            "12": -0.0,
            "13": -0.0,
            "14": -0.0,
            "15": -0.0,
            "16": -0.0,
            "17": -0.0,
            "18": -0.0,
            "19": -1.51959930501908E-8,
            "20": -1.51959930501908E-8
          },
          "personalWeight": 2.738289193659445,
          "id": 26
        },
        {
          "learningRate": 0.3,
          "ID": 27,
          "value": 1.0,
          "layer": 1,
          "target": 7.7201265122383145,
          "weights": {
            "0": 0.14633182479032475,
            "1": 0.46066558910242844,
            "2": 0.27619391256095993,
            "3": 0.7605968789948249,
            "4": -0.041177635237976885,
            "5": 0.8906342799357266,
            "6": 0.9488561749776897,
            "7": 0.5659668929814042,
            "8": 0.8695961075257062,
            "9": 0.14734319741210447,
            "10": 0.9975264314654586,
            "11": 0.2216018313908251,
            "12": 1.090350767119079,
            "13": 0.4631454179832257,
            "14": 0.6980703233538301,
            "15": 0.04733420578159751,
            "16": 0.9440482207473624,
            "17": 0.8566500849632027,
            "18": 0.0783065981067785,
            "19": 4.490047467288468,
            "20": 4.358430361789975
          },
          "weightChange": {
            "0": -0.0,
            "1": -0.0,
            "2": -0.0,
            "3": -0.0,
            "4": -0.0,
            "5": -0.0,
            "6": -0.0,
            "7": -0.0,
            "8": -0.0,
            "9": -0.0,
            "10": -0.0,
            "11": -0.0,
            "12": -0.0,
            "13": -0.0,
            "14": -0.0,
            "15": -0.0,
            "16": -0.0,
            "17": -0.0,
            "18": -0.0,
            "19": -1.9530584886237375E-8,
            "20": -1.9530584886237375E-8
          },
          "personalWeight": 2.6525832923635595,
          "id": 27
        },
        {
          "learningRate": 0.3,
          "ID": 28,
          "value": 0.0,
          "layer": 1,
          "target": 1.2636302842868685,
          "weights": {
            "0": -0.12431002935569736,
            "1": 0.39559021017715373,
            "2": 0.7053020778775583,
            "3": 0.5157829835010784,
            "4": 0.3571803413947072,
            "5": 0.8612406398317742,
            "6": 0.3764215454957189,
            "7": 0.09133907858546429,
            "8": 0.33907535943645223,
            "9": -0.7474415774798484,
            "10": 0.4032189948791596,
            "11": 0.28846459632641397,
            "12": 0.4460275539866459,
            "13": 0.1978903415969171,
            "14": 0.1502599609778974,
            "15": 0.09305479212243542,
            "16": 0.4382065111290674,
            "17": 0.49135260296005734,
            "18": 0.8242436932023443,
            "19": -4.478543825617689,
            "20": -4.577267147756529
          },
          "weightChange": {
            "0": -0.0,
            "1": -0.0,
            "2": -0.0,
            "3": -0.0,
            "4": -0.0,
            "5": -0.0,
            "6": -0.0,
            "7": -0.0,
            "8": -0.0,
            "9": -0.0,
            "10": -0.0,
            "11": -0.0,
            "12": -0.0,
            "13": -0.0,
            "14": -0.0,
            "15": -0.0,
            "16": -0.0,
            "17": -0.0,
            "18": -0.0,
            "19": -6.168246671241048E-9,
            "20": -6.168246671241048E-9
          },
          "personalWeight": -1.719364992868312,
          "id": 28
        },
        {
          "learningRate": 0.3,
          "ID": 29,
          "value": 0.0,
          "layer": 1,
          "target": 2.115469688162435,
          "weights": {
            "0": 0.29384846880657706,
            "1": 0.30820577838501634,
            "2": 0.7043977847774153,
            "3": 0.5090466979341559,
            "4": 0.3165038954746919,
            "5": 0.4327589307666872,
            "6": 0.364543867287914,
            "7": 0.449677196884752,
            "8": 0.273791620698129,
            "9": -0.0371182071224447,
            "10": -0.35353574568967094,
            "11": 0.978923577508063,
            "12": 0.18130966543950283,
            "13": 0.03331531750737493,
            "14": 0.5529630946259034,
            "15": 0.39784597706327585,
            "16": 0.3186547464933402,
            "17": 0.4460928192618726,
            "18": 0.510707874872491,
            "19": -4.466168910028526,
            "20": -4.056742529925092
          },
          "weightChange": {
            "0": -0.0,
            "1": -0.0,
            "2": -0.0,
            "3": -0.0,
            "4": -0.0,
            "5": -0.0,
            "6": -0.0,
            "7": -0.0,
            "8": -0.0,
            "9": -0.0,
            "10": -0.0,
            "11": -0.0,
            "12": -0.0,
            "13": -0.0,
            "14": -0.0,
            "15": -0.0,
            "16": -0.0,
            "17": -0.0,
            "18": -0.0,
            "19": -1.8432173836223842E-8,
            "20": -1.8432173836223842E-8
          },
          "personalWeight": -2.205768676561099,
          "id": 29
        },
        {
          "learningRate": 0.3,
          "ID": 30,
          "value": 0.0,
          "layer": 1,
          "target": 1.4859732259665792,
          "weights": {
            "0": 0.488084201550577,
            "1": 0.1795430335361253,
            "2": 0.48943075673452974,
            "3": 0.6498848435032295,
            "4": 0.38321356604356366,
            "5": 0.1764901746261236,
            "6": 0.24560978317665455,
            "7": 0.3546432523141897,
            "8": 0.33373789953083144,
            "9": 0.7446767706596218,
            "10": -0.3314138909548227,
            "11": 0.23892108527795847,
            "12": 0.09582945652708996,
            "13": 0.3848415982549279,
            "14": 0.3556886626567919,
            "15": -0.15921063503423977,
            "16": 0.10008432925942283,
            "17": 0.54750902441382,
            "18": 0.02412413568444184,
            "19": -4.039599986987474,
            "20": -4.804224114226735
          },
          "weightChange": {
            "0": -0.0,
            "1": -0.0,
            "2": -0.0,
            "3": -0.0,
            "4": -0.0,
            "5": -0.0,
            "6": -0.0,
            "7": -0.0,
            "8": -0.0,
            "9": -0.0,
            "10": -0.0,
            "11": -0.0,
            "12": -0.0,
            "13": -0.0,
            "14": -0.0,
            "15": -0.0,
            "16": -0.0,
            "17": -0.0,
            "18": -0.0,
            "19": -7.387242616964511E-9,
            "20": -7.387242616964511E-9
          },
          "personalWeight": -2.1250799559192495,
          "id": 30
        },
        {
          "learningRate": 0.3,
          "ID": 31,
          "value": 1.0,
          "layer": 1,
          "target": 7.064912599043143,
          "weights": {
            "0": 0.42989617500112753,
            "1": 0.9113115912303357,
            "2": -0.04291318907790731,
            "3": 0.8117733727923879,
            "4": 0.2659241215383396,
            "5": 0.45403637699312,
            "6": 0.4762198248158125,
            "7": 0.8466728665829916,
            "8": 0.6864872384735676,
            "9": 0.4778968461187536,
            "10": 0.34572534572903846,
            "11": 0.7774678182256859,
            "12": 0.2945724887101361,
            "13": 0.4579233853370599,
            "14": 0.7822191892642556,
            "15": 0.770276801256311,
            "16": 0.47509892817380356,
            "17": 0.35144574067828227,
            "18": 0.6262395534782259,
            "19": 4.419564164013504,
            "20": 4.561018354939762
          },
          "weightChange": {
            "0": -0.0,
            "1": -0.0,
            "2": -0.0,
            "3": -0.0,
            "4": -0.0,
            "5": -0.0,
            "6": -0.0,
            "7": -0.0,
            "8": -0.0,
            "9": -0.0,
            "10": -0.0,
            "11": -0.0,
            "12": -0.0,
            "13": -0.0,
            "14": -0.0,
            "15": -0.0,
            "16": -0.0,
            "17": -0.0,
            "18": -0.0,
            "19": -2.7030680390704948E-8,
            "20": -2.7030680390704948E-8
          },
          "personalWeight": 1.9607964621481413,
          "id": 31
        },
        {
          "learningRate": 0.3,
          "ID": 32,
          "value": 0.0,
          "layer": 1,
          "target": 2.7558115501710616,
          "weights": {
            "0": 0.21058772488820818,
            "1": 0.03692973013468753,
            "2": 0.0801248633164496,
            "3": 0.45577363064460086,
            "4": 0.4815275840771728,
            "5": 0.24856632479246446,
            "6": 0.14612775641338072,
            "7": 0.4633447445243394,
            "8": 0.16344357440536736,
            "9": 0.022326482788051757,
            "10": 0.6282536462369939,
            "11": 0.8179874503068302,
            "12": 0.0770605926392876,
            "13": 0.4122882734283443,
            "14": 0.7137807711729179,
            "15": 0.051195969850759616,
            "16": 0.13063315980068443,
            "17": 0.7291808474315362,
            "18": 0.4310436564227259,
            "19": -4.192561942086359,
            "20": -4.271438908095312
          },
          "weightChange": {
            "0": -0.0,
            "1": -0.0,
            "2": -0.0,
            "3": -0.0,
            "4": -0.0,
            "5": -0.0,
            "6": -0.0,
            "7": -0.0,
            "8": -0.0,
            "9": -0.0,
            "10": -0.0,
            "11": -0.0,
            "12": -0.0,
            "13": -0.0,
            "14": -0.0,
            "15": -0.0,
            "16": -0.0,
            "17": -0.0,
            "18": -0.0,
            "19": -4.656166439699688E-8,
            "20": -4.656166439699688E-8
          },
          "personalWeight": -1.661344211232776,
          "id": 32
        },
        {
          "learningRate": 0.3,
          "ID": 33,
          "value": 1.0,
          "layer": 1,
          "target": 8.83859520809305,
          "weights": {
            "0": 0.19651522451737194,
            "1": 0.28345904223960927,
            "2": 0.522101563621441,
            "3": 0.7708531181952262,
            "4": 0.09279265859294185,
            "5": 0.6637697833025884,
            "6": 0.8899877361437664,
            "7": 0.6401376507509186,
            "8": 0.8002317706398216,
            "9": 0.4785585961528537,
            "10": 1.1413514424764024,
            "11": 0.9047334218697726,
            "12": 0.7510930978599473,
            "13": 0.5317607955298254,
            "14": 0.7868937815050777,
            "15": 0.4869640026088829,
            "16": 0.7106341681755672,
            "17": 0.6127022414170562,
            "18": 0.3257979614480079,
            "19": 4.673024457028926,
            "20": 4.459589255958756
          },
          "weightChange": {
            "0": -0.0,
            "1": -0.0,
            "2": -0.0,
            "3": -0.0,
            "4": -0.0,
            "5": -0.0,
            "6": -0.0,
            "7": -0.0,
            "8": -0.0,
            "9": -0.0,
            "10": -0.0,
            "11": -0.0,
            "12": -0.0,
            "13": -0.0,
            "14": -0.0,
            "15": -0.0,
            "16": -0.0,
            "17": -0.0,
            "18": -0.0,
            "19": -2.3664365098263316E-8,
            "20": -2.3664365098263316E-8
          },
          "personalWeight": 2.04627569309164,
          "id": 33
        },
        {
          "learningRate": 0.3,
          "ID": 34,
          "value": 0.0,
          "layer": 1,
          "target": 0.9742276166145688,
          "weights": {
            "0": 0.4543543365484332,
            "1": 0.6728795842409669,
            "2": -0.0932068682362856,
            "3": 0.01670268809089115,
            "4": -0.20037410026037797,
            "5": 0.7580757056667882,
            "6": 0.25739773195413784,
            "7": 0.6776730294030833,
            "8": 0.8347579877978526,
            "9": 0.41193890916753495,
            "10": 0.7733673951908214,
            "11": 0.7385854884896504,
            "12": 0.7017429243713136,
            "13": 0.05320880055733179,
            "14": 0.027142232679470184,
            "15": 0.2983764531466505,
            "16": 0.3990431135723949,
            "17": 0.8201193415433601,
            "18": 0.2935092052895349,
            "19": -3.700443523826134,
            "20": -4.2370500099391935
          },
          "weightChange": {
            "0": -0.0,
            "1": -0.0,
            "2": -0.0,
            "3": -0.0,
            "4": -0.0,
            "5": -0.0,
            "6": -0.0,
            "7": -0.0,
            "8": -0.0,
            "9": -0.0,
            "10": -0.0,
            "11": -0.0,
            "12": -0.0,
            "13": -0.0,
            "14": -0.0,
            "15": -0.0,
            "16": -0.0,
            "17": -0.0,
            "18": -0.0,
            "19": -3.946283106020174E-8,
            "20": -3.946283106020174E-8
          },
          "personalWeight": -1.839955056980987,
          "id": 34
        },
        {
          "learningRate": 0.3,
          "ID": 35,
          "value": 0.0,
          "layer": 1,
          "target": 1.8209240002320757,
          "weights": {
            "0": 0.5051128223765188,
            "1": 0.5719787580246157,
            "2": 0.43679473242564143,
            "3": 0.7226194028330784,
            "4": -0.3117268012173406,
            "5": 0.20936213092225764,
            "6": 0.5041246499064597,
            "7": 0.5269371623425593,
            "8": 0.9357520807899176,
            "9": 0.14773912411263201,
            "10": 0.43525652695407374,
            "11": 0.1256221420479182,
            "12": -0.06860143782521232,
            "13": 0.8846913480136014,
            "14": 0.010592820789961674,
            "15": -0.42729481920567575,
            "16": 0.35535932709419304,
            "17": 0.670435093207618,
            "18": 0.48223549137548455,
            "19": -4.508694762838029,
            "20": -4.4284470002250815
          },
          "weightChange": {
            "0": -0.0,
            "1": -0.0,
            "2": -0.0,
            "3": -0.0,
            "4": -0.0,
            "5": -0.0,
            "6": -0.0,
            "7": -0.0,
            "8": -0.0,
            "9": -0.0,
            "10": -0.0,
            "11": -0.0,
            "12": -0.0,
            "13": -0.0,
            "14": -0.0,
            "15": -0.0,
            "16": -0.0,
            "17": -0.0,
            "18": -0.0,
            "19": -9.742620037867711E-9,
            "20": -9.742620037867711E-9
          },
          "personalWeight": -1.864963154382755,
          "id": 35
        },
        {
          "learningRate": 0.3,
          "ID": 36,
          "value": 0.0,
          "layer": 1,
          "target": 2.9628837165389044,
          "weights": {
            "0": 0.537543077359155,
            "1": 0.4640780918154349,
            "2": 0.7638212503899313,
            "3": 0.5354459875675964,
            "4": 0.07875242309699512,
            "5": 0.23217971805658355,
            "6": 0.14505566898575203,
            "7": 0.4825826120435448,
            "8": 0.4769556178545597,
            "9": 0.435072293238624,
            "10": 0.23808416131346696,
            "11": 0.3455406149368545,
            "12": 0.5983277931688847,
            "13": 0.056766441834614434,
            "14": 0.3565286035540891,
            "15": 0.0670975772830276,
            "16": 0.08445914380596825,
            "17": 0.7065488676875982,
            "18": 0.2852530538137792,
            "19": -4.2423324205047575,
            "20": -4.224847028026541
          },
          "weightChange": {
            "0": -0.0,
            "1": -0.0,
            "2": -0.0,
            "3": -0.0,
            "4": -0.0,
            "5": -0.0,
            "6": -0.0,
            "7": -0.0,
            "8": -0.0,
            "9": -0.0,
            "10": -0.0,
            "11": -0.0,
            "12": -0.0,
            "13": -0.0,
            "14": -0.0,
            "15": -0.0,
            "16": -0.0,
            "17": -0.0,
            "18": -0.0,
            "19": -2.4885643458814392E-8,
            "20": -2.4885643458814392E-8
          },
          "personalWeight": -2.353925257703804,
          "id": 36
        },
        {
          "learningRate": 0.3,
          "ID": 37,
          "value": 1.0,
          "layer": 1,
          "target": 8.560383632696189,
          "weights": {
            "0": 0.5768655537647821,
            "1": 0.6455495581948388,
            "2": 0.4849403338181395,
            "3": 0.2779495339282647,
            "4": 0.1434161701217607,
            "5": 0.6299018830106016,
            "6": 0.6341326852835495,
            "7": 0.7707067142006773,
            "8": 0.0694128061278638,
            "9": 0.03561925991410569,
            "10": 0.16495114398545285,
            "11": 0.8284513992579154,
            "12": 0.7421934743333628,
            "13": 0.22893419263614034,
            "14": 1.0127755312016538,
            "15": 0.1229827558509049,
            "16": 1.003895972251354,
            "17": 0.5197920203213496,
            "18": 0.9711212983917836,
            "19": 4.36731302786076,
            "20": 4.484846897773875
          },
          "weightChange": {
            "0": -0.0,
            "1": -0.0,
            "2": -0.0,
            "3": -0.0,
            "4": -0.0,
            "5": -0.0,
            "6": -0.0,
            "7": -0.0,
            "8": -0.0,
            "9": -0.0,
            "10": -0.0,
            "11": -0.0,
            "12": -0.0,
            "13": -0.0,
            "14": -0.0,
            "15": -0.0,
            "16": -0.0,
            "17": -0.0,
            "18": -0.0,
            "19": -1.9289565986726458E-8,
            "20": -1.9289565986726458E-8
          },
          "personalWeight": 2.7754514379294353,
          "id": 37
        },
        {
          "learningRate": 0.3,
          "ID": 38,
          "value": 1.0,
          "layer": 1,
          "target": 8.03899683062263,
          "weights": {
            "0": 0.2111203830093135,
            "1": 0.9057580757919812,
            "2": 0.616119215375062,
            "3": 0.5742994969872679,
            "4": 0.24952091451594016,
            "5": 0.6790157375582395,
            "6": 0.875138112196688,
            "7": 0.9925230368935065,
            "8": 0.37897052473736315,
            "9": 0.7032757010887937,
            "10": 0.216487349032902,
            "11": 0.8014559534322906,
            "12": 0.4886691781309796,
            "13": 0.2392373224348009,
            "14": 0.8847866844523081,
            "15": 0.8013760120565327,
            "16": 0.9956925122807068,
            "17": 0.8907035737367015,
            "18": 0.08486767309176649,
            "19": 4.4200336484766085,
            "20": 4.530019669083617
          },
          "weightChange": {
            "0": -0.0,
            "1": -0.0,
            "2": -0.0,
            "3": -0.0,
            "4": -0.0,
            "5": -0.0,
            "6": -0.0,
            "7": -0.0,
            "8": -0.0,
            "9": -0.0,
            "10": -0.0,
            "11": -0.0,
            "12": -0.0,
            "13": -0.0,
            "14": -0.0,
            "15": -0.0,
            "16": -0.0,
            "17": -0.0,
            "18": -0.0,
            "19": -1.631335006877811E-8,
            "20": -1.631335006877811E-8
          },
          "personalWeight": 2.675788862772269,
          "id": 38
        },
        {
          "learningRate": 0.3,
          "ID": 39,
          "value": 1.0,
          "layer": 1,
          "target": 7.932635932243578,
          "weights": {
            "0": 0.2486625796895643,
            "1": 0.14605719422843058,
            "2": 0.3570551930197003,
            "3": 0.4218276264913823,
            "4": 0.27043787649644463,
            "5": 0.9237082957770456,
            "6": 0.45987063657382904,
            "7": 0.5202805853048567,
            "8": 0.8889333726807602,
            "9": 0.638888508505651,
            "10": 0.6068020877676268,
            "11": 0.9242970920451803,
            "12": 0.8318381143776244,
            "13": 0.37530085967408755,
            "14": 0.4595913287629185,
            "15": 0.18009742600333686,
            "16": 0.7653122941809665,
            "17": 0.6087229882048767,
            "18": 0.6178315004242637,
            "19": 4.599143706915333,
            "20": 4.578793712574726
          },
          "weightChange": {
            "0": -0.0,
            "1": -0.0,
            "2": -0.0,
            "3": -0.0,
            "4": -0.0,
            "5": -0.0,
            "6": -0.0,
            "7": -0.0,
            "8": -0.0,
            "9": -0.0,
            "10": -0.0,
            "11": -0.0,
            "12": -0.0,
            "13": -0.0,
            "14": -0.0,
            "15": -0.0,
            "16": -0.0,
            "17": -0.0,
            "18": -0.0,
            "19": -1.5433225529835426E-8,
            "20": -1.5433225529835426E-8
          },
          "personalWeight": 2.2602561490350443,
          "id": 39
        },
        {
          "learningRate": 0.3,
          "ID": 40,
          "value": 1.0,
          "layer": 1,
          "target": 6.469984853310206,
          "weights": {
            "0": 0.4555582350988682,
            "1": 0.5583458448876533,
            "2": 0.1920154641595785,
            "3": 0.1768394860602902,
            "4": 0.2930077272239797,
            "5": 0.3036571351670552,
            "6": 0.32433987310471313,
            "7": 0.38544349626667496,
            "8": 0.9867399843239297,
            "9": 0.3602998985301439,
            "10": 0.11671917076281674,
            "11": 0.4532091562271834,
            "12": 1.0554945861996239,
            "13": 0.9020434132688715,
            "14": 0.9903841200191273,
            "15": 0.14963560908823623,
            "16": 0.833148034854265,
            "17": 0.5356003624513443,
            "18": 0.6765595878720574,
            "19": 4.390775289944135,
            "20": 4.483264316546054
          },
          "weightChange": {
            "0": -0.0,
            "1": -0.0,
            "2": -0.0,
            "3": -0.0,
            "4": -0.0,
            "5": -0.0,
            "6": -0.0,
            "7": -0.0,
            "8": -0.0,
            "9": -0.0,
            "10": -0.0,
            "11": -0.0,
            "12": -0.0,
            "13": -0.0,
            "14": -0.0,
            "15": -0.0,
            "16": -0.0,
            "17": -0.0,
            "18": -0.0,
            "19": -1.4382133385319505E-8,
            "20": -1.4382133385319505E-8
          },
          "personalWeight": 2.7016233616424223,
          "id": 40
        },
        {
          "learningRate": 0.3,
          "ID": 41,
          "value": 0.0,
          "layer": 1,
          "target": 1.0394641702976892,
          "weights": {
            "0": 0.19166092399313414,
            "1": 0.19115117286348995,
            "2": 0.2740626177047254,
            "3": 0.18068649109404578,
            "4": -0.32716585762417016,
            "5": 0.32273226974482666,
            "6": 0.3706502668433653,
            "7": 0.32190543075448697,
            "8": -0.09391004582616214,
            "9": -0.5638891831017284,
            "10": 0.804421857975163,
            "11": 0.8651161263801985,
            "12": 0.19347777752948547,
            "13": 0.055434500681492804,
            "14": 0.4168734550066773,
            "15": 0.357006418176456,
            "16": 0.7979895492427446,
            "17": 0.41554334193995185,
            "18": 0.0815960085285709,
            "19": -4.064292795509924,
            "20": -4.632458834338739
          },
          "weightChange": {
            "0": -0.0,
            "1": -0.0,
            "2": -0.0,
            "3": -0.0,
            "4": -0.0,
            "5": -0.0,
            "6": -0.0,
            "7": -0.0,
            "8": -0.0,
            "9": -0.0,
            "10": -0.0,
            "11": -0.0,
            "12": -0.0,
            "13": -0.0,
            "14": -0.0,
            "15": -0.0,
            "16": -0.0,
            "17": -0.0,
            "18": -0.0,
            "19": -8.88838906129499E-9,
            "20": -8.88838906129499E-9
          },
          "personalWeight": -1.8768689915225878,
          "id": 41
        },
        {
          "learningRate": 0.3,
          "ID": 42,
          "value": 0.0,
          "layer": 1,
          "target": 1.712236344999311,
          "weights": {
            "0": 0.350798195349625,
            "1": 0.799100622645717,
            "2": 0.08005777381030807,
            "3": 0.8765776426169017,
            "4": -0.041909771084015064,
            "5": 0.28482520004344136,
            "6": 0.2356713882117774,
            "7": 0.7591484480199556,
            "8": 0.3806983642441475,
            "9": 0.2580709327243209,
            "10": 0.19629274905807753,
            "11": 0.9709599659647881,
            "12": 0.7779377505137308,
            "13": 0.1936140851121333,
            "14": 0.7407206444104751,
            "15": -0.05427631437166042,
            "16": 0.191993897533373,
            "17": 0.709967080230142,
            "18": 0.13246498102666068,
            "19": -4.467027614411435,
            "20": -4.491871907469625
          },
          "weightChange": {
            "0": -0.0,
            "1": -0.0,
            "2": -0.0,
            "3": -0.0,
            "4": -0.0,
            "5": -0.0,
            "6": -0.0,
            "7": -0.0,
            "8": -0.0,
            "9": -0.0,
            "10": -0.0,
            "11": -0.0,
            "12": -0.0,
            "13": -0.0,
            "14": -0.0,
            "15": -0.0,
            "16": -0.0,
            "17": -0.0,
            "18": -0.0,
            "19": -1.0614661291867288E-8,
            "20": -1.0614661291867288E-8
          },
          "personalWeight": -1.6741777557942685,
          "id": 42
        },
        {
          "learningRate": 0.3,
          "ID": 43,
          "value": 0.0,
          "layer": 1,
          "target": 2.820411920083096,
          "weights": {
            "0": 0.4946493693201126,
            "1": 0.8634896487767554,
            "2": 0.7663228232295648,
            "3": 0.8276744740917724,
            "4": -0.2592597474618107,
            "5": 0.5936021788096429,
            "6": 0.15045533055232288,
            "7": 0.027643133144608235,
            "8": 0.8782919010034477,
            "9": -0.4523666287056862,
            "10": 0.16232370176772168,
            "11": 0.8290519410771101,
            "12": 0.6374989205539078,
            "13": 0.9460206133765979,
            "14": 0.6907523114582739,
            "15": 0.46049106133575535,
            "16": 0.0077935721003679235,
            "17": 0.8161978537081199,
            "18": 0.13130765171886583,
            "19": -4.391419803085263,
            "20": -4.665138734454783
          },
          "weightChange": {
            "0": -0.0,
            "1": -0.0,
            "2": -0.0,
            "3": -0.0,
            "4": -0.0,
            "5": -0.0,
            "6": -0.0,
            "7": -0.0,
            "8": -0.0,
            "9": -0.0,
            "10": -0.0,
            "11": -0.0,
            "12": -0.0,
            "13": -0.0,
            "14": -0.0,
            "15": -0.0,
            "16": -0.0,
            "17": -0.0,
            "18": -0.0,
            "19": -1.4753312712397135E-8,
            "20": -1.4753312712397135E-8
          },
          "personalWeight": -1.648710755254737,
          "id": 43
        },
        {
          "learningRate": 0.3,
          "ID": 44,
          "value": 1.0,
          "layer": 1,
          "target": 9.011735316368757,
          "weights": {
            "0": 0.5263617411146477,
            "1": 0.5391114712160736,
            "2": 0.6704533180573409,
            "3": 0.5708623823396451,
            "4": 0.9687143467454895,
            "5": 0.7896465543872738,
            "6": 0.6750468781857774,
            "7": 0.40694067375469567,
            "8": 0.5506294307152982,
            "9": 0.30760154193608524,
            "10": 0.5771734104993325,
            "11": 0.4811618482099468,
            "12": 0.8754526579484836,
            "13": 0.13226778453035648,
            "14": 0.5153538179804978,
            "15": 0.2737342520269943,
            "16": 0.36404085547356396,
            "17": 0.5373003603470458,
            "18": 0.30813239577229967,
            "19": 4.519323800172797,
            "20": 4.580760681109605
          },
          "weightChange": {
            "0": -0.0,
            "1": -0.0,
            "2": -0.0,
            "3": -0.0,
            "4": -0.0,
            "5": -0.0,
            "6": -0.0,
            "7": -0.0,
            "8": -0.0,
            "9": -0.0,
            "10": -0.0,
            "11": -0.0,
            "12": -0.0,
            "13": -0.0,
            "14": -0.0,
            "15": -0.0,
            "16": -0.0,
            "17": -0.0,
            "18": -0.0,
            "19": -1.9005518486949693E-8,
            "20": -1.9005518486949693E-8
          },
          "personalWeight": 2.352422649829216,
          "id": 44
        },
        {
          "learningRate": 0.3,
          "ID": 45,
          "value": 0.0,
          "layer": 1,
          "target": 1.314398484701974,
          "weights": {
            "0": 0.28770577018860816,
            "1": 0.3186261502249143,
            "2": 0.622781276529238,
            "3": 0.7919501300852648,
            "4": 0.060101256715501795,
            "5": 0.6661010856692589,
            "6": 0.31352127402043045,
            "7": 0.24808063844274203,
            "8": 0.8147606328487366,
            "9": -0.026151891456006,
            "10": 0.30929303195949515,
            "11": 0.09245556918269739,
            "12": 0.069596205064732,
            "13": 0.05116546004726663,
            "14": 0.7960450925444512,
            "15": 0.6417016761108252,
            "16": 0.24092670045897585,
            "17": 0.6009824523819467,
            "18": 0.28746495388413146,
            "19": -4.18496096745006,
            "20": -4.497547663457113
          },
          "weightChange": {
            "0": -0.0,
            "1": -0.0,
            "2": -0.0,
            "3": -0.0,
            "4": -0.0,
            "5": -0.0,
            "6": -0.0,
            "7": -0.0,
            "8": -0.0,
            "9": -0.0,
            "10": -0.0,
            "11": -0.0,
            "12": -0.0,
            "13": -0.0,
            "14": -0.0,
            "15": -0.0,
            "16": -0.0,
            "17": -0.0,
            "18": -0.0,
            "19": -1.625301820662996E-8,
            "20": -1.625301820662996E-8
          },
          "personalWeight": -1.536495719599754,
          "id": 45
        },
        {
          "learningRate": 0.3,
          "ID": 46,
          "value": 1.0,
          "layer": 2,
          "target": 0.9999999921725008,
          "weights": {
            "21": 0.9607481726284475,
            "22": 0.9933602188872285,
            "23": 0.925256919037442,
            "24": 0.3429099898784373,
            "25": 0.34951613195172704,
            "26": 2.3712443475191876,
            "27": 1.603560925900743,
            "28": 0.7870268316006989,
            "29": 0.8551006138577635,
            "30": 0.881106551530947,
            "31": 1.757383973900717,
            "32": 0.17725535506251533,
            "33": 1.458869493269684,
            "34": 0.7892649132585974,
            "35": 0.7871912741079098,
            "36": 0.3070877338515003,
            "37": 1.5414035087082492,
            "38": 1.7749825738045961,
            "39": 2.0886762910351284,
            "40": 2.3975155089917553,
            "41": 0.48147001365959413,
            "42": 0.4248298143844738,
            "43": 0.07517114117124525,
            "44": 1.8721839627299914,
            "45": 0.032640804439514795
          },
          "weightChange": {
            "21": 0.0,
            "22": 0.0,
            "23": 0.0,
            "24": 0.0,
            "25": 0.0,
            "26": 0.0,
            "27": 0.0,
            "28": 0.0,
            "29": 0.0,
            "30": 0.0,
            "31": 0.0,
            "32": 0.0,
            "33": 0.0,
            "34": 0.0,
            "35": 0.0,
            "36": 0.0,
            "37": 0.0,
            "38": 0.0,
            "39": 0.0,
            "40": 0.0,
            "41": 0.0,
            "42": 0.0,
            "43": 0.0,
            "44": 0.0,
            "45": 0.0
          },
          "personalWeight": 1.7998021392615284,
          "id": 46
        },
        {
          "learningRate": 0.3,
          "ID": 47,
          "value": 1.0,
          "layer": 2,
          "target": 0.9999999997287139,
          "weights": {
            "21": 0.323427555248511,
            "22": 0.49399479367603755,
            "23": 0.4512913270472515,
            "24": 0.8107974138950402,
            "25": 0.8513090803591978,
            "26": 2.478837309347099,
            "27": 2.1999072781838303,
            "28": 0.3055440693191247,
            "29": 0.48991915759055005,
            "30": 0.597633104136822,
            "31": 2.5698226110178757,
            "32": 0.8428995161133149,
            "33": 2.43360590435873,
            "34": 0.5081059720881972,
            "35": 0.32202178356824485,
            "36": 0.5794968450986612,
            "37": 1.9793431868760782,
            "38": 1.7939416059000886,
            "39": 2.3927285185743083,
            "40": 2.2478685913759406,
            "41": 0.2662102230747718,
            "42": 0.8681839034277969,
            "43": 0.2701500312070712,
            "44": 1.980704633214297,
            "45": 0.33388580275496066
          },
          "weightChange": {
            "21": 0.0,
            "22": 0.0,
            "23": 0.0,
            "24": 0.0,
            "25": 0.0,
            "26": 0.0,
            "27": 0.0,
            "28": 0.0,
            "29": 0.0,
            "30": 0.0,
            "31": 0.0,
            "32": 0.0,
            "33": 0.0,
            "34": 0.0,
            "35": 0.0,
            "36": 0.0,
            "37": 0.0,
            "38": 0.0,
            "39": 0.0,
            "40": 0.0,
            "41": 0.0,
            "42": 0.0,
            "43": 0.0,
            "44": 0.0,
            "45": 0.0
          },
          "personalWeight": 1.9510873733109744,
          "id": 47
        },
        {
          "learningRate": 0.3,
          "ID": 48,
          "value": 1.0,
          "layer": 2,
          "target": 5.0,
          "weights": {
            "21": 0.25778267729848275,
            "22": 0.4026235838640957,
            "23": 0.9591289384129321,
            "24": 0.21270482652694456,
            "25": 0.5571389096347028,
            "26": 1.4268416968761666,
            "27": 1.6800316505615065,
            "28": 0.31590756821993193,
            "29": 0.5288674171987462,
            "30": 0.3714933032341916,
            "31": 1.5162281736188554,
            "32": 0.688952880542124,
            "33": 1.9596488225551696,
            "34": 0.24355689736206543,
            "35": 0.45523099615899865,
            "36": 0.7407209228288343,
            "37": 1.8900959291410426,
            "38": 1.7597492295183368,
            "39": 1.7331590051008277,
            "40": 1.3674962380125402,
            "41": 0.2598660396616007,
            "42": 0.4280590824374981,
            "43": 0.7051029743636474,
            "44": 2.002933849236112,
            "45": 0.32859961729814885
          },
          "weightChange": {
            "21": -2.4335221219811037E-16,
            "22": -7.870586825042148E-16,
            "23": -5.735435143704438E-16,
            "24": -2.4127644531153835E-15,
            "25": -3.1992883623239377E-16,
            "26": -1.1353265226498379E-7,
            "27": -1.1353265225114644E-7,
            "28": -2.7709742996542963E-16,
            "29": -4.946073230350964E-16,
            "30": -2.8220335238123267E-16,
            "31": -1.1353265216312385E-7,
            "32": -9.59112991676677E-16,
            "33": -1.1353265224475044E-7,
            "34": -2.2994216082516242E-15,
            "35": -3.037209402547E-16,
            "36": -4.767877168212639E-16,
            "37": -1.1353265227129179E-7,
            "38": -1.1353265228456563E-7,
            "39": -1.1353265228975393E-7,
            "40": -1.1353265226687074E-7,
            "41": -4.854050880904494E-16,
            "42": -3.5191130605336394E-16,
            "43": -2.9693937934564916E-16,
            "44": -1.1353265228146378E-7,
            "45": -7.019364022140341E-16
          },
          "personalWeight": 2.041293225009367,
          "id": 48
        },
        {
          "learningRate": 0.3,
          "ID": 49,
          "value": 1.0,
          "layer": 2,
          "target": 0.98604102187348,
          "weights": {
            "21": 0.6232862318441206,
            "22": 0.155212628481863,
            "23": 0.5884561054054704,
            "24": 0.8851197895792654,
            "25": 0.8761278408741047,
            "26": 0.3538838993962895,
            "27": 0.503579385317523,
            "28": 0.5684014443069828,
            "29": 0.4600361587398041,
            "30": 0.6491032269454395,
            "31": 0.9494852817240009,
            "32": 0.31053506162183964,
            "33": 0.1286233461940015,
            "34": 0.46687459570828604,
            "35": 0.14299292781218942,
            "36": 0.6040869030011058,
            "37": 0.09951068067940327,
            "38": 0.22946262263876804,
            "39": 0.6070020275226512,
            "40": 0.1523095670252851,
            "41": 0.1846349760481084,
            "42": 0.30974736511040246,
            "43": 0.7135158443057333,
            "44": 0.7126727037781965,
            "45": 0.9870233997336169
          },
          "weightChange": {
            "21": 0.0,
            "22": 0.0,
            "23": 0.0,
            "24": 0.0,
            "25": 0.0,
            "26": 0.0,
            "27": 0.0,
            "28": 0.0,
            "29": 0.0,
            "30": 0.0,
            "31": 0.0,
            "32": 0.0,
            "33": 0.0,
            "34": 0.0,
            "35": 0.0,
            "36": 0.0,
            "37": 0.0,
            "38": 0.0,
            "39": 0.0,
            "40": 0.0,
            "41": 0.0,
            "42": 0.0,
            "43": 0.0,
            "44": 0.0,
            "45": 0.0
          },
          "personalWeight": 0.5210454984876544,
          "id": 49
        },
        {
          "learningRate": 0.3,
          "ID": 50,
          "value": 0.0,
          "layer": 2,
          "target": 4.6104494917878724E-5,
          "weights": {
            "21": 0.7036100262842504,
            "22": 0.12667793143201186,
            "23": 0.8933026148570082,
            "24": 0.22849141487570915,
            "25": 0.6483595331088842,
            "26": -1.4884130688710517,
            "27": -1.3503505638362276,
            "28": 0.08647950376631051,
            "29": 0.25694350240563185,
            "30": 0.018530993932375443,
            "31": -1.0026832822432565,
            "32": 0.7270301781911689,
            "33": -0.8505244816299832,
            "34": 0.5199399245423312,
            "35": 0.09791080005681588,
            "36": 0.047844755907688184,
            "37": -1.086079475798792,
            "38": -0.7049418188919925,
            "39": -0.8992855992177892,
            "40": -1.0931504294154988,
            "41": 0.8689461611339766,
            "42": 0.04557662664890535,
            "43": 0.5016572591564401,
            "44": -0.566091005528969,
            "45": 0.35664441681704845
          },
          "weightChange": {
            "21": 0.0,
            "22": 0.0,
            "23": 0.0,
            "24": 0.0,
            "25": 0.0,
            "26": 0.0,
            "27": 0.0,
            "28": 0.0,
            "29": 0.0,
            "30": 0.0,
            "31": 0.0,
            "32": 0.0,
            "33": 0.0,
            "34": 0.0,
            "35": 0.0,
            "36": 0.0,
            "37": 0.0,
            "38": 0.0,
            "39": 0.0,
            "40": 0.0,
            "41": 0.0,
            "42": 0.0,
            "43": 0.0,
            "44": 0.0,
            "45": 0.0
          },
          "personalWeight": -0.9430343303231061,
          "id": 50
        },
        {
          "learningRate": 0.3,
          "ID": 51,
          "value": 1.0,
          "layer": 2,
          "target": 1.0,
          "weights": {
            "21": 0.396359685726761,
            "22": 0.47550161575866007,
            "23": 0.4124814608790954,
            "24": 0.12846971297394263,
            "25": 0.3755119032327528,
            "26": 3.9640029114053403,
            "27": 4.179728351854346,
            "28": 0.2406164384159673,
            "29": 0.3088172899515859,
            "30": 0.919309314995404,
            "31": 3.9130234575544005,
            "32": 0.7051136043894073,
            "33": 4.191644500008358,
            "34": 0.48615123105243613,
            "35": 0.669610036061408,
            "36": 0.9967987345502782,
            "37": 3.854694113093223,
            "38": 3.855118227249178,
            "39": 4.1082314741173285,
            "40": 3.725698117227052,
            "41": 0.6928008287571701,
            "42": 0.34236110041645584,
            "43": 0.6828622360148052,
            "44": 3.7490390857749305,
            "45": 0.6359848933090246
          },
          "weightChange": {
            "21": 0.0,
            "22": 0.0,
            "23": 0.0,
            "24": 0.0,
            "25": 0.0,
            "26": 0.0,
            "27": 0.0,
            "28": 0.0,
            "29": 0.0,
            "30": 0.0,
            "31": 0.0,
            "32": 0.0,
            "33": 0.0,
            "34": 0.0,
            "35": 0.0,
            "36": 0.0,
            "37": 0.0,
            "38": 0.0,
            "39": 0.0,
            "40": 0.0,
            "41": 0.0,
            "42": 0.0,
            "43": 0.0,
            "44": 0.0,
            "45": 0.0
          },
          "personalWeight": 3.8691714479263704,
          "id": 51
        },
        {
          "learningRate": 0.3,
          "ID": 52,
          "value": 0.0,
          "layer": 2,
          "target": 2.9455574385360366E-4,
          "weights": {
            "21": 0.9230133529222377,
            "22": 0.15434464665139913,
            "23": 0.032481796743655554,
            "24": 0.6273931838844354,
            "25": 0.034351551731294915,
            "26": -0.8001230117241337,
            "27": -1.205598615527656,
            "28": 0.6179539524052542,
            "29": 0.6153275874413672,
            "30": 0.7334205965131407,
            "31": -0.41027174499993885,
            "32": 0.7067280971573968,
            "33": -0.8672113078283297,
            "34": 0.3891681637487524,
            "35": 0.7946390522807423,
            "36": 0.5785570067235112,
            "37": -0.4267242241269964,
            "38": -1.3525268445858183,
            "39": -0.5920926408397978,
            "40": -0.8418931949450114,
            "41": 0.7366421681268294,
            "42": 0.1869841341893712,
            "43": 0.8699048377929386,
            "44": -1.1113732906698484,
            "45": 0.3877125564520644
          },
          "weightChange": {
            "21": 0.0,
            "22": 0.0,
            "23": 0.0,
            "24": 0.0,
            "25": 0.0,
            "26": 0.0,
            "27": 0.0,
            "28": 0.0,
            "29": 0.0,
            "30": 0.0,
            "31": 0.0,
            "32": 0.0,
            "33": 0.0,
            "34": 0.0,
            "35": 0.0,
            "36": 0.0,
            "37": 0.0,
            "38": 0.0,
            "39": 0.0,
            "40": 0.0,
            "41": 0.0,
            "42": 0.0,
            "43": 0.0,
            "44": 0.0,
            "45": 0.0
          },
          "personalWeight": -0.5219328750684032,
          "id": 52
        },
        {
          "learningRate": 0.3,
          "ID": 53,
          "value": 0.0,
          "layer": 2,
          "target": 1.6190465011938466E-4,
          "weights": {
            "21": 0.07109071135541829,
            "22": 0.50993189867489,
            "23": 0.11327950024267087,
            "24": 0.12438963086766705,
            "25": 0.4783874342760025,
            "26": -0.7355371016981984,
            "27": -1.0160261414381357,
            "28": 0.5557326260821706,
            "29": 0.6133701712257508,
            "30": 0.1787598864130018,
            "31": -0.10566835210784573,
            "32": 0.9482497965234327,
            "33": -1.0311323962348264,
            "34": 0.7905599410074267,
            "35": 0.47748033291649333,
            "36": 0.0818630369827821,
            "37": -0.5718316889410433,
            "38": -1.2177656696159207,
            "39": -0.7470550986418846,
            "40": -0.933681656542243,
            "41": 0.1986286117142919,
            "42": 0.31315382057825863,
            "43": 0.4546089195603754,
            "44": -1.1315590993272333,
            "45": 0.7925391080724264
          },
          "weightChange": {
            "21": 0.0,
            "22": 0.0,
            "23": 0.0,
            "24": 0.0,
            "25": 0.0,
            "26": 0.0,
            "27": 0.0,
            "28": 0.0,
            "29": 0.0,
            "30": 0.0,
            "31": 0.0,
            "32": 0.0,
            "33": 0.0,
            "34": 0.0,
            "35": 0.0,
            "36": 0.0,
            "37": 0.0,
            "38": 0.0,
            "39": 0.0,
            "40": 0.0,
            "41": 0.0,
            "42": 0.0,
            "43": 0.0,
            "44": 0.0,
            "45": 0.0
          },
          "personalWeight": -1.238083909283131,
          "id": 53
        },
        {
          "learningRate": 0.3,
          "ID": 54,
          "value": 0.0,
          "layer": 2,
          "target": 1.8680141580742213E-4,
          "weights": {
            "21": 0.5539598682272343,
            "22": 0.24948980628358824,
            "23": 0.5128692677860027,
            "24": 0.5236515499928845,
            "25": 0.8574182606147436,
            "26": -1.4368334687469386,
            "27": -1.1840433188431734,
            "28": 0.950304038599147,
            "29": 0.3389801250259609,
            "30": 0.21487795429796372,
            "31": 0.5707788005459506,
            "32": 0.04573137499157133,
            "33": -1.3737084571284637,
            "34": 0.6027133978033307,
            "35": 0.026005299269978705,
            "36": 0.06132046083468965,
            "37": -1.2129499561325305,
            "38": -0.539478548939986,
            "39": -1.1305737153609787,
            "40": -0.7799299892469698,
            "41": 0.32075204166008003,
            "42": 0.8825531602283858,
            "43": 0.5782134396241719,
            "44": -0.7207041966048621,
            "45": 0.1630503012396463
          },
          "weightChange": {
            "21": 0.0,
            "22": 0.0,
            "23": 0.0,
            "24": 0.0,
            "25": 0.0,
            "26": 0.0,
            "27": 0.0,
            "28": 0.0,
            "29": 0.0,
            "30": 0.0,
            "31": 0.0,
            "32": 0.0,
            "33": 0.0,
            "34": 0.0,
            "35": 0.0,
            "36": 0.0,
            "37": 0.0,
            "38": 0.0,
            "39": 0.0,
            "40": 0.0,
            "41": 0.0,
            "42": 0.0,
            "43": 0.0,
            "44": 0.0,
            "45": 0.0
          },
          "personalWeight": -0.77783483628275,
          "id": 54
        },
        {
          "learningRate": 0.3,
          "ID": 55,
          "value": 0.0,
          "layer": 2,
          "target": 2.114685570172449E-9,
          "weights": {
            "21": 0.9461630094558751,
            "22": 0.2651268660048518,
            "23": 0.4749132881077637,
            "24": 0.0733761437348404,
            "25": 0.6810700889396493,
            "26": -2.0259209510825635,
            "27": -1.8122872980439115,
            "28": 0.870241306134174,
            "29": 0.47336249016342136,
            "30": 0.848565339608387,
            "31": -1.2168317300739073,
            "32": 0.26809871827866943,
            "33": -1.7557635811407637,
            "34": 0.11060185451496289,
            "35": 0.8380564177081222,
            "36": 0.5278319526942138,
            "37": -2.0584041914634477,
            "38": -2.3530517400802227,
            "39": -2.3499185521432877,
            "40": -2.0287097695165865,
            "41": 0.489322673514723,
            "42": 0.6561138142047959,
            "43": 0.8204964258314363,
            "44": -2.240774125977888,
            "45": 0.33812552513306027
          },
          "weightChange": {
            "21": 0.0,
            "22": 0.0,
            "23": 0.0,
            "24": 0.0,
            "25": 0.0,
            "26": 0.0,
            "27": 0.0,
            "28": 0.0,
            "29": 0.0,
            "30": 0.0,
            "31": 0.0,
            "32": 0.0,
            "33": 0.0,
            "34": 0.0,
            "35": 0.0,
            "36": 0.0,
            "37": 0.0,
            "38": 0.0,
            "39": 0.0,
            "40": 0.0,
            "41": 0.0,
            "42": 0.0,
            "43": 0.0,
            "44": 0.0,
            "45": 0.0
          },
          "personalWeight": -2.1326978177986247,
          "id": 55
        },
        {
          "learningRate": 0.3,
          "ID": 56,
          "value": 0.0,
          "layer": 2,
          "target": 2.7600835534096613E-4,
          "weights": {
            "21": 0.3686344678020379,
            "22": 0.2652563131045467,
            "23": 0.38885188140732424,
            "24": 0.5991863542878634,
            "25": 0.3782491974975648,
            "26": -0.494041455654628,
            "27": -1.0471668325986376,
            "28": 0.2764773548561181,
            "29": 0.4017244510687295,
            "30": 0.4113433062625627,
            "31": 0.16472780124387468,
            "32": 0.7343326910733089,
            "33": -1.237748623596612,
            "34": 0.15789170519067386,
            "35": 0.6052485351219844,
            "36": 0.48593735444841074,
            "37": -1.0351811140856082,
            "38": -1.3499196076888251,
            "39": -0.8679035984319639,
            "40": -0.4570201288635895,
            "41": 0.05186164937385586,
            "42": 0.09016052366031266,
            "43": 0.3661672926232274,
            "44": -0.6550462887270179,
            "45": 0.640268390251469
          },
          "weightChange": {
            "21": 0.0,
            "22": 0.0,
            "23": 0.0,
            "24": 0.0,
            "25": 0.0,
            "26": 0.0,
            "27": 0.0,
            "28": 0.0,
            "29": 0.0,
            "30": 0.0,
            "31": 0.0,
            "32": 0.0,
            "33": 0.0,
            "34": 0.0,
            "35": 0.0,
            "36": 0.0,
            "37": 0.0,
            "38": 0.0,
            "39": 0.0,
            "40": 0.0,
            "41": 0.0,
            "42": 0.0,
            "43": 0.0,
            "44": 0.0,
            "45": 0.0
          },
          "personalWeight": -1.2155035741036635,
          "id": 56
        },
        {
          "learningRate": 0.3,
          "ID": 57,
          "value": 0.0,
          "layer": 2,
          "target": 1.6486250973754722E-4,
          "weights": {
            "21": 0.7028900767575058,
            "22": 0.09187794861864623,
            "23": 0.709682783196385,
            "24": 0.6825433675919202,
            "25": 0.29188705820024563,
            "26": -0.6062980361912866,
            "27": -1.0604086533603743,
            "28": 0.8455152662595796,
            "29": 0.33222431503900246,
            "30": 0.11186552378879999,
            "31": 0.08432789293300197,
            "32": 0.6250520344604376,
            "33": -0.903698108838907,
            "34": 0.0747203408177626,
            "35": 0.06314053876174393,
            "36": 0.7934156880933623,
            "37": -1.082424248140063,
            "38": -0.9515218928302609,
            "39": -0.7618183290939107,
            "40": -1.2923609068157456,
            "41": 0.6321598765427242,
            "42": 0.7258932739781017,
            "43": 0.45775221494301216,
            "44": -1.0470562387159135,
            "45": 0.22656013476306755
          },
          "weightChange": {
            "21": 0.0,
            "22": 0.0,
            "23": 0.0,
            "24": 0.0,
            "25": 0.0,
            "26": 0.0,
            "27": 0.0,
            "28": 0.0,
            "29": 0.0,
            "30": 0.0,
            "31": 0.0,
            "32": 0.0,
            "33": 0.0,
            "34": 0.0,
            "35": 0.0,
            "36": 0.0,
            "37": 0.0,
            "38": 0.0,
            "39": 0.0,
            "40": 0.0,
            "41": 0.0,
            "42": 0.0,
            "43": 0.0,
            "44": 0.0,
            "45": 0.0
          },
          "personalWeight": -1.0889753610806021,
          "id": 57
        },
        {
          "learningRate": 0.3,
          "ID": 58,
          "value": 1.0,
          "layer": 2,
          "target": 0.9967766556233,
          "weights": {
            "21": 0.025628995060282933,
            "22": 0.10629947079354085,
            "23": 0.7179877836280365,
            "24": 0.03890333416642544,
            "25": 0.7013697051415776,
            "26": 0.5808351081446816,
            "27": 0.4783607924267781,
            "28": 0.11114018610571375,
            "29": 0.5955774554042804,
            "30": 0.439243794204626,
            "31": 0.36891321478521866,
            "32": 0.17120844590654483,
            "33": 0.27794911926872334,
            "34": 0.24136969209375847,
            "35": 0.6874091498358764,
            "36": 0.362272505305657,
            "37": 0.933580520860778,
            "38": 0.950338982016418,
            "39": 0.8279971882027614,
            "40": 0.4009853783247477,
            "41": 0.5381888043945843,
            "42": 0.08782702455649749,
            "43": 0.7553452607541573,
            "44": 0.33463538156296946,
            "45": 0.3413725702100572
          },
          "weightChange": {
            "21": 0.0,
            "22": 0.0,
            "23": 0.0,
            "24": 0.0,
            "25": 0.0,
            "26": 0.0,
            "27": 0.0,
            "28": 0.0,
            "29": 0.0,
            "30": 0.0,
            "31": 0.0,
            "32": 0.0,
            "33": 0.0,
            "34": 0.0,
            "35": 0.0,
            "36": 0.0,
            "37": 0.0,
            "38": 0.0,
            "39": 0.0,
            "40": 0.0,
            "41": 0.0,
            "42": 0.0,
            "43": 0.0,
            "44": 0.0,
            "45": 0.0
          },
          "personalWeight": 0.5805115752992138,
          "id": 58
        },
        {
          "learningRate": 0.3,
          "ID": 59,
          "value": 1.0,
          "layer": 2,
          "target": 0.9995452843907164,
          "weights": {
            "21": 0.29241904895352944,
            "22": 0.696514651700432,
            "23": 0.7854039058416704,
            "24": 0.30426150780639205,
            "25": 0.27310723515249324,
            "26": 0.8784710105630106,
            "27": 0.5240740270927062,
            "28": 0.6177363877750222,
            "29": 0.7935978759882918,
            "30": 0.16397886523788585,
            "31": 0.8521912604531939,
            "32": 0.5127306232673836,
            "33": 0.7863250929659148,
            "34": 0.11475597641961544,
            "35": 0.5592114862102431,
            "36": 0.08707715878420008,
            "37": 0.4782216225971716,
            "38": 0.6995518136994361,
            "39": 0.8519469610877304,
            "40": 0.8554915685335316,
            "41": 0.10990720830636802,
            "42": 0.618950997889181,
            "43": 0.14307976661053645,
            "44": 0.8254211551083248,
            "45": 0.2610029954028882
          },
          "weightChange": {
            "21": 0.0,
            "22": 0.0,
            "23": 0.0,
            "24": 0.0,
            "25": 0.0,
            "26": 0.0,
            "27": 0.0,
            "28": 0.0,
            "29": 0.0,
            "30": 0.0,
            "31": 0.0,
            "32": 0.0,
            "33": 0.0,
            "34": 0.0,
            "35": 0.0,
            "36": 0.0,
            "37": 0.0,
            "38": 0.0,
            "39": 0.0,
            "40": 0.0,
            "41": 0.0,
            "42": 0.0,
            "43": 0.0,
            "44": 0.0,
            "45": 0.0
          },
          "personalWeight": 0.9436890124104279,
          "id": 59
        },
        {
          "learningRate": 0.3,
          "ID": 60,
          "value": 1.0,
          "layer": 2,
          "target": 0.9943170799268611,
          "weights": {
            "21": 0.15227879352620954,
            "22": 0.23594782496184852,
            "23": 0.061910601981718494,
            "24": 0.526325167870384,
            "25": 0.0059281272592273115,
            "26": 0.43441947653299995,
            "27": 0.4208816167346847,
            "28": 0.7107157713784824,
            "29": 0.9922004739265268,
            "30": 0.8814400080229285,
            "31": 0.06362141065151983,
            "32": 0.24038990511117708,
            "33": 0.71638809931441,
            "34": 0.12447129121496658,
            "35": 0.016690252816420892,
            "36": 0.3918583984850442,
            "37": 0.8500725348603984,
            "38": 0.5182829742750374,
            "39": 0.16282284106331846,
            "40": 0.13668980711675438,
            "41": 0.3683105394063283,
            "42": 0.5131021914780839,
            "43": 0.8471791034937,
            "44": 0.987373114219737,
            "45": 0.46111449851775344
          },
          "weightChange": {
            "21": 0.0,
            "22": 0.0,
            "23": 0.0,
            "24": 0.0,
            "25": 0.0,
            "26": 0.0,
            "27": 0.0,
            "28": 0.0,
            "29": 0.0,
            "30": 0.0,
            "31": 0.0,
            "32": 0.0,
            "33": 0.0,
            "34": 0.0,
            "35": 0.0,
            "36": 0.0,
            "37": 0.0,
            "38": 0.0,
            "39": 0.0,
            "40": 0.0,
            "41": 0.0,
            "42": 0.0,
            "43": 0.0,
            "44": 0.0,
            "45": 0.0
          },
          "personalWeight": 0.874039046327594,
          "id": 60
        },
        {
          "learningRate": 0.3,
          "ID": 61,
          "value": 0.0,
          "layer": 2,
          "target": 1.2898873096269182E-7,
          "weights": {
            "21": 0.23867680247980586,
            "22": 0.9684435678242521,
            "23": 0.4169352356476615,
            "24": 0.837447159037274,
            "25": 0.830337765126864,
            "26": -1.7567050619328002,
            "27": -1.928311924033439,
            "28": 0.3575987281415366,
            "29": 0.7074948614056474,
            "30": 0.352486485667712,
            "31": -0.927810425215045,
            "32": 0.4127099827914713,
            "33": -1.3896418175943255,
            "34": -0.029069401772700034,
            "35": 0.032497813182479546,
            "36": 0.885655555083959,
            "37": -1.5747096524590296,
            "38": -1.9351165685711533,
            "39": -1.6111529666547797,
            "40": -1.9688591103039295,
            "41": 0.9122190706815886,
            "42": 0.8117362226566993,
            "43": 0.6570617045933625,
            "44": -1.2602312332512167,
            "45": 0.05041037367739927
          },
          "weightChange": {
            "21": 0.0,
            "22": 0.0,
            "23": 0.0,
            "24": 0.0,
            "25": 0.0,
            "26": 0.0,
            "27": 0.0,
            "28": 0.0,
            "29": 0.0,
            "30": 0.0,
            "31": 0.0,
            "32": 0.0,
            "33": 0.0,
            "34": 0.0,
            "35": 0.0,
            "36": 0.0,
            "37": 0.0,
            "38": 0.0,
            "39": 0.0,
            "40": 0.0,
            "41": 0.0,
            "42": 0.0,
            "43": 0.0,
            "44": 0.0,
            "45": 0.0
          },
          "personalWeight": -1.5110019731584075,
          "id": 61
        }
      ],
      "amountOfLayers": 3
    },
    "name": "Red Samurai",
    "hitPoints": 100,
    "weapon": {
      "name": "SWORD",
      "length": 2,
      "options": [
        {
          "type": "OVERHEAD",
          "damageType": "SLASH",
          "unavailableOn": [
            "TURNED",
            "CROUCHED",
            "KNOCKED",
            "WEAPON_LOW",
            "WEAPON_SIDE",
            "WEAPON_EXTENDED",
            "STAGGERED"
          ],
          "positionDuringMove": [
            "STANDARD"
          ],
          "weaponMovement": [
            "STANDARD",
            "HIGH"
          ],
          "removedStates": [
            "WEAPON_HIGH",
            "ABOVE"
          ],
          "addedStates": [
            "WEAPON_LOW"
          ]
        },
        {
          "type": "SLASH",
          "damageType": "SLASH",
          "unavailableOn": [
            "TURNED",
            "KNOCKED",
            "WEAPON_LOW",
            "WEAPON_HIGH",
            "ABOVE",
            "STAGGERED"
          ],
          "positionDuringMove": [
            "STANDARD"
          ],
          "weaponMovement": [
            "STANDARD",
            "SIDE"
          ],
          "removedStates": [],
          "addedStates": [
            "WEAPON_SIDE"
          ]
        },
        {
          "type": "KICK",
          "damageType": "BLUNT",
          "unavailableOn": [
            "KNOCKED",
            "WEAPON_LOW",
            "WEAPON_EXTENDED",
            "STAGGERED"
          ],
          "positionDuringMove": [
            "STANDARD"
          ],
          "weaponMovement": [
            "STANDARD"
          ],
          "removedStates": [
            "ABOVE",
            "TURNED"
          ],
          "addedStates": []
        },
        {
          "type": "THRUST",
          "damageType": "PIERCE",
          "unavailableOn": [
            "KNOCKED",
            "TURNED",
            "WEAPON_EXTENDED",
            "STAGGERED"
          ],
          "positionDuringMove": [
            "STANDARD"
          ],
          "weaponMovement": [
            "STANDARD",
            "BACK"
          ],
          "removedStates": [],
          "addedStates": [
            "WEAPON_EXTENDED"
          ]
        },
        {
          "type": "UNDERSTRIKE",
          "damageType": "SLASH",
          "unavailableOn": [
            "KNOCKED",
            "ABOVE",
            "TURNED",
            "WEAPON_EXTENDED",
            "WEAPON_HIGH",
            "WEAPON_SIDE",
            "STAGGERED"
          ],
          "positionDuringMove": [
            "STANDARD"
          ],
          "weaponMovement": [
            "STANDARD",
            "LOW"
          ],
          "removedStates": [
            "WEAPON_LOW",
            "CROUCHED"
          ],
          "addedStates": [
            "WEAPON_HIGH"
          ]
        },
        {
          "type": "JUMP",
          "damageType": "NONE",
          "unavailableOn": [
            "KNOCKED",
            "ABOVE"
          ],
          "positionDuringMove": [
            "HIGH"
          ],
          "weaponMovement": [],
          "removedStates": [
            "TURNED",
            "CROUCHED",
            "WEAPON_HIGH",
            "WEAPON_LOW",
            "WEAPON_SIDE",
            "WEAPON_EXTENDED",
            "STAGGERED"
          ],
          "addedStates": [
            "ABOVE"
          ]
        },
        {
          "type": "DODGE",
          "damageType": "NONE",
          "unavailableOn": [
            "ABOVE"
          ],
          "positionDuringMove": [
            "SIDE"
          ],
          "weaponMovement": [],
          "removedStates": [
            "TURNED",
            "WEAPON_HIGH",
            "WEAPON_LOW",
            "WEAPON_SIDE",
            "WEAPON_EXTENDED",
            "STAGGERED"
          ],
          "addedStates": []
        },
        {
          "type": "DUCK",
          "damageType": "NONE",
          "unavailableOn": [
            "KNOCKED",
            "ABOVE",
            "CROUCHED"
          ],
          "positionDuringMove": [
            "LOW"
          ],
          "weaponMovement": [],
          "removedStates": [
            "TURNED",
            "WEAPON_HIGH",
            "WEAPON_LOW",
            "WEAPON_SIDE",
            "WEAPON_EXTENDED",
            "STAGGERED"
          ],
          "addedStates": [
            "CROUCHED"
          ]
        },
        {
          "type": "CLOSE_IN",
          "damageType": "NONE",
          "unavailableOn": [
            "KNOCKED",
            "ABOVE"
          ],
          "positionDuringMove": [
            "STANDARD"
          ],
          "weaponMovement": [
            "LOW",
            "HIGH",
            "SIDE",
            "BACK"
          ],
          "removedStates": [
            "TURNED",
            "WEAPON_HIGH",
            "WEAPON_LOW",
            "WEAPON_SIDE",
            "WEAPON_EXTENDED",
            "STAGGERED"
          ],
          "addedStates": []
        },
        {
          "type": "BACK_AWAY",
          "damageType": "NONE",
          "unavailableOn": [
            "KNOCKED",
            "ABOVE"
          ],
          "positionDuringMove": [
            "BACK"
          ],
          "weaponMovement": [],
          "removedStates": [
            "TURNED",
            "WEAPON_HIGH",
            "WEAPON_LOW",
            "WEAPON_SIDE",
            "WEAPON_EXTENDED",
            "STAGGERED"
          ],
          "addedStates": []
        },
        {
          "type": "GET_UP",
          "damageType": "NONE",
          "unavailableOn": [
            "ABOVE"
          ],
          "positionDuringMove": [
            "STANDARD"
          ],
          "weaponMovement": [],
          "removedStates": [
            "TURNED",
            "KNOCKED",
            "WEAPON_HIGH",
            "WEAPON_LOW",
            "WEAPON_SIDE",
            "WEAPON_EXTENDED",
            "STAGGERED"
          ],
          "addedStates": []
        },
        {
          "type": "WAIT",
          "damageType": "NONE",
          "unavailableOn": [
            "STAGGERED"
          ],
          "positionDuringMove": [
            "STANDARD"
          ],
          "weaponMovement": [],
          "removedStates": [
            "ABOVE",
            "TURNED",
            "CROUCHED",
            "KNOCKED",
            "WEAPON_SIDE",
            "WEAPON_EXTENDED",
            "WEAPON_HIGH",
            "WEAPON_LOW",
            "STAGGERED",
            "STAGGERED"
          ],
          "addedStates": []
        }
      ],
      "efficiencies": {
        "BLUNT": 0.5,
        "SLASH": 0.5,
        "PIERCE": 0.5
      }
    },
    "statesList": [],
    "wantedMove": {
      "type": "KICK",
      "damageType": "BLUNT",
      "unavailableOn": [
        "KNOCKED",
        "WEAPON_LOW",
        "WEAPON_EXTENDED",
        "STAGGERED"
      ],
      "positionDuringMove": [
        "STANDARD"
      ],
      "weaponMovement": [
        "STANDARD"
      ],
      "removedStates": [
        "ABOVE",
        "TURNED"
      ],
      "addedStates": []
    },
    "move": {
      "type": "KICK",
      "damageType": "BLUNT",
      "unavailableOn": [
        "KNOCKED",
        "WEAPON_LOW",
        "WEAPON_EXTENDED",
        "STAGGERED"
      ],
      "positionDuringMove": [
        "STANDARD"
      ],
      "weaponMovement": [
        "STANDARD"
      ],
      "removedStates": [
        "ABOVE",
        "TURNED"
      ],
      "addedStates": []
    },
    "victoriesCount": 0,
    "lossesCount": 0
  },
  {
    "outputStart": 46,
    "combatantMind": {
      "lastNodeId": 62,
      "nodes": [
        {
          "learningRate": 0.3,
          "ID": 0,
          "value": 0.0,
          "layer": 0,
          "target": 0.0,
          "weights": {},
          "weightChange": {},
          "personalWeight": 0.4742815703548128,
          "id": 0
        },
        {
          "learningRate": 0.3,
          "ID": 1,
          "value": 0.0,
          "layer": 0,
          "target": 0.0,
          "weights": {},
          "weightChange": {},
          "personalWeight": 0.1965456094765018,
          "id": 1
        },
        {
          "learningRate": 0.3,
          "ID": 2,
          "value": 0.0,
          "layer": 0,
          "target": 0.0,
          "weights": {},
          "weightChange": {},
          "personalWeight": 0.8728964027799204,
          "id": 2
        },
        {
          "learningRate": 0.3,
          "ID": 3,
          "value": 0.0,
          "layer": 0,
          "target": 0.0,
          "weights": {},
          "weightChange": {},
          "personalWeight": 0.412728149665995,
          "id": 3
        },
        {
          "learningRate": 0.3,
          "ID": 4,
          "value": 0.0,
          "layer": 0,
          "target": 0.0,
          "weights": {},
          "weightChange": {},
          "personalWeight": 0.719735255074708,
          "id": 4
        },
        {
          "learningRate": 0.3,
          "ID": 5,
          "value": 0.0,
          "layer": 0,
          "target": 0.0,
          "weights": {},
          "weightChange": {},
          "personalWeight": 0.3361772472578698,
          "id": 5
        },
        {
          "learningRate": 0.3,
          "ID": 6,
          "value": 0.0,
          "layer": 0,
          "target": 0.0,
          "weights": {},
          "weightChange": {},
          "personalWeight": 0.8098774138225319,
          "id": 6
        },
        {
          "learningRate": 0.3,
          "ID": 7,
          "value": 0.0,
          "layer": 0,
          "target": 0.0,
          "weights": {},
          "weightChange": {},
          "personalWeight": 0.7696842228100067,
          "id": 7
        },
        {
          "learningRate": 0.3,
          "ID": 8,
          "value": 0.0,
          "layer": 0,
          "target": 0.0,
          "weights": {},
          "weightChange": {},
          "personalWeight": 0.09466523542243332,
          "id": 8
        },
        {
          "learningRate": 0.3,
          "ID": 9,
          "value": 0.0,
          "layer": 0,
          "target": 0.0,
          "weights": {},
          "weightChange": {},
          "personalWeight": 357735.7660072571,
          "id": 9
        },
        {
          "learningRate": 0.3,
          "ID": 10,
          "value": 0.0,
          "layer": 0,
          "target": 0.0,
          "weights": {},
          "weightChange": {},
          "personalWeight": 0.49942254999586455,
          "id": 10
        },
        {
          "learningRate": 0.3,
          "ID": 11,
          "value": 0.0,
          "layer": 0,
          "target": 0.0,
          "weights": {},
          "weightChange": {},
          "personalWeight": 0.33649888927212457,
          "id": 11
        },
        {
          "learningRate": 0.3,
          "ID": 12,
          "value": 0.0,
          "layer": 0,
          "target": 0.0,
          "weights": {},
          "weightChange": {},
          "personalWeight": 0.3078699124707269,
          "id": 12
        },
        {
          "learningRate": 0.3,
          "ID": 13,
          "value": 0.0,
          "layer": 0,
          "target": 0.0,
          "weights": {},
          "weightChange": {},
          "personalWeight": 0.6175891289204932,
          "id": 13
        },
        {
          "learningRate": 0.3,
          "ID": 14,
          "value": 0.0,
          "layer": 0,
          "target": 0.0,
          "weights": {},
          "weightChange": {},
          "personalWeight": 0.39964482556212155,
          "id": 14
        },
        {
          "learningRate": 0.3,
          "ID": 15,
          "value": 0.0,
          "layer": 0,
          "target": 0.0,
          "weights": {},
          "weightChange": {},
          "personalWeight": 0.7936687678971528,
          "id": 15
        },
        {
          "learningRate": 0.3,
          "ID": 16,
          "value": 0.0,
          "layer": 0,
          "target": 0.0,
          "weights": {},
          "weightChange": {},
          "personalWeight": 0.7220602036541076,
          "id": 16
        },
        {
          "learningRate": 0.3,
          "ID": 17,
          "value": 0.0,
          "layer": 0,
          "target": 0.0,
          "weights": {},
          "weightChange": {},
          "personalWeight": 0.4354090620058648,
          "id": 17
        },
        {
          "learningRate": 0.3,
          "ID": 18,
          "value": 0.0,
          "layer": 0,
          "target": 0.0,
          "weights": {},
          "weightChange": {},
          "personalWeight": 0.25321230951942697,
          "id": 18
        },
        {
          "learningRate": 0.3,
          "ID": 19,
          "value": 1.0,
          "layer": 0,
          "target": 0.0,
          "weights": {},
          "weightChange": {},
          "personalWeight": 3.1720320940475892E7,
          "id": 19
        },
        {
          "learningRate": 0.3,
          "ID": 20,
          "value": 1.0,
          "layer": 0,
          "target": 0.0,
          "weights": {},
          "weightChange": {},
          "personalWeight": 3.172032035720783E7,
          "id": 20
        },
        {
          "learningRate": 0.3,
          "ID": 21,
          "value": 1.0,
          "layer": 1,
          "target": 26.173205576007778,
          "weights": {
            "0": 0.39755186509150614,
            "1": 0.9790609176583558,
            "2": 0.5914938727858187,
            "3": 0.7987054197838369,
            "4": 0.3943486086992263,
            "5": 0.9941539413010306,
            "6": 0.8494083821878821,
            "7": 0.8504711793686018,
            "8": 0.3620885512542059,
            "9": 0.6239717965798011,
            "10": 0.6380564715683543,
            "11": 0.4319350676361985,
            "12": 0.785158294906983,
            "13": 0.011796258655160763,
            "14": 1.0255375340216735,
            "15": 0.03582812037171994,
            "16": 0.9910708856162322,
            "17": 0.2914349984835455,
            "18": 0.8137101878995702,
            "19": 4.522174698002825,
            "20": 4.6085840591848335
          },
          "weightChange": {
            "0": -0.0,
            "1": -0.0,
            "2": -0.0,
            "3": -0.0,
            "4": -0.0,
            "5": -0.0,
            "6": -0.0,
            "7": -0.0,
            "8": -0.0,
            "9": -0.0,
            "10": -0.0,
            "11": -0.0,
            "12": -0.0,
            "13": -0.0,
            "14": -0.0,
            "15": -0.0,
            "16": -0.0,
            "17": -0.0,
            "18": -0.0,
            "19": -4.8963576902227584E-8,
            "20": -4.8963576902227584E-8
          },
          "personalWeight": 2.4895994040991147,
          "id": 21
        },
        {
          "learningRate": 0.3,
          "ID": 22,
          "value": 0.0,
          "layer": 1,
          "target": -4.607771269823072,
          "weights": {
            "0": 0.7706870092499755,
            "1": 0.5696056812579142,
            "2": 0.12692836183148856,
            "3": 0.7324687457830806,
            "4": 0.5925811403927294,
            "5": 0.03383982691836819,
            "6": 0.579852425740469,
            "7": 0.8622442621106512,
            "8": 0.6884704229549168,
            "9": 0.5747803306699658,
            "10": 0.26341892824219826,
            "11": 0.03940019198625356,
            "12": -0.15020274996282285,
            "13": 0.7646610637635244,
            "14": 0.7123278471149348,
            "15": 0.35040493897125885,
            "16": -0.014202291306834076,
            "17": 0.0895118934576317,
            "18": 0.8829860911969224,
            "19": -4.2891928595746105,
            "20": -4.393593934054622
          },
          "weightChange": {
            "0": 0.0,
            "1": 0.0,
            "2": 0.0,
            "3": 0.0,
            "4": 0.0,
            "5": 0.0,
            "6": 0.0,
            "7": 0.0,
            "8": 0.0,
            "9": 0.0,
            "10": 0.0,
            "11": 0.0,
            "12": 0.0,
            "13": 0.0,
            "14": 0.0,
            "15": 0.0,
            "16": 0.0,
            "17": 0.0,
            "18": 0.0,
            "19": 3.9755115000507434E-8,
            "20": 3.9755115000507434E-8
          },
          "personalWeight": -1.8958455706985924,
          "id": 22
        },
        {
          "learningRate": 0.3,
          "ID": 23,
          "value": 0.0,
          "layer": 1,
          "target": -9.71732059758766,
          "weights": {
            "0": 0.16143535220994312,
            "1": 0.03006391519662413,
            "2": -0.0806706586937397,
            "3": 0.8591372549994254,
            "4": 0.11592883660116694,
            "5": 0.7378343137416932,
            "6": 0.8011916653258384,
            "7": 0.7444585314042532,
            "8": 0.1526906427829803,
            "9": 0.5492491964846592,
            "10": 0.5132511656041069,
            "11": 0.8982789415220994,
            "12": -0.04652970472295898,
            "13": 0.04246951454678627,
            "14": 0.7181735779423511,
            "15": 0.45305432461171014,
            "16": 0.6983407863848632,
            "17": 0.7021933857379968,
            "18": 0.25113911305178654,
            "19": -4.327616063293681,
            "20": -4.547260800787323
          },
          "weightChange": {
            "0": 0.0,
            "1": 0.0,
            "2": 0.0,
            "3": 0.0,
            "4": 0.0,
            "5": 0.0,
            "6": 0.0,
            "7": 0.0,
            "8": 0.0,
            "9": 0.0,
            "10": 0.0,
            "11": 0.0,
            "12": 0.0,
            "13": 0.0,
            "14": 0.0,
            "15": 0.0,
            "16": 0.0,
            "17": 0.0,
            "18": 0.0,
            "19": 4.0885445040236584E-8,
            "20": 4.0885445040236584E-8
          },
          "personalWeight": -2.229795460781746,
          "id": 23
        },
        {
          "learningRate": 0.3,
          "ID": 24,
          "value": 1.0,
          "layer": 1,
          "target": 24.079752863837843,
          "weights": {
            "0": 0.613776780728386,
            "1": 0.35533132459886657,
            "2": 0.8740158853749764,
            "3": 0.22488626973442216,
            "4": 0.15073439032189592,
            "5": 0.6904145957401832,
            "6": 0.8009217595470637,
            "7": 0.4745052869807823,
            "8": 0.901427583175731,
            "9": 0.8155483517663071,
            "10": 0.5126270404120153,
            "11": 0.7072996556539383,
            "12": 1.034735692348385,
            "13": 0.8106453085401023,
            "14": 1.1055418494204294,
            "15": 0.33980406245383027,
            "16": 0.35161487330675767,
            "17": 0.5973516181925079,
            "18": 0.30651430653209455,
            "19": 4.531135486762505,
            "20": 4.668766297980045
          },
          "weightChange": {
            "0": -0.0,
            "1": -0.0,
            "2": -0.0,
            "3": -0.0,
            "4": -0.0,
            "5": -0.0,
            "6": -0.0,
            "7": -0.0,
            "8": -0.0,
            "9": -0.0,
            "10": -0.0,
            "11": -0.0,
            "12": -0.0,
            "13": -0.0,
            "14": -0.0,
            "15": -0.0,
            "16": -0.0,
            "17": -0.0,
            "18": -0.0,
            "19": -4.880061322327502E-8,
            "20": -4.880061322327502E-8
          },
          "personalWeight": 2.2678227718150064,
          "id": 24
        },
        {
          "learningRate": 0.3,
          "ID": 25,
          "value": 1.0,
          "layer": 1,
          "target": 21.539577243997726,
          "weights": {
            "0": 0.8547867901864215,
            "1": 0.09571787289273628,
            "2": 1.0938251410966566,
            "3": 0.778685513646962,
            "4": 0.640424074352436,
            "5": 0.7510478616957444,
            "6": 0.3470679959395402,
            "7": 0.5656477824029734,
            "8": 0.5444537102252409,
            "9": 0.598569962033353,
            "10": 0.6341176995656223,
            "11": 0.10297701474921792,
            "12": 0.843281834614134,
            "13": 0.4948046583060228,
            "14": 1.0815053863527506,
            "15": 0.26622739574101095,
            "16": 0.5396126650792079,
            "17": 0.7648153648146584,
            "18": 0.8108427169070157,
            "19": 4.554095012137952,
            "20": 4.584426817409907
          },
          "weightChange": {
            "0": -0.0,
            "1": -0.0,
            "2": -0.0,
            "3": -0.0,
            "4": -0.0,
            "5": -0.0,
            "6": -0.0,
            "7": -0.0,
            "8": -0.0,
            "9": -0.0,
            "10": -0.0,
            "11": -0.0,
            "12": -0.0,
            "13": -0.0,
            "14": -0.0,
            "15": -0.0,
            "16": -0.0,
            "17": -0.0,
            "18": -0.0,
            "19": -5.053521767113119E-8,
            "20": -5.053521767113119E-8
          },
          "personalWeight": 2.239052992936878,
          "id": 25
        },
        {
          "learningRate": 0.3,
          "ID": 26,
          "value": 0.0,
          "layer": 1,
          "target": -4.709625946966739,
          "weights": {
            "0": 0.3561223260182915,
            "1": 0.5167675322846825,
            "2": 0.37261645378662744,
            "3": 0.23052820835314403,
            "4": 0.03790205886940068,
            "5": 0.7235837541130118,
            "6": 0.8587470527315268,
            "7": 0.7108683733558668,
            "8": 0.38886146193333543,
            "9": 0.5875779567346088,
            "10": 0.8315438550421304,
            "11": 0.7243400688442014,
            "12": 0.3025512094727375,
            "13": 0.2960750199361585,
            "14": 0.13912444456466408,
            "15": 0.2942866799729931,
            "16": 0.6698309582863083,
            "17": 0.26959186196335766,
            "18": 0.9946927616273036,
            "19": -4.357580654211502,
            "20": -4.233869137990696
          },
          "weightChange": {
            "0": 0.0,
            "1": 0.0,
            "2": 0.0,
            "3": 0.0,
            "4": 0.0,
            "5": 0.0,
            "6": 0.0,
            "7": 0.0,
            "8": 0.0,
            "9": 0.0,
            "10": 0.0,
            "11": 0.0,
            "12": 0.0,
            "13": 0.0,
            "14": 0.0,
            "15": 0.0,
            "16": 0.0,
            "17": 0.0,
            "18": 0.0,
            "19": 4.763225297108422E-8,
            "20": 4.763225297108422E-8
          },
          "personalWeight": -1.919612247073943,
          "id": 26
        },
        {
          "learningRate": 0.3,
          "ID": 27,
          "value": 0.0,
          "layer": 1,
          "target": -4.949576433383691,
          "weights": {
            "0": -0.0032468827171703942,
            "1": 0.9117454460355929,
            "2": 0.6651446351557622,
            "3": 0.44572182626595624,
            "4": -0.10359021088377093,
            "5": 0.7047719682003877,
            "6": 0.5099246159675483,
            "7": 0.6932839437383931,
            "8": 0.39546724479488254,
            "9": 0.5609736106431354,
            "10": 0.34805820474082366,
            "11": 0.24138526037915362,
            "12": 0.3628289134522602,
            "13": 0.29013541282811284,
            "14": 0.0059668163250441155,
            "15": 0.2592491468888021,
            "16": 0.5480696216620015,
            "17": 0.2653165873923128,
            "18": 0.8136336304971225,
            "19": -3.9952239880164937,
            "20": -4.527915080396422
          },
          "weightChange": {
            "0": 0.0,
            "1": 0.0,
            "2": 0.0,
            "3": 0.0,
            "4": 0.0,
